-1.993093268345235911e-02,2.432829469725156790e-01,3.001088674417031754e-01,-4.911687276469703378e-01,4.215131940224852158e-01,-1.560668937884267526e-01,3.253571898387264127e-03,4.791496990925540045e-01,-3.957501379460343083e-01,4.481023622912571058e-01
-4.062065390270189758e-01,-2.789374006645766180e-01,-4.706057934586717062e-01,-2.934016748927620322e-01,-1.254486382274849487e-01,1.161030169283439051e-02,-3.036906422289203933e-01,-4.647043925203616088e-01,-1.102043928634545145e-01,2.355231654671059993e-01
-2.728703181820176793e-01,4.370835083386799269e-01,-4.321453306421019214e-02,8.666774457475723281e-02,-3.191920546511280987e-01,-2.078879514140736795e-01,1.661997196904099194e-01,-3.909561690862958239e-01,3.885460927488180727e-01,3.450872601190316247e-01
2.598525576576804497e-01,4.215103165183248790e-01,-3.395705732898454121e-01,-4.241961965545403834e-01,3.013800704367767258e-01,2.402085105484831895e-01,1.317953233357465059e-01,-3.583016468328248938e-01,2.817941577403992870e-01,2.268257847983629616e-01
5.169096233637660021e-02,3.694067795077976557e-01,-4.971647621826971175e-01,-4.660918415488420896e-01,1.736564572459399214e-01,-1.647582087265138107e-01,4.487601990462288803e-01,1.556923636379108355e-01,2.905914108692062570e-01,3.253335650276797386e-01
-4.333861601786093143e-02,-4.137853469274569429e-01,-1.532006732291353313e-01,-3.342499564257384592e-01,-2.862311952895270073e-01,-6.841470363276724864e-02,1.159323243147284410e-01,-3.765555822257184160e-02,2.320832763360558271e-01,-1.480796042869295670e-01
2.673008199953487152e-01,1.661003769617879211e-01,-2.550192430981966796e-01,3.626944710549416251e-01,2.226433753737987881e-02,4.627253479224779920e-02,1.488380032130685870e-01,-2.923180452054087164e-01,-3.255760619466752659e-01,-4.809189453445794626e-01
4.372643236691542423e-01,5.073736365709446972e-02,4.754526500857967353e-01,1.577565192079932732e-01,1.840206289122647831e-02,-2.447317858867796847e-01,-1.320595744740594712e-01,-3.250424891381332310e-02,7.473301384763453292e-02,-3.430350344295131082e-01
-4.691972325040940084e-01,3.771621775106200891e-01,2.995288753853744268e-01,-4.952469730776123402e-01,2.882405801490954822e-01,3.423782967486329043e-01,4.534428622737016190e-01,-3.028662814864416242e-01,3.827699278181884157e-01,3.847819501797620778e-01
-4.084827425290049607e-01,4.035888975252084898e-01,2.356093313376650400e-01,5.126909884238373127e-02,-4.061511309414885806e-01,2.228366530317746896e-01,-3.695653287468797510e-01,4.283918514069662287e-02,-1.366168340445579332e-01,-1.255714657047281024e-01
-4.073103305398271812e-01,-8.799315927900652756e-02,4.224330351434703035e-01,-4.434751235480451914e-01,6.652660457483594580e-02,-9.047950162422602194e-02,9.109645021198994885e-02,-3.926418963327427125e-02,-2.323844763175354489e-01,3.202607294294609330e-01
1.182499681745989850e-01,-3.639933789366103234e-01,-5.837141481916920116e-02,-1.614666071165236083e-01,3.758281091016628106e-01,2.855381199100264222e-01,4.122435009031177877e-02,-1.464947121692764531e-01,-8.376937181876520366e-02,-2.491891318629596008e-01
-5.328033034718011873e-02,8.296253874007854245e-02,-3.077931149329256599e-01,2.848737179723472290e-01,1.382087337459009246e-01,-4.588553985371615074e-01,4.874242929389339674e-01,-3.463598474712237807e-01,-2.356042470745050021e-01,-9.566102138012984313e-02
2.361815296426915123e-01,-4.071779361045917423e-01,4.937159934605395151e-01,1.215591841773285831e-01,1.190520827219285205e-01,4.983446793058843860e-01,-4.049879616381062974e-01,1.111084017654603850e-01,-3.066065622845653982e-01,1.722956335861152155e-01
9.146205047062475058e-02,2.297388709579055999e-01,2.766111851361299084e-03,4.375470760797028347e-01,-3.711048555712361807e-01,-2.310163722593349400e-01,-4.042082506465479730e-01,-2.240114412605030414e-01,1.943069283757272725e-01,-3.399612003613098343e-01
4.514199403509773223e-01,-1.388784649507380231e-01,-1.784654119487536494e-01,3.351795181328492412e-01,3.273416680026672299e-01,4.527581900753652744e-01,-1.587776625170367675e-02,1.797463196491052295e-01,-2.512922870512226403e-01,-4.600889244327017180e-01
4.715797124901310866e-02,-4.732990927528561431e-01,1.623951552319178315e-01,5.954455102111577691e-02,4.774223263328535860e-01,2.878965779738387187e-01,-1.765940355778129467e-01,-7.428791963760927874e-02,-9.225014474052184443e-02,-2.623975707179866390e-01
-2.647244589672536619e-01,4.977701333497639991e-01,-1.458385030748953204e-01,-2.090014205634999900e-01,3.449531076701040089e-01,1.454261734242445481e-01,4.090726603143275408e-01,-2.224329984821028089e-02,-1.982787636847271884e-02,-3.633556014015120739e-01
2.717603178927242569e-01,2.171471713683975902e-01,-2.494845721080162504e-01,-3.059304381429517328e-01,4.152360379984487704e-02,-3.380579854722265409e-01,4.411848840088937740e-01,-3.231237572513071532e-01,-4.251977675997198336e-02,-3.878319936416289027e-01
-1.290798841562769139e-01,-1.578956742172682448e-01,4.128348557648732209e-01,1.717084648317189488e-01,1.179899637890873265e-01,2.307393979785365631e-02,-1.511555168735680688e-01,4.123865621820969607e-01,-1.920909864245433640e-01,-2.364195835322246420e-01
2.561637361988090555e-01,-7.154213912476503623e-03,4.441288477781846211e-01,-2.664285804458645379e-01,-9.877035436524515821e-02,-3.626209390877164762e-01,2.094858444512315288e-01,-2.926344879474629401e-03,-1.101820102990190842e-01,4.474108664732857621e-01
-1.558728849374646508e-01,2.888820778502872999e-01,1.670911431755971455e-01,3.368587598405324846e-01,-3.935582348299340727e-01,2.155875302025639928e-01,2.558914135249974464e-01,2.245373861607035115e-01,5.847304811242803879e-02,1.906505849065240898e-01
3.810336504706939298e-01,3.071565165405304998e-01,3.045579362696962944e-01,4.456431276794740604e-01,-1.702371974176217495e-01,-3.490359966587931462e-01,3.345360534140822129e-01,3.734899156108860141e-01,-2.782694401154895969e-01,-7.577145551284469871e-02
6.171801377588215232e-03,-1.166458399145786640e-02,-4.448692397558416667e-02,-3.491895639141033847e-01,3.616259339862640809e-01,-3.974717068889975224e-01,-4.047511859372351362e-01,3.360810059843289399e-01,5.505998155421809592e-02,-1.121012335697800788e-01
3.212604512197251294e-01,-3.478010932211902384e-01,-2.448926585086219909e-01,1.056376844290068812e-01,2.040476127296869668e-01,-2.490431179966410280e-01,3.203036426842430506e-01,-2.500569809031220059e-01,-8.113940262959107308e-02,-4.240212513289097762e-01
1.997309392846036702e-01,4.333567870665531729e-01,-9.379822789780144221e-02,-3.750419209662680942e-03,-3.460264485862746264e-01,4.803673849855791267e-01,-2.917370397614808541e-01,-3.772870539439017734e-01,-1.738782814740953420e-01,4.315809623169865050e-01
-1.188711461729824448e-01,-4.293657125178639844e-01,4.248352765708696133e-02,-9.827207102885715528e-02,3.143054108633569488e-02,-3.544971189875900652e-01,3.623049192280277664e-01,-4.654991464244904731e-01,-4.769211731834889778e-01,2.278145377707960773e-01
5.854200682028631864e-02,8.669137132303274262e-02,3.027568521075781338e-01,-7.959031892174438239e-02,2.392008929402342776e-01,1.465649579063735830e-01,-3.085728000645994173e-01,-8.130749065202202974e-02,2.526900767436486284e-01,-4.623057266234811835e-01
-1.134205816828506019e-01,-1.103263381551565642e-01,5.402872225698572561e-02,-3.929835308119844495e-02,-4.551193181415436051e-02,-3.233934270432036184e-01,3.352685569137426880e-01,4.329347510228119256e-01,4.612242282924657877e-01,-3.738132656845832846e-01
1.918811288940155957e-01,1.551088735584780220e-01,3.568918242973884714e-01,-4.856782984643440160e-01,3.792449190024199113e-01,-2.233548288039642893e-01,-1.689515227011600673e-01,-4.604599932173961685e-01,-4.520954703390664964e-01,3.782085410348001719e-01
-1.026890645154824450e-01,2.111100963527867969e-01,-3.801048121098064558e-01,-2.743971212056640629e-01,-1.659069331721116924e-01,4.639349442751288799e-01,3.057495710408864031e-02,-2.590014930104392876e-01,3.820402379845833085e-02,-2.027153000718604492e-01
4.957106856056761601e-01,6.743885644097025178e-02,3.554024077225270261e-03,-7.010384525969493019e-02,-1.993738026786220918e-01,-1.097642939500242769e-02,4.339300904488552213e-02,2.905762638613326176e-01,-2.304995320499670930e-01,1.828294944425765678e-01
-4.013061357016311503e-01,-3.511444312088668473e-01,-2.912355318346946387e-01,2.744178058443773049e-01,-1.778233834167261551e-02,1.377955358665989005e-01,-3.989156474202408820e-01,2.884959906573724142e-01,3.539270264837332536e-01,3.337255272218950797e-01
-4.162219987849848923e-01,4.140557253739423071e-01,3.940499022797329665e-01,-4.850722427563509687e-01,4.186247017057388442e-01,4.042260416495621067e-01,2.455770902334634964e-01,-1.392830717898752846e-01,-2.996904686220413505e-01,9.347406334144771345e-02
3.205926400896697559e-01,1.909310540643225917e-01,3.474035964111600872e-01,-1.612316386642034527e-01,-2.450033071248546024e-02,-2.775049957074511853e-01,-2.624070741196858902e-01,-4.207110394185055169e-01,-2.629975317479295027e-01,-3.620128747455992335e-01
-2.217119192743820522e-01,4.351796086472232983e-02,-1.279182231230123756e-01,4.655842331870101436e-01,1.453841339135936717e-01,-3.537635817641372471e-01,2.871537466035772868e-01,1.746551528182040958e-01,-4.340503160926396098e-01,3.250656530232945984e-01
1.604969420851976025e-01,-4.376170988781775129e-01,-3.256424110107587755e-02,2.377587465455662796e-01,-9.851919009755778778e-02,1.622178644699323602e-01,-1.900103504097833684e-01,-3.549829961203107009e-01,1.818161651683253277e-02,2.324510284420664985e-01
2.278805950430904115e-01,-2.390744387399413307e-01,-1.484209033555386643e-02,-7.415689690928362054e-02,2.082362004031779734e-01,-2.824745361558228529e-01,-2.448145388014947021e-01,-4.351902490757917352e-01,3.706425257759460856e-01,-3.790053120768513972e-01
4.870215252205781775e-01,-4.481257367794089785e-01,-4.157994823712088950e-01,-4.550767659974526702e-01,2.804724750070338168e-01,-3.650852664776971790e-01,-2.132230724336615091e-01,-3.710739701671920132e-01,-3.048920914948224925e-01,-4.475906013559584617e-01
2.446426749896226938e-01,3.803050319257346157e-01,2.866176368360587867e-01,3.505005660066709550e-01,7.599551666422552088e-02,7.463421342546269766e-02,2.573198063084301823e-02,-3.025665790099034691e-01,1.982429675988100770e-01,2.110526702535161225e-01
1.729564995248837958e-02,3.258331153186500018e-01,4.143180912846615715e-01,-4.941925590554079317e-01,3.343854490895249443e-01,5.162092042255520680e-02,-4.026502265887358933e-01,-2.697825671152225269e-01,-3.749734247547828470e-01,-3.812301554530425629e-01
1.713886056271699265e-01,-4.418524583615646706e-01,-3.467804744969582020e-01,-3.366456295205702554e-01,-4.058696094361941009e-01,4.642538493015883061e-01,4.614618446021803155e-01,4.765950621065929704e-01,1.754364468135849453e-01,9.360069395698429606e-02
-2.661191415323148624e-01,4.968269932176291870e-01,4.770362213853083233e-01,3.907241274238112960e-02,-4.299238049664969585e-01,-4.633306442520829238e-01,-3.395689974638890773e-01,-1.030888963323534913e-01,-1.897917926414215695e-01,1.605232053811898874e-01
3.570338245779762221e-01,1.665216459421920980e-01,2.025094761652112274e-01,1.565674462596879646e-01,2.014314044380807744e-01,-9.938526082405461926e-02,3.384113491975379029e-01,1.848711243415954511e-02,-3.969324082856899305e-01,-8.463274917532388752e-02
-4.184455549753402503e-01,-8.495465832897060310e-02,-2.441583139812030512e-01,-2.878690798004200357e-01,7.957954884039906973e-02,-2.175844264189548127e-01,2.318917467223496065e-01,2.638376379450542777e-02,-3.561734067214665789e-01,-4.245487545027299414e-01
-2.571789168292025751e-01,-4.560809357972842037e-01,-3.667582255937301694e-01,2.553702515779239790e-01,3.569715991650992265e-02,1.138208756797437797e-03,4.826385730819711117e-01,-7.366304138814051827e-02,4.481688184841266520e-01,-8.098701535660472739e-02
-9.145704578619234804e-02,-8.451216515500864501e-02,-3.920049171558356305e-01,6.603443216523005588e-02,2.696328060225975376e-01,-4.311143784005587176e-01,-4.812963866283225256e-01,2.721118902289225705e-01,-2.001880985370926569e-01,-5.374112178494558877e-03
-8.554812714591740475e-02,2.107074599147498381e-02,-2.517153102674186682e-01,2.464398022033900404e-01,-4.410484112728214057e-01,3.192375844393353646e-01,4.391139085127431785e-01,1.275537450168647557e-01,-2.471878276559974150e-02,-2.874104439655566501e-01
-4.410585458841504436e-01,3.366090120487752468e-01,-1.625082769183606168e-01,4.069273771130357820e-01,3.391483626532287160e-02,1.478505001816016740e-01,4.125704219299792253e-01,-3.191376579314180728e-01,2.455321864374792329e-01,2.643590140330855931e-01
-4.133831510864146574e-01,-1.627328608388518005e-01,4.049605916355287771e-01,-1.205157505151399494e-01,-4.170082440374253130e-01,-3.105488318747770538e-01,3.772338812741536929e-01,-1.055734263601733752e-01,1.633272391604504159e-01,3.502666373368195085e-01
-4.975918192382126071e-01,1.576518347434259504e-01,-7.499997349492341925e-02,-2.020251487892433528e-01,4.323506837695056393e-01,-2.330189941147690624e-01,-3.955040680173048662e-01,1.587362506141909782e-02,4.171467442941113601e-01,9.759126206782939295e-02
4.693810183791666812e-01,-5.296970091709419376e-02,1.662268182297685359e-01,2.013693928574089853e-01,4.225170586064347922e-01,-4.707716658032566892e-01,-3.481380276584435940e-01,7.933589373417357371e-02,1.688771136582074284e-01,4.366045135250058440e-01
2.765542494086214304e-02,-3.972661785194860906e-01,-3.021234736941602605e-03,-3.821521649905447737e-01,-4.461076690410181733e-02,-1.158079590949395582e-01,-4.918850706091199010e-01,2.643329386393714620e-01,-3.727754359878124868e-01,5.396417756624993789e-02
-3.885374060199427992e-01,-3.563897069975382470e-01,-2.355104222353562315e-01,7.229867686892033074e-02,3.181520163526921352e-01,2.187350731112344127e-01,3.558767669766069730e-01,-4.429068388081549013e-01,1.278296934968841114e-01,4.463322787101087208e-01
3.722985108034044810e-01,5.590290091954353002e-02,-3.511265208848504127e-01,-1.728835790226662672e-01,-1.819527362908621715e-01,-2.726221010470867290e-01,-2.914659067406499826e-01,5.162000015703271938e-02,2.368354526866155996e-01,-2.605481941762630704e-01
3.887312312425450500e-02,-3.889269133369950282e-01,-2.988741679479268044e-03,4.887678886101894937e-01,-9.555371622552631672e-02,2.352937233674597672e-01,1.532694205980054125e-01,2.002611692618643247e-01,-2.105216373316532719e-01,5.353713107508606406e-02
2.540886172595719916e-01,1.250809713126084244e-01,-3.887685283858455243e-01,-3.741527485460984792e-01,-2.819995548356469817e-01,-4.700671528556187306e-01,-4.351861554064162529e-01,6.044273613908268672e-02,-2.735563987207234593e-01,-4.873873907692288232e-01
1.503322930989247908e-01,4.106388493977136678e-01,-2.107732549060535865e-01,2.163776887893164858e-01,-4.680005985165348603e-01,-4.104579491968319838e-01,2.391527951080058001e-01,1.510126995664310412e-01,3.537525903969598318e-01,3.891615761071420265e-01
1.712009154341572192e-01,-4.182313995878763069e-01,2.857265441061047628e-01,-1.081704717175274583e-01,-1.527461941086325770e-01,3.487050464676709205e-01,1.420319608587588267e-01,-4.330979958128557961e-01,-4.581683354995071400e-01,-3.100177314771166426e-01
-4.960414667209386841e-01,3.925078287685418998e-01,4.192195070670497459e-01,-4.542283766343110374e-01,-2.989641425313287471e-01,2.235837901123751692e-01,3.879404438284750345e-01,4.314786295580355646e-01,-3.376877576842501893e-01,2.649929734960983496e-01
-1.082189265338064782e-01,3.623503898371952525e-01,4.041628669406915342e-01,3.919038903655296391e-01,-2.671081903934559576e-01,-2.273895819414021580e-01,2.329848449890793149e-01,-2.889594130264888094e-01,1.077515833290349639e-01,4.763849179182813032e-01
-2.945396599811783700e-01,-3.105172993996593300e-01,4.675629964599828936e-01,-3.708662977573908281e-01,3.351497195131847295e-01,4.228746051784991744e-01,4.464487019097211351e-01,-7.546632532403375893e-02,-3.018713481910111907e-01,-2.644006082241055489e-01
-3.467099678532812868e-01,-1.906482839975146559e-01,-1.032437217139683255e-01,-7.057366779260765277e-02,4.572569081818743664e-01,5.025100150915572800e-02,-3.890215896038462517e-01,4.513379499522939264e-01,-2.480504664213419863e-01,2.072049080203311744e-01
1.615284024349518122e-01,4.139770397693658399e-01,-4.987201405801205967e-01,1.012589552575116764e-01,1.656308491811759459e-02,-9.706518389186327700e-02,9.611897009070088926e-02,-3.911329481817741871e-01,-3.896032166193778568e-01,1.359654532305843745e-02
-3.280659116327307445e-01,3.209566703715474034e-01,1.822959466063249212e-01,-9.101042746258272351e-03,-4.628114249898089838e-01,-2.026104936286736991e-01,-1.350439584275797411e-01,1.425529776057020692e-01,3.847852503017173409e-01,-2.434842841626449692e-02
-5.046481842507428706e-01,4.893754998155396274e-01,9.973936666503453730e-02,-4.243316691715371958e-01,1.543644798511616401e-01,-1.375226324621687916e-02,2.830087768286319166e-02,-4.657709390303941821e-01,-9.949620949215547128e-02,4.619106547016581521e-01
-1.782526326004111455e-02,-3.846555372929768013e-01,-1.930828132639489381e-01,3.081406711608372095e-01,8.652020474981271525e-02,-1.980964146351553989e-01,-3.849053646808518470e-01,3.346221847061320309e-01,-2.909901283038086039e-01,-5.582237843654052484e-02
9.349204081570861025e-02,-3.032717879921421056e-01,1.930730773483503859e-01,-4.247551020022320989e-01,-2.730902755700319040e-01,4.637057167612236852e-01,-2.448568402118403986e-01,-1.394900752642697916e-01,1.833510839534863157e-01,-6.276451779519633123e-02
-1.653947919544496437e-01,2.585262617995132683e-01,2.252388915353190912e-01,-2.531517992728636330e-03,1.650157821229806809e-01,1.643744805097932804e-01,2.601417658635801211e-01,-3.475535162167122660e-01,-3.474387236576398919e-01,8.387556951700164687e-02
2.990034804621768405e-01,-4.406546458439514202e-01,3.924036852849195449e-03,3.111350517329420917e-01,3.941564154929083630e-01,1.814675563253195234e-01,-7.362517899690924905e-02,-1.825534647690836842e-01,2.842244978066491012e-01,-1.090302101685201169e-01
1.542698053982031747e-01,4.691977645963189558e-01,-1.654851474832245983e-01,4.203166336894746391e-01,2.780268601394055294e-01,5.042057069781357148e-01,5.057183877019130053e-02,2.191348570488711456e-01,-1.029324793301793356e-01,-4.710153360655198324e-02
3.926329959287265525e-02,2.260739644011913740e-01,-2.052369722109095157e-02,4.296103530490870404e-02,-4.402102466987565244e-01,-3.949066513599017725e-01,-2.579346620623562680e-01,-2.661083680535420437e-01,3.191690140466463821e-01,-2.275603062509114205e-01
-5.426765136921617438e-01,2.599355236357117072e-01,-4.574190955998668796e-03,-1.168839678475220301e-01,7.985270747388885371e-02,-3.970793051978251942e-01,2.774911353694551885e-01,3.844705271292893078e-01,-2.512774509951575808e-01,-1.269878071643897322e-01
-4.963547439111673509e-01,2.151901615263223377e-01,-3.484470403502767377e-01,-3.692817677524609654e-01,9.758760878394555360e-02,-3.165079031247737817e-01,-5.460501316457965632e-02,-3.225950285361417480e-01,1.175326681453160022e-01,-3.801035256928938511e-01
1.020809900737801867e-01,-2.446693151183884363e-01,-1.059308919966327756e-01,3.144676708891018801e-01,-1.144474018680255722e-01,3.612563705953599213e-01,-3.463436404219281117e-01,-3.442456163275899317e-01,-1.944377362795323416e-01,4.535188198138709881e-01
1.218438409298475827e-01,-1.145396118379203021e-01,4.938963549155789973e-02,4.632880392284616233e-01,2.833003372183665741e-02,-4.352669304586257448e-01,2.736433266565267419e-01,4.832683916923496276e-02,2.419068236682346551e-01,1.962858251689022365e-02
3.085473882881127339e-01,-8.850446677617479149e-03,3.489343664783906007e-01,5.849051924656295531e-02,-1.296877455556524339e-01,3.881860736056735872e-01,3.248417505405921946e-02,4.313847408772463199e-01,-4.296184953715019295e-01,1.695560865877342727e-01
-2.330153996195534205e-01,4.679617818406088814e-01,-3.842774750520862592e-01,-1.848915469202607742e-01,-1.425889874150677028e-01,3.538819060305659625e-01,-5.723591542472274835e-02,-1.408796711341157581e-01,5.438528001719224875e-02,-9.954846800781146088e-02
-4.477181729531569121e-01,-8.446171943191631282e-02,8.682630875136604365e-02,4.337578495606241730e-02,1.560084788489227436e-01,-5.393730513771526763e-02,2.964689396560682977e-01,1.061643398460180611e-02,-2.236921554133433077e-01,-6.106206704793751272e-02
4.565115248938643178e-01,-2.077718121373661464e-01,-3.618595923348517096e-01,1.300292060265622607e-01,2.419258070080525513e-01,8.204758052023229664e-02,4.898578009582377768e-01,-2.461138147603589010e-01,-4.834071550200375045e-01,-2.842633955125943301e-01
2.782375038090054709e-01,4.018461141635652489e-01,-2.293380962834293962e-02,-2.957560191798117577e-01,-1.039057047567472011e-02,4.409211250349207578e-01,-1.361900654466384752e-01,3.179030055039513969e-01,3.339984083619191857e-01,3.065053321486622684e-01
-1.798657914557888204e-01,-3.529326853130796415e-01,-3.159277724733002835e-01,-3.032688640193054730e-01,3.189970093231742632e-01,8.747310512066210075e-02,3.174721381598733655e-02,2.236004540371643867e-01,-3.622952028820296960e-02,-2.959423529278875642e-01
4.873853736010340110e-01,-1.012183418544458785e-01,-1.628454867583372101e-01,2.916341901339792875e-01,-3.391003741985654241e-02,1.456682121907525440e-01,3.455146112664394531e-01,-3.484057928333011978e-01,3.637497622303272893e-01,2.891818312683481773e-01
4.424237999765473495e-01,2.523168141712743839e-01,-3.511861182175352036e-01,-2.028259875094480802e-01,2.947605922537109846e-01,2.700312955335880671e-01,2.028416477261228701e-01,-3.549929021815823038e-02,1.035420116300833637e-01,1.807772094782790495e-01
-2.572344839117732263e-01,-2.265216154044484009e-01,1.493459688923872708e-01,2.264472418537948339e-01,1.637801621081410308e-01,1.417808955341757216e-01,-4.536070293661291775e-01,-1.970323677698135878e-01,4.011009945275918476e-01,3.225134086077560691e-01
9.967546042176743393e-02,-3.240620283388419010e-01,-3.267921162538230950e-01,-8.655944179737407040e-02,-1.605070793035157095e-02,2.449037419806907590e-01,4.467161273794263976e-01,1.885851130564588918e-01,-2.935840742555289040e-01,7.490837833739638629e-02
3.519077382339737270e-02,8.734237083403412205e-02,7.886245104213213120e-02,-1.430482410121877990e-01,2.212672355925091039e-01,-3.772733923638407760e-01,-4.195150410103564709e-01,2.614211776832059964e-01,-1.859069685515847836e-01,7.990279747082584816e-02
-3.323940556218807907e-01,6.138091750971010063e-02,-3.128865116020708159e-01,-1.222071117696831716e-01,1.374193424169163624e-01,-2.750021977150194363e-01,-4.002185719664832497e-01,4.786309188657464353e-02,1.258636264444061292e-01,2.987876262361221502e-01
-2.390610338472180796e-01,3.502216193005652789e-01,-4.722315901005414984e-01,-3.982033493956076975e-01,5.643861921641885743e-02,-3.872220247435694263e-01,2.116972503861831723e-01,1.473463648538462234e-01,1.264505365082992105e-01,-1.575990305823655735e-01
-3.337669328721154516e-01,-2.676146014335527012e-01,3.105313586044430602e-03,8.593314226897967589e-02,-1.924550712879563863e-01,4.089966368574088351e-01,2.232803994150269478e-01,-6.097325813925014854e-02,-1.282521900807450099e-01,1.169155023546879640e-01
-4.425294481257014412e-01,1.295551536674242610e-01,3.366231335893959398e-01,-4.193200059003123759e-01,4.604070475303456700e-01,-3.525092188927190784e-01,-4.989099395684528093e-01,-2.747076603952652851e-01,-9.239475707580332986e-02,-4.432418377281306388e-01
-4.178512516788770448e-01,3.278454167084713933e-01,-3.224584099714810081e-01,-1.920239212196967193e-01,-3.571038532573835855e-01,4.385975793136197565e-01,-3.479560393255075046e-01,-3.210258839233036121e-01,-2.484318082196737554e-01,-3.251323053355480441e-01
1.838652216914253013e-01,-2.134993002177159316e-01,-3.713138299453891747e-03,3.509143308965038677e-01,1.157413119273057456e-01,1.133334186480941669e-01,3.957306139362630759e-01,3.593612914845383810e-01,2.699615962144337189e-01,2.356742983861507545e-01
-2.459335858742952574e-01,-3.971652013616719379e-01,-1.586075790029627675e-01,1.409651744146169228e-01,-2.343743746805019845e-01,3.800504721787516527e-01,-2.310511209499903698e-02,-3.430855422245756015e-01,-5.998191282264719176e-02,-4.193261098325484770e-01
1.253949447869756317e-01,4.088122011948826517e-01,6.871310426466607085e-03,2.939612337912756446e-01,5.663300291613721643e-02,3.476780907431312739e-01,-8.907828668079570411e-02,4.890677110137174599e-02,-3.978303360888795215e-01,-4.707430111246822535e-01
-1.118375393071553009e-01,2.183528968499963141e-01,1.865365053518064642e-01,-1.686256797480658043e-01,1.097252970890876672e-01,5.366449276958776965e-02,-4.175133813866007682e-01,-2.252954222809008533e-01,2.484045304141284938e-01,-9.391930686150815055e-02
3.952180237175197813e-02,-3.816587592581693889e-01,2.033399288245019837e-02,2.293489311416062881e-01,-1.010530203455280857e-02,-2.494582141742740511e-01,-7.601043905634111142e-02,7.849150048045309969e-02,-9.406451744588918695e-02,-9.621520488371387847e-02
-7.626674952836391685e-02,8.171585994252089646e-02,9.845039227651106173e-03,-3.484775486829948532e-01,3.645949287382737047e-01,-1.727910592286178437e-01,5.126354614676948557e-02,4.022606794474183067e-02,-4.815468100824946834e-02,2.340850421156594474e-01
-1.892646474046885130e-01,-1.371028759725266555e-01,-2.276885915335982724e-02,4.026873787449833930e-01,2.861451484018699976e-01,-2.686105950027589118e-01,-3.296692042793123445e-01,1.167864606109904196e-01,-2.466175503459475810e-02,-5.509170722549892041e-01
1.660850328334771420e-01,-4.229665927207281739e-01,2.204804216227779917e-02,1.758908229568348358e-01,-6.855863351068863798e-02,4.684959885430717841e-01,2.006477124850720717e-01,3.663236901745625107e-01,2.935723701692040111e-01,-2.829412770243385222e-01
-3.414627599927129165e-01,1.116173418335309336e-01,6.932540883870566550e-02,1.118021486666398306e-01,-1.296492337196453182e-01,4.955526135061737447e-01,3.514026230278660123e-01,-4.172433390378914586e-01,-7.519512114654179624e-02,-2.498323413005868465e-01
2.041912340658210978e-01,5.191761194788802047e-01,-5.460994340678270165e-01,3.087225087851467320e-01,-1.661365483180193003e-01,6.131708187800388732e-01,-2.969523516394483309e-01,-2.652857478978352113e-01,5.423990435563046109e-02,2.625082767922058344e-02
-4.891027960679146802e-01,-1.924950537493194669e-01,2.914704691485105470e-01,-2.954025290341420473e-01,-2.805385560440943893e-01,4.545359517326357235e-01,-2.445067970686552461e-01,3.393106672172808147e-01,2.072486598500686839e-01,7.888994938059204487e-02
1.927502386820884039e-01,4.851518247180912624e-01,-1.848783666441800588e-01,2.217991237585529296e-01,-1.600767897016307229e-02,3.833200783285899416e-01,1.993660122498628895e-01,2.397447142283000432e-02,3.596503131408154696e-01,-3.674670489233922144e-01
-3.586776480113738619e-01,-3.457208606697468878e-01,-1.435441778840009508e-01,5.828865243745363633e-01,-5.351047660968571984e-02,3.873381034984731963e-01,-6.563562711751727563e-02,-1.164180466495136207e-01,-9.985478363345000330e-02,8.101108444571039624e-02
-5.114612724850267078e-01,-2.547135620908925202e-01,4.518663493801386433e-01,1.262703891237561271e-01,3.265233194419708274e-01,-2.681303640828808232e-01,-1.863288941873174343e-01,6.383294183682865219e-02,2.287832472605124193e-02,-2.344354889376172313e-01
-2.386572214029088479e-01,4.623461733116560751e-02,-2.900293224671331993e-01,-9.213495521618703457e-03,-2.500031141032758586e-01,-1.349995264033676534e-01,8.472329145666321337e-02,4.754181943901000101e-02,4.854313600140202148e-03,-3.614714019544511270e-02
-3.640440061514110814e-01,3.431682981721986825e-01,-1.894773150945761320e-01,-1.765236613111627884e-01,-4.933869588975608456e-01,2.646698108706030741e-02,-1.930324773571509556e-02,-1.080666644939764082e-01,-4.176591779648565206e-01,2.716627678111310229e-01
4.216728311198875145e-01,3.427986053406519018e-02,3.450851098057026167e-01,4.086652808356642796e-01,-1.969676374364320859e-02,-3.474697423344754177e-01,4.325415550321067282e-01,-4.705510639578948107e-01,-1.409719919826802337e-01,1.639841679433670651e-01
2.884187223077016582e-01,-4.247161573501336829e-01,4.117825929313590622e-02,-4.517093250103653146e-01,2.453869199076789132e-01,2.602611882374963326e-01,-1.131757752050315813e-01,1.179561706364260082e-01,9.945199875204570328e-04,3.549399351171732553e-01
-4.408579964830182905e-03,2.011204629117777920e-01,1.288316947157333303e-01,3.353673661442192477e-01,2.445206700994490556e-01,-4.683678718303053712e-01,-1.016605563948317081e-01,-2.293215134221725793e-01,7.538043652347774237e-02,4.661949969401613103e-01
3.464720675034175246e-01,1.498315423391014534e-01,2.822154371708316400e-01,-2.385051488369603900e-01,1.549815851798632682e-01,-2.524483492077151947e-01,-1.934895088217867265e-01,4.088235570343520253e-01,-1.325847169679943427e-01,-1.711764425378533572e-01
-4.946223569836961653e-01,-2.744351121772212743e-01,3.510960219258726367e-01,8.478669925699110210e-02,4.194153342750984725e-01,-4.685275511098605516e-01,3.906732945318232009e-01,-3.155526781834337435e-01,-4.516775260504074518e-01,3.747344420952095079e-01
4.385773512001633900e-01,-2.919627355889297116e-01,-1.859356705118992703e-01,3.213949729071616246e-01,-1.592478374800044560e-01,4.731478588654675771e-02,-2.164147069836226123e-01,7.241794632434795688e-03,-2.184888181298550447e-01,-4.152468048674514134e-01
2.129881505817245169e-01,-4.784909273787503192e-01,2.751108127938155928e-02,-2.791057674706517999e-01,-3.513801167982624762e-01,-2.480861425865361070e-01,1.553181231469720758e-01,1.760828246079310655e-01,-1.887177091012695040e-01,-1.433985432235884983e-01
1.727786175732448914e-01,7.097286905751500063e-02,-1.643020798780960301e-01,4.324779644548270019e-01,4.950181148371444739e-01,-3.419498515470066891e-01,-2.942523953317299767e-01,4.335750818590847211e-01,-4.960241995369124024e-01,-3.499190968278335090e-01
-4.796119468640261951e-01,1.502853997706642686e-01,-6.232799979082294210e-03,-1.075216545444009353e-01,-3.646330365986757416e-01,3.699695177989464900e-01,-4.582647570522718761e-01,-3.956971320377735551e-02,1.474618578228752142e-01,2.230989655368126323e-01
2.824317756801104640e-01,4.073823976070722885e-01,-1.468391359061771706e-01,4.514578769155690452e-01,-4.440745686699647532e-01,-1.187153301352306678e-01,1.787453521726313777e-01,-3.438207808777892227e-01,-9.800464659645473364e-02,2.204597725627260307e-01
3.201261145054164481e-01,-2.418059227742827000e-01,-4.703697368778863575e-01,-3.337206864541109042e-01,5.123606038312750882e-02,-3.962367027754786775e-01,-6.888029280997054471e-02,-3.649937566694930746e-01,1.209408662162977759e-02,-1.445635147455638925e-01
1.758409800143891644e-01,2.168883623819320983e-01,4.857376449391154760e-01,-3.150957903188830733e-01,2.078034400097530932e-01,-1.417654307824112725e-01,-1.162595629207941877e-01,5.852913975912092844e-03,2.037927791638458608e-01,-4.947609400834039328e-01
-3.460779031298199526e-01,-1.428682586544817168e-01,1.753417647657003753e-01,2.590433867648170851e-01,-2.556266952325191300e-01,-7.721190384093221115e-02,8.051882807331973979e-02,-1.702285071356955115e-01,1.542530752028578866e-01,-2.022373890274143104e-01
4.653547628491434551e-01,3.061501023909509178e-01,3.755877793938265374e-01,-4.020935125745681016e-01,-1.995709206531323943e-01,4.332421192550055533e-01,-3.152995728928823516e-01,-1.069498966210406105e-01,-5.480288350886081128e-01,-5.449889207383165624e-02
-2.970741630461504190e-01,4.779671596850376125e-01,4.024542865902165367e-01,1.326975180273679555e-01,-2.144694077938727461e-01,1.135131160701929529e-02,-4.199418813381106674e-01,7.400845824871603307e-02,-3.548762639569786881e-01,-2.922216513002816596e-01
-1.238673439574764223e-01,-3.708454807148929278e-01,-9.333586914235289522e-02,5.180558045540568646e-01,-3.156770690503009069e-01,3.352585752040462275e-01,-4.860423131582299883e-01,-1.276069488375240479e-01,-1.305854051283221462e-01,1.578883449514781878e-01
5.049315239332499150e-01,5.568752530476699381e-01,-4.662236597486198175e-02,4.323358553364494705e-01,3.557714440878981255e-01,4.026574039244563141e-01,-4.209407763846378381e-01,1.775920240762095814e-01,-3.650846436769705217e-01,-3.507945346172946510e-01
6.849660439934876499e-02,-1.691952296860587679e-01,1.716092390157455128e-01,-1.141602196780234502e-01,3.889999909114404963e-01,5.927126670598783509e-01,-4.366608842114180211e-01,3.889018478146113317e-02,2.928716989287578620e-01,-1.618901688421745533e-01
-6.271449944384928366e-02,3.040266612135412161e-01,-9.122029417811063773e-03,2.051535444889890092e-01,2.617200199620668410e-01,-1.805769726661206886e-01,-1.907489631264114860e-01,-5.468986969696163492e-01,-2.588389809950523146e-01,-1.742931790260246194e-01
2.162198790064080028e-02,-3.197170194214876693e-02,-5.668613209824939769e-01,-2.304687788935403381e-01,3.224216997194458978e-01,2.324500843266975314e-01,-3.079912627671568814e-01,-5.652843429635764361e-01,-2.653580039218744746e-01,-4.969608865060002462e-02
-2.721066362876523592e-01,3.200557148242774708e-01,2.909369397203277405e-02,1.244422327789415916e-01,3.926367692427850109e-01,-1.364614669114965761e-01,-5.608371430020621558e-03,-1.109015677269346994e-01,2.254264171400689465e-01,-3.766211238909804582e-01
9.578702052289596314e-02,-9.025299010473339725e-03,-3.535773928875694527e-01,-2.493993474645500585e-01,-4.067506612981621195e-01,8.902766277143879525e-02,-6.388121322440837302e-02,-2.659083210737666070e-01,-2.156236609892554779e-01,1.115301636226460197e-01
4.051264169543284527e-02,1.225114961205545638e-01,-3.374172614152424199e-01,5.991795524711865939e-01,2.587681640640202563e-01,1.657908820594182833e-02,-3.599514465518177109e-01,-1.169224682017231398e-01,-1.670132139276097882e-01,2.274520243352567694e-01
2.335952899961091928e-02,3.647067926431560997e-02,3.432505018463544721e-01,-1.365325146475952767e-01,4.830336331115886624e-03,-4.174749141230251759e-01,8.870972862114687163e-02,-2.835581197784176055e-01,-1.118652931812757351e-01,4.036958621273604719e-01
2.007533106673572987e-01,-1.119932983540879445e-01,-2.877046173610932067e-01,-9.257286325789965131e-02,3.487262941901297930e-01,-4.578454467623916530e-02,-1.191849925068207972e-01,3.561446018169316385e-01,4.919632400954720985e-01,2.990956379272577959e-01
-4.707107932598723204e-02,3.003711058088199409e-02,-1.321933134884996641e-01,-3.264156069583472597e-01,3.937052592948035445e-01,4.136305730689765481e-01,-1.907693535500210869e-01,-1.905895659717762869e-01,4.624687679078768321e-01,-4.131180457406423145e-01
-3.516027772734671153e-01,1.888717233266727635e-02,1.655382306955319183e-01,-3.627199475591503242e-01,-2.864607547941584453e-01,1.929505540364270244e-01,3.996947014783606145e-01,-4.266089510404072471e-01,8.904589416588985784e-02,2.880437401232964212e-01
-4.323735133152434296e-01,-3.252908116611519240e-01,5.962573042129169602e-03,4.658502399900051882e-01,1.334181740315105724e-01,-4.703731681560866518e-01,1.675519235995150819e-02,-1.227839936320143516e-01,4.715947838198235043e-01,2.044106848058228065e-01
2.068305155009467766e-01,-8.133036148223597717e-02,-4.498187603486624164e-01,-1.757385054305816707e-01,-4.681742600564031687e-01,-3.002128723461092719e-01,-2.742925469524900017e-01,-3.223540257283339927e-01,3.635597463434097065e-01,2.080419563435331187e-01
-6.397986189554163983e-02,-1.510922041661746373e-01,1.001332070476100428e-01,2.299654298825176968e-01,1.324807536677388362e-02,-3.875938779674161228e-01,-2.905319307791036088e-01,1.292774182944790183e-03,4.579476581704052807e-01,4.443632535816758877e-01
-1.832650947413448639e-01,-3.963581874413594774e-01,-8.923068784715984525e-02,3.786751882215462217e-01,-3.010347565821823446e-02,-4.649303016609570016e-01,2.068222927199311334e-01,2.573872429611397950e-01,1.389729862632587132e-01,5.420905341106886828e-03
-1.778018224202188580e-01,6.701739607513701458e-02,-1.280297161805197259e-01,2.922850335382137787e-01,4.206396604666267636e-01,-4.259220264395102706e-01,3.619654293728208905e-01,-2.943196103709456724e-01,1.411450270056504863e-01,-9.644257222836098362e-03
7.480750930143920119e-02,3.829146291715801453e-01,-2.008662909152789666e-01,-2.385346584865843944e-02,3.733286918111303199e-01,-2.820981493949604058e-03,-2.476720366187339928e-01,-3.887001452428172077e-01,3.983989502898624968e-01,-2.283624782199828729e-01
-1.519608144667876637e-01,2.313922920240103487e-01,2.901364604320780249e-01,4.443914917885243288e-01,-8.396783084311010281e-02,2.003017637910526894e-01,1.493436822300586719e-01,2.282671935409664732e-01,-4.434431322482695892e-01,-3.525756831112667466e-01
-4.911263040227090149e-01,2.026973041569459510e-01,-3.833550612705738936e-01,2.823746091548888226e-01,-4.265992335263176227e-01,2.505732316719208597e-01,1.625891853658109620e-02,-7.614969844154510781e-02,3.388394624109474784e-01,-1.074255656137662468e-01
4.406805030061495265e-01,3.445601349382225176e-01,1.496536749867519445e-01,-3.577990434132287123e-01,2.677958655849346226e-01,4.132055888389865039e-01,3.786974256953322404e-02,-3.144511372105024405e-01,1.503226509006205802e-01,4.996093101085759547e-01
-4.853674169179058584e-01,1.773209854358271109e-01,-4.123771291180514664e-01,-3.020492493113962063e-01,2.238426486291371087e-01,2.507437062409590967e-01,-2.320681135809733037e-02,2.393297595488997065e-01,2.627482310643138308e-01,1.406465107182003349e-01
-4.644120153615880486e-01,-1.298695887470475152e-01,1.154577076788923101e-01,-1.382936073508361785e-01,3.295332391687589291e-01,-3.992253987332154974e-01,-1.072020021845748322e-01,-1.910499140165282383e-01,-8.705959295807924603e-02,-3.787100934632927629e-01
3.998827825058091645e-01,-1.090138712498320700e-01,-4.691193344445607760e-01,-6.843589098667360315e-02,-1.124632369815232319e-02,-2.154492441075182840e-01,4.601941959633604196e-01,2.234514185175339174e-01,1.002701709110419845e-03,4.398666654535356990e-01
3.299348885839119561e-01,3.359647030404393497e-01,-4.260025228848627332e-01,4.329779451641904697e-01,3.436053967463876813e-01,3.236181058764486806e-01,-1.273977111535418427e-01,3.875090621256516155e-01,-4.245819056773189604e-01,1.176920985499405325e-01
4.678306406285133168e-01,-2.995910632268389828e-01,-2.794445148893348052e-01,2.752760661178546911e-02,-2.709844205970084463e-01,9.931986010850608892e-02,-8.378269090683181097e-02,-6.779145409104356257e-02,1.189733158222019416e-01,-4.999995128393437405e-01
-2.083817033119906015e-01,2.400205165384182993e-01,2.114261919171474824e-01,-1.444270215856477968e-01,-5.143290928958720032e-02,1.689957430905911773e-01,8.312615821415554607e-02,-1.401433619487751914e-01,-7.334945799886746776e-02,3.545277008970882382e-01
2.372333349451072049e-01,4.597397110070530757e-01,-2.390822620590450365e-01,-3.899842278359688663e-01,8.974727861021046527e-02,4.057592356350740448e-01,3.553460078047260828e-01,-5.506220841116278297e-01,-6.015937797739818738e-01,-1.299693142970932414e-01
-1.270805824269283929e-02,1.866579447748395182e-01,-5.773995300244033624e-01,2.206453467085951192e-01,-1.457844152857283304e-01,4.506264765247338100e-01,2.516465872036391382e-01,-4.339328921380590232e-01,-1.317541716365372428e-01,2.572417524963267477e-01
3.798206821295768698e-01,3.154742639018301986e-01,-4.223308626024623313e-01,-5.728736270512246181e-02,1.468053395210265344e-01,5.629457467245672087e-01,-5.910836886533712420e-01,-4.010550397233303976e-01,-5.571867096563760668e-01,-1.822785680939349173e-01
2.748726935679606312e-02,4.003174554422896381e-01,-7.167177958770157842e-01,-1.247345929532233111e-01,-3.719369524490809820e-01,-4.228508652102563881e-01,-2.664330785434649296e-01,-5.144565623248587016e-01,2.571405795495918523e-01,3.246209741493658596e-01
2.536304084223842681e-01,-4.086106417189630524e-02,-1.304117027033190046e-01,-1.109944797750878204e-01,-3.380129096058362426e-01,-2.077078803685317721e-01,-3.519081733751088792e-01,-3.373847348849672301e-01,-3.908581148838839447e-01,-4.245332890839819684e-01
6.004707440517104144e-01,5.187456483570117571e-01,-3.921100820494829442e-01,1.039708556293655467e-01,1.233410301001300474e-01,1.157963248904069764e-01,-5.576365863146582891e-01,1.592638208292869728e-01,5.857439943998554721e-02,-2.278256032752331295e-01
1.239551380158640526e-01,4.672564558160506865e-01,5.939523080750064993e-02,2.444973877066431711e-01,-7.384628829719094845e-02,-1.068141493746183890e-01,-9.372733759320797664e-02,-4.021077370587679001e-01,-1.367336725727537061e-01,1.595391625884118869e-01
-3.396014481229973070e-01,1.137848031423288608e-01,-1.027962939575011170e-01,5.589944744937481724e-01,3.827149282131776103e-02,2.186496319515399134e-01,9.744242903419164659e-02,-5.664115189812375661e-02,-2.258863303211324780e-01,3.123718477373619296e-01
-4.321268718206334736e-01,6.012316680158589222e-01,-2.460619245091006380e-01,-3.310304503239946960e-01,-5.740756772865327623e-02,-1.580878578276292412e-01,-4.494552995488882985e-01,-7.325248013591945107e-02,3.836910903405122419e-01,-9.415845566481634288e-02
1.680711375654562675e-02,5.309196683887654755e-01,-5.962318740412277107e-02,5.209155447586113485e-01,-2.041785413325850340e-01,7.767933263605733551e-02,4.560269067874911375e-01,2.092705248819596298e-01,7.865812469678008789e-02,-1.529385014716398983e-01
-1.092882048485562529e-01,-3.521963839181367906e-01,3.332276102719402000e-01,3.486233824311975593e-01,2.056429713612254184e-01,-1.722484026229467724e-02,-2.794424234646784577e-01,8.055218969764232906e-02,3.523976490600008726e-01,-3.791875177756410809e-01
-3.058930717865077087e-01,3.785501673367730469e-01,3.207192413504660333e-01,3.251097500954287511e-01,3.050564040178083136e-01,1.085222283801872134e-01,-5.020643705073874613e-02,3.189263935486568724e-01,5.723053589667975727e-02,1.115163312670667539e-01
4.079292927500725030e-01,-5.922783177170830998e-02,-4.931240641198370023e-01,1.837870937865702659e-01,-1.693842212226041311e-01,3.134604932256574439e-01,4.624103708986091466e-01,-3.285512770454055431e-01,-2.050500257799925674e-01,-4.174485199424711468e-02
-4.247699703920827519e-01,-2.646927336103825357e-01,2.002580444443539387e-01,-2.154633537075771946e-02,-3.442218435856670977e-01,3.098946073406078083e-01,3.010697540819107787e-01,2.678172228540408595e-01,-1.719535551705688725e-01,-5.307668586826943535e-01
-4.445472731380535891e-01,4.592513877238788567e-01,-3.051886351713292145e-01,3.382061291819229432e-01,2.891508465689560659e-01,-6.207889002696546227e-02,2.431295141939846527e-01,3.408546811427057843e-01,-6.381827082761151737e-02,-4.326644761853048332e-02
1.227482199851962774e-01,-5.227692293799632295e-02,-3.819098334224745317e-01,-2.910553012910667703e-01,-1.088313012669441665e-01,-4.365650554575147280e-01,-7.471085707277781707e-02,1.640165597371984474e-01,-3.883248373321238067e-01,-1.942632274211252286e-01
-2.241488474149828155e-03,-3.261206301395329077e-01,-1.367633229099524395e-01,-4.411440687338755162e-01,-2.222279255667901909e-01,4.587090551687483114e-02,1.946422309111867366e-01,-3.099260890432376514e-01,3.782315555204623370e-01,-1.404640853307255466e-01
-6.116146398416422159e-02,4.221360963630443885e-01,2.678466856935569629e-01,-5.684986186880570252e-02,-3.653432839696960643e-01,-9.868759042448815855e-02,-1.802296676856938173e-01,-8.808000416213630779e-02,-3.696383347860339730e-01,-9.640375104513924931e-02
4.612249882450268901e-01,4.601536850269007384e-01,-1.007927593431522384e-01,1.369589769267502699e-01,-1.666879062556541058e-01,-2.704210020831859795e-01,-4.421618979606959376e-01,-4.206459476368756834e-01,1.491420477018396695e-01,3.466117409465374610e-01
3.833195303697189971e-01,-4.307024048210047334e-02,-3.220235078846150345e-01,-7.884970418792408564e-02,-1.737381634987024137e-01,3.441279508943230758e-01,1.192355095658912539e-01,4.303042767487424980e-01,-4.456843459760421178e-01,-3.176994583994939281e-01
1.447138047949086959e-01,-3.877276514888456926e-01,-2.193101814074587819e-01,8.057312432840368910e-02,1.962481583567857457e-01,1.873382492371653829e-01,1.639253943569140282e-01,3.894214809455438520e-01,5.507735425856339490e-02,-2.283319097376945717e-01
1.959303201213338091e-02,-2.030036148302286070e-01,1.933113741910690020e-02,6.106303985759668762e-02,-2.192764940388226280e-01,2.070495997735485039e-01,3.327305528811167479e-01,1.831308111083021217e-01,-3.227888115299059058e-01,4.696165573888473332e-01
-6.867993225410798375e-02,1.618456362137981469e-02,6.615622256009448532e-02,-4.212396970645897465e-01,8.511790361364740543e-02,4.580361167449779058e-01,4.084491564761798532e-01,-3.558318966429050573e-02,-4.260534637741710817e-01,6.048230848285465755e-02
2.676850823894545012e-02,3.643116922285882797e-01,4.527567087309326554e-01,-1.724172102499120160e-02,5.866376373967985974e-02,-2.603184692969933711e-01,4.415095454986495693e-01,-3.904808772387979854e-01,1.124421881792903033e-02,-2.492777791607273252e-01
2.339149897615810658e-01,4.776967491821785816e-01,1.606764010493597628e-01,-3.243086705304641937e-01,2.174527111461888595e-01,-3.118487830657049736e-02,-4.800633426307539531e-01,-3.110820110602003918e-01,-4.698415793409267405e-01,-4.259964228034469058e-01
-2.745940585760033859e-01,-2.829436356832658039e-01,-3.219590528854694989e-01,-5.851456918552998265e-02,3.878815823075266178e-01,-1.479369559952068702e-01,1.494938395366728623e-01,1.701388805692891637e-01,-5.363391390974099615e-02,-6.244154570466484144e-02
3.345640406419714274e-01,2.745724894015171280e-01,1.436516303361501934e-01,-3.097089821198141246e-01,-3.024870316474663756e-01,-6.588193573024392347e-02,2.681634324352426546e-01,-2.363068704147354981e-01,-3.097663056946147186e-01,-2.247060510026261393e-01
1.369468012407774327e-01,6.263060984597747238e-02,1.965664259625846955e-01,-8.206868283440890699e-02,2.670080485309221929e-01,4.308941132573093635e-01,3.302996591161352913e-01,2.231415856981726065e-01,-9.947383468225898251e-02,-9.864396500035770010e-02
-1.391545533500680998e-01,-3.023838786314254623e-01,-5.030869272189827379e-01,-3.052716725647665608e-01,1.644434454460003484e-02,4.713560583013639005e-01,-3.139650012721997840e-01,5.341587364125516268e-02,-4.848337768183524910e-01,-3.193816216301283845e-02
5.617100502223772995e-01,3.667283390836831858e-01,-1.147221221598820479e-01,4.113351819877908086e-03,3.566644184241712923e-01,2.520739934882936240e-01,-2.034271700611195166e-01,-5.393472982207162536e-01,-2.717666764308384053e-01,1.035284661376728449e-01
-7.054725438771540513e-02,1.872773640920478433e-01,-2.353930932314243774e-01,1.924262834218881113e-01,1.490504235490877072e-01,-2.844873554699693385e-01,2.005249233503464249e-05,2.239025825172618056e-01,-4.453026702372408496e-01,-4.111814933078482559e-01
4.303795266774919637e-01,1.167094159971127920e-01,2.633007844615393306e-02,-4.862622912283159210e-02,-3.564861233284865594e-01,-9.640643171830516611e-02,1.150161745003874525e-01,-3.625295650521001556e-01,2.135217889804525565e-02,-3.806069473303737571e-01
7.647268201541881916e-02,5.392443793378616512e-02,-4.687242097259657903e-01,-4.053752375504798278e-01,-2.685600382795265695e-01,2.730602369148362740e-01,-4.441112497850286389e-01,-2.348907006284671750e-01,7.728468927906728680e-02,1.181862017841580070e-01
2.674971267374925965e-01,-3.921993889066147099e-01,-3.518970632791355579e-01,-4.219879312953036532e-01,-4.626787002448518038e-01,3.274099792638036077e-01,1.151475242395784554e-01,6.859665969140874009e-02,-3.999438742720586859e-01,-5.907367976969050138e-01
2.289995157120592317e-01,1.438466923074609993e-01,2.942819518731998318e-01,1.064353582566908950e-02,-2.739693778231123145e-01,-2.889597701731217994e-01,-5.471151277032841875e-01,1.568126575446545101e-01,2.757513360787762213e-01,-1.994589286321835353e-01
-6.842743503423211193e-02,-3.353915159209618913e-01,-8.817538884882307471e-02,-4.665862228844847026e-01,-5.807471918228839236e-01,8.303733020567510836e-02,6.367464820265883452e-02,4.441226226203083272e-01,1.819246318914196081e-01,-6.264526756869266688e-02
4.334359256794135251e-01,3.527379681844913795e-01,-5.879426526251806395e-01,-2.906620109294330567e-01,1.801325938596553405e-02,-5.728263586263172558e-01,-8.524395607727476565e-02,4.095142997314764055e-01,-2.756648738038396385e-01,-2.061263807834902984e-01
-2.316016755333930033e-01,5.157416191914239167e-01,2.138788366599758684e-01,-4.142204342979860510e-01,-3.476130670489789576e-02,2.547788449457091264e-01,-2.480550706089390198e-02,-3.512193445410033976e-01,-1.251851408906209107e-01,5.172864070555366345e-01
-1.905546772677113587e-01,5.390834804631775556e-01,-3.313621510457605557e-01,-2.253876133745379706e-01,4.720080207201322597e-01,-3.439649438423695860e-01,4.313882668797370812e-01,-2.111194255645236773e-01,-1.422044246285864844e-01,2.310208806770976120e-01
-4.213277350742604677e-01,-1.410652171491460875e-02,-2.334762404864474117e-01,-4.635956767223709529e-01,-1.323685446968195789e-01,-8.959613008130623557e-02,2.600559751944909181e-01,-1.482372362025765056e-01,-3.278220801213974078e-01,1.401171910936777620e-01
-4.547856212732461212e-01,-1.596031487821064354e-01,3.874711325480424406e-01,2.875374123400323279e-01,2.491544709408803904e-01,-1.384247903596101323e-02,5.169486938258534003e-01,2.692986481730490489e-01,2.949673096269227468e-01,1.967510224322591705e-01
-1.174157736145190201e-01,3.436814465495318660e-01,2.415903939036570247e-01,-4.446190236382647210e-01,1.198183465185316821e-01,1.228554351424917673e-01,5.771705064206027191e-02,4.335306869983148736e-01,1.369718703968149653e-01,3.490427589257251162e-01
-6.002847358471861267e-02,4.644791805780384975e-01,-1.302965619349687743e-01,-5.599439121956588661e-01,4.103480673933102008e-02,9.996593905220377274e-02,-9.169475352900589848e-02,3.604271542925615024e-01,1.782967603354519148e-01,-4.100278678611790073e-01
-8.618516042303137059e-02,2.711254522797935593e-02,2.500768631476739667e-01,4.142460863396854598e-01,-4.619615542141887188e-01,3.129788114713479286e-01,4.716095067902396076e-01,-4.622492939622356856e-01,8.365096069480178198e-02,-1.671314889457448383e-01
1.716473601213246158e-02,1.286584578711828797e-01,-4.951135777743651545e-01,-3.844882142667616076e-01,-3.530252324477544112e-01,3.047045347037761684e-02,-3.491392973464996913e-02,3.975752142910906617e-01,4.503758627112147694e-01,-4.253914621556743603e-01
3.231780143408679029e-01,3.063873845303335397e-01,4.546327992398595530e-01,4.696263141345080605e-01,-3.802105061999465352e-02,-1.973741916293974274e-01,4.216607058051897172e-01,-2.419559224056276603e-01,4.628399447178800918e-01,-4.190726186008973952e-01
6.964226470198840724e-02,4.034060071631411226e-01,1.030836992282939540e-01,4.059483827364927522e-01,4.186517585771358241e-01,1.281337290344661262e-01,-6.869569100525908627e-03,4.405934751697374585e-01,-8.791371748167822742e-02,7.932938395557716238e-02
4.764618676266908492e-01,2.390209635977567082e-01,-1.527508619282544056e-01,-4.266845766679912000e-01,2.847480145875263546e-01,2.239840058177043625e-01,-2.909199740171631299e-01,4.639480645588097557e-02,-7.315145833070887949e-02,-2.401175327292649764e-01
9.969113997685183359e-02,4.382695789397288988e-01,4.117523989639915172e-01,-4.021775881322223745e-01,-3.777445867409932601e-01,4.532935069011457263e-01,2.759208260869717155e-01,4.877931378911334326e-01,2.395426672261724288e-01,2.336882563722879891e-01
7.778352752104425449e-02,-2.434582582341073831e-01,4.426224044731316698e-01,-2.883968427062140183e-01,3.832798138672295629e-02,2.248129240866241774e-01,-1.472643431872740494e-01,-2.216993564543810469e-01,-4.215861447929097339e-01,-1.667588053590442765e-01
-3.951505992199125239e-01,4.674086841210718934e-01,4.788429294274944570e-01,1.459325855263667870e-01,3.844522232146957985e-01,-3.869355551384789926e-01,3.402442801635626179e-01,4.444243664986810560e-02,-3.807110735480712105e-01,-2.254809868564213449e-01
7.882244063110765975e-02,4.738863164314792709e-01,2.004694694529735310e-01,-4.478445121818204755e-01,-3.105445374053556473e-01,-2.581448409346143724e-01,1.486116542039638555e-01,-3.958789569856918100e-01,-4.636523130868729081e-02,-2.669968503753097355e-01
1.844986705659991122e-01,-4.911019642984660871e-01,-2.987431846848245809e-01,6.582186471111535486e-02,-5.155546516577778071e-01,1.307434251697713601e-01,2.084626090140774268e-01,-3.691013660062115176e-01,7.979775884697321020e-02,5.351492542197227031e-01
3.179883220025595536e-01,-4.012423386802774911e-02,-2.153410693871454784e-01,-3.084109187599154422e-02,3.438582261480696012e-01,1.293211205789130125e-01,-4.567631853730859670e-01,-5.104476059532101484e-01,3.398326928626733273e-02,-3.136765456695039117e-02
-4.174526093649493785e-01,4.582013535998448739e-01,-6.748972736045538712e-02,-4.598013770629289509e-01,6.895099245629875140e-02,4.644934739704918436e-01,2.699442148484431092e-01,-3.369035233684437580e-01,-3.725297725299956952e-01,-1.291216959073040460e-01
8.794287264770575541e-02,2.216263816188392966e-01,4.350088343298460503e-01,4.473051280141723263e-01,1.483769677127856623e-01,2.297627243993275448e-01,-2.172927385929057931e-01,-1.782947198368485531e-01,-3.535327931493744136e-01,-2.902543814237429909e-01
5.019667720734360961e-01,1.538674118267897295e-01,1.700489722306122164e-01,-4.946388418405716636e-01,-4.182270158404791660e-01,-1.946578713861356613e-01,4.011775005512076553e-01,1.073541835927355748e-01,3.778560393639162629e-01,1.054680364114379473e-02
-3.309236537688788060e-02,-2.776247659779972343e-01,-2.367582995353756659e-01,-3.818760548729325244e-01,-4.501774678542379005e-01,3.888840909812946722e-01,2.522937521685402612e-02,4.247094459165671188e-01,-4.228929602482038863e-01,-6.735483456302941707e-02
6.986257442857222166e-01,-2.059672315103573403e-01,-2.628524059254707113e-01,-2.054620306287675280e-01,-1.595312754376232156e-01,2.772055243792596602e-01,-5.052277128444095933e-01,-2.996008759732332050e-01,-2.710058812817354307e-02,1.733983591701293014e-01
5.956586144200611832e-01,1.217481938106930589e-01,1.193656125829401782e-01,-1.055878033012875722e-01,3.392545390701901531e-01,-1.190770805812135930e-01,1.941001481438242582e-01,4.124845515513158034e-01,-2.317464081074742666e-01,-5.384265799855374457e-01
5.316583890692712089e-01,-7.041756743782805195e-02,3.601121819980634964e-01,-4.053738019136526316e-01,-4.410486427066152015e-01,1.801939314158030325e-01,1.319313298795252998e-01,2.132384328731923018e-01,2.107250489933281401e-01,3.162079551647766027e-03
2.670475494265721617e-01,-6.111184558977220682e-01,-4.535462235632505834e-01,2.703678531946685504e-01,-2.224305198391490490e-01,-2.501981076249576996e-01,-3.318372549613229916e-01,-1.950995166033661632e-01,3.692926015063089373e-01,-1.631711837907093010e-01
4.089053761146095312e-01,-1.895209822598588889e-01,-7.339963952953322546e-02,-5.203649234974151438e-01,-6.697873126827129653e-01,-9.776096393495918579e-02,-1.527070875092757796e-01,-2.672120936669988289e-01,1.250033734833126131e-01,-6.324474776570409018e-01
6.034070351106705088e-01,-8.982649404386616743e-03,4.604616085682393667e-01,1.011356125385175081e-01,1.472936582690600460e-01,4.367923461788813522e-01,-2.949043194428221382e-01,1.499201859196818143e-01,3.765924910625742528e-02,9.288444051997978013e-02
5.764477010176062288e-01,1.664635592878792314e-01,-2.831733820387999367e-01,-1.108185550172670064e-01,-1.051911224806161282e-01,-1.122564197370326117e-01,2.475087689683359848e-01,3.151616842611439789e-02,1.219531563248057726e-01,5.917903889062681166e-01
-8.996867340751944775e-02,2.614013012944752523e-01,-2.073242400249780681e-01,9.000909535144703544e-02,5.526340712728020771e-02,-4.358373659770984898e-01,2.210622204437628358e-01,-4.714954035413730926e-01,-1.233959727417903163e-01,6.235988344342183187e-02
4.903234391151086169e-01,1.223817943457271851e-01,-1.211966599545864498e-01,-7.803333513589849613e-02,-3.378566164268752003e-01,1.591402808987461281e-01,9.423067791565152562e-02,4.097134608722106663e-01,4.256250108356195438e-01,1.323614511976352326e-01
2.060097631638035109e-01,2.594255786783505324e-01,1.072059107069429085e-01,-4.070298599858693800e-01,3.867231388431760508e-02,4.462118982823774088e-02,5.896450889924192279e-02,-3.504777219583318781e-01,-2.759461341223327646e-01,-2.953980961168719555e-01
3.032519954096653536e-01,4.820418182693156917e-01,-6.631153197354777706e-02,-4.828141154055889395e-01,9.024043319377637873e-02,-1.596954747127305174e-01,4.124037365143861655e-01,6.151526791284136486e-01,-5.276077437073224685e-02,3.413460463623806951e-01
-1.080367567142933583e-01,1.721058817510047467e-01,1.133429036128606876e-01,-5.266271515705670536e-01,1.368969141096433306e-01,-4.564942659981802708e-01,5.515458657697622780e-01,-2.361964915114049893e-02,5.008811134126023995e-02,-3.457412580014693204e-01
-4.672376343669299992e-01,5.182351232838682265e-01,-1.219358262351287053e-01,-1.175824267535666018e-01,3.310987314557335415e-01,-3.794689276768531960e-01,2.129707288403546173e-01,1.738063774880414247e-01,3.094410219252659577e-01,-3.370742337422779622e-01
1.297355820177560799e-02,6.340298200568961207e-02,4.536264455480895075e-01,-5.074389478765780614e-01,-4.655623106125998945e-01,2.456250066339069615e-01,3.495537488913827429e-01,-4.562122902856342865e-02,-3.445452082281251771e-01,-3.671526766425026733e-01
6.737576579210351191e-02,3.495212444225047621e-01,2.184746745511320642e-01,3.207247039630796159e-01,6.666797951911145742e-03,2.630032035118064493e-01,-2.651632294782781951e-01,-1.601502056228086834e-01,1.715630308844467988e-01,3.235166761828496274e-01
-3.732271169990235005e-01,2.017933812676290517e-01,-2.772648740610089702e-01,-3.764428523988910258e-01,-1.017291100935265903e-02,-2.694387399594887489e-01,-1.583627239897944794e-01,3.718915637397123830e-01,-2.637789159325866772e-01,-1.253441212417540085e-01
-9.231283474095549127e-03,1.592691441239762473e-01,4.364761363093512814e-01,-1.272771097697473208e-01,-1.537673790053582790e-01,-4.594416391264039001e-01,-6.906468537236025440e-03,-1.993065311498275483e-01,-1.535880339053041499e-01,-2.733052657238824179e-01
-3.518132737189818560e-01,-9.872563609537012008e-02,1.962912762616263740e-01,-9.401795388435706113e-02,3.220623779539868309e-02,-4.031106172425009682e-01,-1.237124609460662633e-01,4.324384468063743325e-01,1.977876402703535319e-01,1.743539573926255470e-01
2.980905819474474749e-01,-1.255427170128435854e-01,-1.981003459131366329e-01,-3.474870049293251051e-01,-4.171671228024746436e-01,-2.600520345436299618e-02,-2.722892189704272381e-01,-2.766134526494546386e-01,4.829222521829893977e-01,-1.595142313283791080e-01
4.072855628623828217e-01,4.671842775778217022e-02,1.563806847914133991e-01,2.550947864944133614e-02,1.463342618748245949e-01,-1.070492452522458365e-02,-1.721715589618142972e-01,-4.316751407254206252e-01,-2.124940071458850666e-01,2.627861779103688455e-01
-3.271976780700402987e-01,-4.865316134586135377e-02,4.114235561390423568e-01,3.269065101893601222e-01,9.010753600357036819e-02,-4.195275619718979443e-01,3.878609164735924431e-01,-1.210308001573945635e-01,-3.242655197399128553e-01,-6.851468647812943014e-02
-3.007042058084110070e-01,1.341137691909402019e-01,-2.302338530264438909e-01,-3.667979072294059173e-01,3.972470984952827799e-01,-5.748404610292495026e-02,4.410638694895075429e-01,2.949373001857653054e-01,-4.430711748465432920e-01,2.975761692067887404e-02
8.249974543058365140e-02,6.514096077443706778e-02,1.884056921868366152e-01,8.864242376324801831e-02,-4.273292300186891657e-01,-2.834419378859239225e-01,-2.592311758864919435e-02,-3.196928424648685096e-01,6.242614588343824850e-02,-3.024581624078703790e-01
2.124973661577000128e-01,-3.973375352536739902e-01,-3.047967790563960166e-01,2.290987248097647311e-01,4.558600636074650603e-01,2.575109464210394994e-01,-3.705530986623150613e-01,1.378635212534085053e-01,4.831941807379226406e-01,-2.540980093765823900e-01
-2.318386445230395665e-01,-4.683216335026733623e-01,1.413833941036498343e-01,4.785884196863591789e-01,-1.850944810763018311e-01,1.434867681385471605e-01,-3.590651742121500067e-01,-3.082171635502012896e-01,3.736472342054213414e-01,3.465688843894182969e-01
3.146603790383426663e-02,2.262966292273763391e-01,2.249548308856859913e-01,-3.771319783729651931e-01,-5.117377007573913339e-01,5.150693136430812835e-01,2.288034893389001567e-01,-1.061062758896586244e-01,-3.614887692171892680e-02,-1.871239567315089447e-01
-1.139431566478862068e-01,-6.154215957621083088e-01,-4.256150291708053479e-01,2.566695246383699502e-01,-1.720498611531661171e-01,-5.276740844742559139e-02,3.840398546297204424e-02,-2.105165652776025687e-01,6.672072095264248992e-02,-1.287037438669422773e-01
-6.756990906773052696e-02,-2.610272985195090656e-01,-1.348111318719509844e-01,2.243705737452697802e-01,-1.436649103000139094e-01,-3.881238966549174080e-02,-3.331076550046754847e-01,-3.929084958250528836e-01,5.863371019422511932e-01,-3.699281589226005671e-03
1.568258806234185398e-01,-4.110847812488443997e-01,-1.505981178039948742e-01,-3.341737460404033966e-01,-3.863376011819386613e-01,2.067510591807315279e-01,1.529465413465573298e-01,-3.280366197056354682e-01,1.542647886558845827e-01,-3.167651548661836736e-01
5.073392963230072272e-01,-5.915517394364113724e-01,-6.620256591427793602e-02,3.696572330911111759e-02,1.596214404488247030e-02,3.292478342527006552e-01,1.622460697853662370e-01,9.252720673332361090e-02,-1.059718545252684024e-01,2.033741722243893046e-01
2.849852370839144888e-01,5.018308602089553011e-02,4.256561025307836754e-01,-1.574219099747820871e-01,2.160808686000474377e-01,-1.658570126860776095e-01,-1.374806262079401042e-01,-2.907898105333923677e-01,9.943167563787755348e-02,-5.336248463277341036e-01
3.623471589139727889e-01,-4.451547998320258548e-02,-1.039711430033540690e-01,1.646945519359667084e-02,-3.057730649875044504e-01,2.696943013940206746e-01,-2.470085683615274863e-01,-1.029563942905089291e-01,-1.692442422566879934e-01,-2.077633947787323465e-01
4.380866662806243705e-01,6.868587732147005132e-02,-2.562801805871607330e-01,-4.208744672009305243e-01,3.533124507194419506e-01,-6.053317119189793177e-02,3.442499859894159742e-01,-1.383240519828466686e-01,-2.560370667123507693e-01,-9.783920252462942335e-02
4.314544390497893067e-01,-6.752721497124744010e-01,4.863835548003754561e-02,-1.298436839572356671e-01,-3.158780125559473850e-01,-2.365400223317823125e-01,-5.388873839363070295e-02,-4.670941552044280409e-01,3.885739870966085641e-01,3.645147473137183569e-01
-1.305911193924518265e-01,-1.217275019855201673e-01,-3.430481019737728621e-02,-5.426809990228363967e-01,-2.127583464154963189e-01,4.719394929129115401e-01,-1.573578750350500266e-01,-2.365858254338356059e-01,3.613704169167941127e-01,-2.707918975813920770e-02
7.113712603461608275e-02,-1.351780155715052167e-01,3.759539967208794797e-01,-6.598655502509849224e-01,-2.351232127655727977e-02,3.411623485818088275e-01,3.621787204130143545e-01,6.316656755348976082e-02,3.172373413230196171e-01,-1.955068914354470833e-01
5.388265125584090764e-01,-2.210921311877154793e-01,-3.949195024925882258e-01,5.620859592737719596e-02,-2.626559482958647496e-01,-1.655297354569323365e-01,-2.121666086367062498e-01,-2.266331827879753957e-01,-4.678978522402144624e-01,1.750891773196876222e-01
3.104236339404398692e-01,5.413080490553970892e-01,2.987324995129307381e-01,-1.993816456176978891e-01,-4.047596305746076206e-01,-5.792254420562734790e-02,4.123524722120204267e-01,-2.536447359013333513e-01,5.215727944985217718e-02,3.005284404383662955e-01
-1.802598614066811544e-01,2.745112577693903932e-01,5.371084204121060607e-02,3.422438990874023812e-01,-9.629411413804181419e-02,8.345449381422838375e-02,3.275921880660752628e-01,1.552986673383434379e-01,-1.792287473431538602e-01,-4.640038669806093585e-01
4.678449644974771449e-01,-4.064511921507352743e-01,-2.837620413810524322e-01,-3.593347945806125709e-01,-4.137750647375144086e-01,-1.371634898504486000e-01,-5.452971689096108854e-02,4.081396617525203663e-01,-7.646464648977024936e-02,4.754324827568929060e-03
-7.204681172425411728e-02,3.220462501624336005e-01,1.730230895374113564e-01,-1.047675049300378913e-01,1.625733863999761220e-01,4.328074823538675120e-01,4.740525366125912243e-01,3.767637825115979777e-01,2.550494069758463961e-02,-4.220180565570934988e-02
2.518482036502676658e-01,1.249421717492619210e-01,-4.265462933368220355e-01,-1.589019120696535392e-01,4.069396440197064480e-01,4.045133434269457262e-01,-2.222146335543687123e-01,2.252716990145658127e-01,3.217082344058049825e-01,1.674049138053960648e-02
-2.407195052583458450e-01,2.701396285596392444e-01,-1.892180675537528667e-01,2.468655117638858254e-01,-3.896103773253546954e-01,5.883878047224471580e-02,3.291306574699104925e-01,2.890603794499317925e-01,-4.463450447529750814e-02,-3.623347844793646799e-01
4.139766480823471873e-01,9.408642550598644849e-02,3.902484949464837261e-01,1.701316863987358818e-01,3.921447666829590561e-01,-3.908494486104294174e-02,2.216720958960587684e-01,-3.609541876791321803e-03,-2.746698960435023373e-01,5.451069525279569200e-02
1.185577791411144138e-01,3.697482269813786582e-01,3.464322701796915260e-01,2.607545041603834823e-01,1.404129567367225495e-01,-1.627468291939175304e-01,-4.073056721974508410e-01,-1.321960546169291192e-02,-4.464137701910757539e-01,-2.941613911165159023e-01
2.076386760929383457e-01,4.479866353717588123e-01,-7.892582812015819238e-02,2.089191593564827532e-01,2.981700950557908958e-01,-8.747837445266337664e-02,-4.576311321038020186e-01,-5.089259841450073651e-02,3.007171217426049536e-01,4.713784391250993022e-01
-3.803379890000146424e-01,-4.412258269382522968e-01,4.324061994329149727e-01,-3.112360409686241169e-01,2.781158594082317470e-01,-2.409359213019579005e-01,1.894333271605896374e-01,-7.690316759369324184e-02,-2.959052030714258152e-01,3.437227478176517748e-01
-1.251292357461817883e-01,2.929208307448927587e-02,1.255757597534972458e-01,2.921977747571165573e-01,-1.693008236317678494e-01,4.312911310137605425e-01,-4.135562010694590618e-01,-1.360049987693747742e-01,-3.470098135867388106e-02,1.912763928517055012e-01
5.563352135771577889e-02,-3.935675260687886978e-01,1.520193402672005700e-01,3.982058149299120414e-02,-4.711841399390464535e-01,-1.895575506556199663e-01,-3.453143759738199758e-01,-2.904456079649034850e-01,1.896937343222685479e-01,7.395598482580341415e-02
3.343630047493483803e-01,3.685352264446463688e-01,4.269305871922091100e-01,-1.775593522039943875e-02,-4.880332644279963272e-01,-3.847787817874979699e-01,-4.276877865003455015e-01,-6.073307646287890993e-01,-1.169268746627642880e-01,-3.673649585642554949e-01
2.903709239018665289e-01,1.294131291708010001e-01,-1.036734722138057813e-01,-7.253192918184929450e-02,-1.912994750059476834e-01,-1.790144858402619166e-01,4.494233337216652080e-02,-3.081362079643275576e-01,-3.029159474300682220e-01,1.216890452768034231e-01
3.590341516772653230e-01,-1.342399096443368245e-01,5.312633280921092577e-02,4.870690496226641186e-01,4.443627523264745971e-01,1.523144486199447811e-01,-2.784691724291469273e-01,3.437067356578592525e-01,4.130831700812091500e-01,8.292800087306521906e-02
-2.478393488458620064e-01,-4.827348135570391219e-01,4.082334442456388851e-02,7.443711603948241495e-02,-2.990735303966908787e-01,-3.823355119359449217e-02,6.588419985163329606e-02,-1.414588790751672709e-01,3.187846335487968252e-01,-1.781979642982105261e-01
1.211724763014614542e-01,2.401504711821923488e-01,3.962875734408634054e-01,-1.422221222795284068e-01,5.451000995644094543e-02,-2.976522896098121040e-01,2.077889107087400045e-01,3.218241970621672499e-01,2.085967189518974085e-01,4.382881905635143682e-01
-1.278411180464425478e-01,-1.447852178140632828e-01,-1.364061684988976952e-01,1.449293032387606595e-01,-3.331611955235596612e-01,-3.643384964067918896e-01,5.670515840658884033e-01,1.646259945355033616e-01,3.519183821649848332e-01,2.020099680901081551e-01
3.898073017258456563e-01,1.994053037648921278e-01,3.420265647578232815e-01,3.859548240531310848e-01,6.521451526276079991e-02,-3.588662336761847677e-02,2.217612124606309701e-02,2.107752366260406407e-01,4.016240072674915895e-01,4.742447292918287594e-01
1.635942260973018425e-01,-4.429089787050703442e-01,-1.647783674187483782e-01,-1.070196623165647343e-01,-1.588892331967185420e-02,-2.392789795255636787e-01,-4.080202386711678959e-03,-5.248530255757844626e-02,5.508530542910397010e-01,-1.990881298028746582e-01
4.927328536466663023e-01,-3.852714832215108909e-01,-6.278575852594284190e-02,8.120660679428544360e-02,-4.165741281801599999e-02,3.240711216960099339e-01,4.840658450703789195e-01,5.490728003520985862e-02,5.121078504369276363e-01,3.003386435041732749e-01
-1.818562296492084174e-01,-5.074881033982915346e-01,7.042903133463987789e-03,-2.156917853597312140e-01,5.772746413048580605e-01,2.181350242152561292e-01,2.592569622370722859e-01,-4.538887856594906456e-01,2.156041932434864250e-01,5.722027227176545126e-03
3.180801827597949938e-01,-2.521658592018976575e-01,-8.870737631254445310e-02,-4.011494555312414972e-02,-1.017830820394035329e-01,1.689458644342287097e-01,-4.205417416448840595e-01,-9.877582771738251111e-02,5.768550573667237114e-01,-6.254196671373520033e-02
5.740690628262370421e-01,1.279141516600632855e-01,2.062392412847048606e-01,-6.105563809435646805e-01,3.537783954308705847e-01,2.575222985094474115e-01,1.095816425260064952e-01,-4.045574180165073530e-01,-1.627067126602050884e-01,1.925932756356769082e-01
5.946466397740073351e-01,3.133651544674555256e-02,4.766453835810162132e-01,1.486415660017589013e-01,3.479240177903429321e-01,-1.748146926977584004e-01,-2.170234406121788473e-01,-1.788175604184952527e-01,-1.622677591892908999e-01,5.672962426250056922e-02
5.844010424134171711e-02,-2.854253145651460266e-01,3.642751379696483327e-01,1.117063623871424050e-01,1.671038263628243092e-01,5.045023753735852212e-01,-2.763435679118709243e-01,-1.529986433488486897e-01,-5.221965124040037765e-01,7.102010811492012188e-01
2.996184297196538560e-01,-2.397317454174508478e-01,-1.598966695023318341e-01,7.081752173683129870e-02,-3.555214399070630305e-01,-2.521641023381421959e-02,5.554982755535172595e-02,2.075573940749312618e-01,-3.966250896988742780e-01,2.112397645341788921e-01
5.221472666395710061e-01,2.573004360688283532e-01,3.572872731105135036e-01,1.717104626825890767e-01,4.251642975980348682e-01,4.013048174835557452e-02,-2.512087363797429473e-01,-2.609983885889851501e-02,-1.398839331054829993e-01,7.249123024955634875e-01
-3.003505835628436094e-01,-2.857134568739874703e-01,-1.259170283602183971e-01,2.277786492660063486e-02,-4.961000574678400138e-02,-6.895101770389640283e-02,-3.656686327120053370e-01,2.464350252808160044e-02,-1.704918900151478067e-01,-9.195341353971801801e-02
5.401121426280974802e-01,-3.513863284895142880e-01,-2.932591208430007090e-01,3.710557524057055967e-01,2.949050570715085473e-01,2.463732264558452234e-01,7.437582510947001596e-03,-3.594267555180631901e-01,-2.698953483275254861e-01,1.047674387290924575e-01
5.388369528741673298e-01,-3.768045895632978759e-01,-3.161618478755919281e-01,2.156725076119796747e-01,-5.382327745563062482e-01,9.439281499149781290e-03,-5.356917677511597864e-01,-4.153786869294207040e-02,-7.152732583817668355e-02,-2.071444039289745409e-01
-1.963734868724819893e-01,6.702210722210988347e-02,-7.737589134761155285e-02,-4.370357236446173466e-01,2.579736633480642638e-01,4.988302542825252539e-01,1.620930557296246521e-01,5.579654157570367728e-02,7.106807172683254903e-02,3.417837010510747092e-02
2.257867334054716180e-01,-4.021913758783238202e-01,4.617388819939698963e-01,-5.161613171230889918e-01,-3.981939789485953174e-01,1.995170613127793258e-01,-3.210980018109055312e-01,2.498043435502498855e-01,1.508989527885647997e-01,-1.572314174482824234e-01
-1.495280419651968118e-01,5.897229920712233897e-02,2.675009351868939955e-01,-1.016424200701199210e-01,3.535681560036552096e-01,-1.076275447405331959e-01,-8.876032464763550234e-02,1.177399206427903605e-01,-1.220460328390704091e-01,2.124932780192434045e-03
3.993762192464928029e-01,1.213417792734640399e-02,-2.122694941367264942e-01,3.267910622289468270e-01,-4.459086878456976488e-01,-6.948069550294848351e-02,-4.797069985095060440e-01,4.823929203850170211e-01,4.641759897134959401e-01,2.934687461979692755e-02
3.203948359657345368e-01,-8.295289771919603372e-02,3.084602931594315756e-02,-2.888506453422368669e-01,2.544570418688108515e-01,-1.268206381537040073e-01,2.443900290746538195e-01,2.884967231955302691e-01,-3.119648454472884191e-01,-1.816157576685681896e-01
-8.522235839932472412e-02,-4.682276263145290218e-01,-7.837025020748478177e-02,-4.141358493807416052e-01,4.948900355533955575e-01,1.532534189842083526e-02,-1.748628069838868426e-01,-3.889995099057621530e-01,1.844287282165080546e-02,1.776735216609370283e-01
1.772267124872463073e-01,1.520616094452447442e-01,-4.979867225750271853e-01,-1.579444239200418487e-02,4.585839843302880886e-02,4.908745791259963576e-01,-3.737170201225534227e-01,-3.418723180357203795e-01,-1.932839264680027980e-01,2.909072210111642853e-01
4.531981793974486639e-01,-1.365668718290959927e-01,-1.375928353100071277e-01,1.763526994879448806e-01,-1.113749091450187134e-01,-1.956008406530556909e-01,-2.483265949895332170e-01,-2.412077190553037487e-01,-2.496946477337253778e-01,-1.190849237887537937e-01
-1.314009316922705173e-01,-3.900139452421265140e-01,3.760018879527672331e-01,4.877623553248550681e-01,-1.575652044613257141e-02,2.027745183724951883e-01,3.427558272356305280e-01,3.750770496214814731e-01,1.683161858580146664e-01,2.164468743229316650e-01
1.074917087729561765e-01,8.932879638207090467e-02,4.176912231206273973e-01,3.580044375732685524e-01,5.677430269783036165e-02,-2.418915685882148600e-02,8.612775757983513747e-02,-1.520456887986376127e-01,1.977855114066019715e-01,4.494550176125211571e-01
1.972391956758811349e-01,1.973586426722011844e-01,-3.082960178253429384e-01,3.738632870009184206e-01,-4.423118796829008104e-01,3.738292809097018554e-01,5.538013043603148278e-01,1.429275132051361641e-01,-2.730673212413124440e-01,2.198886214875943879e-01
-1.604624161190957299e-01,2.117115654537257419e-01,2.657338820235669585e-01,-4.319769050451580106e-01,4.705967697050764675e-01,2.982937561324124909e-01,4.147193387641083251e-01,-6.939410113747848663e-02,2.020839746915519264e-01,2.338875840180606458e-01
3.201785067935193352e-01,3.370577100003489812e-02,-1.310553225067897787e-01,6.766647374503710621e-02,3.949664036041070081e-01,3.177195157085501709e-01,7.428583220003465160e-02,3.595172476359909663e-01,3.706070942076279962e-01,-5.297392308784863030e-02
-1.303957320543372989e-01,-7.650752116373726874e-02,4.630730613529454587e-01,3.536673754438494077e-01,-5.405834588181014366e-01,-5.347682890304239489e-01,1.712530734005820732e-01,5.293482464236622942e-01,6.003418065027423811e-01,3.358645747990533087e-02
-3.777379302752570389e-02,-1.812108044240182680e-01,4.041208604254554748e-01,3.014601208366266549e-01,1.283431775753907378e-01,-6.613945453027152144e-02,4.833027750387615673e-01,2.707721438382219015e-01,5.359612724575731901e-01,-4.905198715102908683e-03
5.275859146074475259e-01,8.148963543204879034e-02,9.913053886278093418e-02,2.108013698701680927e-01,3.480035760269520329e-02,-4.185302614186370285e-01,4.037139911804183967e-01,3.301620373704295397e-01,2.359065706484096137e-01,-2.395874619329207700e-01
-5.471403304667844525e-01,-5.305699726338805045e-01,-6.561866548520364772e-02,4.180066233190350700e-02,-5.262240864573883847e-01,2.000600985382673391e-01,-9.800371793383014229e-02,2.534337161952413542e-01,1.420096336846556895e-01,-2.133827544835387446e-01
2.105251310107298102e-01,-3.674579409173890365e-01,3.422747528137853879e-01,-1.515084046618617002e-02,4.000540122762714090e-01,-2.174522667276544419e-01,2.864505895821330417e-01,3.983505157800300567e-01,5.352063917233390589e-01,3.977388826991242743e-01
1.940502091048978139e-01,-2.553419465744298789e-01,2.535134729878127935e-01,-3.552192550579007513e-01,5.144275598316955245e-01,1.831579833554217440e-01,-3.913997730643973272e-01,-5.762997186531649829e-01,3.406395282922207168e-01,-3.746128770908900285e-01
1.012858414609813240e-01,-1.103244659289838309e-01,-2.860590316830489699e-01,4.943453562268949192e-02,5.353406377951140938e-01,-3.526990844481887599e-01,2.396109119630966677e-01,-1.234784804598309665e-01,-2.535376193442324677e-01,2.116234642494713436e-01
3.324747195431185243e-01,-2.478494011110408402e-01,-7.892932409516535686e-02,3.355343289495616443e-01,5.285582399714210400e-01,3.575374182349002061e-01,2.830939413081942635e-01,-7.741472446565306198e-01,1.126898470715375841e-02,2.783854251770133681e-01
1.863856495948676972e-01,-2.164113807727740257e-01,7.976071438599148522e-02,2.517638812586536073e-02,2.905689974656486818e-01,6.396912142597791506e-01,9.112364060240943364e-02,-2.584027633952051817e-02,-2.426130622303334927e-01,7.839571540996448373e-02
-8.875506333707490481e-02,-1.337752632839390166e-01,1.493509360250434848e-01,3.111180370859664701e-01,-3.986260312657864957e-01,-2.922119698187757297e-01,3.000399926021464839e-02,-4.686433615059679703e-01,-5.762096500577973401e-01,6.603091127637985558e-01
6.416203198601185820e-01,-4.481152361042718413e-01,4.352991455626530337e-01,3.920512769802844133e-01,3.092908468747664064e-03,9.552258670755754688e-02,-1.180718220720644585e-01,8.457896874273489879e-03,-1.581721040136283840e-01,-3.402145756476319255e-02
-1.502424736564413055e-01,-5.318600540101003915e-01,-2.393951962552535451e-01,1.299168777676466269e-01,-2.131690389269120800e-01,7.204267905885498868e-02,-5.970667263105127187e-01,-3.438906648949354578e-02,-5.024834692768987976e-01,-1.678998399282954079e-01
5.996308629485883612e-01,-8.788210511042043871e-02,-2.552563387573333897e-01,-1.400075733799242828e-01,-1.891294673814672145e-01,2.878571148345837605e-01,-2.847704089718755549e-01,4.009726739080160529e-01,3.900181596797574479e-01,3.814113826823966602e-01
-3.807349159299133756e-01,3.581899867852413877e-01,1.991515907173299904e-01,2.596975630864669093e-01,-2.144300425689202594e-01,3.065470230705076848e-01,1.709063838873932373e-01,8.501439777381479893e-03,3.273680598884909365e-01,5.777600637430428954e-01
2.878027997309153818e-01,-3.494387008084152146e-01,4.285690156353502700e-01,5.771409477077252964e-02,1.387153718643195921e-01,9.902307025534187734e-02,-6.984349949319758333e-02,-2.949296553530342813e-01,-3.717111399369444902e-01,4.321522112917348668e-01
3.919296797201077265e-01,-3.565150710876012485e-02,-3.440990069531799089e-01,-3.476534924603021381e-01,3.284141491806931712e-01,6.058405492136926390e-02,-3.642840495767778464e-01,-2.495047807855271527e-01,-9.315731973148361211e-02,2.109643769030824512e-01
-2.356687865345495903e-01,-1.237342434170546485e-01,3.661343424304380756e-01,1.566326203212496382e-01,-2.354188359498594618e-01,-4.046269638628512966e-01,4.125158718120473522e-01,2.154131463635012844e-01,-3.423346139030419844e-01,2.402989950089026716e-01
-4.459840364590538786e-01,-4.081441248291979296e-01,3.941830665514455267e-01,-2.859462257394810858e-01,4.370530729624096389e-01,-2.291619600506412946e-01,-4.670693040908619476e-01,3.948487162407690598e-01,-7.813460120024391664e-02,-3.259648175873433584e-02
-4.654243478802249090e-01,-8.208416847377075776e-02,-3.335958350419576668e-01,1.508208912894857534e-01,2.947400473187106740e-01,1.489122879590246418e-01,1.751589973855213755e-01,-2.294613034736552593e-01,-1.746377878065145384e-01,-2.311178293831497865e-02
-4.730193613626335059e-01,-3.784158352564759298e-01,-1.948235531053091329e-01,3.930739200901134933e-01,-1.419980950666521469e-01,3.804444866512442514e-01,-1.906093746687855250e-01,3.806069023372857796e-01,-2.677833743771324548e-01,4.015476540433494668e-01
-5.968508635025245035e-02,1.032347682506689068e-01,3.151239705493721344e-01,4.451143548826961283e-01,1.498198950078038494e-01,1.687717086089437768e-01,-2.012070551753482039e-01,-3.575540194630817958e-01,-1.749073318328531190e-01,-2.488424352074002643e-01
-1.092576003122993911e-01,-1.842990808421039184e-01,1.911896876345185389e-02,-1.947435687281104666e-01,1.462573907541608875e-01,-1.264369003601188979e-01,8.984877020970810646e-02,4.443479276906360798e-01,1.043173111977773598e-01,-2.409087124674026414e-01
-1.512657299911968345e-01,-1.046943571201727485e-01,2.401610119385939046e-01,3.153943395368823954e-01,-3.094473210930714924e-01,3.092738810655237813e-01,3.180059651556003120e-01,1.196820965501602663e-01,4.622844188333575244e-01,-2.360793068993868593e-01
1.783285682253723248e-01,6.408835129820761312e-02,-1.147085457216943591e-02,-3.314030758268803889e-01,-2.789774294202944371e-02,-6.133966712914549341e-02,-2.983316692110886126e-01,-2.051574537241581397e-01,-4.579010957013935484e-02,-2.835287431160930446e-02
8.232920159373570412e-02,-4.352085570359102151e-01,4.788563992453943596e-01,1.363026781671591303e-01,3.411122179012311961e-01,-4.364700688815655316e-01,7.515713457610841142e-02,1.563220058333396334e-01,-2.337788002895822559e-01,3.723209534298262402e-01
-4.041475455579965903e-01,7.355733434803896076e-02,1.430223441707279830e-01,1.711712031036986548e-01,7.591900183002328606e-02,-3.023243478097226711e-01,3.416786312861030406e-01,-1.331255203921445363e-01,1.504060170001117469e-01,-6.954778597573236555e-03
-2.584098939265120909e-01,-8.634875654667713285e-02,1.760793026509473169e-01,2.385674301982231571e-01,-4.545835318632664435e-01,3.343360683104321107e-02,4.841966448918865740e-01,7.206597433425220023e-02,3.491217253838412860e-01,-1.071445394725690885e-02
-6.147472834562981575e-02,-4.373078426745167224e-01,-1.265617951208898306e-01,-1.281363323478845184e-01,-6.472211896843950429e-02,-2.821235726737075789e-01,3.202018835194422874e-01,-7.050659564497224752e-02,-8.711670713385298581e-02,-1.240140742193825696e-01
-1.625782014179469326e-01,4.218777578778158677e-02,4.842599449135599476e-01,-7.303363207613026986e-02,1.377312996522158661e-01,8.823053744259753972e-02,-2.986246015329471759e-02,5.334696114503255648e-01,4.678480911954959187e-01,1.447567472994011617e-01
-2.142062152146350928e-01,-1.847691611434017223e-01,4.168443210498690710e-01,-3.842887325782025632e-01,6.213774235668692580e-02,-2.158254707769588499e-01,1.711264725799270803e-01,1.569150440370151722e-01,1.202973305691358991e-01,1.469482052171157960e-01
-5.015978726447569702e-01,-3.835446391278434786e-01,-2.176391054786547818e-01,1.092210835156017801e-01,3.860304926289335331e-03,-2.870656204610408380e-01,1.054167665282120490e-02,1.011926152966977216e-01,3.416418726853612253e-01,-1.689633610123984497e-01
-9.392220256352230845e-02,3.713907149090989179e-01,5.376796246461000572e-02,8.263965942790225949e-02,-2.230252530241183806e-01,-6.867695116414224143e-02,2.678402721637883621e-01,4.967044540904187039e-02,-7.507788083823196956e-02,-3.353352999105702059e-01
5.454101296025086476e-02,4.989858490787844048e-01,-3.567973130506417734e-01,-4.722575000918866062e-02,1.387474109108566001e-01,9.662154272210845066e-03,-2.379701718032060376e-01,3.361452015751483779e-01,2.985550379954428624e-01,-2.107805856153091850e-01
-4.804815415516892202e-02,1.559181950617568591e-01,-5.175524992651668876e-01,-1.709862794791526530e-01,4.747120431599766710e-01,1.591146403750610672e-01,-2.056461951619424355e-01,-4.779470065579753957e-01,2.180319647005791173e-01,-2.132308169920822949e-01
4.640278862528078307e-01,2.222237472351873133e-01,1.436058269912647289e-01,2.287906280231291889e-01,4.211229005031467271e-02,7.668614781857507889e-02,1.973508846900215441e-01,-3.522519307545033396e-01,-5.415524879911621792e-01,-1.398407890111666996e-01
-2.527191739894863592e-02,-4.876398142600223973e-01,3.002787268859221648e-01,-2.701518059969452712e-01,-1.703541716691412411e-01,4.828937279183617703e-01,4.059073114457071307e-01,-5.280792532592898381e-01,-2.994293471098369852e-01,-1.874062049767327154e-01
2.636970269545715895e-01,-3.522994029197312055e-02,8.461406289639052114e-02,3.836220054789696299e-01,2.959562718692699823e-01,-1.652893448700180068e-01,-2.004831603845149968e-01,6.290165404932294979e-02,4.513240132305063740e-02,5.316970618469066823e-01
2.600372255638904173e-01,3.505612413696006513e-01,5.061223184218590632e-01,9.794930453053665720e-02,1.152427042162374599e-01,-3.798052851399006946e-01,-4.701174019301971874e-01,2.684988567323694508e-01,-5.246265847672575422e-01,5.079922530025680061e-01
3.692409897828028975e-01,3.439629682203641514e-01,-2.127189023045056304e-01,-5.046561247495556096e-02,-1.138744725673865033e-01,1.832511633714962451e-01,-2.153136735181535033e-01,1.030063021429254710e-01,-3.319351848681794115e-01,4.894618606479927969e-01
1.528662900723918305e-01,-2.733185599095425133e-01,3.759335928794085846e-01,1.293363500143419886e-01,-5.366436891263227649e-01,1.912528838071916523e-02,-4.558365130539993038e-01,5.523369865251762795e-02,3.808575395883405379e-02,4.203075893843364330e-01
-2.970116177414135472e-01,-5.982064459215061247e-02,-1.339062028936551518e-01,-2.924363126724842110e-01,4.254443623147579068e-01,-3.417755940424522243e-01,-1.088049637844958895e-01,4.372224317123314385e-01,-3.795592555885841657e-01,-1.996903370296969904e-01
3.202047653758121060e-01,-2.114303061353577928e-01,-6.753899352105727227e-02,4.882526904701836035e-01,2.104779196929383311e-01,-4.842408775614860383e-01,-3.246575656602636029e-01,1.567675266110598806e-02,4.862734774862618181e-01,1.324945673249398048e-01
2.822938319541979380e-01,2.263185883262115727e-01,-3.015286325857073901e-01,1.264438034657392185e-01,-1.309409609347596259e-01,-3.927929118057388869e-01,1.517553276444846833e-01,4.442149816637401272e-01,5.389216448539146942e-01,-3.440924139908974611e-01
2.860073437699573590e-02,-4.658143630014818237e-01,2.970077943046933733e-01,-5.091600629226460395e-01,1.858672902563710816e-01,4.510399210791656843e-01,-2.791565475757538106e-01,4.821242575810972819e-01,4.344870257614334430e-01,-2.265093078228735957e-01
-4.501183877231436092e-01,3.642884173939372472e-01,-3.831627079487502363e-01,-2.472213261512203053e-01,2.530774924913700152e-01,2.253171425285678264e-01,2.608641162226481569e-01,4.033340803625372339e-02,-4.153610062896368471e-01,3.408862554377246057e-01
-4.129817662452456295e-01,-1.520021251995473943e-01,6.912681516290809791e-02,1.347580571118199393e-02,-1.960192547852848133e-01,-3.223859147139924719e-01,1.783930479780308775e-01,-4.477059528374449093e-01,6.776524574742938400e-02,1.902487511789416053e-01
-2.302809855186705237e-02,-1.009354056209726819e-01,4.622073399576464015e-01,3.103140914716233101e-01,2.187524560171139887e-01,4.668799382750149496e-01,2.041047650904642408e-01,3.540453135054251466e-02,4.259285884459986793e-01,-2.019827864438837883e-01
-5.623747377461154467e-02,3.607931110252297624e-01,3.180056537736343225e-01,3.442536454108890975e-01,-8.655728989444726185e-02,-4.655049323478791523e-01,-2.289678555054533438e-02,-3.407657046583916771e-01,7.236096885388075550e-02,1.956575329612259551e-01
-3.251604211166230218e-01,2.722809811345963116e-01,-3.847822949192031827e-01,2.973571339758634413e-01,4.608170817107205552e-01,-3.189199148825715979e-01,-9.764003345650222598e-02,-1.351420412934553617e-01,-4.253557864484231454e-01,-1.715799653692228754e-01
3.879496981950395496e-01,-2.002529517526982772e-01,2.219790994272740348e-01,1.991639328984613488e-01,7.125492025508833871e-02,-8.789893335032780697e-02,-4.524805219032969061e-01,-4.016143266195396633e-01,-4.620933002973298676e-01,1.422567052197601656e-01
-1.954974111612237941e-01,1.032269873038957481e-01,-3.999575030787618779e-01,-8.460118327240817582e-02,-4.430490902992900715e-01,3.962969230771737350e-01,-2.472367762075623754e-01,-5.071950785653489557e-01,1.511311275063917936e-01,-1.291919437249193781e-01
1.450843076056817227e-01,-2.696844222772085131e-01,-4.522855485179152479e-01,4.008991742531349718e-03,1.969290108717874910e-01,-3.150290572422618784e-01,-3.953785415288672001e-01,2.026272334808557063e-01,3.832682643552332014e-01,-3.885457932982396834e-01
6.667717367300764197e-02,4.269401387176774421e-01,4.694338746458585065e-01,-2.126280051231173029e-01,-4.337378766333137570e-01,-4.511293407493598973e-01,-1.551426782019285910e-01,4.639597368042869263e-01,-2.822052804884930821e-01,-2.865513232040419189e-01
-1.210884450383408334e-01,2.596307904074709461e-01,4.599683049389072242e-01,-1.334543151943251849e-01,-4.022327355722549180e-01,9.951990325955215044e-02,6.676815756043961991e-02,-4.452648989486022307e-02,2.547297506182633620e-01,4.116875099658138804e-01
7.297357410758900653e-02,-2.984550388779761421e-01,-1.069779131445277170e-01,9.792900853362761227e-02,-3.080350373578056855e-01,9.422223902949954100e-02,-1.841760281967279311e-02,-6.625322560128663052e-02,2.519338166113568866e-01,-8.807968989145741057e-02
2.241862825635861922e-01,-7.129988730023266441e-02,-2.822663961481034489e-01,4.544172621012535496e-01,-6.580966113442163201e-02,2.482153067171034844e-01,1.751575342362770016e-01,3.472714317239211090e-01,-1.034962682431253556e-02,-5.473395952698734135e-01
-5.082442497127582365e-02,-2.856248490500756798e-01,2.760653257543180250e-01,1.213487160597372105e-01,-3.579350628828023018e-01,-5.674632950978956147e-01,6.093284047837030926e-01,-2.048036769683667102e-01,1.343731800523273734e-01,1.294933201001748913e-01
-5.060392139957510249e-01,5.451100244780523463e-01,3.900132038251770128e-01,-5.878337278503055208e-01,-2.937076996686777686e-01,2.613868702193070659e-01,1.583221116637588688e-01,3.236346140656042869e-01,1.303919333534768743e-01,-4.692953594564225686e-03
-6.570194866856531556e-04,6.758162935426841045e-02,3.485449817194515021e-02,1.640184967880831957e-01,-2.545246468083433578e-01,-6.637669528459863577e-02,6.340543156439412131e-01,8.232213075958363380e-01,1.813233535172459887e-01,4.583173995474313922e-01
2.236247565470400600e-02,1.448053272767483093e-02,-3.104055969653241043e-03,6.750644604194963594e-02,-2.990388541820935830e-01,-1.275416111873513558e-01,-8.915452663607657813e-02,2.517601190963030255e-01,-2.563407127346545855e-01,1.967332957737204235e-02
3.273952829105186146e-01,3.894731303499412794e-04,-3.547416088490965014e-01,-6.323630981698186160e-01,3.206872309578034375e-01,1.386562637152190802e-01,-2.220140878657061723e-01,4.142447485801826201e-01,-3.369388036164412958e-01,-7.191157418355398345e-01
-1.699697754059590060e-01,5.909519595329314479e-01,-4.810466201619098547e-02,1.726201055757473624e-01,7.960210400327413227e-01,-1.632307842409042031e-01,1.208383433069963771e-02,-3.306037284342201038e-02,-2.894591272641771629e-01,-5.890162262381721803e-01
1.580104313977183372e-01,2.489709828382435652e-01,-1.330497712543321776e-01,2.898824001872705169e-01,2.198992904831111594e-01,-5.047333915516073466e-01,-2.145799983075863393e-01,-3.059138773365515096e-01,-4.682561609917818696e-02,-7.860658972331431293e-01
2.520013986850255794e-01,-2.920195817213678824e-01,4.488886659605712537e-01,9.151376781195626545e-03,-3.196696936501129960e-01,3.475941768484342997e-01,1.516403304058540347e-02,3.686951862121259360e-01,-5.216078774223710246e-01,3.839205634083542318e-02
-2.347418688624270111e-01,-5.892390079301258465e-01,8.898792055816080737e-02,2.513799026323270680e-01,2.463726256966020656e-01,3.338402386835707114e-01,1.850773759940768926e-01,-2.225066323243210520e-01,-1.548340084133369432e-01,4.726760661982595119e-02
-2.653749108593056114e-02,-4.164988156521379770e-01,3.090034380644552381e-01,1.443261257720196422e-01,-3.247377130642892795e-01,3.042864075798484280e-01,4.019114077232560645e-01,-4.481176040620674095e-01,-4.086580857025016722e-01,7.618665489884014763e-02
2.081640049354192001e-01,2.363149346883141877e-01,2.711208849640301399e-01,6.666498031112272349e-01,-3.943008277492281444e-01,-1.819066890002508929e-02,-1.795926787684045123e-01,-4.433747461769306786e-01,2.039913815257098639e-01,-2.456622394893369643e-01
6.349616665804884430e-02,-4.484535246648183593e-01,3.331664461204009164e-01,4.432910204891083450e-01,-5.076263978587788328e-01,7.676145667275914575e-02,-5.408357281053050025e-01,-4.715074458539205704e-01,2.491749697012630299e-02,-1.552402502083253533e-01
-2.319999497824776491e-01,-3.136587128676585623e-01,2.252785653520509579e-01,4.504642688698113906e-01,-3.078583640443289249e-01,1.527160690411455690e-01,-1.237116169962014373e-01,4.920727618022203709e-01,3.708230385999744527e-02,4.631161851026697751e-01
6.502188191511313643e-03,2.372148262818896403e-01,-3.898762525695505937e-02,1.384011929601917379e-01,8.239965697048896864e-02,-5.067479253937416939e-01,-5.700263632081923326e-01,2.471013209854284187e-01,4.345163513602463001e-01,6.382143103876672940e-01
7.711527440153724544e-02,1.107646488216661729e-01,-1.546537267706580288e-01,3.054385873603317481e-01,-1.726272060907149131e-01,4.916107398110426407e-01,7.701722319760978541e-02,1.078894759553024330e-01,-1.896992321914658941e-01,5.969859243507326108e-01
-4.666284474620968625e-01,4.237839581490684404e-01,4.488082212422703776e-01,3.816783412756078464e-01,-2.174989004634680645e-01,5.750572664657568889e-02,2.685149629587322839e-01,4.117519956688431293e-01,-1.469833333037652567e-01,1.847111382470697227e-01
-2.745539395842142016e-01,-1.362891703143783440e-01,-3.146945364314857052e-01,3.148207331792782782e-01,-1.264840510920033634e-01,-3.050116481571635979e-02,-2.861215447472618134e-01,8.669485688890554709e-02,3.594291860885012735e-01,3.976542405613142095e-01
4.448982269591063021e-01,1.407689516169470523e-01,-1.982434775529558768e-01,-3.671280027743511476e-01,-7.632088820331536794e-02,-2.296494384104598163e-01,4.580480792819140862e-02,2.725606691947678184e-02,-4.426199393716340191e-01,1.611889860740782776e-01
-4.267849604448483714e-01,-2.709194881438627828e-02,-1.896146852396185523e-01,2.773198902319120793e-02,-1.870677692298349515e-01,-4.075079755998796682e-01,4.469262957965708938e-01,-3.847143634439129795e-02,9.089264935641802601e-02,-3.815368362987666545e-02
-3.556990688466822870e-01,4.931819199706086870e-02,4.246235966422197139e-01,-4.708064117077713218e-01,-4.853911729336807257e-01,-4.333563575235736993e-03,1.306273137398159534e-01,3.455426316276972720e-01,-9.200530694532309262e-02,4.016942400300327898e-01
-2.939134903327160764e-01,1.296075100659718482e-01,1.700712936410844756e-03,-5.511876668733550061e-02,-1.408774298594228092e-01,-1.376421068114212498e-01,-2.847661911038428806e-01,-4.366209723859079683e-01,3.120672097231486641e-01,-1.802966646674570572e-01
-3.662629947991842827e-01,-1.412624607418850320e-01,-3.928751635301412914e-01,-2.651147913482381768e-01,-7.384098443374910448e-02,-2.599155081677343923e-02,3.025291974029227227e-01,2.544787904993957017e-01,3.579413906480145569e-01,3.428105696275838832e-01
-6.238900153875471394e-02,-3.692289804303122147e-01,1.151534068805778743e-01,3.095043480606256003e-01,2.122376500114460662e-01,6.353894393538669916e-02,1.198433694725144043e-02,-3.044744367801440199e-01,-1.625161720668028831e-01,-1.261097665207231225e-02
1.071880556359632031e-01,-2.181343758250988696e-01,-2.084559640741770470e-01,2.243394128676461097e-02,-2.415502960402197974e-01,-4.651165157644389092e-01,1.277870926715325428e-01,4.188076222019829209e-02,7.753795831525020499e-02,-4.707226483606448686e-01
-1.187264467860254386e-01,1.319089485382139437e-01,-3.814685660789896016e-01,3.456476847839979327e-01,-3.655351182716390368e-01,-2.595478900559537380e-02,1.272478870481530688e-01,-1.673217105834040597e-01,-1.769727826985636743e-01,3.349692127729149704e-01
-1.943006844376405501e-02,1.138892288747895554e-01,4.660646517237950759e-01,-4.381102474615568565e-01,1.060864007037425477e-01,-6.464421585317783880e-02,-2.310157896341431261e-01,3.586547072989815232e-01,6.259355875245518064e-01,2.164140472345397193e-01
1.558971672971822819e-01,-4.913153311103442972e-02,8.984613730010403143e-02,1.166813667400396493e-01,-4.878878718549644056e-01,3.666865027997135047e-03,-1.642175176421753202e-01,3.224437932680153107e-01,2.658156867829407702e-02,3.680398951409342700e-01
2.313353847013309428e-02,-7.944579235417388585e-02,7.458251081009165465e-03,-2.891473197935278683e-01,-5.108409421024988628e-01,4.984383793875641483e-02,5.605555506384271025e-01,5.305701134017434262e-01,-1.135584536842774023e-01,-3.020405352558527268e-01
-1.258590282680994987e-01,2.309641685195003291e-01,-1.851490986754789903e-01,6.269254816718991541e-02,1.447466372646392385e-01,-1.526544642071744062e-01,-2.833270084055148352e-01,6.592385041726752659e-01,1.122085113671207335e-01,-1.626453076607882187e-01
-2.055593452952037548e-01,-3.489890448655186272e-01,-2.552592323200285618e-01,-6.402939837076950802e-01,4.301622180401819956e-03,-2.721948581885100804e-01,2.409702621175835724e-01,1.129586196178682250e-01,1.744084048752849447e-01,-7.268566301337471558e-02
-1.924383586182833727e-01,5.272977571030112998e-01,-1.605802929330365780e-01,6.386942236809461937e-02,-3.096840817809841107e-01,8.804653063282283365e-02,4.549887258741927565e-01,9.588257488003671947e-01,-3.781659798035106324e-01,2.164097070133627898e-01
-4.300797909575646560e-01,5.147699033176212913e-01,-1.309222711529003103e-01,-6.072308950077657252e-01,-4.783302657905547650e-01,1.502112061711572133e-01,4.917998653733465786e-01,8.721104846414315381e-02,-1.432739856188433025e-01,-4.772144610976994383e-01
4.621164756994401435e-01,-2.679239911227575544e-01,-4.726187747744122203e-01,-1.888481126760104267e-01,4.535138608355203660e-01,-5.566364928232100384e-01,-9.671986161606726737e-03,6.769043263516451303e-02,3.181489060773515787e-01,-1.652936629538080404e-01
-3.247361166804031418e-01,5.983823411156650174e-01,3.244977647529224130e-01,1.595054421475744222e-01,1.681673749697785714e-01,-1.091800777381730786e-01,-3.136692033201217700e-01,4.639835442449260494e-01,1.077050348775378426e-02,-4.216700925352062646e-01
-3.165029269236797060e-01,-3.239388751688787593e-01,9.498903261928184905e-02,-1.156473817055484743e-01,5.616478549089612970e-01,-2.087102207772303653e-01,-1.995358129140605841e-01,2.910710680240401471e-01,1.238696002275856481e-02,-4.888676370079674816e-01
-2.566821677748077901e-01,-8.799678897132311162e-02,3.591485292715210220e-01,3.501803257909548717e-01,3.128420545626219851e-01,-1.499946787769614043e-01,-1.616945192515261143e-01,-2.273198691252502068e-01,9.294467659178427821e-02,-2.367156681776593774e-01
1.181824616995375971e-01,-2.154678410600293914e-01,5.650551819906260986e-01,5.453221756481311244e-01,-1.053165404234659430e-01,-4.415445813428998251e-02,4.105708739703913257e-01,4.094235337002171682e-01,1.814350207210202459e-01,-3.314705419514331619e-01
-1.406832396341577973e-01,-3.328212300986613248e-01,3.011848932246485866e-02,1.328944888679298164e-01,-1.543535307987242144e-01,-3.672538772351914282e-01,4.854875544585941505e-01,-1.618115439771053987e-01,7.036459510254261529e-02,2.812041833835153271e-01
1.738025810292382345e-01,-3.380615802056152197e-01,2.925355434962003676e-01,-8.181386588643399516e-02,-5.139841702428732395e-01,1.002246311805999462e-03,4.175278524384586909e-01,-2.132561806188061071e-01,2.909817319391497792e-01,2.103459694424527487e-02
2.424238648237720950e-01,3.570713032617924276e-01,-4.268783888906767243e-02,4.297535386040386984e-01,-3.532711270356757582e-01,-2.542806279570868355e-01,3.629447181298479236e-02,1.311876582707279804e-01,2.441293572206712781e-01,-2.532715522890172655e-01
-4.212501569184378125e-01,-4.288398004710158307e-01,1.096363293864752314e-01,-2.797747608753584081e-01,-2.292192254857793876e-01,-4.243482176767757741e-01,2.620741032702297302e-01,-1.125923936719280816e-01,4.209122773810957119e-01,4.923163318746033856e-01
-2.795753351500080974e-01,2.432639815024213170e-01,3.577672379861409624e-01,-2.906207144691680955e-01,-6.378532775085095363e-02,-3.868374893490149624e-01,-5.093918339244555282e-01,6.079934374347217840e-01,3.723400480915377564e-01,2.911495683169104676e-01
-2.014082951719277370e-02,-1.888689862891256011e-01,-4.297121209834773858e-01,2.186241090377116503e-01,-3.959162094336461934e-01,1.916409760237348658e-01,-2.026122572042653724e-01,4.470577890321671966e-01,-2.886473268229187705e-01,6.256072030457111854e-02
-1.526411235292955415e-01,-9.753837869394885174e-02,-3.306440588954566717e-01,4.278283057550011925e-01,3.888969865678242321e-01,-4.679885178753332986e-01,-4.675955489086368044e-01,-2.343642910632144916e-01,5.139549750711681630e-01,-3.483039418435537327e-01
-2.389352694267275756e-02,4.204460431415842359e-01,-4.293380495478497927e-02,1.081601614069993833e-01,-3.350527772986317682e-02,-4.526698914739324398e-01,-2.805263760868900169e-01,3.416051807542441199e-01,3.774623475692889252e-01,-4.534313255521258967e-01
1.941987662437688333e-01,-9.113532063662161189e-03,3.848248046232254360e-01,-1.887104991944052457e-01,-1.823200229005774720e-01,-3.171662134024083035e-01,-3.494980414332259366e-01,-2.026369748062519516e-01,1.800296825045349935e-01,-4.752545126325474212e-01
2.123628320559494964e-01,-2.513291523557012810e-02,3.485867299321056545e-01,3.491897546717627754e-01,-1.761390789433804893e-01,4.336605641394049582e-01,1.614104944165988681e-02,-3.497469548117241867e-01,7.760726087590015011e-03,-4.616205334149685591e-01
