4.568725856925884843e-01,4.331332097192338582e-01,4.718226032536091408e-01,-1.277679443197807518e-01,-2.674899872891600694e-02,-7.775290163032355650e-04,-2.920612916288635730e-01,3.130373444336674860e-01,-1.337970171743427805e-01,-6.349029148231677411e-02
1.159832152552378037e-01,1.115670079290276284e-02,-8.695492523932867035e-02,3.912361119959159028e-01,4.761940444275780671e-01,-3.783912362381313538e-02,3.588598383814376458e-01,3.184424826897906957e-01,-1.646832049639349593e-01,-2.126621515761151215e-04
3.700268680721401360e-01,-2.811270321881229606e-01,-4.675949928723737714e-01,2.533480647994530432e-01,-1.699793414429048299e-01,1.250124347517886925e-01,-1.780547285147049408e-01,-4.545214710914921019e-01,-4.816254981916567868e-01,4.251684718126759743e-01
2.081188151631994110e-01,2.440508656771444781e-02,-2.842686705240615730e-01,4.045544375930383296e-01,-1.092747341887911755e-01,3.086911768941407730e-01,-7.074276360328712876e-02,-3.141158940383282916e-01,1.978026482300704325e-01,4.882601570252766976e-01
4.426849773043515235e-01,2.158960846430424407e-01,3.580770546641640628e-01,2.772209382618717743e-02,1.214033850612431659e-01,1.886226725828865636e-02,2.752524803274523091e-01,1.164608735259529265e-01,-5.615662150599809443e-02,3.720137228530044915e-01
3.010005898194501039e-01,-2.091854304997634306e-01,-3.636525381087004627e-01,3.757286728445181634e-01,-3.731595128364247893e-01,4.070112190850361800e-01,2.002780536730137673e-01,2.039328107385930400e-01,-4.719482596970479005e-01,-1.503236236933469527e-01
-2.512749627385264528e-01,-4.131992876540329651e-01,3.852419291193743267e-01,2.948030643305288301e-02,-4.622093505280692738e-01,-3.302573733247690102e-01,-5.413875773207799114e-02,9.244079705404639746e-03,-3.515948717099238729e-01,-2.816687108727421451e-01
-2.066482008091367062e-01,3.492162988564184722e-02,3.707956737725489615e-01,3.352667289072519541e-01,2.300125701018521651e-01,-3.219775651265380789e-01,-2.947395574294018328e-01,2.455969284680799281e-01,4.273754535301073076e-01,-4.434134259581631876e-01
4.149883063800394178e-01,4.963727973858945708e-01,2.269874723931740723e-01,3.923874232657739158e-01,-3.197182606504934133e-01,4.921029859398841633e-01,-1.952218103355764789e-01,-1.914499818976572731e-01,-4.245606599219065025e-01,1.964762374144150003e-01
3.216864082931835123e-01,-2.554877661347596529e-01,1.476176767194377903e-01,-1.136899159738490456e-01,-1.718554570619834632e-02,-1.830093664183410906e-01,-3.391509435036348941e-01,4.246195677801076207e-01,2.670351996812464490e-01,-1.720864121639281707e-01
-2.035471678162522335e-01,8.767185493207207969e-02,-1.536426800986754326e-01,-2.966990923435774627e-02,4.633636375219624681e-01,1.267116164380853727e-01,9.094778471686826293e-02,-1.395772311881025018e-01,-3.270170359499356971e-01,-2.292399520926582390e-01
-4.142198301853542430e-01,3.859892426355093775e-03,4.611532881767453351e-01,2.994049545721498840e-01,2.038433222868810402e-01,7.019277947091828729e-02,-4.299572787079932734e-01,2.150051743437604301e-01,4.885974353247852786e-01,1.277326712263758823e-01
-1.223168511522371993e-01,2.700041964031806851e-01,-2.309326555915355295e-01,4.551351407062689258e-01,-1.823148195381629755e-01,-3.970630590723213116e-01,2.692622367643576209e-01,3.094473646634375297e-01,-3.522068213435277650e-01,-4.091451876752940087e-01
-4.498256943748920045e-01,-4.300676564988252237e-01,4.456235661281890414e-01,-3.444157628280875016e-01,-3.871440166949632888e-01,1.940769650223218845e-01,-6.901625480908608889e-02,-8.597883204282744107e-02,-2.086021583460584694e-01,1.594010257248877349e-01
4.178525800274031088e-01,-3.042934582933492504e-01,-3.700376357481658385e-01,-3.702950865943273051e-01,-4.541870868741596512e-01,-1.353565835207435619e-01,-8.060009279676026706e-02,4.777838818928448195e-01,-2.627373346311498437e-01,3.737651403735401945e-01
-1.127645559712889684e-01,2.640172008673790649e-01,2.277785540855369328e-01,2.631022066012807525e-01,-4.008774434563581179e-01,-4.804561672349865753e-01,4.467731571646738620e-01,-1.378662896787429537e-01,6.716633411140757182e-02,-1.127982229674508695e-02
-3.685482708329327894e-01,8.524873297967894281e-02,-6.073474692884139881e-02,-3.278742488381248266e-01,-3.003459358126751022e-01,-4.605040120599627196e-01,1.403849595752246771e-01,-2.558379174245630772e-01,-2.278729514131225542e-01,-4.922386859349169724e-02
-4.342277912744422208e-01,1.542304628671775646e-01,2.551289871058406433e-01,-6.735077062541272586e-02,-6.701943540164700952e-02,-2.011620496153932736e-01,4.292045489281393067e-01,-9.822885623133480182e-02,2.737968720985887727e-01,3.652884596876978529e-01
-1.238719721651763139e-01,-2.130329119485635525e-01,3.394371846080347366e-01,2.737005076570620532e-01,-4.093927761457816783e-01,1.408301440670510774e-01,2.419241179830187993e-01,-2.211887110528242273e-01,-3.820241103985196895e-01,3.303898158273994579e-01
4.901471680071959325e-01,3.199489449572949784e-01,-4.291042937146561376e-01,3.316508171733580923e-01,1.641689909822274807e-02,3.866019086224232182e-01,1.371822514606826360e-01,-3.527706104431104217e-01,-7.424598025635376075e-02,4.415649201773777510e-01
2.109966652692396305e-01,3.432656161297691355e-01,-1.628472632386273877e-01,-8.521654117778043602e-02,9.420350255254648919e-02,-1.296395263128151676e-01,2.691131954596722720e-01,2.422206412000980080e-01,4.825242476000159986e-01,-3.649707467877876255e-01
-4.258050417356461503e-01,2.148367440500708048e-01,3.998571377784124192e-01,1.995657917615210053e-01,4.029599015523663841e-01,8.448069731362617407e-02,1.124403647263616385e-01,-2.927512705604311538e-01,-3.530170594199408263e-01,1.136824820500604849e-01
-3.752371709106380182e-01,1.805199809157954360e-01,-4.594176900382233031e-01,-3.456067370897747404e-01,-4.914074026747791146e-01,-4.474924400613775055e-01,3.610671548938038655e-01,-3.286698817598620037e-01,3.609440138587965419e-01,3.039478972707536641e-01
4.981326111982308791e-01,3.750365129438011369e-01,-3.439503919343795957e-01,-2.919934367693732269e-01,1.895116359757462732e-01,-3.467610609886567774e-01,4.203242337015327124e-01,-4.991318284377039838e-01,2.963971505002553353e-01,1.410526363075814693e-03
3.061669555268868859e-01,4.827828653016885685e-02,1.308183818488422023e-01,-2.968779856134298178e-01,-4.401743162914604768e-01,4.667216616771434623e-01,-1.549931716487229320e-02,-3.021316466056216399e-01,-2.307699007863974749e-01,-4.242159602900740234e-01
2.192670426724460109e-01,8.040663163138438152e-02,-3.611853114181339253e-01,1.035803599973034034e-01,2.878365590456261058e-01,-1.724301045639791141e-01,-3.680671863456796977e-01,-1.753266907601890301e-01,-1.325007061391336727e-01,-4.600170386842473702e-01
-1.027698659050532010e-01,2.415984415152978293e-01,-7.375228198341542141e-02,6.926441847483477687e-03,2.247694622872591641e-01,1.559066673672154790e-01,-3.422790093369639797e-01,-3.160564778336908964e-01,3.385480150148667544e-01,-3.361401107438269364e-01
3.979106327346768057e-01,4.291932522904825520e-01,-3.148436840472619291e-01,2.865297316357217072e-01,-1.242217899935948826e-02,-2.614678747054611785e-01,3.221313391932874026e-01,1.334888828065634303e-01,2.489055090736591591e-02,1.990890370039314350e-01
-3.105787741539635105e-01,-2.681748971880644206e-01,-4.650566610809552803e-01,-5.720376038688046449e-02,-4.804351522770162197e-01,3.443624098660155730e-01,4.308362227646472253e-01,2.347886545434511862e-01,4.776841663239135283e-01,-1.816257021428932805e-01
2.067407325147698760e-01,2.995583044672558426e-01,-2.994146281706079327e-01,4.499633171966627154e-01,4.072248012461881506e-01,3.432031451410147982e-01,3.830475513018853362e-01,-3.676951293599886594e-01,2.326859777771832505e-01,3.923875700689976598e-01
3.890604348482261665e-01,4.674560248766257420e-01,-1.891463784689053629e-01,6.135901262939358336e-02,-4.770129480664478949e-01,-2.017857104404835733e-01,-3.723503748847092898e-01,-6.150579905320519014e-02,1.632660113469340812e-01,1.918451631436381699e-01
-2.919024979688144769e-02,2.636431041157194510e-01,3.241851212117504155e-01,9.287321337787800279e-02,4.327974924055769668e-01,4.728249606903316971e-01,3.209523864999933029e-01,3.217827222020164246e-01,2.385379907670800437e-01,3.934833477278151248e-01
5.741679354129604340e-02,1.357171085468565803e-02,2.868119325162581945e-01,6.548884795741947637e-03,-4.420199876931555361e-01,2.367702346672669877e-01,4.002007822849457108e-01,-4.776630686461588726e-02,4.638175520457516465e-01,-4.115570125782227473e-01
8.035262613114350916e-02,1.765163653752675199e-01,-1.372133774366765535e-01,-5.517133474989800029e-02,4.253574753422623700e-01,-3.979230691581138180e-01,3.637786187694444506e-01,3.718938972420334776e-01,-3.825545577478542958e-01,-3.929701901866539671e-01
-3.745716720486561568e-01,-4.783372165134646553e-02,-2.360027855520957230e-01,1.478001367731641424e-01,-3.809727021827729598e-01,-1.495932903295641991e-01,1.969445150306317061e-01,-4.124296081663792607e-02,-4.131897880287820068e-02,-1.694543262926077043e-01
-1.118551493804395280e-01,2.381209673501508417e-01,-3.388632207070689240e-01,-1.775804172754491539e-01,5.167985772699876940e-02,-2.804728362068697467e-01,-3.540310412553500652e-01,-1.753395205109131438e-01,4.310283756137727185e-01,1.563154649850140854e-01
-3.976426145830720960e-01,1.358590545445247932e-01,-2.651604516048579607e-01,4.193157846565782054e-01,-3.524199912944164792e-01,1.457562178549239307e-01,-2.633142823946361122e-01,-2.603153646908836771e-01,1.695593491773944583e-01,-3.691066184953536999e-01
-4.983602359504091250e-01,-8.937952016932375343e-02,1.092033672998977273e-01,2.498261815419124954e-01,7.108665405963870976e-02,-2.479424613589577830e-01,2.579279534636114146e-01,-1.848947635274249546e-01,2.242043700836181264e-01,-4.652875882910257888e-01
1.018115633645676199e-01,1.005602666112233590e-01,2.606273335716250417e-01,7.603020182088492118e-02,3.858658864321839466e-01,-2.269369702694164770e-01,-3.829612651077570762e-01,3.949670168335479015e-01,-8.099239822733840521e-02,-3.143182042428054324e-01
-3.077754892611840876e-01,-3.386042886727694962e-02,-1.532685376228946073e-01,3.847783395344466784e-01,2.720329905158361261e-01,1.922352505809920009e-01,-2.185336192955955881e-01,3.719422017019004545e-01,-3.052857531355281928e-01,6.753118048471450606e-03
-4.493507237470177329e-01,1.526548916601896122e-01,-2.293806141210182337e-01,-5.070091982923874419e-01,4.724579639024181765e-01,-6.180083683840879166e-03,-3.113218580824660964e-01,1.891359823494407066e-01,-1.258847129055218686e-02,-2.187720528992087299e-01
-3.100078246482951827e-01,2.014254645125552745e-01,3.475111430020764169e-01,-1.127250943503627645e-01,1.149570263706767570e-01,2.271408536331926964e-01,-3.495822305696105747e-01,-1.836153487286406594e-01,-1.809269153016257736e-01,6.451814145274509249e-02
2.967951989791735579e-01,-3.284067696611434051e-01,-1.316330570251710574e-01,-4.606577161345276061e-01,-4.508183115682183884e-01,3.730570967679953109e-01,4.007302939319428714e-01,3.287714263109273172e-01,-3.716916702502882641e-01,-1.971662131306604615e-01
1.085961901756901521e-01,-3.139538631420132342e-01,1.219951629709083579e-01,-3.504217333485500074e-02,-3.626715838805110170e-01,5.051143812186150717e-01,-1.727856221864561975e-02,2.351989904380950847e-01,-3.914983787763063883e-01,4.366800941318287332e-01
5.486159520162048331e-02,-3.866602772998420368e-01,-2.125858047302264797e-01,-8.242959110427760042e-04,-2.844700592087511803e-01,-1.489632877812441525e-01,-4.184607240227901648e-01,-9.326007332506014436e-02,-2.820946361898308830e-01,-1.423329398143660662e-01
-2.305946324658845192e-01,-8.633122808844294338e-02,2.644600034264220703e-02,-5.218204949729120939e-02,-4.808737268608202498e-01,-4.142101983993470848e-01,-4.592326670364980240e-02,-3.235422519739575842e-01,-4.463994063986294614e-01,-2.650398343101041387e-01
1.075087400195779905e-02,-3.810155547869039094e-01,3.308052076162966704e-01,2.883974029341579981e-01,-1.974132342891349590e-01,-1.858721791261692957e-01,4.433568739208942344e-01,-4.400309798378264636e-01,-4.054257501507934069e-01,3.034375552280722532e-01
4.798243292036112329e-01,-3.489333033486011204e-01,2.826825869433314264e-01,-1.043205865594932086e-01,-2.551122111918875945e-01,1.880334345370852089e-01,-8.264047386497543057e-02,-4.124971595305740868e-01,-7.984163344539167706e-02,-1.043109228366718849e-01
-4.635410812775854206e-01,-3.657547620251685450e-01,-2.333230785804508989e-01,1.345692472785072480e-01,-6.909624327479699235e-02,-3.156031667948223096e-01,1.209707795894957305e-01,-1.190500912221971186e-01,-2.586633268831715071e-01,-5.099655596406060115e-02
5.944799553364777528e-02,-3.505036307590100320e-01,3.579177341701295645e-01,-9.460852161636590374e-02,3.554546407202898717e-01,4.394714112794428917e-01,4.443931903236376657e-01,1.595582763954779895e-02,2.023646664589816846e-01,7.649273785392038394e-02
-1.778221898689155145e-01,-4.393643355623492730e-01,3.412664089597407524e-01,1.923788716494334028e-01,-2.617134138297407264e-01,4.096560926827225169e-01,-3.870619950056732317e-01,1.939495233150074494e-01,4.032521787725030227e-01,-1.835966193378169714e-02
-2.389793491580217699e-01,-4.106047291755902107e-01,4.269985493784236308e-01,-2.824308790436984018e-01,3.663407160705115517e-01,3.006583550592242804e-01,-3.881954470074109875e-01,-9.040061555928290138e-02,4.489376966020197646e-01,-3.596883712595934091e-01
-1.347773105320847487e-01,-4.249344042714634506e-01,-2.871309417336798120e-02,4.303999877162756338e-02,-2.091933803351311294e-01,-1.694080671282269801e-01,4.881303268315724253e-01,-2.511624269705481360e-02,2.979825197636885026e-01,2.829946781257008936e-01
2.605746295898752063e-01,1.706314522277952717e-01,-1.966126322344093624e-01,-1.471566077493875468e-01,2.597630689979486540e-01,-3.630584754183444618e-01,-1.504801822751641316e-01,5.786448189707427137e-02,-3.036854576332342903e-01,-1.802684092218767298e-01
1.116915329334181584e-01,-1.758492208195973072e-01,2.236874903554666449e-01,6.303979855400942967e-02,3.662579005319998582e-01,-2.314697975530614071e-01,-3.380830902343036626e-01,-2.942276811215204235e-01,3.690475219728464040e-01,4.131463409647349039e-01
-7.521058157158532452e-03,-1.955078405172324674e-01,2.851179230026534839e-03,3.947439902929004152e-01,1.501595647798402711e-01,-4.724758914061336634e-01,2.928762670228457054e-03,-2.610115143530018500e-01,6.883072160882031110e-02,-2.877264928343289396e-01
2.111374082606570779e-01,-3.010093874718775542e-01,2.415936826184108266e-01,-3.218547670266176941e-01,-3.162565457260846369e-01,6.081544916195780193e-02,4.240116555987027969e-01,2.591916412994090813e-01,1.141708209585732131e-01,-2.775299946173062082e-01
-4.125952705580105406e-01,2.155952674835438510e-01,-4.443105334394147343e-01,3.333123967916494790e-01,3.457183491569781886e-02,2.968452624962769626e-02,4.854827309967977844e-01,4.491714329869039291e-01,-2.985737358822526319e-02,3.111332470801623229e-01
-8.536646546964386795e-02,-1.547142112266254310e-01,-2.345400768224622234e-01,4.858160942543263694e-01,3.419238006583277256e-01,-4.966272701914025145e-01,-2.305959025902944159e-01,-4.899546730733769784e-02,-5.020697227044466221e-02,-2.705216768063847810e-01
4.064388883033667743e-01,3.447811631981163583e-01,-3.830752345302822492e-01,1.261059183862241195e-01,-4.758466359698892423e-01,4.867708159231422249e-02,1.653558978199126395e-01,2.178054630505111278e-01,2.334449870029308149e-01,3.995004815103589402e-01
-2.117649321006331575e-01,4.546280588290700364e-01,-3.151221974837558060e-01,-4.552152820569609903e-01,4.887959678879310044e-01,-2.329286816551800476e-01,-1.963148578511420272e-01,3.120893619253185536e-01,-3.223301295675445322e-01,2.510991125699196802e-01
-1.258564373354627286e-01,3.762775214599056173e-01,4.553948961620065128e-01,-1.116165584398934457e-01,-3.517660078173263649e-01,-3.513038649429164884e-02,3.702123261878533800e-01,-3.250002520838196629e-01,2.882543348572588204e-01,2.609557552249962553e-01
4.150440267787752768e-01,-4.613214623317802854e-01,-1.758205355281816928e-01,3.997303724835626210e-02,-1.304358877098193426e-01,4.180621055252469187e-01,-4.369093719100408113e-01,-3.735543501080388906e-01,-3.623609586814065947e-02,4.628611900239920640e-01
3.704709562340503526e-01,-8.045933729025037118e-02,1.061541231970219851e-01,1.338497332150692110e-01,-1.206986310082490826e-01,3.025626502319432309e-01,1.286919999155003158e-01,-1.143918593233085174e-01,-1.802927537091462695e-01,-1.277724130709789463e-01
1.033610259378217183e-01,-2.299127612212559929e-02,-2.667075894487793697e-01,-1.041650840800878441e-01,3.594865902155862658e-01,-2.155644209184052473e-01,-4.448551265585167780e-01,2.660361019415215522e-01,-7.203030047695765936e-02,3.519430683972552543e-01
7.241781580391987161e-02,-3.605582731561288168e-01,4.516986809835968897e-01,3.881420827474391655e-01,-4.546596264063936244e-01,-2.269499441168115472e-01,2.652692488246634617e-01,-3.434790583287644639e-01,-2.321002461402919270e-01,2.238724980102507200e-01
-4.317349185621619512e-01,-1.840717052625848449e-01,-4.367630058054675080e-01,1.877357308183033591e-01,-4.403959182259611915e-01,2.510301054735678550e-01,4.728954713177962454e-01,-4.140228242292754435e-01,3.935438899543565183e-01,-3.734229869367180488e-01
3.352715010935501949e-01,8.197030183864675856e-02,-1.645442778576956255e-01,2.313827472050660194e-01,-2.649971789829175806e-01,3.876873021857363821e-01,-1.222676446386634780e-01,-2.975034107516892345e-01,-2.596810180004996971e-01,-1.435123432377475861e-01
-3.790653710450196945e-01,3.893080869403296451e-01,-2.413310725451775496e-01,-1.783057449284598250e-01,-2.063626660461276019e-01,1.399855261120858951e-01,-1.605554282598478100e-01,-3.707183003557806278e-01,-3.145765800375361354e-01,4.398029305841291009e-02
-1.970321065082955014e-01,2.659754919443770294e-01,-5.608755174702809848e-02,-1.829428860047511152e-01,-1.668063581907983095e-01,-2.090973004912826672e-01,4.260020799997180641e-01,4.270640238652317344e-01,2.259254434109251863e-01,4.819527909371946334e-02
-5.178890799063254891e-01,-5.736956407802085850e-02,-2.233616575187345188e-01,7.245225029498210401e-02,-2.633312671339577693e-01,2.669672026272408294e-01,3.575413443422172377e-01,4.002882979632720883e-01,5.125398878639568778e-01,4.550718191146084224e-01
-8.603628123284642881e-02,4.876774609206856181e-02,4.689293959529183264e-01,3.393293274986156072e-01,3.266424682587589778e-01,2.791867945983606547e-01,-8.620637739711055347e-02,4.759626137213739394e-01,5.468746960302006688e-02,3.577800031170800255e-01
-9.820526504082928432e-02,-2.194657315649893303e-01,-2.851056128985181570e-01,2.503639391478556520e-01,4.471756200277324789e-01,1.588617169294810894e-01,-4.300828950870206890e-01,-3.283207910525082762e-01,3.819758894508376579e-01,-3.888757067846330684e-01
6.604056678081700327e-02,8.220114492409387463e-02,-1.414440090170341474e-02,-4.728426270488427230e-01,-1.735765872107397079e-01,2.229819145012639503e-01,5.302192568307155796e-01,2.018630332215778922e-02,-3.335642418360854761e-02,4.514754614699791890e-01
7.637719077396389056e-02,-1.230640672531878449e-01,4.944676200857951037e-02,3.890871427372609714e-01,-2.706496352812179373e-01,2.546755047319215759e-01,-1.929800633631505169e-01,2.387194575692109522e-01,-1.877501132847125553e-01,4.677441892460146855e-01
-1.696140977542659120e-02,8.903390022668847270e-02,3.653736431788901506e-01,-4.263295657463465615e-01,-5.485004852760067343e-03,4.507932837644453294e-01,-3.455286986363583779e-01,-9.003328696724004210e-02,4.363019780300572137e-01,3.589773256689735709e-02
-1.423534542929106098e-02,-2.287402854466087931e-01,3.499234507293889629e-01,-4.383975683520470734e-01,-1.931740237777961056e-02,-4.835611067613906355e-01,5.170679883622226747e-01,2.731319909851620542e-01,-3.925385483175917317e-02,-6.835460491281122875e-02
-1.570350992611858551e-02,6.012926200562486445e-02,-1.202146526796457338e-01,-3.686899517932257786e-01,2.208497343832373783e-01,3.932910553200369419e-01,-4.336898996974948572e-02,3.983935982555037447e-01,-9.394723737831837951e-02,2.784378064781032891e-01
-6.985533025588816503e-02,1.324652988986416424e-01,3.699354516675384518e-03,2.720613568495908186e-01,-2.649806931354599104e-01,-4.310536524299619227e-02,-1.148062633150057771e-01,-5.997822294546772959e-02,-2.430043970404226761e-01,-1.413233605513813385e-01
-4.233812670030072667e-01,-1.205386809486628796e-01,-2.470833931572810338e-01,3.458082714535368751e-01,-4.517019355973023731e-01,-3.905358407424037170e-01,-3.748608037326978670e-01,4.845991787579361776e-01,4.223244768721343134e-01,-3.756243263042684938e-02
-3.749900067248778113e-01,-2.637674081066261889e-01,4.475890493153429350e-01,-4.507013133649110936e-01,4.540768941276701054e-01,3.752113274349284655e-01,4.631857884401394676e-01,-1.323057868223997124e-01,-2.143150171173998642e-01,-2.487297502709899522e-01
-3.186694228341670487e-01,5.286620995274463747e-02,-2.370764989985547910e-01,1.600613701612283724e-01,2.128605572923998879e-01,8.980022966120751460e-02,-4.752493918000378487e-02,-2.142601059589171464e-01,3.074445232519694149e-01,4.775141572114235400e-01
3.201250085326023953e-01,1.370331133686311098e-01,-2.891117961169493711e-01,-3.851092625638140587e-01,-4.235413037187526486e-01,2.934909001270550322e-01,1.994882807386180734e-01,-4.122200128870645575e-02,4.141988574230588971e-01,1.391840597078989328e-01
4.761848090936887101e-01,-3.225618427036692215e-01,-2.703676157287459025e-01,2.177522557790579905e-01,-4.201420149509019764e-01,3.909133856935327889e-01,8.605438217885129359e-02,-6.348185134865724777e-02,-3.857899654154159919e-01,-3.180886585838407221e-01
-3.267923676012055578e-01,-4.451499370933297700e-02,-1.276276537985361337e-01,-4.621703769785625582e-01,1.419529904313673319e-01,4.812588204401481717e-01,1.725571092416946506e-01,-3.066463265815511097e-02,3.598272798704907904e-01,4.299031010142506659e-02
2.824031158945127240e-01,2.522187478567015084e-01,2.407815198075606844e-01,-1.585343002577705995e-01,-5.971804433097338549e-02,-6.320596562547209363e-02,-1.741961839944039525e-01,-3.131819992558837473e-01,3.921640402345444865e-01,3.030836814337282137e-01
4.392796188042139005e-01,2.740881441750381842e-01,-3.083415248840130074e-01,2.622902115307116366e-01,-2.686576189180592267e-02,-2.149449086972489431e-01,8.608076762965299888e-02,-2.286022938953055084e-01,1.628940128683209476e-01,-2.559849050259280223e-01
-9.142738183777196492e-02,5.314056605524616200e-02,-8.889976423561112007e-02,-4.867182757978152918e-01,-2.096404911531188006e-02,4.625576242692819307e-01,9.165699339075874391e-03,4.525069017462042265e-01,2.730037458189081834e-01,3.167681610149873372e-01
-4.036570460476002764e-01,6.587968343764956207e-03,1.104626573679943213e-01,4.263822781355374181e-01,-2.859484246864978929e-01,6.085439351817949899e-02,2.591480664785807964e-01,-1.231064244662130602e-02,2.448245274492575341e-01,8.704946548893702229e-02
-1.661043182026115672e-01,1.843947272899130185e-01,7.995001608237137236e-02,3.622238299318661370e-01,-4.893906519167315339e-01,-4.657183889529626364e-01,-3.810303475150493835e-01,-1.383625267357141697e-01,1.404104923360234292e-01,-2.746325574727434549e-01
4.594886111534359774e-01,3.984687665954164681e-01,1.767618045815862737e-01,1.236882839494745784e-01,4.038479054289276227e-01,-4.473831604000704787e-01,3.578246583055896268e-01,-1.476226476037601279e-02,-3.364528681918854680e-01,3.914681830240386851e-01
-5.583573641623567479e-02,4.744478737059504847e-01,-3.114251793320519379e-01,3.253677853182938007e-01,-2.048991236224288470e-01,-4.827193312312534346e-01,-4.394663793425901410e-01,3.397476338191821044e-01,4.668245585217599136e-01,3.848522204061006341e-02
-3.516811857277745701e-01,3.061002498263768468e-01,3.514771048976095269e-01,1.172639618102669368e-01,-2.803363723477911851e-01,-3.418822704800335011e-01,3.123846333373456186e-01,3.924205318199273096e-01,3.586375011477945657e-02,2.931400313945814462e-01
5.128014580163119396e-01,-2.725493539153466815e-01,6.407560177803375834e-02,2.661125723802898468e-01,-2.410279938400732708e-02,2.238375328864359304e-01,7.156757848137811073e-02,1.040642943482470856e-01,-2.440758186726297296e-01,-5.026539928450992623e-01
-4.866435236809676934e-02,6.395146436622659025e-02,-2.205501375909225958e-01,1.249599010867525894e-01,3.155248358033161393e-01,-3.301201852164818429e-01,-6.442080766395499869e-02,-1.227217269843505210e-01,3.040139634355645826e-01,1.666185523499486565e-01
-2.879378438002586638e-01,1.321845991518886265e-01,2.421523291257065558e-01,2.315611042371405193e-01,1.213812213653660127e-01,-2.525433409458880535e-02,-2.684005384505914193e-01,2.185819647609029415e-01,4.382080450165397045e-01,1.028198784532294296e-01
-2.525483653392248673e-01,3.425490722384780251e-01,-1.710974159297139474e-01,-9.998544130803146968e-02,-3.548326102458077558e-01,-1.116046994642937995e-01,2.420361994966448160e-01,3.947616186055964982e-01,5.314368785463721157e-01,-3.620470610876305728e-01
3.726064102103482378e-01,-7.917555595306491334e-03,6.683993699985976145e-01,1.590029773479498532e-01,3.194900669448731412e-01,3.479263542677300536e-01,-1.311460849555949049e-01,-6.975095986693079404e-04,6.823921575741595524e-02,5.682523109066308503e-02
2.799454010852592267e-01,-2.500988399133176054e-01,1.566880513183931123e-01,-3.907362208841168028e-01,1.968827639017136366e-01,1.786886477586649424e-01,-2.943863485147631964e-01,5.406390420683723219e-01,1.800701488159002217e-01,1.008630216840902538e-01
5.254782834411322184e-02,1.118936105198681530e-01,-1.405039780760984069e-01,1.677983695506004014e-01,2.880756787206409930e-01,-4.441490374882586800e-01,5.726708765168428972e-01,2.284998649263772497e-01,2.402762668879613039e-01,-1.940828672947052524e-01
3.403708306978595055e-01,-5.327912293263046273e-01,2.903033141319557586e-01,-1.231913832717814183e-01,-1.547786007891214788e-01,1.271641057643076167e-01,1.386469572406339168e-01,-8.546288859945377903e-02,7.885768679302443962e-01,2.431050592330743498e-01
-6.892824195181469771e-02,-1.376102253679915566e-01,6.804630448048828439e-01,5.801192760539220644e-02,5.825109456212246295e-02,8.763414579133320392e-02,-2.379295710910180883e-01,8.613489941174728992e-02,7.715849232492955068e-01,-1.765914872810699088e-01
5.870457724163830049e-02,3.435108497071503453e-01,-1.411732502389047017e-01,-4.313346555847663577e-01,-2.823751267063309700e-01,-4.818737587133389288e-01,-5.795662545175701841e-02,2.160667975984144340e-01,6.295045581270752866e-01,-1.829682011413414078e-01
-4.633145760711723238e-01,-3.672182551588215604e-01,4.338300193088630019e-01,-4.747015771672306594e-01,5.816866652874583821e-01,1.628749376496838319e-01,3.703117709758942111e-02,3.103285774165139288e-01,-7.725507793073332907e-02,3.050517366719703305e-01
-5.519781543261792489e-01,-1.074448361527602924e-01,-2.732429954332636912e-01,-9.451652366935564542e-02,1.116249322636988228e-01,1.580681050349813377e-01,4.269935195322164811e-01,4.179322445310727496e-01,1.454588328664507269e-01,1.817266860027179631e-01
-3.235325836176199399e-01,3.399983483536637152e-01,-2.638693460949763647e-01,-1.744620513899571013e-02,1.976999512999979280e-01,-3.093174738377726940e-01,1.090946038218053651e-02,2.296921882853989599e-02,4.045372893551392179e-01,-2.127179228737252625e-01
1.366225383425766216e-01,2.575689190881519930e-01,3.480037324190134451e-01,2.093480444241493099e-01,-3.363144479988484647e-01,-4.045956906695331035e-01,-2.098888990484439887e-01,2.707406948276162573e-01,-1.759883865497531841e-01,3.962659833318373792e-01
1.263722180586153987e-01,-2.262599213044927948e-01,8.235552114213462449e-02,-2.119198023717514534e-01,2.213142654426431544e-01,-4.381816977517310474e-01,1.659460045615236690e-01,4.039400094221444193e-01,3.831643526706494662e-01,3.028149447051818322e-01
3.521201416347451985e-01,1.912358802991397377e-01,3.171110803975849546e-01,3.925742911204992830e-02,8.501823437403646655e-02,5.037449988354394254e-02,4.520167060830223016e-01,5.891186248764723743e-03,1.456565761119893720e-01,-2.197382631509554596e-01
-2.384794664649982077e-01,7.525326533190283829e-02,7.853817333579386772e-02,-3.678306641427396828e-01,3.955034301546592745e-01,6.824188682012845286e-02,4.186259198935460280e-01,-1.068344306129995480e-01,-4.088790546040508289e-01,8.905433009053453919e-02
-4.117165094576686890e-01,-1.123383689378201766e-01,2.329430728044384336e-01,2.501574544344069562e-01,-4.701211348965455006e-01,4.851830738429244727e-01,-3.518609600938388815e-01,-1.083516036584039333e-01,4.924110512525367023e-01,-3.709544449445916214e-01
-3.650372187293167148e-01,4.617873326036576742e-01,-2.166907621458527278e-01,-9.782674624292886367e-02,4.370434714423636069e-01,4.854839190145919248e-01,3.516573234637359047e-01,-1.415256964141996532e-01,-1.255173347446076892e-01,2.016973100832626375e-01
6.203278124791788972e-02,-9.003766625489872943e-02,-1.453168017114396804e-01,3.683330494173268077e-01,4.335444577757550655e-01,-2.550234419309180822e-01,1.737399804803601011e-01,3.187410310790271817e-01,3.468931451049221404e-01,1.201607417101770853e-01
-3.041824450837751770e-01,3.969617207484769650e-01,4.266564698661751698e-01,-2.489820572315056268e-01,-2.288419219108130676e-01,-1.184903122632911809e-01,2.336576158897121502e-01,2.449906263679696439e-01,2.159441903837833465e-01,-3.153769714125894130e-01
2.216776085581745326e-01,1.189404844175876441e-01,-4.275789071634517047e-01,3.993186109317426458e-01,-9.692547000819368153e-02,2.391514945064245057e-02,-4.775509520009262321e-01,-2.473931850479800520e-01,3.759812180327422593e-01,1.507544902831824962e-01
-2.949808476791473955e-01,1.107602449568041020e-01,-2.688498086646622376e-01,-3.585689038886483854e-02,9.025045850965139616e-02,-3.295441726746277111e-01,-4.142627832950566691e-01,2.074483796535548652e-01,3.398564350173651216e-01,-6.451316033354509427e-02
1.178219009138354451e-01,1.213157671712012248e-01,-2.440788323732276111e-01,1.854364694783330603e-01,3.769590399749842002e-01,-1.492995039969296778e-01,9.121099454799487527e-02,-7.091044395729510265e-03,3.349975700313399529e-01,-1.055907854493098041e-01
-2.153812553189626833e-01,3.297677786766505803e-01,1.474943787098872694e-01,1.835246543391899354e-01,2.018753560745658593e-01,-3.242275450158346728e-02,1.938249795039198031e-01,-2.643787455510371864e-01,-4.640994915818201783e-01,3.432109950923043634e-02
3.619233022496630148e-01,-2.505713363317136899e-01,-3.313699716770798775e-01,-4.035100124553546164e-01,-2.348957124292099657e-02,2.636038694776482449e-01,2.194853576328410771e-01,2.839707023957981358e-01,-2.798875036397589500e-01,2.148069530429020935e-01
-1.988125707617743182e-02,-2.640009702095205690e-01,-1.091876904825628408e-01,-1.158562200704284090e-01,-3.152062025251594624e-01,4.308379618004503087e-01,1.360215449267512533e-01,3.887539117740880235e-01,1.621673995892851938e-01,7.252240972414376874e-02
3.982678701721500958e-01,2.790629042242340763e-01,4.660414207174382040e-01,-4.547942573618373591e-02,-3.455844312002141483e-01,-5.359620396328110825e-01,-4.425638641924751759e-01,-1.372566649339758416e-01,-2.456554181253958746e-01,1.411745249630911303e-01
8.447670845936834649e-02,1.094258406864950656e-01,4.719015116169337221e-01,-3.103777988255421866e-02,3.207667975773834113e-01,1.988162498392613831e-01,3.727096683647168063e-01,5.533707219889095752e-01,-1.240694486029955967e-01,-4.828485595805877550e-01
1.959957153101507255e-01,4.961680647728242688e-01,-5.575259795538748536e-02,2.479290899946739180e-01,-2.587747609022421069e-01,-4.423151032781642011e-01,4.699927836297708161e-01,4.120814426156647059e-01,-3.595722205763344781e-01,-6.593456821861621853e-01
2.162237513055091653e-01,-8.461142961716239252e-03,-3.632374415366563386e-02,3.382301045683531737e-01,2.254099529015575754e-01,-4.716105414066298906e-02,4.265832056078399104e-01,1.456813237676918005e-01,-9.163803136190838694e-02,-3.274588207310432098e-01
-1.481513360377459121e-01,4.206854003919161672e-02,2.281787448833505760e-01,4.182339716646330530e-01,-1.124208374751598377e-01,-4.483257111750689750e-01,2.628646982131213616e-01,5.133266953227397789e-01,3.345744641606827607e-01,-2.980351715769785637e-01
3.877300897916837186e-01,4.813967942059996230e-01,4.362336533836219665e-01,4.154826108400310747e-01,-3.675338550493137402e-02,4.852711088917924243e-03,-3.232181503247616439e-01,4.147494991140540654e-01,2.514338597267349873e-01,-1.777795337813221632e-01
1.818596256519455501e-01,-4.472036938903513614e-01,9.900540037987731745e-02,9.914013464295455547e-02,-1.007492220061193128e-01,-1.890988093173213147e-01,1.771639541776833249e-01,-1.469747095715455976e-01,-4.717028590489193846e-02,-7.596645079027388725e-01
-1.989327751294708846e-01,1.656881369332214027e-01,2.411057862489853210e-01,2.917347954097171958e-01,2.155229228390647400e-01,-4.286270538364691379e-03,-7.763354790849436027e-02,2.702559274565744518e-01,-1.843166583969426120e-01,6.799552762864619071e-02
4.433080522317677241e-01,1.439485566136278483e-01,3.848768893575655464e-02,1.607958052979791830e-01,-4.255903459579588599e-01,-1.490568374706031929e-01,1.932034357814156056e-01,3.290360745269251264e-01,-2.367769780711833083e-01,-3.795139996313782738e-01
-5.440717483746097122e-02,-6.975656031063953710e-02,1.928673529175815027e-01,-5.487230334900883993e-02,4.650316759446344178e-02,1.735287173147357156e-02,6.744045165356329918e-02,5.544472840644017880e-02,3.425805308675589078e-02,-2.133686449502054105e-01
-1.547186928736169198e-01,-2.223686899590815724e-01,-9.028719273477855967e-03,-1.328891585404546639e-02,-2.777699885998280438e-01,-6.690734702189017613e-02,1.127165438511515960e-01,3.369085735533703385e-01,7.145505675184776750e-01,3.539544934454110382e-03
2.659262587056756000e-01,-3.554657639536320524e-01,1.272516807516748394e-01,-8.235563821618455127e-02,2.421762524138821038e-01,3.027705377848481372e-01,-3.594127264306974656e-02,1.073644606437105936e-01,6.021735161969927752e-01,2.571946792137401183e-01
-1.191669774770091478e-01,-3.711354198416523531e-02,-1.868461442148766916e-01,-1.181756285277220792e-01,3.300116818718333844e-01,3.208562151445087940e-01,3.906492096636333122e-01,3.119703157051981202e-01,-5.298642152231443359e-02,1.937740379902861965e-01
2.300976196098580284e-01,6.051324307235280558e-02,3.396667702433461833e-01,-3.406540338362024078e-01,4.093064661816122052e-01,4.703477451478982330e-01,1.900455888189979958e-01,1.007876092553809111e-01,1.320791270461497413e-01,4.043124276108813198e-01
2.371816483051727431e-01,-3.057384705416377191e-01,3.115937373573635094e-01,-5.585232085099045563e-01,3.088103697314241169e-01,2.638194520335743198e-02,-3.457607150593717260e-01,2.598904710186572542e-01,-2.717572403619090693e-01,1.305180655555694957e-01
-3.260929488376927976e-01,-1.334451627196631684e-01,-1.324404308262359664e-01,2.903987738735042123e-01,1.605070445247741562e-01,1.700978179361304354e-01,-1.099493546691760609e-02,2.669375546365673757e-01,-1.725662478912935727e-01,4.048703031218196524e-01
2.689876627639146145e-01,-2.236832002798022634e-01,2.332449596774503753e-01,-3.970409475043132908e-01,-7.230172002177970292e-02,4.385165276574826687e-01,3.605625761820916986e-01,3.234271616399997940e-01,-1.495480772388657897e-01,2.643369251222682514e-01
8.591730705060628484e-03,3.538825429700869218e-01,-1.390473843431906664e-01,-3.391965157243009843e-01,-3.153347676228943630e-01,-2.976621128468938116e-01,2.075185632793231927e-02,-3.690681576505848438e-02,-3.163462487021828085e-01,-4.285123478905919492e-01
1.391147005841096851e-01,-1.242498112293953100e-01,-3.572982000092640720e-02,4.037409121571017834e-01,-2.408189188264961145e-01,2.362179267776028380e-01,-2.720984066281927349e-01,-1.820745995034588338e-01,4.040366646866183076e-01,1.845626897205748240e-01
3.038619355529166288e-01,-1.461472930708699047e-01,-3.580153399825669047e-01,8.656367599280534453e-02,-1.465122033283677572e-01,1.831872096545970191e-02,3.188977929534294598e-01,-3.012339680595432223e-01,4.239082350584528758e-01,-1.541373283386329451e-01
3.666913729493155305e-01,1.123747479257605209e-01,-4.529678933091896287e-02,1.589342886497084884e-01,8.673540167630489073e-02,3.218473818196754266e-01,3.538389250589504265e-01,3.143419559348848979e-01,-8.509949642466319020e-03,4.117710187041556669e-01
-2.991554151918766058e-01,-2.808917275839388772e-01,1.757441713991803045e-01,2.799641760311417649e-01,-4.464127721358412959e-01,-4.654728453805839772e-01,-3.354284953121233759e-01,6.597023726209161332e-02,-3.240479595421369430e-01,-3.088559327199382754e-01
-1.049990276573176534e-01,-1.438275141329458384e-01,2.740505543043023629e-01,1.266402040541428908e-01,-3.983634855441863833e-03,-4.192441012350708179e-02,1.505940212473578510e-01,-1.937274287034081721e-01,1.507405472166020999e-01,-4.424928383640149288e-01
-2.672415366684869342e-01,2.004221129431503767e-01,2.218425477509338994e-01,2.731540066298372982e-01,-1.596526064874172757e-01,3.590339778840261342e-01,1.573874259380241003e-01,-2.369861064208271181e-02,-1.030042609423154204e-01,-3.704104462412016185e-01
3.011346041327304102e-01,2.143720695156526024e-01,1.037817732978190688e-01,4.185666436579587035e-01,-1.854186317623268687e-01,1.538895456380759141e-01,-2.762406053009573426e-01,4.564543580427768976e-01,3.039754490690249611e-01,-2.201362869276569656e-01
2.977371529742290357e-01,-3.354782500205276685e-01,2.870753881054013967e-01,5.232920686399852306e-01,-4.943211898997952880e-01,-8.350745193447196846e-02,-4.437085545346985960e-01,-3.347004675744468805e-01,2.839465869800720799e-01,-2.617366379984286673e-01
2.132934796454498128e-01,1.862625337968288608e-01,4.454006113704293557e-01,-9.728031419828087056e-02,-3.342579956410459685e-01,-4.511381769900783545e-01,-4.377775301736520075e-01,4.330268686134980949e-01,-3.192318229113643574e-02,-2.765434736527949133e-01
4.061890478476944955e-01,3.343940927491052817e-02,-2.409291729948365712e-01,-1.726205128924761523e-01,3.593088602841075230e-01,-3.390534729465035091e-01,2.609327408525999870e-01,-2.953412014241702521e-01,2.789204163201715603e-01,-3.873669887482825147e-01
-2.316914704316912557e-02,5.621603223927126303e-01,2.313149346953125018e-01,3.001697637553014109e-01,2.538537842272611117e-02,2.860084236564795768e-02,-1.534403868604158616e-01,-2.924116497209865995e-01,2.341402934966286820e-01,6.535806177258145222e-02
3.041853463953760328e-01,-1.664316350875241768e-01,4.683007679720684879e-01,-1.246839541563051906e-01,3.539057954864630595e-01,-2.663407305786184009e-01,3.886809270175483610e-01,1.313454918905491153e-01,-3.569807301449288151e-01,1.498412930910126284e-01
5.629128791726150105e-01,1.344848511471271602e-01,-6.469088838888829851e-02,5.675636031356493666e-02,-1.001008336775452284e-01,-4.588445338370800912e-04,-3.441926241791452568e-01,1.241068363239586497e-01,9.382602107741827568e-02,-5.268605993649624342e-01
1.538510035107930607e-01,6.455702290992824943e-02,4.459135566171914533e-01,-1.494800172069685462e-01,-2.624226798193514121e-01,-3.048080534433149635e-01,1.681069564376990733e-01,3.506116290434635463e-01,-3.779296455857375503e-01,-1.768137314731552390e-01
7.415826387230978201e-02,1.568846199904996019e-01,-2.066298914166538048e-01,5.166498571219517721e-01,-1.495391070812362999e-01,-2.835032338004829858e-02,7.222195056200123031e-02,3.483482455049237148e-01,-2.239088296761052588e-01,-6.622506846295063143e-01
3.561705059690925546e-01,-1.370730948887805001e-02,-8.121025322615768594e-02,2.298734742356997318e-01,4.486346905150528919e-01,2.093432843184147296e-01,9.043815940282008692e-02,2.060718034978529789e-01,-4.535351506756633011e-01,1.252660154622838029e-01
-1.493689377542996022e-01,3.982365803182326691e-01,4.944324761961731984e-01,3.664063716035425577e-01,5.270850886829171467e-01,-3.122140774133928126e-02,-5.126712793159043935e-02,5.302717302823707346e-01,-2.545228074602879920e-01,-3.669085335676978699e-01
2.786163197689077164e-01,-1.649279804835338814e-01,1.609501460671306297e-02,-1.495676169585780924e-01,-5.716142777894951676e-02,-1.464701016312380533e-01,-1.498151914007249119e-01,3.909494870578547610e-01,-6.486795555616536868e-01,-4.261035680019255589e-01
9.711389749161956908e-02,2.358644101189864006e-01,3.744577889613653204e-02,3.503373576897895192e-01,2.780678948035403275e-01,-3.551894643400325124e-01,-3.043259396322163246e-01,4.061205163986960076e-01,-2.959941456561803741e-01,-4.202459945176640899e-01
3.217005407312893694e-02,1.939870951814810507e-01,-1.843637997253504135e-01,-4.186049602793118912e-02,6.007597023750485543e-02,5.608120695098133685e-02,1.699061237038877459e-01,3.040643647668405444e-03,-5.606062477158019197e-01,3.389337413643981334e-01
1.739218444257138452e-01,-1.274743093412227246e-01,1.136562509738498344e-01,1.332646894858417475e-01,8.259909363775891356e-02,-1.674336888732169681e-01,-2.052869398238355569e-01,5.252240308959216231e-01,-2.604092110657219017e-01,1.172873272553807966e-01
6.698621772544391395e-02,-3.749753926028154272e-01,-2.492741423233158782e-01,-2.081024830909572812e-02,-1.489739211206496938e-01,-4.896290643428750228e-02,-2.512514870231166708e-01,-1.493583915882930879e-01,1.546191448051112693e-01,-2.971128359125209135e-03
2.367904815670808238e-01,9.503947285543973278e-02,4.322797487852770848e-01,-4.429578118353304575e-03,-2.666305244804472174e-01,1.576477220796842493e-01,-8.619410201537018590e-02,-1.551983822618831499e-01,-1.586525784014018725e-01,1.836176949507245179e-02
-6.586116385224510860e-04,3.365629710828563215e-01,-3.340575889235861684e-01,-1.587450895886397817e-01,2.707508801490596806e-01,6.513812614786901323e-01,2.184710209462252251e-01,-3.660852435964615514e-01,-4.648545992733408953e-03,1.138544894988483963e-01
-6.499586873953008825e-02,-2.597654335275365045e-01,-4.628835329924527175e-01,-4.037143704907478203e-02,1.690447033056193260e-01,4.900965840809442531e-01,2.042664683784878588e-01,1.251348565879172314e-01,-3.429095125252905607e-01,-2.705188810794515591e-02
2.149933978528039691e-01,3.547305534520250880e-01,-3.764535451778582703e-02,-4.672125431980440058e-01,-3.402103363571684636e-01,-3.976139479193819409e-02,3.725043217284697006e-01,-4.922831373936608634e-01,-1.547695078057743229e-02,2.731757012955914887e-01
-3.183087823313063836e-01,4.557423051000512176e-02,-2.468767274471836970e-01,-1.585280767434067151e-01,-5.162809684401752364e-01,-2.708224799719355369e-01,4.615016986648183828e-01,4.646865927509488681e-01,4.286428203972855178e-01,-2.509955122604867195e-01
-4.507936909723134766e-01,3.861493189356578482e-01,-2.638852553772352283e-01,-9.225474740671994744e-02,-4.891724393310452612e-01,-2.926663244132869379e-01,3.119682466736618462e-02,-3.833536960053634535e-01,-4.529287970010468789e-01,-3.766475904047767442e-01
2.691049908551962355e-01,-3.456091374320741788e-02,-4.219055183522875119e-01,-2.802227943305115043e-01,-4.990081894841309484e-01,4.658599932578738612e-01,1.418225527613971859e-01,-4.674305325268234834e-01,7.898657912471053477e-02,-4.066228558951824890e-01
-4.606342408954653411e-01,-4.010543094772098249e-02,1.571076965546223947e-01,-4.846323679961877517e-01,-1.456523700681688349e-01,2.936737690468684270e-01,6.292896492058347446e-02,-2.097910739872391739e-01,1.397099523844496372e-01,-1.673999849706610255e-01
4.188209033972145057e-01,-3.804835026964735190e-01,3.963400993323300536e-01,1.921428464747806375e-01,4.590017846247196331e-02,-3.404717374821460973e-01,-9.053430963706432522e-02,-4.966104763620488027e-01,2.653785108123339898e-01,4.762126391710518325e-01
1.562212188854967543e-01,1.210069486409075384e-01,1.724442366544786664e-01,1.875286875196545966e-01,-2.837246912613510252e-01,4.722657295470276129e-01,4.458603107964737577e-01,-1.898505459399229545e-01,-3.620441406092430592e-01,4.200900006597629299e-01
3.178548901249590442e-01,2.867666482272709372e-01,3.919335559281652559e-01,-9.069171606790604745e-02,-2.873139861293860786e-01,-2.136707052420346031e-01,-1.315601127710092910e-01,-1.197524650147408498e-01,1.174883273296397496e-01,2.003125548273770318e-01
-3.263866028998558266e-01,3.505915751379263812e-01,4.943724191833084869e-01,1.083661546156984568e-01,2.483632948388634631e-01,8.109919592756083956e-03,2.797205779022322036e-01,4.000431298719543949e-01,-4.726541033324008906e-02,2.554722316508672292e-02
2.755451403542870728e-02,2.537471916798040850e-01,7.755179142600626685e-02,-1.024456872484120068e-01,1.150795604181536064e-01,-3.045080968096843810e-01,4.073343585708077419e-01,4.719647753211343999e-01,7.792606460902416765e-02,-5.131077009796861654e-01
2.473663282441735112e-01,-2.464576009803146894e-01,-3.385484166243875048e-01,-2.457891405020725673e-01,5.820739114490515453e-02,3.665389778045090030e-01,2.581965777990084532e-01,3.197572785876042767e-01,4.225038629170212445e-01,-1.784807691242703276e-01
1.756682819136181628e-01,3.530062437721491198e-01,2.432986053648754088e-01,6.106804124228935038e-01,3.511170801300415173e-02,-3.137949964628020116e-01,3.748597525738453506e-01,1.905500135105109849e-01,1.018608471094383239e-01,-6.253969764406928089e-01
-3.019660868216550442e-01,2.635359171634670261e-01,6.306355052510890236e-01,2.716730716292227177e-01,-8.769830957575133062e-03,-2.778175347948351748e-01,2.694723619204587584e-01,-4.560688421389061387e-01,-1.783687506249659327e-01,-2.454893775921105081e-01
9.540879216913060457e-02,4.102738985854321729e-01,2.967344591988983482e-01,-8.950444491554440662e-02,-2.611905201866430715e-01,2.551603652998840621e-01,2.684612033872812997e-01,6.054122637783391353e-02,-3.983235968031789698e-01,-2.087524583150486002e-01
-1.373882404355886155e-01,4.993651673148266634e-01,6.066107162244039480e-02,-1.746020380039035869e-01,-1.179543352600757600e-01,-1.896791281310602761e-01,8.994355969686204655e-02,1.218383388310595034e-01,3.417154362309829940e-01,-4.691229187396017686e-01
4.523631353595734123e-02,2.888370166815325615e-02,6.332965265039983138e-02,1.661262443450137738e-01,-1.381351984015306289e-01,1.918645627992469349e-01,-3.164495867947484942e-01,4.510571524967254553e-01,-5.173738935359132318e-01,-1.218448974565986276e-01
7.245906005900548674e-02,-4.233665004308792557e-01,2.371335014350080261e-01,-2.421638833708515959e-01,1.046187649413138770e-01,-1.537008587427698691e-01,2.705312606105608197e-01,2.122982405106503545e-01,-1.327144860021010342e-01,2.163571003503447221e-01
3.595108394112953021e-01,-6.212292720202326063e-02,4.514071207095105565e-01,1.191449912214652684e-01,-9.852465518098993749e-03,-3.390587061165238336e-01,3.570908724530814093e-01,5.403469255299508250e-02,-2.821969583634498235e-01,-5.148892484802285452e-01
-9.104319006075670129e-02,-4.658095987515324388e-01,3.808986621620950169e-02,2.507674835720035689e-01,-5.118549091479861479e-01,-6.763216066478897615e-01,-4.321475555007969760e-01,3.378040918599621856e-01,3.748693259554366358e-02,2.614655472326149130e-02
-9.528655530070337387e-02,-6.160051626353645338e-01,2.603824517924777648e-01,3.814366010574455901e-01,4.681563445149247715e-01,-1.725313701375105202e-01,3.969360069096543597e-01,1.789804648836590961e-01,9.938921409258551221e-02,-1.624446978246033846e-01
2.788010465393827575e-01,-4.407498258437806959e-01,-1.724980170323540674e-01,6.036155356075362938e-02,-9.260365113927275516e-02,-5.320176922491172133e-01,-2.350696851607435578e-01,-1.665104586782520657e-01,-3.101161157146669067e-01,1.577853392275826716e-01
-3.253504790536539404e-01,-5.595514724256931416e-01,2.759416554175429526e-01,3.303061387536892490e-01,-4.851115422655191689e-02,-2.721907120909116129e-01,8.436280877304667969e-02,4.170864669108226980e-02,-5.873628007355396335e-02,-2.129592586135156951e-01
1.665457748106484448e-01,-4.413870337576377700e-01,2.949564779858350194e-01,-1.709505126867156555e-01,-7.296659651214070993e-03,-4.139920922559149896e-01,-2.479978463015611589e-01,-1.041940326288487567e-01,2.269913835578344363e-01,-1.016919392959095975e-01
1.306972977983047457e-01,-2.412349355713068744e-01,5.055668425750892148e-02,1.647513074615437056e-01,6.901870179226037710e-03,-3.581971287214737454e-01,-3.957503200419661415e-01,3.242174850191668622e-01,-3.533447753889613074e-01,-1.051321741254381548e-01
2.368044623300357698e-01,-4.487863416018543772e-01,-1.029285614385259812e-01,2.089202201206657172e-01,1.503226699073793859e-01,1.535332722679756332e-02,2.311797994668246259e-01,1.809545023854926549e-01,-5.090095812149406651e-01,4.759863897753133927e-02
-1.938981045120463931e-01,1.391283012323824009e-01,1.068482904654326771e-01,-2.516120324413465004e-01,-3.845391998444829817e-01,3.297365410669371166e-01,2.582523873892272892e-01,3.962249338280239286e-01,-3.804567375439266708e-01,-3.373536272962755489e-01
4.609949875618413184e-01,2.221278729815891195e-01,-3.239159763223734001e-01,-1.510458399177419253e-01,1.433059103388789612e-02,-2.903813008863326273e-01,1.837308730030529913e-01,1.592423615301825912e-01,-5.627953655869668559e-01,-9.127763491879737137e-03
9.498734855224327811e-02,6.436429128419081103e-01,-5.571698359654176924e-01,1.693529342773374691e-01,-5.106096388043964707e-01,6.313512438528230408e-01,-6.644291028091905416e-01,-4.198094559761713501e-02,-7.086156612112876063e-01,2.736307059841986411e-01
-1.550219234255666156e-02,-3.189626316473222478e-01,-3.783456404293625286e-02,-9.925605865502162839e-02,-1.257301460368934476e-01,3.405208041822755383e-01,-1.224817331576107809e-01,-1.635956547371482939e-01,-6.083527896014219172e-01,5.978840603515130914e-01
4.442068275249440035e-01,-8.517579552143048072e-02,1.041389591340649706e-01,-5.968682907867030041e-01,1.622471070842585947e-02,-3.248696475916538345e-02,2.189837532835336442e-01,-1.170981512561504873e-01,-6.333607708966507710e-01,1.210485979481241564e-01
1.890651555109219839e-01,-4.530359406340369044e-01,2.974764753274968254e-01,1.153070387175368361e-01,-6.482348870382990957e-02,3.716653902620135619e-01,-3.443510641301839592e-01,3.422061422006673643e-03,-2.912358857232751896e-01,3.987143835759195398e-01
3.532966991603896934e-01,-1.874043243182757223e-01,2.552415610733465567e-01,-2.827267562453850136e-01,-2.811912426621431330e-02,-3.223916178704755442e-01,2.316823967365239934e-01,2.648261553324453565e-01,3.589491670672330659e-01,4.874043158563602374e-01
2.595115100260195207e-01,4.500312313881362214e-01,-1.218967597437928402e-01,-1.208638830671894399e-01,-1.244470569890325090e-01,-4.478693963630669961e-01,-3.123864670951806977e-01,-2.983356380934349406e-01,-2.024013891804599397e-01,-8.521210131532390430e-02
-4.094102406275896278e-01,1.739434409263803660e-01,2.140369641609588258e-01,4.287357305273951646e-01,3.910791666262170008e-01,-4.748375444681215418e-01,4.213368713337984905e-01,-4.596982916792463070e-01,-3.511571486449577284e-01,4.839220523973939425e-01
-4.811436950140824537e-02,-2.619921453426354852e-01,9.159604938008629460e-02,-3.407460051242306998e-01,2.341490358755997647e-01,3.646496809895329316e-01,-4.494839310206967253e-01,-2.801488338086435270e-01,1.144448294711703507e-01,-3.517173240872863427e-01
-1.582286087491808768e-01,1.518779573357708357e-01,-4.081668058478766237e-01,3.993379776728419039e-01,-4.292078015958132320e-01,2.576975024125373048e-01,-6.151419486528786340e-02,-1.631444188446976307e-01,-3.728007868166912098e-01,2.626618573831868697e-01
-4.021701626114176920e-01,2.420029199222142879e-01,4.900493412475395716e-01,4.404386021117159267e-01,3.143767110795096520e-01,1.734295561103802938e-02,-3.860161143411847129e-01,2.720224338095719174e-01,4.883685590825100342e-01,1.289994633368482524e-01
2.249733070556613479e-01,3.657722139462027400e-01,2.076366211886289670e-01,-1.623854165982702713e-01,1.734298673664225188e-01,4.381637482636931147e-02,4.220777687153475649e-02,-3.997406401237492135e-01,-3.228872897933643404e-01,-4.312860930553705785e-01
-1.056865032174893748e-01,6.635543912214818263e-03,4.184085206933155915e-02,1.795011740893389524e-02,-2.174386562022957436e-01,-8.617289453714442604e-02,-1.786245323477188285e-01,8.694783860860257063e-02,-1.948410930163047838e-01,1.905333131059986917e-01
1.903257079889433129e-02,-3.938548124338948214e-02,9.210757500589038249e-02,6.190827376441017382e-02,8.337802538312830136e-02,1.909739206349647667e-01,-4.446535782523255431e-01,-3.198416308483967851e-01,-3.559965888925930577e-01,-3.545745324423388301e-01
3.438596409300207629e-02,1.906878855477106560e-01,-4.582313751171163130e-01,1.154105552876816265e-02,-3.315986951070286071e-01,1.469210779239246006e-02,4.117859656871803997e-01,2.793359118048586720e-01,3.317154068921771559e-01,-1.119453966639680220e-01
3.370915347218962910e-01,-1.360234063168831442e-01,-2.495201418435349372e-01,5.189666221048372385e-01,-3.305906850152461884e-01,-1.454585024012845507e-01,-3.322227736514676844e-01,3.236540521939109127e-01,3.373432947871484178e-01,-1.036222501271452934e-01
6.033945794742439500e-02,1.183302559275734890e-03,1.675444591767155933e-01,-3.245820335667443657e-01,-3.441063175623436110e-01,-6.366338370462648610e-02,1.856737465966459832e-01,-1.993310603411490300e-01,2.002126811834749054e-01,4.867897170443476890e-02
5.065198342759016370e-01,-5.555947711496650454e-02,-3.810258668549117989e-01,3.244643163175682243e-01,3.876162421218519727e-01,-3.479812133972284283e-01,3.069394027594549712e-01,-3.570019404331428170e-01,2.018112106507654879e-01,-1.072771275239426947e-01
5.954856699935848763e-01,-5.164187886098797753e-01,-7.405019486898943570e-02,1.360032844978504574e-01,-3.086335005484341920e-01,6.231116381807105115e-02,1.441334718004977644e-01,4.360161365544289180e-02,2.452813224568576311e-01,-6.311850726267256850e-02
3.109392854514020366e-01,-4.354470656563234621e-01,9.116662500101663236e-02,1.607084426485532458e-01,8.473725780102912830e-02,2.649911851924625084e-01,-2.530586855589745388e-01,-3.184162711289226233e-01,3.824025533840005320e-01,1.668945282955140441e-01
5.194363261222876421e-02,-7.164658974008543124e-01,3.425275744950290191e-01,-8.418623488621568285e-02,-3.728540066149584054e-02,2.900936008318249493e-01,3.639523978426802975e-01,8.393834654577322918e-02,-2.452814689762460310e-01,-6.065279100650148303e-01
5.933793397063389513e-02,-8.294437094302915536e-01,2.819828476351181612e-01,2.517642657074603552e-01,-1.639577958408835467e-01,-6.810626331863822713e-01,2.501534319758554892e-01,-2.103394350829017323e-01,4.376998178170344311e-01,1.994805208261950513e-01
-3.415846811672844097e-01,-5.105631418992995219e-01,1.589189831745002890e-01,5.592991904744007980e-01,-2.230394767033501702e-01,-1.507765740946497846e-01,-8.011653464566807423e-03,2.274482189935303142e-02,3.530813403046072496e-01,-1.655206460460392215e-01
-1.953474373635697703e-01,-8.988075119308750471e-01,2.213513559612468040e-01,3.860515740205135438e-01,3.002367671047569825e-02,-1.513066100387890911e-01,-4.414062400642461137e-01,3.491966660074701245e-01,2.417346563465123666e-01,2.415211926262212927e-01
5.029152339597322552e-01,-1.844781361206080106e-01,-3.463115287492843919e-01,4.262280965927219833e-01,-7.085589498052462243e-02,-3.771344190663620255e-01,-1.265853433445950915e-01,-3.840198428488328375e-01,-4.042452825300352909e-02,-5.319109390834642764e-02
-1.087329860157342475e-02,-6.003543758288417687e-01,1.182615189213502734e-02,-3.151001661091794581e-01,-5.185053684875238211e-01,-9.672485445284094083e-03,-3.519147528718172789e-03,-1.693474916587970891e-01,-4.037650024783043246e-01,-1.242495993903458412e-01
1.408696976286050728e-01,-3.395700470615781730e-01,-1.222995736829368268e-01,9.371311065260637396e-02,-2.867538144609304007e-01,2.839510551900186197e-01,-2.098976652273021881e-01,-1.894454149143062482e-01,1.812360637740402791e-01,2.121315669080003075e-01
1.158044871533412540e-01,9.062098860327258421e-02,-3.156326040502451247e-01,-1.759675731563581716e-02,8.711436925612961457e-02,-1.946072370859617262e-01,-1.154766331557449954e-01,3.371982089015440609e-01,-1.817216625966410481e-01,2.756408310034068609e-01
1.659780859838404510e-01,-3.849511866883921218e-01,-1.897629732995536056e-01,-6.843772558021443686e-02,8.988380008658625187e-02,-7.463044619201150698e-02,1.257761300682005978e-01,7.857135980943820430e-02,-2.434219856019882444e-01,3.105657382792481047e-01
2.891055164826507040e-01,-2.995914933792758195e-01,1.408668544375885068e-01,-2.188180926380539626e-01,1.465549438446455410e-01,-3.231739172799139581e-01,3.774954062492755225e-01,-7.873988880385171529e-02,-4.623095890399223640e-01,2.410062001187541492e-01
4.509583545432542806e-01,4.621587314491437115e-01,-6.670814982328445719e-01,-2.281468879321024434e-01,5.262000712038439332e-02,7.740845512931349148e-02,3.178815383403579276e-01,2.299384597594343882e-01,-4.698852700538411198e-01,5.135647375202296444e-02
3.530664921603247075e-01,2.791740987321911782e-01,-4.114672680738986621e-01,-7.249821551004039799e-01,3.072380859947856924e-01,-1.198478120248697015e-01,-6.839596101213613055e-02,5.050058517254263357e-01,-6.720715742201796017e-01,4.295970892350896020e-01
1.280672347184866611e-01,-4.806647930824966553e-01,-5.663829134673148413e-01,-2.960110893673233434e-01,-3.929630581591752984e-03,2.333366449816845212e-01,3.025180226516984705e-01,2.593053257962569247e-01,-2.900339470859618074e-01,-3.452820444358409846e-01
3.347494407960540097e-01,-4.089205060521938218e-01,-3.134212323782593207e-02,-2.955901122350004795e-01,2.958220782693881182e-02,-3.170003650648724469e-01,2.589334590284023685e-01,1.423820836095017472e-01,1.275315008848988407e-01,-3.708357000505946993e-02
-3.586568467966570473e-01,-2.252103350113130176e-01,3.954745614557713118e-01,-1.897769017347071541e-01,1.609902898254409465e-01,-3.822837255168864967e-02,2.990481847659288706e-01,4.386950439526406398e-01,-3.783758904973212878e-01,2.293241367642135653e-01
3.844234734129231001e-01,-3.883340750294873023e-01,4.413336693875080097e-01,4.274457776723849523e-01,-4.847749814154480030e-01,1.303388816088578948e-02,-2.218380445005130597e-01,-4.879256896122816101e-01,2.434148794724869808e-02,4.269895798673239984e-01
-3.154081373581684167e-01,-2.313312718240732591e-01,1.855875612672731600e-01,1.114350775791033256e-03,-4.389720516822068902e-02,2.698025432646793953e-01,-2.434861162076358831e-01,-4.121270980362774505e-01,-1.594183346217883657e-01,1.657303832491707207e-01
1.967626093752577188e-01,7.656180305539236897e-02,-2.906853928237940199e-01,-4.653100586358354662e-01,4.533977480469200683e-01,4.461192044581454574e-01,4.191298397560039302e-01,-4.286592491355830092e-01,-4.563552944562968006e-01,2.906360664989756648e-01
3.000029365214644805e-01,1.986638402821925276e-01,5.019472335232163379e-02,-2.219800283849894806e-01,-6.044873276597342165e-02,-1.977699327832785070e-01,-4.300717461845420808e-01,4.692540080943261721e-02,2.714986117473128582e-02,-6.863378655812016338e-02
2.711867350758284667e-01,1.429883453309876984e-01,2.535766055044727518e-01,-2.101750015789963233e-01,2.161429970360463915e-01,-2.875409917802589921e-01,1.758096499421584469e-01,-3.028818794660428360e-01,3.277512511710717891e-01,5.035107215827638871e-02
-2.606175899661758999e-01,4.567810844575198592e-01,2.361392976033530045e-01,4.386035419300849392e-01,-9.116670131710759295e-02,4.682282936651381289e-01,4.958856023666841084e-01,1.556145921170329627e-01,-6.729512950364291424e-02,-2.737707559396806434e-01
5.241122170470888797e-01,-3.882489270324324115e-01,3.431726331623078941e-01,-7.341314920591299198e-02,-6.032256385814258742e-02,4.671130502751758562e-01,-3.731097255679853286e-01,2.397872802018883587e-01,-3.672608237962046718e-01,-1.333976311187826114e-01
4.464395937203021192e-01,4.267088451841030694e-01,-8.857420477115410251e-02,5.309259136156979642e-01,-3.221139557092574796e-02,-4.569675427134508444e-02,4.995241736266049504e-01,1.886536141800204680e-02,-2.268053794816934365e-01,-2.123641368559810449e-01
2.562000365573088856e-01,2.126896698722065548e-01,-1.702605427760622847e-01,1.276776218832381404e-01,4.107827744200757136e-01,-1.243872536398588913e-01,5.170026420941829792e-02,7.997658107682895090e-02,-1.024435257818016726e-01,-1.635030004404685045e-01
3.213482533317125744e-01,-6.072212363579414518e-01,1.733532918274310053e-01,1.829634746648864385e-01,-4.267070693679356902e-02,1.862060177365473523e-01,-1.850045145417606174e-01,2.093489926347626151e-01,-2.192029116003262404e-02,3.303642548344683239e-02
2.029803401372993477e-01,1.192085916166481935e-01,-3.335558611733985268e-01,-1.516815161517394150e-01,-2.669460495405829303e-01,2.946493073728760625e-02,-4.754239281455224959e-03,3.376778872721816205e-01,3.116359103855323442e-01,-4.407007580250601464e-01
1.055034429228677850e-01,-2.191064093806311119e-01,-2.092744916990852966e-01,-1.512497626392262651e-01,-4.508344213150954349e-01,-2.131839114121255110e-02,-3.312645802957672747e-01,4.011793468454023515e-01,3.090221031211020097e-01,-2.039082482232130178e-01
5.788716022064374078e-01,6.098166132223116487e-02,1.066091131003636151e-02,3.885455067159455100e-01,3.588764915568188330e-01,-7.904486140012816076e-02,7.759215796154526890e-02,-1.240222749965568666e-01,3.916967485623866763e-01,-4.103311095359364891e-01
-5.968287251182995481e-03,-5.526227102737594210e-01,2.033282358487273345e-01,4.761588547776876013e-01,-4.042855894563585073e-01,1.397926531527040328e-01,-1.129392176875095299e-01,2.728674901214123705e-01,-1.408669480384461548e-01,-1.635051455098020246e-01
5.611164765502602014e-02,-3.209712020886768546e-01,1.419373524489339344e-01,1.068442535526007708e-01,-1.534446107116672620e-01,-3.898844014015592774e-01,1.420809281612974984e-01,-1.893113148138607024e-02,1.361946398271464409e-01,-1.505033660297213083e-01
3.976346932496678255e-01,-9.679066789983703512e-01,2.171957277843568623e-01,8.379715743969833319e-01,9.277177809675097100e-03,-2.511534532158033461e-01,1.874976642590555354e-01,-2.510824678216552197e-01,4.738047229187323239e-01,-3.050898401681872429e-01
1.520468868493866366e-01,-3.827451124109887415e-01,2.425331645301452010e-01,-4.959716155149256067e-02,-2.803006977332583860e-01,1.677429589704522717e-01,8.505923694889901132e-02,2.761019313388113350e-01,3.321955632550350201e-01,-1.434081860050677171e-01
3.845297215380943379e-01,-7.957193124098627113e-01,-8.188186293514373992e-02,-2.626107220896273242e-02,-5.636698142664554601e-01,2.670990433262125374e-01,-1.371943395973838076e-01,2.668917486715867149e-01,-2.599050445932398756e-01,-3.786835808030115241e-02
-7.774876370858728458e-02,-4.435166537897705097e-01,5.449689849453671908e-02,5.297282449972890994e-01,2.506453892742209755e-01,1.460247784433734153e-01,9.320684735867823534e-02,-2.246739848072170850e-02,3.801103835397719871e-02,-2.393845143062616199e-01
3.504346008403570467e-01,6.550953368058456960e-02,2.583489437020127562e-03,2.205689720611913596e-01,-2.626074287835922783e-01,2.851771293124008566e-01,-2.515454191868105038e-01,1.979730127989249022e-01,-6.879189999662485011e-01,-3.770245728872873014e-01
1.894407074483187015e-01,-5.239000270502697232e-01,5.468327729140268212e-02,2.413181558230949042e-01,-1.163529251635724571e-01,-1.345057282562054368e-01,2.100430476520672995e-01,-2.433194822904036492e-01,-3.746889625652293776e-01,-5.805980629758364930e-01
2.640956119991849094e-01,-4.894604190622258155e-01,-3.233776264086148378e-01,1.930152123591979685e-01,1.306200026872756381e-01,1.289369988410135892e-01,-1.007389976286881123e-01,1.802957793907746242e-01,-3.630331237963183577e-01,-5.795560854374207649e-01
6.270088857786350056e-01,-2.350632677823012717e-01,-4.759849935448472458e-01,-2.205590507307831072e-01,-1.196270130755401201e-01,-3.453406964570209792e-01,3.214713059068197154e-01,3.937856836805618266e-01,-6.232537151021186883e-01,1.750700103928845841e-01
-4.171515842005687341e-02,-6.631560266671254755e-01,-8.981841706236106671e-01,-4.133581590085906865e-01,-4.127628702998584198e-01,-3.819319249478686507e-01,-1.364853775432279537e-01,-8.036916683366927827e-02,7.841667105642802227e-02,-2.301958602419990896e-01
1.321742673782632937e-01,-1.511190839882082249e-01,-5.127290781226293559e-01,-8.854375740655549831e-02,-4.911228095154163142e-01,-1.963838926978264399e-01,-3.088429724792355127e-02,6.039838804242233516e-01,-4.765090420892237888e-01,5.693947066381161992e-01
6.235454642612892062e-02,-2.987567600369265275e-01,2.709573090158820530e-01,-1.510531563520734477e-01,1.514257369090523664e-01,-3.879290173302760159e-02,1.640148255278323086e-01,1.890373613201730141e-01,-5.668352067520612270e-01,-5.180834332789544666e-03
-2.756694056014785121e-01,-2.238917901883100484e-02,2.526901672185615233e-01,7.603050175093586938e-02,3.311686622414148906e-01,-4.553115635992030508e-01,-3.751935852977556496e-01,-3.004670110834453678e-01,1.584014812339875067e-01,4.504292608364737771e-01
-3.880038306105821899e-01,-1.740111287803971785e-01,-3.162900697583505560e-01,1.159015680482294586e-01,1.284357182360376382e-01,1.981367056840358798e-01,1.908031227625675841e-01,-5.851257384883265522e-02,-2.702342799595651435e-02,-4.340917335636932939e-01
1.287797519935491575e-01,1.028153271488699699e-01,4.979054152090763852e-01,-4.255944883234470955e-01,-3.123168036396701576e-03,4.919663238284009005e-02,-4.320831268102052758e-01,2.778404285784279448e-01,2.988654633516769632e-01,2.357182757455202615e-01
-2.793221566413173762e-01,-1.792674699580704689e-01,-2.221884976635607467e-01,4.919824547869424136e-01,-2.657049639534705965e-01,1.474007560789891980e-01,2.050979070256220282e-01,-1.331321940286993022e-01,4.980893946821544627e-01,4.742770719739823893e-01
1.866951033721729603e-01,4.640409117531509864e-01,-2.112664124126575060e-01,4.217505193896715077e-01,4.616753420930637675e-01,-1.557728517934494905e-01,3.113692479089534837e-01,-3.626869414498904987e-01,-1.264087737873002548e-01,-4.751255766070639486e-01
-3.558713310384616357e-01,-1.036299999635396790e-01,2.565935757386960114e-01,2.173240570174098107e-01,-2.369061252415483321e-01,1.666338736282826916e-01,3.968167625096225004e-01,4.218940726701445043e-01,-1.048199909280670972e-01,-5.195694950481176688e-01
-6.556916661754837172e-02,-4.634459035618267858e-02,-2.622142670614675541e-01,2.082547790313170610e-01,1.664707879871052121e-01,1.827291923781786953e-01,-3.421959664903757026e-01,-2.061043561387547185e-01,-4.882115718936742149e-02,1.178295946384242954e-01
1.711734477293017087e-01,-3.825364381968139327e-01,-2.378708605072538118e-02,7.477894709416313401e-02,-1.463850444847406285e-01,-1.846089578372219625e-02,-1.096445820751440342e-01,-1.527665968793696094e-01,5.408799776523914860e-01,-1.614124516403155352e-01
-5.038498556283965701e-02,1.904877090743767043e-01,6.111165512625069823e-02,1.525757958185689801e-02,2.713068938575288747e-01,-2.087512136139483554e-01,3.153040081915364778e-01,2.015951983135607084e-01,-3.539972263888163106e-01,-2.247502898213814826e-01
4.810997887622040503e-01,-2.836115753731060507e-01,-1.947393172111597237e-01,4.201443955304891287e-02,4.712515945651456900e-03,4.419569511556017960e-01,1.258136778036287040e-01,4.581115167436905500e-01,3.563130487982355543e-01,1.202344779810364805e-01
-2.537930671389348469e-01,9.512006874765750741e-02,-5.426058691907788001e-01,-2.961559447473423590e-01,1.639565763542172039e-01,3.315423317189228336e-01,-2.800213544921678066e-01,9.263488002832565016e-02,4.245837302177610240e-01,-2.484772399960705758e-01
9.598658184279684757e-02,-3.451175480903675291e-02,-5.612446013206563444e-01,1.378985215891183336e-01,-4.628286623603647398e-02,-1.446798169653487620e-01,4.351698108258237330e-01,-2.068997741730268514e-01,1.995837609618227870e-01,2.089197720441994810e-01
4.739869731186884261e-01,-1.361534007581612638e-01,6.022373907857328512e-02,1.929138316529737940e-01,3.102590284439852436e-02,-2.731366209620493257e-01,2.341808263142938495e-01,-2.632795011799224372e-01,-3.101723167124875724e-01,1.751405245364132390e-01
9.069223703804939196e-02,-1.012374230949372039e-01,-8.486989855936836191e-01,-2.097984722935259949e-01,1.942930902984352781e-01,2.306622848704847628e-01,-3.377646230667789573e-01,-3.306389056412304961e-01,3.691731866633262693e-01,4.848881248854777781e-01
3.686028327272588556e-01,-3.248394735346910034e-01,-4.718718704556260080e-01,2.674114878422156338e-01,-1.223514652204334141e-01,-1.934536652464744488e-01,-1.601597243213453148e-01,4.383300576108087321e-02,3.113945946485909277e-01,2.782408695668430743e-01
2.735619539772615738e-01,1.699094635192725244e-01,6.193558697677541136e-02,7.968542832624184169e-02,2.512731041691849132e-01,3.467253711022664220e-01,1.890812090475213758e-01,2.154418977182912531e-01,5.782394845541578565e-01,2.132081845705344203e-01
5.353078911535904538e-01,-5.074184052425897429e-01,1.489472157161342847e-01,1.632379202227588200e-01,-1.731331703253420340e-01,6.025896443758893550e-01,-1.439675154588171413e-01,-1.823568931484857991e-01,2.997837498991713923e-01,-1.163071501270231817e-01
1.564424275624282379e-01,-8.831721358203464822e-01,6.230646854877658347e-01,3.596162708517524620e-01,1.466062323792329536e-01,5.166454699837736975e-01,-2.257622803659230237e-01,-6.193860099977031158e-02,-1.195235533658558086e-01,-2.145602187596130639e-01
4.431828404921466791e-01,6.406448038544450274e-02,9.345167411826747761e-02,6.526510624532742000e-01,-4.912276361337237218e-01,2.682834797155651541e-01,-4.236232552316641642e-01,-2.786221703812896133e-01,-1.421760729318281014e-01,-5.661907605121958842e-02
1.619644801231164277e-01,-1.802107136581097002e-01,1.240833757675180726e-01,2.412587228119746074e-01,-1.406793043113233055e-01,2.124576869384088573e-01,-6.563226651854039972e-02,-5.303105249861629344e-01,-3.607273711732630894e-01,7.980544048647396360e-02
6.951202848916869792e-01,-3.326392261077244505e-01,9.546102538047693264e-02,4.078220199846072092e-01,-1.823160854923832619e-01,4.606147229434188195e-01,-7.728216288997312444e-02,-4.097602120859785702e-01,-4.354911077404868824e-01,3.611080510209034589e-02
3.503298828790535335e-01,-1.521039463395922331e-01,-4.521934926771995489e-01,1.546718580027746648e-01,-2.725414300405586965e-01,-1.807985852422080153e-01,-3.312346709105429832e-01,3.698151725697174097e-01,-1.532272320412189914e-01,2.191997346566074700e-01
4.788706707404648960e-02,-1.059468964411734992e-01,1.475966177755168862e-01,7.357348734945169666e-02,-4.620366360019243501e-01,4.859683525962845696e-01,-1.001361870829318435e-01,-4.332251939095341925e-02,3.339249954865125547e-02,1.170739462608874071e-01
4.525199629677784663e-01,-5.088925333537732687e-01,-4.741980238096880629e-01,9.451378885194997026e-02,-4.884965549384910344e-01,1.613145319574905701e-01,2.572475788104906513e-01,3.612267560013353584e-01,-4.321026924200942476e-01,-9.165815873042509887e-02
6.019785080939455378e-03,3.693657591948672214e-02,-1.727023087133660040e-01,1.146941066706831831e-02,-4.229163837199912401e-01,-1.298776149392847357e-01,-8.591738749313240775e-02,-3.832118495180995565e-01,-6.711375711277205447e-01,-4.076669151828345994e-01
5.384258070449329248e-01,-4.952721606219555595e-01,-6.227786330512162793e-01,3.317243794099323240e-01,-2.758242730539318122e-01,-2.404392346112773152e-02,3.748740459613285614e-01,5.295221681700327254e-01,-5.477232301239223222e-01,-2.268423756511938338e-01
-1.223330579360745601e-01,-1.632850788658471719e-01,1.635624330405421184e-02,-3.639795609848324176e-01,-5.759031500672284754e-01,-1.188570627296787474e-01,-1.856272356767983689e-01,4.131882815757754179e-01,-7.187683197022722015e-02,2.529158231184505112e-01
1.801649708930080918e-01,-6.179137025833744135e-01,-2.655345454045063280e-01,-3.601062700907622927e-01,-3.961789659378993633e-01,-1.761410822960017830e-01,3.762426206640142601e-01,5.058445673034337453e-01,-9.868209887069519237e-02,3.350369287624092030e-01
6.282395012552602354e-02,3.410924876117472082e-01,4.374107951722546739e-01,3.173588720945951236e-01,8.306571497761974787e-02,3.562284753495585377e-01,3.334521195125215165e-01,-2.460101314187918553e-01,1.064849283224874876e-01,1.260718033959958018e-01
4.304209128374797966e-01,-2.846625437902993716e-01,-2.539382191701258090e-02,1.478430980749682599e-01,8.136066280140966112e-02,3.884600051206076043e-02,5.015039345719201069e-01,-4.807046543001593231e-02,3.199186357980172146e-01,2.874994186012703179e-01
-1.470086180279266408e-01,1.513118005982522496e-01,3.024545639524114926e-01,2.988754882959499537e-01,-1.858445118961208342e-01,-3.731795368207309616e-01,4.747434511280814173e-01,4.581796089693755958e-01,2.943444847698348243e-01,-1.936641301929294678e-01
-1.053814166010487996e-01,-4.165072234411148488e-01,-1.879144070885813145e-01,-1.473295448242587513e-01,-3.722754659701165703e-01,2.470749873616219228e-01,6.291329844035579988e-02,-2.516451259729635126e-01,4.704310586129118454e-01,1.001200438528605935e-01
4.863940579549198007e-01,-1.197946833652860643e-01,-1.814650367167887079e-01,2.070515908632198643e-01,3.784518841714981652e-01,1.695222332351035976e-01,4.888812076886206448e-01,3.684026572423174106e-01,-2.735331698943438972e-01,3.369647455346925224e-01
1.323469948392851925e-01,4.899197095467443253e-02,3.841481982540456697e-01,-1.317299881183618959e-01,-1.988589965778161384e-01,-1.572056659849892790e-01,4.215765860782346580e-02,3.010779300625004290e-02,5.518077028142993612e-01,-1.022214900032077795e-01
4.850395565100006912e-01,-9.684675420544248958e-02,1.402035839667369055e-01,6.058532159165946895e-02,2.413663292480468514e-01,6.435236185385800889e-01,-1.673452851882690495e-01,-4.493760133074241048e-01,-2.993036195945603106e-01,1.112191006150219097e-02
4.087987198598996286e-01,4.513481853346844042e-01,-5.461471423747405601e-02,-1.897046704072695156e-01,2.829669266134925976e-01,4.043243335168732466e-01,2.351643586432407562e-01,4.081071088797522672e-01,4.349566614042604806e-01,6.002848897521411153e-01
-4.443611154634215521e-01,-4.100483311034480716e-02,-1.967501700504763751e-01,2.177565272825419396e-01,1.556815400949398687e-01,9.704423335148174012e-02,4.310989613839960599e-01,2.149460169571580370e-01,3.733452133240932613e-01,3.337038779304147829e-01
-4.511150619607089962e-01,-5.209140005962381581e-01,-7.282700745889634231e-01,-3.083937938153647473e-01,2.829532745723213338e-01,4.529895790219233831e-01,-3.010319387311867212e-01,-7.727840394925361567e-02,-2.077969197629692677e-01,3.695152555297427366e-01
2.585348595194781329e-01,-2.641564637691752940e-02,2.386836545497355092e-02,-1.990367507328816565e-01,4.188195314372165912e-02,9.908863900649841905e-02,-1.238400638170371881e-01,1.418261065231401531e-02,-2.740546521381331257e-01,7.265018752397480739e-01
-4.194571019015009422e-02,-2.161171161278657993e-01,-8.328381569857410405e-01,2.090597477310060862e-02,4.855190527690518842e-01,6.444602857440490107e-02,-3.857207833784473405e-01,1.775997007379431503e-01,1.362229462916202394e-01,5.040214303793357775e-01
-1.098632859877845536e-01,1.217711070519227230e-02,-3.497593914820387173e-01,-6.660613526442192567e-02,5.380448542317012306e-01,1.437826361889515681e-01,3.617846783967065827e-01,2.598329553790921786e-01,-4.570259799260228267e-02,5.580537545642323405e-01
3.901024684948298793e-01,-4.422123848848477645e-01,-6.265094303005794840e-01,1.760607150155778233e-02,1.650161462833316106e-01,-3.856392965616875501e-01,1.467471917410651840e-02,-3.804414936509721845e-01,4.692565795218360813e-01,4.658905142341559502e-01
3.004571630039822860e-01,-4.093336741903038090e-01,-7.241777760802461383e-01,-4.792074305612195051e-01,-4.499772819293632597e-01,-1.124930964354018542e-01,3.767469308668443539e-01,-2.922910349585173262e-01,1.804920183822513180e-01,4.009537139582411980e-01
2.052090004163532877e-01,-1.330179344352698523e-01,-4.048159636343784951e-01,2.561323268940467468e-01,2.102771757915103124e-01,5.329520829607355126e-02,-2.845667359703770161e-01,-1.660130852900983667e-01,3.628556616349519759e-01,3.815486793767108170e-02
2.259310109505521524e-01,-7.077908764162658128e-01,2.829958758619790515e-01,5.026478145435494538e-01,-3.551561814736179379e-01,8.197957708734541216e-01,1.227632176441894318e-01,5.217445743193117602e-01,6.768973179530324291e-01,-1.443693259844739361e-02
2.005782721806155244e-01,-4.916889152022611564e-01,5.233856354765213936e-01,4.238044923635336247e-01,-5.892176075322372863e-01,8.373403020284928555e-01,5.961420251991478292e-01,-5.645333323607237830e-02,-1.882275289461624868e-01,-2.524281703025024748e-01
7.447559926172510059e-01,2.839297322907100574e-01,-8.048426507214535581e-04,6.457944040664533869e-01,-3.610918421793303523e-02,2.198334930886879646e-01,-1.477701036877580171e-02,-1.952691530634401706e-01,1.892567056913144474e-01,-2.844375107302031247e-01
1.169246876234907861e-01,-1.132547430489643375e-01,-1.759989894200433141e-02,5.041237265590826633e-01,-5.259118023294055977e-01,3.397078617863411032e-01,8.718153019373575674e-02,4.576997535926861232e-02,-1.753424998721977435e-01,-4.281350979941229151e-01
4.066515079878416650e-01,2.486860149825914912e-01,3.935760423315891599e-01,1.074419802004669688e-01,2.654736223875560630e-01,1.658733991571758604e-01,-1.088714297674541615e-01,-3.849096990139486696e-01,1.733753670239633615e-01,-1.999184264636952590e-01
2.332972465960307662e-01,-4.953342016401078851e-01,-1.108379844653916285e-01,6.610639786407273011e-01,-9.444304264626579570e-02,-1.530407515810441876e-01,-7.203698885427556320e-02,-3.670250481601664005e-01,1.356564885615768046e-01,-4.957422489587867132e-01
3.535686185550837579e-01,1.854208295798067674e-01,-5.502183063184869910e-02,6.106797205488346814e-01,-3.065235261758833193e-02,-2.493861384530871861e-01,-6.799524049036523299e-02,-4.050215419417150242e-01,-8.718347682784580166e-02,-5.111968267840640845e-01
-5.869873990911122358e-02,1.789754857397413967e-01,4.422501356378781834e-01,4.129657162238473123e-01,5.393394475571062774e-01,-8.631501635428757979e-03,-4.616411862175743841e-01,1.399835320256888060e-01,4.636740211618079477e-01,2.028837555250858904e-01
-4.329895712005468744e-01,2.185041765263751878e-01,-1.311558040469887332e-01,1.018022348042992853e+00,6.200688324542601160e-02,-1.169403389459268833e-01,-4.848798884435746581e-01,3.071714296207676553e-01,2.101598222303679986e-02,9.692465695991267505e-02
-1.545829038009041423e-01,-2.162876539875317194e-01,1.575600770928458905e-01,6.792830745006870341e-01,1.403524578738923889e-01,1.740676059828546313e-02,-3.903372609104303059e-01,-2.401235782242940042e-02,-3.223919382465101346e-01,2.174598643936559161e-01
-9.974100440100305831e-02,-3.847243112520151720e-01,8.366736801907688481e-02,5.598169668385108988e-01,4.527324830054975657e-01,2.958487401228409586e-01,-6.073020870494622719e-02,-2.054329474425526381e-01,-5.668216539025805467e-01,-3.836504592110859951e-02
4.116306239170867132e-01,-3.695929317812562953e-01,-4.074634619832600002e-01,-1.564305268715784347e-01,2.855362376112983991e-02,4.286105353337731350e-01,3.948053560984245980e-01,5.570600601125064166e-01,6.414793391962200775e-02,4.780271932662240597e-01
2.678117587041533021e-01,2.504003424441474807e-02,2.350448916173111247e-01,2.662141418292235939e-01,3.230386859585382964e-01,1.628955199812010535e-01,4.579147155822425042e-01,1.655605715631943420e-01,3.838012730806537598e-01,3.182537799775978504e-01
1.162091805361321201e-01,-2.923734595808895054e-01,-4.161700356906951614e-01,-1.863303487999987684e-01,-3.765670683390888174e-01,1.617599634518690488e-01,3.734296526497244972e-01,4.117836195178273262e-02,-3.968286596685641210e-01,-4.262532635645240320e-01
-4.901542486706108037e-01,2.916979061268692441e-01,1.691419557606442803e-01,-1.082286032231824929e-01,3.087733565251319368e-01,3.033013614130054547e-01,-2.364326946891915360e-01,3.876754042697513891e-02,-4.357697594924518358e-01,2.341284933894913489e-01
3.052151019087042672e-01,2.752659904052194850e-01,3.611029927728613420e-01,1.831974731623280950e-01,3.144861944687438182e-01,4.375746046958048363e-01,-2.140545741544652991e-01,9.277551480410257956e-02,5.024845988988461271e-02,2.254459353003154254e-01
-2.388877466237143976e-01,4.268698159684704563e-01,-1.214218568378674923e-01,-2.998589712219291714e-01,3.485988750240268802e-02,-2.515872137068843051e-01,-4.224957762154549767e-01,-7.176093814588528630e-02,-5.275884717852818290e-02,4.687923239494021233e-01
6.523852975081201322e-02,-1.922051392228722733e-01,2.072712317401271750e-02,2.782285204092075914e-01,8.498365906710887707e-02,-3.732677176211480763e-01,3.339200871048812469e-01,4.375311926547745811e-01,-3.155055786789225936e-01,3.234621725255555358e-01
3.937922035463059522e-02,-2.334774747419561813e-01,-5.032322789574924515e-01,6.428859370025317987e-02,-5.674325011133162650e-02,-2.228002412006457322e-01,3.155080265313596755e-01,-2.012324121434398705e-02,2.122078535592936688e-01,-3.181180094818548965e-02
-4.336325001458523620e-01,1.868689161239932839e-01,-5.230060020184675862e-01,-3.058248310401326386e-01,-1.077690152076024727e-01,1.232740869102564724e-01,4.258491111635135384e-01,-2.582524096875976616e-01,4.547104771074613749e-01,2.893823115498796450e-01
2.058954774723536219e-01,-5.633461767569243328e-01,-9.881955054428205598e-02,3.984739586288722490e-01,-3.305064136777609018e-01,9.069670910029797861e-02,-1.820319065730044150e-01,2.262199604356400218e-01,2.612089389620654845e-01,5.083505785851027969e-01
6.953002964638076676e-03,-1.217791972499102926e-01,-1.103160338947216434e+00,-2.583787970628287703e-02,4.732141351728606504e-01,-3.024705450935786244e-01,3.123008785871900783e-01,1.978226892167522788e-02,4.639353040374880610e-01,6.874193195687601232e-01
5.519160396267294016e-02,-5.176298243045456271e-01,-8.674051070319092061e-01,2.550739804542179190e-01,9.042117851080344604e-02,-4.284592349314717691e-02,4.496870342847980595e-01,-1.090770339136893502e-01,-3.084006532656893840e-01,6.690631594387805858e-01
-2.374584474736851913e-01,-4.618271686943452581e-01,-6.330916215845295847e-01,-5.112645960735123785e-01,-5.461371704269883318e-03,-6.414881893155602310e-02,6.998715045947982716e-02,5.677058594763910448e-02,1.883574703103559622e-01,5.151044383259877346e-01
-2.107936450829247244e-01,-4.774244373900045635e-01,-5.726964494099272551e-01,-3.229478691857907702e-01,-8.165869838431172312e-02,8.959789278423321846e-02,2.076560703653472784e-01,-1.177861184137356659e-01,-3.119485728827627868e-01,5.197572030861040693e-01
2.753522618683733603e-01,2.860264919907105630e-01,-3.800029854612742009e-01,-2.368648299114762823e-01,-8.336121979471655674e-02,8.869688806448376706e-02,-8.367802710436814118e-02,3.729704950423834431e-01,-4.439037164549261005e-01,3.588907413410091785e-01
4.642400487015511945e-02,-1.864614961973009022e-01,-7.195137782338810739e-01,-3.174983330661746428e-01,-2.579091086135847921e-01,-2.430173581788545312e-01,-2.132783069594264003e-01,1.463988302776757511e-01,-7.234215665183246768e-02,5.745131781367873725e-01
8.882579900782125448e-02,-3.765155930303131782e-01,-5.737475652197184806e-01,-7.535501757533555334e-02,3.960117548987714814e-02,5.208231791095975227e-01,4.442639852856581362e-01,6.550294024127919501e-01,3.230276269119060628e-01,7.488652571885764941e-02
-2.983739757838420048e-01,-1.193656210437743781e-01,-2.044476179556225792e-01,-1.183895912625594626e-01,3.973554693597546386e-03,5.059037506284423946e-01,4.018564529669057528e-01,-1.945917092591906983e-01,-1.822160857811695456e-01,-1.573156150884012505e-01
-3.140121018149166221e-01,-1.013413654152244964e-01,2.033377070403876441e-01,2.887513141746951284e-01,-3.459748580548616809e-02,6.125747841264804761e-01,2.253368448221536036e-01,-3.082085335787490554e-01,-2.300948462084283774e-01,-2.616789647261111851e-01
1.625417986912658097e-01,2.379177298320768741e-01,-6.815074035693681476e-02,3.121582011805016932e-01,-5.515086980218996543e-02,4.821425990257313110e-01,5.768152857751207563e-01,-8.542225961763763031e-01,2.263099502028350363e-01,-3.043262043224354355e-02
-5.602774848684555220e-02,2.980699434586184804e-01,-2.469531254262081477e-01,2.202503777288138676e-01,-5.394003773084198317e-01,-1.171375330209030591e-01,1.572485922391396729e-01,-3.925457076153819336e-01,3.663572848818901218e-01,-1.018772335286367986e-01
-2.995459555767395754e-01,-6.478325158574528564e-02,-4.116242599950232367e-02,7.424953512300112024e-01,9.799589863053757843e-02,4.194507100359581853e-01,-2.641770587927856351e-01,-2.176709367667590822e-01,1.320099247723648950e-01,7.697295482801216893e-02
-3.650705539740046746e-01,1.114204526655138659e-02,3.106477745237906096e-01,6.636642714969264167e-01,-2.131294188486005936e-01,2.167923175400334468e-01,-6.613532163661520746e-01,-1.410559279125800092e-01,-2.285346106670578525e-01,-2.472213468541452630e-01
-2.568128941496652384e-01,1.449251001583347631e-01,-1.523046721826072647e-02,1.741269020484741692e-01,-1.390381387965041182e-01,-1.620506257033088315e-01,-9.765807939351232869e-02,-2.882546653361129363e-01,1.328096121976025112e-01,-6.369138027759010945e-02
-1.175700386774125167e-01,2.583968932447605060e-01,-1.647327936979367247e-01,8.020989534969960033e-01,6.025090834385000288e-02,3.030136470681831229e-01,-6.567001431359593688e-01,3.239685613590680135e-02,-8.234737384233158097e-02,-8.008097982072433230e-02
-3.900148871792891714e-01,1.020291428969758302e-01,3.424613634105220239e-01,2.126284844921324246e-01,8.555360622601718146e-02,4.037828106934416433e-03,-4.828626923480783817e-01,2.102942013362341933e-01,5.173003655403481948e-01,5.038370216676062441e-01
-1.935694665512961155e-01,1.908181611414630774e-01,4.716538117149121634e-01,5.256189700032297685e-01,-2.070356306922976342e-01,-4.040812518777069373e-01,-5.919557208034594842e-01,2.481611866193967619e-01,-8.965648353405394899e-02,-1.693102161095877412e-02
-1.342795628882362952e-02,-3.570331667578882096e-01,-4.387533230761642700e-01,2.562942324283519202e-01,1.287064630911289032e-01,-2.888142111158987224e-01,-3.542604180959638693e-01,4.939081083990131127e-01,1.116801744067735386e-01,6.154150440775606277e-04
1.012108845150471448e-01,3.018006638055946156e-01,-2.541788826380533828e-01,-9.766010467889352231e-02,-3.817298824249978906e-01,-2.679463877545165129e-01,1.121269176338581530e-01,5.016910759198141001e-01,-4.417633338370683393e-01,-3.125927742439210677e-01
-4.391372781649416912e-01,-2.934106688955376296e-01,3.775100524124400669e-01,2.760600646150798143e-01,1.675085911231306290e-01,4.940576240906541239e-01,-1.158680927768941243e-01,1.743416010674028738e-01,-3.990725394949484750e-01,-3.204296809522652612e-01
4.750622283497565324e-01,-1.332339988613007731e-01,-7.384685161086702865e-02,2.363189387337452096e-01,1.300686065615719034e-01,4.890408790814384510e-01,4.437323444768084268e-01,2.315320081554982090e-01,-3.653488676131504409e-01,4.671900408826402118e-01
4.384387175782054613e-01,4.921877581636115440e-01,4.704383634231056877e-01,3.235158406329259884e-01,2.660520943550113704e-01,2.939674702336908529e-01,-3.587747272808074483e-01,-4.544327169051038950e-01,3.957432092805063806e-01,-5.987932683820133134e-02
-2.235882812913921047e-01,-1.943319479274931150e-01,2.565331997448468959e-01,-2.702447013066816561e-02,4.313593517273908717e-01,4.382426090490644244e-01,-3.759932606989664639e-02,1.461925884383701857e-01,-3.902492298193085407e-01,1.110353714203334008e-01
-3.547253540292763518e-01,-1.194788802503718023e-01,-3.315320225316144009e-01,-6.937209877238856293e-02,7.824949240059775324e-02,3.875687258766474796e-01,1.205506322599914359e-01,3.480374937746605335e-01,5.259088026237068725e-01,-3.273673094438385878e-03
2.946417635668776014e-01,-4.151444450255764584e-01,4.581262293648949435e-01,2.935747883347526455e-01,4.532259975965154397e-01,3.558908915599697798e-01,-1.674880889908323955e-01,-2.012661794861982378e-01,-5.068020416352617824e-02,3.614795954832140668e-01
-1.601901232455680418e-02,-4.104998244821299602e-01,-2.255955163305454758e-01,-1.448258272635844779e-01,4.560024081556396935e-01,3.314766869622243761e-01,-1.278832665162645266e-01,-2.406328467281320937e-01,4.930010417071798434e-01,3.660454327138729091e-01
2.928968768774009579e-01,-1.100330724199541504e-01,-9.403424498841597701e-02,-4.562716409539172013e-01,-2.793969344742850414e-01,4.440108914011201557e-01,4.085998677897099696e-01,3.698122068630704251e-01,2.553872530118470041e-01,4.548719672013848969e-01
-5.028145555747497442e-01,-2.856774236996229011e-01,-6.401695147608794656e-01,2.551860338662176875e-01,-7.440601198151274021e-02,8.421125237132313923e-02,-2.837150984933849984e-01,5.879012008907398557e-02,-3.067305652978226105e-01,5.347339291526554961e-01
-4.042009001643779298e-01,-1.804790423350884354e-01,-2.505515763244665073e-01,-2.838871050618403391e-01,1.893873465673659440e-01,3.296120699088870426e-02,-3.028869106517784737e-01,9.022739452961395235e-02,-5.129335414025702061e-02,6.962706397028104455e-01
-3.175274740438097792e-02,-1.212362292258445107e-01,-1.307747208578849962e-01,-4.159991506605070083e-02,-2.617708442918975989e-02,-1.845172343633464523e-03,-8.035650598604837658e-02,1.161005292615887308e-01,-9.040285870697348236e-02,3.480005302131317091e-01
-1.429399805991030947e-01,-9.175929598715504287e-02,-4.577545779073949883e-01,4.136486911769420294e-01,7.353585654359090507e-02,-2.779150798071450268e-01,1.370036800690123055e-02,2.138201158326918094e-01,-4.026742886566176197e-03,3.835705099398941664e-01
-1.959643014700847286e-01,4.096814587610717040e-01,-6.098103786234640999e-01,1.820752552022857351e-01,-1.373745383629750294e-01,-4.237419538113765816e-01,1.179112695349310291e-01,-1.351819502678037466e-01,-1.088989152272456379e-01,3.637997587978071268e-01
-4.405232050651994857e-01,2.212982688028261591e-02,-3.691140807589401995e-01,-2.749961228470053087e-01,7.590768404981725059e-02,-8.048844249621549540e-01,-6.320692981611107653e-03,8.334904005149613992e-02,-5.448453390802892038e-01,4.830664319015120500e-01
-5.722128191010915632e-01,-9.177513190871069981e-02,3.349196612043356391e-02,-5.456548015522635353e-01,3.233448491202892822e-02,-5.236349955408622359e-01,1.532557534863076276e-01,1.750898264189607867e-01,-4.275598547169610075e-01,6.569776986968833832e-01
-4.734171389607108038e-01,-3.155313281926332980e-01,-2.300171364118331341e-01,-8.372243573541530148e-01,-2.730230245891367979e-01,-1.725531832375896135e-01,3.003552650784998557e-01,4.358563964768593091e-01,-5.393211192940057241e-01,-1.643585834477962263e-02
-9.206740110084954409e-01,-4.212411454545593736e-01,-1.402973857269086411e-01,2.574354113449717762e-01,3.424844615217269295e-02,2.770735926493682610e-01,7.483168122806589662e-02,3.972181321806662613e-01,-3.807237494363305830e-01,-3.312670192110229173e-01
-8.896547603760344147e-01,7.728726965032543805e-02,-1.175755410833475706e-01,2.499692767362863555e-01,-2.439658717844024050e-01,-1.318927141300015428e-03,2.435608165641913181e-01,-2.021735017481096075e-01,1.253290347259944648e-01,-6.907352462476282207e-02
-4.427646187926804339e-02,-7.000775002447204298e-02,-8.253996056944319648e-02,-2.879642250438575746e-02,-1.446248317739372569e-01,-1.141757880564963842e-02,2.802610862708021511e-01,-3.634244803877168528e-01,2.709474498474157347e-02,-1.716346379560885690e-02
-4.437963997580495201e-01,-2.036576331112141536e-01,-4.092362925147281505e-01,4.101789626782042508e-01,-4.566947959556198061e-02,-8.035523310788614260e-02,2.619425713003945555e-01,-4.124518688954729728e-01,-5.927626945955077192e-02,-4.217076746862306602e-01
1.295782654405946144e-01,-8.148350962608692793e-03,-1.191102265757646855e-01,-1.869250157709295701e-01,2.294635790694767308e-01,3.463572830166067873e-01,-3.535470170240854193e-01,-6.383619293905865577e-01,4.426698717545548001e-01,1.042134592192141274e-01
-2.663072581721342980e-01,1.310245680677984692e-01,-6.636951181142086015e-03,3.603298468800967824e-01,4.660624003874938581e-01,-2.240352058623084064e-01,-6.985981197660240394e-02,-5.790635586742584051e-01,3.895153917894802476e-01,2.724064797042774488e-01
-3.810948565107910579e-01,-4.028563156593948369e-01,-1.888769245747434766e-01,4.752674091716188598e-01,3.610515254030083887e-01,2.012684925688721371e-01,-5.071455832007829567e-01,2.098618952890910633e-02,4.962291174951335426e-01,-2.335784419083185015e-01
-2.174281457142898388e-01,-3.927773406494475261e-01,-2.504188206441405606e-01,5.670342644992394376e-01,6.577109304167984005e-01,-1.513027394878141141e-01,-3.127721818253486469e-02,-3.058609454781680559e-01,-1.244130511555204543e-01,5.672255851352900891e-01
-1.703157939523410741e-02,-3.043227407668661327e-03,2.947879741037063850e-01,9.803756312345790480e-02,1.759687465523610550e-01,-4.345338911313856856e-01,-4.781486453266639569e-01,1.621166336148478423e-02,-1.337309996337577855e-01,2.044717182698806424e-01
2.087097562607451717e-01,-1.713412142753009682e-02,6.893150711413748022e-02,2.027520700833086026e-02,4.855363180807927281e-01,-2.890290661641002901e-01,-4.863275508431100236e-01,2.889602839046512828e-01,3.499339719808327032e-01,-1.266503861133158049e-01
-2.738144564725297214e-01,-2.926065352609744652e-01,3.612838282374150156e-05,1.471157361261787588e-01,-9.750763592391183121e-02,4.180979549997380640e-01,-4.998281562705194081e-01,1.847558053155554797e-02,-2.031540050714420731e-01,2.160601465999969495e-01
4.470250475073089640e-03,1.632393413095204471e-01,-2.659752166649904659e-01,2.120840073464804465e-01,-3.326774605920229666e-01,2.410390641894022690e-01,-3.268794955285238280e-02,-1.432470825507483614e-01,2.733835880731024237e-01,2.708892101803523911e-01
-1.680898728749787296e-01,-3.971920706391309230e-01,-4.597328078067577928e-01,-5.576757304040323021e-02,3.001447618729456979e-01,2.395397837552387388e-01,2.811162525160446068e-01,-1.750599971093749485e-01,-1.375286498175476435e-01,-3.210338976533846922e-01
2.604547147801210549e-01,-3.870280034280549897e-01,4.298230236922934711e-01,-3.520751185235533876e-01,3.769273708630377917e-01,2.909305690507674180e-01,-3.360686587841385520e-01,4.294051992147865371e-01,-7.680111753899709903e-02,-1.003400048480369011e-01
4.973140268370451755e-01,-2.766492017847738683e-01,-1.849034586506183020e-01,-5.413527576175104772e-02,-2.266199341218080587e-01,1.857146357117116231e-01,-4.247248683138091924e-02,2.762267704422207149e-01,1.088886919331545286e-02,-1.025306550141872608e-01
2.637891054410569924e-01,-3.999032650430515146e-01,-1.753692579391741002e-01,-2.566877596764059466e-01,1.318069033370963816e-01,4.166727859014283109e-01,7.254121899608706459e-02,-2.218845984606989119e-01,-1.177986194101800776e-01,-9.098556709945615495e-02
2.783360121250191277e-01,4.214405318637773346e-01,-4.226966081276904985e-01,-4.415729367030916119e-01,3.735083355176732622e-01,4.675177093088402902e-01,-4.317643096429326643e-01,2.186663933997002596e-01,2.375885356348740041e-01,1.625569699189702011e-01
-2.248055100343354096e-01,1.082823455170105198e-01,-9.038777049278977349e-02,2.163587556510183918e-01,-4.341785768425994729e-01,-3.151763378009673211e-01,-1.016570893001521314e-01,4.169089472573111466e-01,-2.314327798399992420e-01,4.864583433667793999e-01
-4.519974925181579062e-01,-4.095159354968294640e-01,1.520259780729597832e-01,4.267045455635654072e-01,2.469444232218740432e-01,1.463762276305043131e-01,-4.588338578044286464e-01,2.370715456380184383e-01,-7.877088006832348721e-02,6.110471298248125738e-01
-4.066926882936300336e-01,-5.151876862039170835e-01,5.268444907429611218e-02,-3.279216353858758759e-01,1.754631465373197030e-01,-1.977152085845095691e-02,-7.329820339606991919e-02,-5.488465871133159091e-01,-4.228716209720101427e-02,7.593761159403338290e-01
-3.014908474945011130e-01,-4.723463209629679554e-02,-1.751639258878769367e-01,1.673866233979473261e-01,-3.814860709730949484e-01,4.803759944872999510e-01,-2.491006185164606479e-01,-5.478785924286975195e-01,-1.375528433660907178e-02,5.812493047430457027e-01
-3.848357043099250863e-01,-6.831738978950793739e-02,-4.277456846431335058e-01,-4.641899963911592097e-01,-3.907751203491006686e-01,-1.318284301791498303e-01,4.062526986182581241e-03,-2.040764210876176432e-01,1.265652930084918415e-01,8.360678437670334695e-01
-3.612956603413121082e-01,5.151180095583834939e-01,9.048704160624548853e-02,-1.841891317792256066e-01,3.352855156630372979e-02,-2.522617510108006722e-01,-6.520548479842623590e-02,-2.683037239002099561e-01,2.252508974567726252e-01,5.507545139139763402e-01
7.869379692058182940e-02,2.943408579173822370e-01,-1.254853258844752517e-01,-4.324714814917664518e-01,-4.186141609802158103e-01,9.164846169092071004e-02,-2.852698145315521461e-01,1.032809446486841615e-01,-1.187758416468163436e-01,2.679526208741015991e-01
9.733873151188786321e-02,-1.604688050748120653e-01,2.437183940765087209e-01,-4.410967367049276611e-01,-3.040795128265245673e-01,-7.620454852954061664e-01,-9.946931441894468762e-02,-1.910725908305053733e-01,-3.624339848366153194e-01,-7.096775088995894466e-03
-4.884103108565966411e-01,3.284727763298474490e-01,-1.428763588652459116e-01,-1.726226606663631702e-01,-1.510121212722769224e-01,-5.452094465647838728e-01,-6.213651668247637677e-02,8.974631075180210249e-02,-1.218959853864573784e-01,6.337659767748109463e-01
-6.206263938427526439e-01,2.683820498134814048e-01,-2.266432126831724458e-01,-2.646687693137489417e-01,-2.177519371895346167e-01,-2.847588367694422473e-01,3.444689254412837687e-01,-1.347112164647978200e-02,-2.325682684777468923e-01,6.259547003032557566e-02
-8.165815116271636365e-01,1.148048638804882865e-01,-5.853042165584663170e-01,-3.040016962612416412e-02,1.485431522495830048e-01,-3.858523169704716760e-01,4.026463111038451892e-01,4.820107127941969383e-01,-6.005760325501000585e-01,8.578510350408362350e-02
-8.905795915879005653e-01,-1.870992465668618598e-01,1.463003486617315274e-01,7.371746775702368859e-02,-9.543953779911353019e-02,3.106397493074052885e-01,1.894538739083022512e-03,-6.217073371477008920e-02,-9.419144618367351895e-02,6.279550904498282238e-02
-8.356945256199294070e-01,4.088723858220300045e-01,-2.561212484369050357e-01,1.748954454961414162e-01,2.614331910348390853e-01,-4.184695419042022135e-01,5.023061900893800447e-01,-6.518742244959650767e-03,2.493380060056860636e-01,-4.007991043922148333e-01
-6.353509045414827971e-01,3.920060437445345713e-01,-2.039468703679133965e-01,-2.563231461272973410e-01,-1.082807488266433193e-01,1.318870964067565127e-02,5.526178033859799887e-01,-2.630530815926173105e-01,3.594105954983228268e-01,1.377229194416638991e-01
-2.641859030737137570e-01,3.464002263464893705e-01,-3.776272831047888245e-01,3.468447124980617580e-01,-4.273026260209982219e-01,-3.147953122033499418e-01,-3.730080891562383982e-01,-5.941239668901617810e-01,2.081675956144240502e-01,1.704086012815337337e-01
-6.172141469257733659e-01,-3.848257385078052706e-01,-6.416351078285366383e-02,2.861967530932720272e-01,3.007503191547684571e-02,9.694022356670481400e-02,3.638003977298348013e-01,-4.786827486148451799e-02,3.109542131079999772e-01,-3.784075407823144221e-01
-9.282717729138904861e-02,2.694332940891365213e-01,-5.434498873430033683e-01,-3.862805947440539622e-01,-2.870410580466855599e-01,1.094969427156436553e-01,9.230598261010791727e-02,-2.399555875853088271e-01,3.765643013188917088e-02,1.722021412720689815e-01
-1.968573681679365583e-01,-2.482497389613182726e-01,9.717239744653700939e-02,4.315211025118103477e-02,2.446640467077393008e-02,6.066570415167012176e-02,-3.052545087774269916e-01,-4.719519361751976089e-02,2.992087469764037055e-01,-2.316095412759483219e-01
-6.178761034981755662e-01,5.528446106118374281e-01,4.861827479216112580e-01,5.761541393682202694e-02,-8.929381323865411002e-02,-1.676165368962209690e-01,2.390265453749964020e-01,-1.427470905945811830e-01,-3.183933410382504964e-02,1.702193137391040390e-01
-2.368817643291041553e-01,-2.999065116648085838e-01,2.889590977206397682e-01,1.929726157754086124e-01,4.843902588318335090e-01,3.387303592455344070e-01,-4.517845435183783231e-01,-2.974338037784403088e-01,2.916525251679345510e-01,5.510877923095980346e-02
-5.114135865106663736e-01,-2.158708270536742191e-01,4.860476144703149148e-01,-1.880029309626602974e-01,-3.197957897005778150e-01,-2.313556747535630842e-01,-5.768947081739353999e-01,-2.909084002488377951e-01,-2.881482764545711950e-01,5.597141531694940220e-01
-3.405481714214213529e-01,-2.596025174848186068e-01,-1.191409432280173541e-01,3.830548324507113134e-01,-2.242112957873040324e-01,2.785032410606119724e-01,-2.057666689143355931e-01,2.228012804217316956e-01,3.640680436721413504e-01,5.327238112895574806e-01
5.592367275784640131e-04,1.998656334914131749e-01,3.815008716282015239e-02,-2.680638770484360944e-01,-2.084414429530003499e-01,4.708519961936863396e-01,-1.592834769942491902e-01,2.665081520464431253e-01,4.596967808980457759e-01,1.210562977195624584e-01
-1.808352168144961025e-02,-4.854072866952219290e-01,-3.275944070785865025e-01,-3.161978720477565119e-01,3.770106310461313059e-01,2.959957152198197661e-01,3.275324529118548433e-01,-4.153605836374923976e-01,4.605488148998090336e-01,-4.452420824200758465e-01
1.152563375031462056e-01,-2.141407703455998901e-01,-1.545908920164190958e-01,-4.647497533024890770e-01,2.051379378421200328e-01,4.161166313779024462e-01,4.533046183591983302e-01,-1.766222320861515413e-02,2.066209798434974834e-02,-2.519171561418142025e-01
