-1.667705236527954327e-01,-5.822084350060607871e-02,-1.314963538664641884e-01,-2.692585132346719812e-01,3.311634103669135465e-01,-1.405054148948595705e-01,3.244398914592043770e-01,-4.211718494510660049e-01,-9.248262780223837076e-03,-1.728248061118884404e-01
3.682098049128377792e-01,4.839424757126343235e-01,4.850946437638769537e-01,2.151938743969531720e-01,1.390724403626805161e-01,1.725472633793121435e-01,-3.206403224118793416e-01,2.569877075630178087e-01,4.264269294689291279e-01,-4.480010234118508849e-01
-3.039712743950380158e-01,4.326343581589822129e-01,-4.976421382110779446e-01,4.367016234045537626e-01,-2.156294730933941695e-01,1.187487384037733129e-02,4.495354313946104963e-01,-2.715100659456467502e-01,2.734780422538790612e-01,4.719762395796049392e-01
5.022665509558510433e-02,1.106042983452630857e-01,3.343269804862759598e-01,-3.501580472166669344e-01,-3.125394606607445613e-02,-2.800850321685210975e-01,-2.047176060134356934e-01,-4.001669848085018244e-01,3.063766711079728422e-01,2.797241224982452978e-01
-3.241052304954050722e-02,-2.990629660954648994e-01,-1.899370299862419564e-01,3.233798988694835952e-02,-1.851224299409819640e-01,1.992169760761519984e-02,-3.174548308746212300e-01,3.921795086449813006e-01,1.995381654600975885e-01,-3.005074069019931793e-01
1.349795609471818869e-01,-4.175238260459001594e-01,3.917006161716893864e-01,8.777333832641764921e-02,5.562770584381160344e-02,4.972113690862722118e-02,-2.515715162376032654e-01,-2.817690047031047862e-01,6.164938797935115566e-03,3.325614652588840814e-01
2.599121388881164840e-02,1.718430822154177473e-01,4.953421704544026527e-01,-2.811898271610909772e-01,1.575108423087169252e-01,-9.380591884651734436e-02,2.341722205913887578e-02,-3.954180192614267231e-01,-3.449629143866107528e-01,-3.139811749521341788e-01
2.629341104245048744e-01,4.344062104259142632e-01,-4.914209750788161024e-01,1.247334844244633034e-01,1.145006874836125149e-01,-1.489075339079415083e-01,-4.060398526370240235e-01,-3.512116002617176047e-01,-2.271238256928428401e-01,-4.061113163931415748e-01
4.653703842153109060e-01,-2.289723452935062686e-01,-1.598581824280305153e-01,-8.247418576769917353e-02,-3.220588934172361473e-01,4.177271637285669414e-01,-2.317823923013406784e-01,3.648896633317193494e-01,1.505968333682363713e-01,-4.565235156236719383e-01
1.893790039730567643e-01,-3.219308413138787239e-01,-3.892428746403665540e-01,-5.049300782736888121e-02,2.018719875761465152e-02,-4.251064683691215262e-01,-2.925246118332075485e-01,-1.535615111017017975e-01,1.313371297333857102e-01,6.875071235939778092e-02
-3.565048424089815038e-01,3.598988895097305352e-01,3.048100233778883172e-02,3.989884056611609497e-01,1.324687629785678000e-01,-3.059521080816619554e-01,3.909492994090972839e-01,2.438995266777244098e-01,4.190037126476676144e-01,-1.506282225369847128e-01
1.602346986996071587e-01,-3.622092249174237444e-01,2.489704357678728108e-01,-4.121550098962342146e-01,8.520576679597557934e-02,2.138095137962860715e-01,1.570753225740673109e-01,-1.776435548618504612e-02,9.022888515917272534e-02,-4.529849191164351807e-01
-3.535600954455609402e-01,4.187416072684988499e-01,6.873530800033633703e-02,3.244732093822777497e-01,6.925892687962527383e-02,-4.611715736421014289e-01,1.848724368375402050e-01,-4.602382878260398158e-01,-3.312385460542047189e-01,-5.189935202270180153e-02
8.188939488200125405e-03,1.313826655547435940e-01,1.128533628157013802e-01,-3.374468018860637963e-01,4.879838622989577379e-01,-4.484560481009960270e-02,-4.146600360783194716e-01,2.091224315192056482e-01,-2.033818493497176749e-01,4.427542409465855255e-02
-3.538081594882352965e-02,-2.586738114812481282e-01,3.684231413512614739e-01,-2.723056711735267754e-01,-7.806375225125651574e-02,-1.730528212887369466e-01,1.943779769328422835e-01,-4.056161976581357798e-01,-3.899656645904493457e-01,-3.494949185711390127e-01
-2.519566825166783541e-01,4.451427448062207359e-01,-4.590366615140860640e-01,2.122373857399253994e-01,-2.216184873820900847e-01,-4.154475207065842501e-01,3.060678685527685183e-01,1.384336478567357587e-01,2.078670800343762615e-01,-2.001440259404723421e-01
-3.776837304000991158e-01,-3.490569473244771181e-01,-1.356388714701011189e-01,2.673335878463193316e-01,4.063469992553448984e-01,-7.315105927040510547e-02,-1.839733934510658919e-01,-3.051133146207217761e-01,-4.783045345843366380e-01,-4.712973159346356966e-01
4.308832679604598370e-01,3.268987605195822210e-01,1.751600746554905497e-01,2.966936044905150727e-01,4.294397316880583793e-01,4.354379772651078562e-01,6.976548363348267223e-03,4.076196367407703414e-01,-3.278260166264724829e-01,4.577412181393544222e-01
-2.387798464300451284e-01,-2.333573534962073148e-01,-2.071386888277255978e-01,-9.607338652565655668e-02,1.740830265861881276e-01,4.915959487426993513e-01,-2.669412565872545384e-01,-1.863259210424935974e-01,2.625074804871665446e-01,-3.445622705848639944e-01
-3.978902393411292704e-01,-3.130968590225238213e-01,-2.569463270666464405e-01,1.467099479489185621e-01,-3.687214807820405338e-01,-1.611568425676401517e-01,4.267825882890367017e-01,1.387198918947414317e-01,3.000315020281268952e-01,1.994098391252292490e-01
2.025353639572802233e-02,-2.449037077931104367e-02,3.714880509528167840e-01,-1.151696091546429157e-01,4.855843123855663745e-01,4.434577290239528208e-02,4.880629161681204198e-01,-4.928605060122922543e-01,-3.569571446019267347e-01,3.889114982243092600e-01
-2.891950543750774205e-01,4.709926982678944163e-01,2.049343686152338417e-01,-2.917246331522175273e-01,-8.345164366524650268e-02,-5.585609636661204025e-02,-1.217134875055030374e-01,6.184138928655924516e-02,4.017954719082997839e-01,8.271993847551327439e-02
1.385157078184778845e-01,-2.073752276710318920e-01,-1.415459081778935868e-02,3.036235058007918930e-02,-1.344581154572737081e-01,3.378398991063602530e-02,2.950421595846449696e-01,-4.905726380354912264e-01,-1.828592175702848169e-02,-1.786698973876910124e-02
-2.422621477720303951e-01,-8.300548312063638079e-02,-4.509484999533098226e-01,1.862104514527369303e-01,-3.662344003400772596e-01,2.004647324646588735e-01,4.827088026090793349e-01,-2.053852914114783212e-01,2.895189436429392860e-01,2.636978676939526478e-01
4.609550162754239011e-01,-3.440143593539258804e-01,-2.975477795368266509e-01,-3.564284134106915358e-01,-4.410634769327191895e-01,-2.405818784919806497e-01,2.425566585346897730e-01,-4.651005724307124556e-01,1.708349641863503576e-01,7.117537730223499892e-02
1.426823396921472753e-01,-8.134067596843164161e-02,-4.386385088022056178e-01,1.291851532340813069e-01,2.969040048137936982e-01,4.077934693776041897e-02,3.715416830153235317e-01,1.990034370484967952e-01,2.258701184634814840e-01,-4.534176155901771810e-01
2.990601203316206602e-01,-3.932543188842180792e-01,3.843190354892349059e-01,2.861401886938158556e-01,-4.326914539601611764e-02,3.450594750347472650e-01,3.207200991314101413e-01,-2.687258244825194708e-01,-4.398382284032169576e-01,2.332693575327848823e-01
-4.392974671389999752e-01,-2.859640364052378203e-01,-3.670412509798414158e-01,1.442675656606486889e-01,4.260815699886543739e-01,-1.468016864558313594e-01,2.141503337651086136e-01,-2.643421321847809757e-01,-7.382997783365376210e-02,-1.960987151970596809e-01
4.950411027801516761e-01,-3.634461236378742632e-01,-3.836958129752092161e-01,4.911686172783550353e-01,8.335475033915773491e-02,-8.222308580536241696e-02,9.641314583594096099e-02,2.901689554282218531e-01,4.917224971054477423e-01,2.902157501779196180e-01
3.074333216225139109e-01,1.878277196296439522e-01,-7.497196210701584373e-02,3.093976904116038096e-01,-1.423488041840021978e-01,4.139001584349701335e-01,-2.671991886491232107e-02,-4.240675931802496273e-02,-1.576934644562680843e-01,-4.675288126583357351e-01
-1.665905962660075845e-01,-1.393077536220739265e-01,-1.530586611508895079e-01,4.073629719813673389e-01,7.573575414942101958e-02,-1.292226044985156364e-01,1.616035111699123117e-01,-3.797927575210504059e-01,-2.374959951872943897e-01,-2.477643527986567173e-01
-3.414765936204792185e-01,4.306390398688717536e-01,5.400397714601101740e-04,2.067255690240459298e-01,-2.000468044205225560e-01,4.091803914168296030e-01,7.767385848925613401e-02,-1.761437849229925412e-01,1.598095891713985084e-01,2.210064973593952320e-01
-1.919511641229971755e-01,-1.485250368203383797e-01,-4.649848725679081585e-01,1.782526437925772700e-01,-4.955004214682859898e-01,1.904944798008349482e-01,2.401882752119520736e-01,-2.059518662731665839e-01,4.061121420721591074e-02,-1.235860986190087940e-01
1.338265538134532709e-02,2.643058849491076168e-01,-3.204463955311243756e-02,-4.328145911039768534e-01,2.902202937120478277e-01,-1.136683944408856534e-01,-4.412523516912825183e-01,2.496105118123131406e-01,-7.462061297419847472e-02,-3.830031371355515080e-01
2.941787065684419722e-01,4.889698479672124343e-01,-6.571961844299846478e-02,3.421728156563381695e-01,4.165610059507498519e-01,-1.827986631540133022e-01,-1.600494912728714914e-01,3.812259309932323204e-01,4.924663551269638506e-01,-4.288149341335778519e-02
3.756830890353802799e-01,-3.228618336179948645e-01,-8.927026795636240630e-02,-9.597984595466686752e-02,-1.372422986895872055e-01,-1.262667345293338669e-02,3.181066746946419332e-01,1.700372274869038081e-01,3.308853384069698755e-01,-1.368256485159032865e-01
-3.528752720673228316e-01,4.560518643126701410e-01,-3.760221512670180455e-01,-4.725159377428668206e-01,-2.676195182516653559e-01,-2.014039786617365935e-01,-1.114566381341304813e-01,4.858689060851784092e-01,1.080364689083948143e-01,5.462389917097761061e-02
9.906919362896762782e-02,-9.021987454179976329e-02,-9.842767369834051761e-02,3.586669885074581510e-01,-1.497929891760141630e-01,-1.513335531547974067e-01,7.923687922604822839e-03,8.793531998092728522e-03,-9.404057800278606272e-02,2.283514329177936952e-01
-2.330510787483996704e-01,1.498337399803136016e-01,4.293576460505627024e-01,-6.062896163812863531e-02,-1.786092039175090351e-01,3.374923983082979140e-01,-4.979036282061747309e-01,-4.156994210359282738e-01,-3.690861697295619859e-01,3.222775721903558543e-01
-4.357820639615779812e-01,-9.868422834659684728e-02,-7.641262295180725750e-02,-3.296198562885628847e-01,-1.563905383238817781e-01,-3.208848968037150140e-01,-3.099911202123276088e-01,4.418710064522710645e-01,-1.288859280133132224e-01,-2.881851075250004279e-01
1.734724822497988039e-01,1.822447285714209886e-01,-1.617798196860566473e-01,4.608909130018236100e-01,-4.307884855448473882e-01,2.292687349746239112e-01,-1.775179390629815779e-01,3.190946052625088791e-01,-3.778890070653974087e-01,9.840236971392624099e-02
-4.378439778143331657e-02,3.772015129359580499e-01,7.863617627848647207e-02,-3.552351537140404636e-01,1.272651519348842186e-01,-4.751397391732203324e-01,-1.648910924340908080e-01,-4.370949724991164409e-01,-3.717392627482343226e-01,-2.291089232088726058e-01
4.300074646218946528e-01,-2.102412166134912108e-01,-8.201649564436058748e-02,-1.511897849134648253e-01,3.405401802867566996e-01,2.146065541402948987e-02,1.105012786876354153e-01,1.740666291664572096e-01,1.498265247348398634e-03,3.444068031907239202e-01
4.763865353939811809e-01,-4.008708458090659010e-01,4.292101924117826539e-01,8.422439695965855400e-02,-3.159954165916109559e-01,-2.359998935955302107e-02,1.417456606119607831e-01,4.642820386548766887e-02,4.555645142653927393e-01,-4.820921290557058647e-01
4.319910251981999849e-01,2.699161244547595429e-01,-4.243014609996966224e-01,-5.447667791554158812e-03,4.799771702581773769e-01,3.187576778521588605e-01,-1.522801192774634327e-01,1.083199173608253435e-01,-4.724358714632197892e-02,3.051967768678339743e-01
-1.107605949419137314e-01,-4.020123455403170620e-01,-2.097056897049397739e-01,-3.430532536654362641e-01,2.240859432469741452e-01,-3.554401456338358023e-01,-1.347305783394292522e-01,2.831922464723303848e-02,-6.871887035478019268e-02,3.047061789268571408e-01
3.712348537914969548e-01,1.889037089491389654e-01,2.135205983052832490e-01,3.184198687009783257e-01,4.023110925378028946e-01,-4.859342809585777134e-01,-1.404115703953676131e-01,-4.676564306356721379e-01,-8.108164639753756564e-02,3.606394365414992143e-01
-2.755045894243170479e-01,4.257118671468171911e-01,-3.746958965186442669e-01,-3.373429532095763572e-01,-3.419479180515575152e-03,-1.926924667065254559e-01,-1.842852905315924827e-01,-2.984663733232194652e-02,-1.793702687425452191e-01,-4.708466967678151538e-01
-3.893625097949913738e-01,-4.956882039398310957e-01,-1.559905940376288547e-01,-3.014144704024554478e-01,3.165850925835563823e-01,-1.950363692824394479e-02,-1.038325998625209273e-02,-4.328208967567230836e-01,-1.159022134631996354e-01,2.428364737636346804e-01
-2.572575664261087525e-01,2.999207873337145780e-01,4.986234552139167664e-01,-4.245754377366644516e-01,-4.152547758969694913e-02,2.125292425607473168e-01,2.089202791378542146e-01,-9.412708311367305736e-02,1.173136921079292322e-01,4.208724638704111620e-01
-2.698838144615988144e-01,3.837785081892209904e-01,-4.881121146354132634e-01,1.376751598620452599e-01,1.280707002798208149e-01,-1.005402691043353336e-01,3.758148961717209802e-01,7.765038349904576642e-02,4.136747492514206703e-01,9.252968655982074520e-02
1.776062494715319462e-01,6.154058007553570714e-02,-1.047463685948502171e-01,-2.186826733022853853e-01,-1.066206108133751912e-01,-4.481286714427105689e-01,-5.509732564373460983e-02,6.890936135396187601e-02,1.335349571985355033e-01,-4.809276291015570498e-02
-4.645339392199456796e-01,-3.240316404504003378e-01,3.575246777362548478e-01,-4.673508260387027047e-02,-3.494833923529263586e-01,1.953118302441727572e-01,3.657472286346711288e-01,-2.792174335983115263e-01,2.442988698958183935e-01,-2.715059488886542027e-01
4.381513286039103727e-01,-4.385006493223432833e-01,-4.589165851635487736e-01,3.726915940998679067e-01,-4.901983425856129561e-01,-9.870540392719171982e-03,-1.425619476277287800e-01,-3.348717935122342837e-01,3.015987671136286519e-01,4.469652832302288825e-01
3.877639701188335120e-01,4.182382987212783232e-01,-3.117098357239859729e-01,-4.869961805785041342e-01,4.987987483842675762e-01,3.438252098836090953e-01,2.467376123432515611e-01,1.824202149186154864e-01,2.545948239431276017e-01,-4.572079779049807446e-01
-1.677071269106839013e-01,-3.303609991631576426e-01,-3.569223354045434338e-01,-5.018806143263709885e-02,2.944804454144097638e-01,-4.446364654456838594e-01,-5.018346806226647860e-02,-3.120974043562139144e-01,-1.643863241581405843e-01,-2.568763543944035943e-01
3.076166314972064719e-01,1.021897295208300388e-01,2.586279980839880643e-01,1.234810381710260557e-01,2.054477631718830410e-01,-3.060245107816655930e-01,-2.266520006677742449e-01,-1.958316248437352858e-02,2.613283535799071355e-01,-2.911686846285883590e-01
-4.390701722397867823e-01,3.915951394502965588e-01,4.964556687540531144e-01,-3.394753692083092300e-01,3.726418829114820919e-01,-6.765904410511325295e-02,-3.048751232923705423e-01,1.524286877465402812e-01,-3.546821340247258147e-01,-1.585900727119460285e-01
-2.055179383859503384e-01,7.511076347281828158e-02,2.108678974353446756e-01,-4.386956309930571951e-01,2.211100670836565196e-01,-2.403898567388407584e-02,2.330833857601830594e-01,-3.315236576423065684e-01,2.770661184643126163e-01,-4.357105212381853776e-01
-9.877086894736702982e-02,-3.526897035743395414e-01,3.210820952705554232e-01,-4.965768864578111730e-01,1.946953883522716325e-02,1.252654774309251706e-01,-2.873742673517908353e-01,-1.413826407851436207e-01,-1.329059598411120313e-01,2.048092904204315279e-01
2.956950898498251212e-01,3.304169266801642579e-01,-2.657385758436662249e-01,-3.647480108011137007e-02,3.933748853107384980e-01,-3.626334935196470211e-01,-4.518170490396185568e-01,4.765908864372093157e-01,-3.159397569799899386e-01,-8.230987674917368546e-02
-1.622205401028127270e-01,-8.909246538257311124e-03,3.808139092826732242e-01,4.466230809461161355e-01,-4.807813286509028949e-01,4.754969596997504211e-01,-5.445243312118956680e-02,1.184407609950213214e-01,1.873771616973811394e-01,2.373907789304460780e-01
-4.479975995983413450e-01,3.251165084430818752e-01,-2.564924608147949869e-01,4.850205222959579898e-01,-6.010548845594242129e-02,-1.875248631191783477e-01,-1.437965087235514583e-01,2.101973892727009852e-01,-1.894870987068879645e-02,2.945033704320051959e-01
-1.210722425605448016e-01,-4.795601346810648979e-01,-1.356016247245103445e-01,8.794439051287454567e-02,3.517082694650088270e-01,2.022571109493020991e-01,4.006167058871694664e-01,3.016627807350974466e-01,-6.714075974020213347e-03,1.226506417847383207e-01
-6.559740201283556504e-02,3.674049858830974458e-01,-2.996103195185845780e-01,3.775431817714239857e-01,-1.200052726131263375e-01,2.483581276039138752e-01,-2.648889371860025932e-01,2.965089945037963637e-01,-1.178554859732739435e-01,-1.047407832428218083e-01
-5.254258675520080413e-01,-3.502499604488294449e-01,1.674008907467031682e-01,4.436310221263691789e-01,-2.129114709063635869e-01,2.589730670614661875e-02,-3.513600052426368858e-01,1.831976995331208724e-01,1.273215918017573944e-01,-2.597704230360373678e-01
2.938114025435247245e-01,2.347721967284207567e-01,3.924220145816301186e-01,-1.173725870736408300e-01,1.843572275589302201e-01,-1.789749793486436757e-01,-3.735774255082446871e-01,2.224573112602267477e-01,-1.903784861975369447e-01,7.586167605548861659e-02
-3.317312261437080911e-01,3.773515244396337676e-01,4.929296774911304246e-01,-3.674992695694636047e-01,2.742870382031998844e-01,1.243914357304759521e-02,-2.346958946650017641e-01,4.901903410152304019e-01,-2.194701198844671575e-01,6.767402742648477576e-02
-5.966785929032446534e-01,-2.037829171677241549e-02,2.228125373841475798e-01,4.788303537722123360e-01,-5.057810664217676777e-01,-4.559300713416804540e-01,-3.125328450662672175e-01,7.137495124667609346e-03,3.323157008237379029e-01,-4.802313643290841982e-01
-1.161622882490353503e-01,4.973901470474843822e-02,4.238504044851948427e-01,-6.173298218912474933e-02,1.596412726429008722e-01,3.701731497878210653e-01,4.097279717131239174e-01,-4.499397313296456535e-01,5.902780061187903327e-01,5.279717462402917089e-02
5.883414586145299663e-02,-2.984331772886505973e-01,1.273854330930870304e-01,1.571923468251352207e-01,-3.880871438044247029e-02,-3.762430088451743648e-01,-2.971907978827742838e-02,4.219358198543057825e-01,3.538851980139185449e-01,-1.710777583091535603e-01
-9.952479296339439285e-02,-2.610951797339275057e-02,-1.345971269545344629e-01,-2.546006373949047386e-01,3.075391835876286617e-01,-4.423026636142153301e-01,3.867407352237376417e-01,4.952084895001464537e-01,9.768635006070969240e-02,-7.002763825883702442e-02
-4.048910337015738103e-01,1.079471782829692222e-01,4.828999207857286313e-01,-8.825017197814283287e-02,1.058652247109039962e-01,-9.596460167413353726e-02,2.914126424993523923e-01,-3.351007719995702239e-01,-1.211558212788853284e-01,9.716614659877645388e-02
6.570700352990857529e-02,1.652660173826503154e-01,-1.254710250500080393e-01,3.763899820271244812e-01,-1.060459791371247320e-03,-2.078265379271790336e-01,2.897805525504012492e-01,-2.097621440684165339e-01,-3.380277611205190214e-01,2.130129401519546273e-01
-3.530178459937163837e-01,3.241421586807846089e-01,-3.427778846209377783e-01,2.836521350881625048e-01,-4.927105941725998250e-01,1.591787933514181019e-01,3.874620397342131151e-01,-2.522785195235472955e-01,4.005673642062647644e-01,-4.513837913632829379e-01
-5.677826178901800303e-01,-3.574628162564511547e-01,-2.426624371907389888e-01,2.152869993960880024e-01,2.930221253538440318e-01,1.787911071361803494e-01,3.238632208474149232e-01,-3.955325309038340564e-01,1.830894277909135281e-01,3.047076183628478208e-01
9.752431145304092663e-02,2.379346753967197248e-01,-1.808981361573434032e-01,3.060976097827617370e-01,4.754395241089411778e-02,3.554047955102215273e-01,1.939661563189651050e-01,4.220051480564121493e-01,2.127848762086154144e-01,-3.584433657729363398e-01
2.546886550127451798e-01,-3.813215097004909460e-01,-4.415625018468889024e-02,-1.611515179078600313e-01,3.820826417080338839e-03,-4.037794488131900561e-01,4.071352863422300072e-01,3.802071267225957674e-01,-1.588623396069288318e-01,-1.730198909196888346e-01
-2.359188802101513105e-01,-3.810938367996329346e-01,-2.137326759528375766e-02,2.903699738410900899e-01,-1.026806354677263916e-01,-3.884023851164636332e-01,3.144022253099441611e-01,3.602990417407613277e-01,-1.178373735744540768e-01,2.725529744206226651e-02
2.235892654484187073e-02,-3.391554380660488643e-01,1.724054993961546822e-01,-3.409212413831299582e-01,-3.340208996910229988e-01,1.443980767274711530e-01,4.816373900824971743e-01,-4.719737570054773901e-01,-1.742231285166482846e-01,3.014294810085307308e-01
1.125736413043583184e-01,-4.595143620296646692e-01,1.524610453973928026e-01,2.453368753672264257e-01,-1.748900287846398283e-01,-2.300710617329926322e-01,-1.890716498737961548e-01,-4.761872826366866929e-01,3.383673764741848555e-02,3.715961514645015895e-01
-4.619885256752397779e-03,4.836660727277488636e-01,3.754506476035800455e-01,1.117606434775359758e-01,3.668340954235271845e-02,2.507106608521810220e-01,4.273726129904266147e-01,-2.586661908256105910e-02,-4.501847687346906546e-01,-2.584955658517223420e-01
-3.679509498637479475e-02,-4.988710614233337302e-03,1.632642347478241440e-01,-4.841479958541611839e-01,1.580644339793002562e-02,3.074102729973986481e-01,-2.756630544953616591e-01,-1.548594834206380444e-01,-9.385040940264231801e-02,-3.431038909412392202e-01
-4.606407751252533656e-01,-3.667103597286785477e-01,4.102561923135527033e-01,-8.444042595099776616e-02,-2.331096790850084241e-02,-5.425747445516349021e-02,-3.289228489827488843e-03,-1.503240053272998367e-01,3.271274670603975254e-01,4.203416829155269818e-01
2.800878604962056539e-01,4.214090232260033764e-01,-7.214541538895569150e-02,2.078191652290891922e-01,4.126019701127961459e-01,-1.133597328772985996e-01,4.175413758323092139e-01,-2.930693084233471080e-01,-3.319296369414221348e-01,-7.185338496632387439e-03
1.003065275560645064e-01,2.862166118379643187e-01,8.705772198531913642e-02,-1.745444231361558129e-01,-4.188523297358000552e-01,9.244217315327918350e-02,-1.324485629464513536e-01,5.756158397487832340e-02,-3.950315678343763737e-01,4.562072082486158253e-01
-1.089166083149877839e-01,1.861695613225688994e-01,-1.703544468798014744e-01,2.393455409652562316e-01,-4.751778923695014201e-01,2.069773467073169060e-01,-2.636423662405415480e-02,-2.035109282529617147e-01,8.357274340630441167e-02,4.640855443223916854e-01
-4.382602659135355627e-01,3.966103727286369729e-01,2.902095488194976758e-01,-3.681228111702160022e-01,-1.492512149335946114e-01,3.828752251440720872e-02,-3.884078892708310304e-01,3.733000667546224755e-02,-3.245212299537692524e-01,-4.458123157327605890e-01
3.655455253506650903e-01,-1.063127923670345448e-01,-1.070807248286834573e-01,-1.956142993508259709e-01,-7.308471024719348508e-02,6.979794185384366467e-02,3.842494878084108945e-01,-4.948313833989979038e-01,-4.735391844644457060e-01,-2.022498263493510695e-01
3.881815002025372219e-01,2.421576610461675938e-01,1.039852494150619727e-01,2.112724095402436497e-01,-4.899561382245368191e-01,3.414708498043948492e-01,4.051277621142645446e-01,-3.610835490610918574e-01,-4.620663684614118583e-01,-3.828272022666847074e-01
-3.706545516063877721e-02,-2.341562290665263057e-01,-4.760988143340252332e-01,2.005972853986078552e-01,4.470275195125937850e-01,1.256106270931758306e-01,-2.851485225891987052e-01,3.317379728601348998e-01,-1.769013740388755140e-01,4.447674142203043579e-01
-2.044119415240913673e-02,-1.782975937795727162e-01,2.057283615494878426e-01,2.998823901225967647e-01,9.990863448174623282e-03,2.469558485838692918e-01,2.097864122788226093e-01,2.241746668838682788e-01,-1.540945067292153192e-01,4.005088149612725523e-01
-2.905273695570711329e-02,5.071560759879550906e-01,-3.064569922721187556e-01,2.729687814540314172e-01,-1.445445572490874075e-01,1.537784645102534820e-01,3.831597465124967489e-02,-1.710286138626746777e-01,2.047767459015637781e-01,1.245074427497556285e-01
-7.645132194180012664e-02,2.636786559714335842e-01,-3.208489662831414124e-01,-9.876434597237435196e-04,-3.516214189399736179e-01,2.555423302817555475e-01,-2.751696228879228490e-01,-2.263336804972345406e-01,-3.696881654011249796e-01,-3.257308352736642543e-01
6.399581012112294520e-02,-2.411100350219779198e-01,-1.747181822873605517e-01,-1.266159584750501110e-01,-8.915727191477216054e-03,2.689846641731200028e-01,1.896472729636514143e-01,1.958807925656496640e-01,2.765936935986190170e-01,-1.066422043094816807e-01
1.789208654810632224e-02,-1.905452325884103570e-01,-4.342418444104677588e-01,-1.123901284905409054e-01,-1.192220956181420412e-02,-2.833513426084424136e-01,3.957313697876894687e-01,1.236126073384922856e-02,2.737112172616641970e-01,8.225858180794576313e-02
3.557554066611829380e-01,-3.307426801941996120e-01,2.096972518379165706e-01,1.466584689601160840e-01,2.315867227186179655e-01,-2.519382887886243427e-01,-3.805457033110650200e-01,3.156502667081161895e-01,-1.514725006111442562e-01,2.554552276598053839e-01
-4.632320228976858356e-01,-6.294324995839849224e-02,1.187272485040680864e-01,2.244841856924548462e-01,2.098417311203168434e-02,6.634642749461974187e-01,2.407133891999112818e-01,3.020029916462216302e-01,6.085699692711968867e-01,3.040568115057418752e-01
2.269679498969956188e-01,3.185642296565209808e-01,-2.509827157487620752e-01,2.436173320106550522e-01,-6.866012343269206619e-01,-1.617333536881578326e-01,-9.516898501931903009e-02,-2.803003521644717444e-01,6.342053381764138908e-01,3.829339894761787932e-01
-2.001196227422247231e-01,-2.244808251507372510e-01,-2.547085244746434274e-01,3.710279697219757700e-01,-5.281938441421314412e-01,-2.450598101330687256e-02,-2.835236864017282588e-01,2.689183034879785716e-01,-1.564853460726210177e-01,8.720258131587685368e-02
6.431739029040998978e-02,4.816621986139664191e-01,-3.541470457199522026e-01,-2.086861474876379741e-01,1.817274871124608393e-01,4.326734526967234151e-01,-1.418478916685705915e-01,-3.364333001556715219e-01,3.891508434203318385e-03,-9.131366847649440011e-02
2.802453027161270760e-01,4.305973306962945779e-01,1.828529505907631192e-01,-7.276666534973388889e-02,-1.533884303390109782e-01,-3.238995976801293253e-01,-4.269875694398148763e-02,-1.198092762074499107e-01,4.874017830645068217e-01,-1.995639731015265150e-01
-1.883080964234789823e-01,1.174822704274272323e-01,-2.181728176281803183e-02,5.890110029416113502e-01,-2.533907475374723717e-01,2.690804974147958939e-01,2.125640500218919093e-01,3.329945957824462233e-01,1.807812499227948178e-01,-3.442559656834958681e-01
1.550434903220641314e-01,2.478726617928559139e-01,5.154000327157782779e-01,-2.192923505209348756e-01,-5.054287351104261861e-01,-1.660903565374139690e-01,-4.224972135094127307e-03,-2.176170284807985855e-01,-6.895125834483417648e-02,-1.003508142132120973e-01
1.899287719798961049e-01,-1.804771607403821421e-01,1.838649678452741187e-01,6.012676335872337852e-01,1.690178789832406936e-01,-5.639703335122484562e-01,6.205421513396891520e-01,-3.731044746981371785e-01,3.697519749710432846e-01,-4.117718430466802415e-01
-1.240456706375019508e-01,-3.709094664574222877e-01,1.107941833935096321e-01,-3.996226675467930978e-01,-5.736994666828119094e-01,-1.300594649772524314e-01,-1.021037023169221042e-01,-1.004914668054030791e-01,2.215979415379116524e-01,-2.788593031521831578e-01
4.419114073774066398e-02,-3.790799307763180193e-01,3.254225783241770920e-01,3.100530615617669294e-01,2.258908773008653503e-01,-5.422580935118538337e-01,-6.030956216209566040e-02,-3.704704513995864534e-01,5.269816843532832973e-01,2.184423061758946905e-01
-1.582856126610597894e-02,2.182476613953261355e-02,3.407795927611715903e-01,2.218728693138240504e-01,2.543676560896112049e-01,2.984411813171186090e-01,3.399342530239970461e-01,-2.554409539206050628e-01,1.177883263940261993e-01,-2.347240968465391098e-01
-4.054830756150294979e-01,-1.769609708439983387e-01,2.068686792514434492e-01,-8.194785456573022708e-02,-2.394911004132801724e-01,3.117750270698105841e-01,-2.777103366226246414e-02,-2.919182778819612301e-01,-3.470366530398907856e-01,-7.478567802908194125e-03
1.130195996829298499e-01,-2.290277028460832934e-02,1.733413356267945460e-01,3.412697642341770005e-02,-4.811235340332649102e-01,2.517756728416177259e-01,-9.658931708917237180e-02,-1.457976653907955000e-01,4.206319470469055410e-01,-1.103162615389605278e-01
-3.525091026371366953e-01,1.973634502914621558e-01,-2.657679898603619306e-01,-1.033809655293640578e-01,1.654322997306555687e-01,-1.958240090065623829e-01,2.501347889128047175e-01,1.411645191327599025e-01,-4.001036683936547989e-01,-3.430535866877607587e-01
2.663932753605744441e-01,1.786130372137486322e-01,4.330182384748273439e-01,1.737921911881463721e-01,4.339522847677739770e-01,3.010337020350569714e-01,3.764527477170447334e-01,2.761251039075832692e-01,-1.016400510307137184e-01,3.134168067148734860e-02
2.669510127226546459e-01,-1.447106713358907726e-01,-4.670653380875253724e-01,-3.155814232972484756e-01,-1.038507911698577230e-01,-4.958883700636933511e-01,-2.795759824024458551e-01,3.054971903381424880e-01,-2.787092680796949828e-01,7.211578705092434871e-02
-3.488706836875107298e-01,2.107206506114868982e-01,-2.131751143657366065e-01,4.076445399094125177e-01,4.983086871228308845e-01,-3.759719076428569284e-01,3.724206945021665827e-01,-2.517066671032925362e-01,4.583667225501723008e-01,-1.566640139486946137e-01
8.256745528351271124e-02,-2.237072432127173160e-01,-2.463221363272732334e-01,-4.248661046053613388e-01,-3.469546313364107459e-01,2.569498444847880814e-01,1.407693941110247648e-01,2.814512843114148066e-01,-4.395343214179785463e-01,-2.140877432676221437e-01
-1.393462320583324643e-01,2.607377426816215316e-01,-6.907358264768670431e-02,-2.617944433609878940e-01,-3.557338154195099356e-01,1.941561670339097267e-01,-9.924225156298775719e-02,-1.095749812510367766e-01,1.036113615085097611e-01,-2.111268458616745447e-01
-1.755342979548670801e-01,-4.403295617894762426e-01,-3.714987150887436029e-02,-1.505180928118126371e-01,-1.634124890442843411e-02,8.726574256712736621e-02,7.149528720271940141e-02,1.570801268980902832e-01,1.602181017696499288e-01,-6.959252058777792849e-02
2.320489057947850708e-01,2.797858582718910636e-01,3.678592755154146410e-01,3.323410411917968044e-01,-2.026257400089006011e-01,-5.409265573484450113e-02,-1.053801423924274200e-02,-1.296367911569176745e-02,3.044057502997883913e-01,-2.698092546417381610e-01
4.675726508861337283e-02,6.881707162308221826e-02,3.372004764838585911e-01,-5.233000226866373339e-01,3.804525231874473223e-01,5.182397452108531422e-01,-4.106914658869590951e-01,1.921651558780586855e-01,1.042870104835094819e-01,2.386187202572388755e-01
5.281959233760434858e-01,4.319301896209453706e-01,4.048731581477630348e-01,-1.904895547810161460e-01,1.015493833847472965e-01,-2.414990148435169348e-01,-2.046668676034606171e-01,2.216964637319774611e-01,3.328228006011452189e-01,3.843111553374931044e-02
2.805670834739618646e-01,3.293823819639182249e-01,-1.585263350919592085e-01,2.211364633770168953e-01,-3.673773906813267848e-02,-2.148416722012557456e-01,2.982489514455842761e-01,3.245494505029704602e-01,1.602148627750821508e-01,-7.480312073617016722e-02
-2.141119880467618197e-01,3.188040210283824560e-01,-5.299427850916439420e-01,1.331676188907529312e-01,-2.496799838222747425e-01,3.386618414533226762e-01,-2.275651581227288722e-01,-2.175199291067231588e-01,3.131015859764560982e-01,1.976845071434361611e-01
5.151724717316686908e-01,3.456803363541532392e-01,3.779830156731057711e-01,-6.126398931118168939e-02,-1.705337322950718215e-01,6.457590266030730497e-01,4.376872929840398552e-01,-2.538267082435050059e-01,-2.354849686218936089e-01,-9.825275938822290722e-02
-6.575383009413318658e-02,3.621109756923450163e-01,-4.472444956188585952e-01,-4.565997453524445748e-01,-3.379869717111575467e-01,4.106874125380413076e-01,-1.013669804826676096e-01,2.546068648585887439e-01,-1.372499184135276551e-01,5.196300788350041548e-03
-1.208055390591400088e-02,-4.482154478635571038e-01,-2.075483045682401662e-01,1.284867088017034031e-01,2.969910268114128726e-02,3.294176193875790470e-02,3.528609533822422706e-01,-1.270007048139940864e-01,4.358900664862193630e-01,3.274703114978382290e-01
4.686382593189963516e-03,3.379381369881243602e-01,3.864668352823448783e-01,-5.861573461471311086e-01,-3.504505279648065796e-01,3.876232823311786535e-01,9.044356694176887770e-03,3.519376639254248595e-01,-1.977315387155829385e-01,6.614084061450613283e-02
3.388264803242110879e-01,6.848674202356525020e-02,3.236447554420965322e-02,-1.649712153974249307e-01,-3.703086401665788008e-02,3.711644165827008290e-01,1.481797907620583388e-01,-7.143225389092849875e-02,-2.225646533911894709e-01,-1.355612175398058505e-01
2.571179234285388970e-01,-2.897267136224709327e-01,4.308534968957982714e-01,-3.102012607502698319e-02,-3.440450187077753186e-01,2.510894866567949246e-01,-3.529232515830692165e-03,8.357933830709211864e-02,4.087002282287809374e-01,-8.871953792013125006e-02
-2.081992793599492242e-01,2.194303022083156640e-01,-4.457488070931490132e-01,6.702756525856690129e-02,-3.231350477674782007e-01,1.171037359560649083e-01,3.488751853663012437e-01,6.812825456429046911e-01,2.067816287306595002e-01,3.274153433028207938e-01
-8.549418154840299211e-02,-3.743358107929574130e-01,-4.291592454388443723e-01,1.910818192998846865e-01,-3.195470457423214006e-01,-2.811771697511667237e-02,-8.259080054187710462e-02,2.563785337071978199e-01,-1.180962641530166335e-01,3.178686205936205877e-01
-3.106148248043495708e-02,1.972953313667301922e-01,-4.167279759669350603e-01,2.947900399057356013e-01,4.384546298639378434e-03,1.512525686518616241e-01,4.747490579652507980e-01,-6.915697654661674687e-02,4.638751811225763633e-01,-1.239686600105863699e-02
-2.836500379700437890e-02,-3.282945592295310466e-01,-2.768911831654953179e-02,-3.920474135342965627e-01,1.769103922683749608e-01,-7.115668394151546117e-02,-2.819517399079969899e-01,2.227229497343635733e-01,1.335164421290653547e-01,2.857412659828718060e-01
-4.125484044243518111e-01,2.202697007013961483e-01,-2.614335833762188033e-01,2.542901812549226981e-01,1.499879573480809303e-01,1.326240542093953811e-01,3.779644671093798647e-01,3.569186940960294985e-01,-3.070371786896033961e-02,-3.349690318401771227e-01
3.605949114640615294e-01,-4.412961833516950150e-01,-2.408900024210250401e-01,-5.141713523602419594e-02,-6.710073260788990135e-02,-1.265568077725189589e-01,-3.635557666079696632e-02,-1.175365813639144968e-01,-1.206852905472318854e-01,3.684504615938464234e-01
1.108859772325180848e-01,-3.521528481024978063e-01,-3.003794167854746400e-01,5.501718230261876119e-01,-1.498377816816335306e-01,-3.167697028153363958e-01,-3.429045906596375759e-01,-3.559616630685843441e-01,-2.744186028055792814e-01,-1.951428285512739336e-01
-1.264558642745921280e-01,-3.576883083937803520e-01,1.390343614878290952e-02,4.717625165424549349e-02,1.309663742245591178e-01,-7.494578222820208468e-02,-8.844635642009304743e-02,-2.216126187161917005e-01,6.160202224470077981e-03,3.112690212920199428e-01
-1.619087642030236085e-01,-7.494672287253285881e-02,4.587919528457382601e-01,6.041110267351386398e-02,1.921914314405579471e-01,-1.035217343683858815e-01,4.350674421033834949e-01,2.441393297597850287e-01,-1.743082230338641736e-01,5.715217952400687002e-02
8.826627328212120760e-02,-4.222271777690527611e-02,2.319260155174875659e-01,2.485909602458686030e-01,1.248006150341394727e-01,-2.071802537748096418e-01,2.108869627314720885e-01,-2.240722536601586212e-01,-2.196644260854775099e-01,3.850129530822759549e-01
-3.094543815819740806e-01,-4.455949768053353299e-01,-3.250067095259313588e-01,2.496994660732672344e-01,1.871941410446858467e-01,-3.447590466907952678e-01,1.746165294357577003e-01,-5.313165036949102360e-02,-2.241454532504707775e-01,-4.850179567441040840e-01
-2.563437786041070643e-01,4.371146494802180538e-01,-4.238017953992640613e-02,4.149865520370916716e-01,2.942079291140840547e-01,-2.713144808652608320e-01,-4.509808035812855054e-01,-1.711561871547396252e-01,3.630094544680340096e-01,1.899431660606298033e-01
3.662189719460768877e-01,2.630600041369868247e-01,1.734471422606386204e-01,4.955031102721818570e-02,1.307883707298751474e-01,3.500684808142805471e-01,4.363937373137481424e-01,-4.616991833209860840e-01,2.455874130710321290e-01,3.907264547941451394e-01
-2.177061377612242721e-01,-3.423825484812442754e-01,1.294335533446289155e-02,-2.579322491018849473e-01,-4.828951452071735817e-01,3.980141430749791764e-01,2.108576212452328846e-02,4.382459082742748979e-01,2.842861548482097378e-01,-2.517546003009208944e-01
4.695596376015349072e-01,-5.619170084965707801e-02,-4.003292815920578285e-01,4.134529471877665951e-01,-3.009121298246682508e-01,-1.153398564195534659e-02,2.832191843166287915e-01,-8.926630287032012723e-02,2.677548001871080108e-01,-1.252087758012583596e-01
-9.943565551646521561e-02,4.858453450243220284e-01,-4.081928670307687079e-02,-4.273591339895084218e-01,-2.199881427035253745e-01,2.619588854792862520e-01,-3.094284151045255116e-01,-1.790254388903521621e-01,2.465071823163327291e-01,-2.293196901785852504e-01
-4.319330768458665704e-01,-1.019332614307887214e-01,-2.054289996639928895e-01,9.550584048842473972e-02,4.199872676919086389e-01,4.690574849018440684e-01,-1.220342796383785122e-01,-8.506109448589319055e-02,4.599004259432969421e-01,2.211718850498850253e-01
1.816212503275942691e-01,-2.806993788058855244e-01,2.202995497917273893e-01,-5.840148306793462030e-02,1.481102423313704619e-01,-1.619455241272370893e-01,3.441036590723052790e-01,5.441004612330257312e-02,3.239357582713888739e-01,3.347838226833860786e-01
7.841656612036901342e-02,7.245565932836790790e-02,5.834253153608878056e-02,1.339701317403968472e-01,1.729247487551632823e-01,-8.850146288338660294e-02,3.458774417261475942e-01,-2.099671495913905395e-01,-4.104409203912937620e-01,8.434883298714512812e-02
-5.958710024453986454e-02,3.797604934215181860e-01,1.501250238449790553e-01,-1.938364955004410473e-01,3.133341798093792763e-01,-1.774088700173872823e-01,3.684135101738570950e-01,-2.932535290557976015e-01,-2.147878147525180970e-01,-2.343170311199295197e-01
2.629076932492290797e-01,4.452939282110077723e-01,-5.610953990552066672e-01,4.497818744358467180e-01,-3.396498960027232727e-01,4.305535354098567469e-01,-3.058417236432893760e-01,2.378342959532915302e-01,2.032303103121328169e-01,1.231373811371004878e-01
5.445078618101701906e-01,5.182344203412219130e-01,-4.635149086829885023e-01,-9.023841193017223539e-02,2.592424084755048930e-01,-2.248176538098029253e-01,4.600005215306572914e-01,-1.216354948782468609e-01,3.988924273110864421e-02,2.255053941895144853e-01
2.144430339248845352e-01,1.528772039698612639e-01,3.332774131344695134e-01,1.732780482508155251e-01,6.549246914990995705e-02,4.376665838336846748e-01,3.603013844646198449e-01,6.480558936509581147e-02,-1.795195909254372613e-01,-2.107966296849342336e-01
3.154589982436862283e-01,1.679362872752404590e-01,-4.245774237262966988e-01,1.359637239745122017e-01,-3.230368898526959631e-01,1.783937417646346002e-01,4.003440212858857539e-01,2.969664664699481760e-01,-2.760414189711551947e-02,3.508681126522524285e-01
5.599541824399578704e-01,4.413990386527411047e-01,-3.798502465328677108e-02,-3.635495288003199876e-01,-3.182401591551062975e-03,5.544591093196773457e-01,2.897091273149823495e-02,2.442613521272594956e-01,-7.969391579896394073e-02,4.258796327283351224e-02
-1.306755779848968457e-01,-3.476848987255586887e-01,-2.485728054902805184e-01,-1.756740090459551484e-01,-8.361436663230786825e-02,-7.421245154637204355e-02,1.073374198009913599e-01,2.680384775269267217e-01,-4.409881138433329184e-01,3.520348499888281690e-01
4.029472839919297916e-02,-2.136521702181933269e-01,4.509329585402758744e-01,-2.153963122124373519e-01,1.229240682802848483e-01,3.406660937510677112e-01,9.329909471054718961e-02,5.344962711578420400e-01,-1.673343752585885191e-01,-1.037975095078474824e-01
-1.502853063563786007e-02,1.637109775215452034e-01,-3.612774105273324765e-01,-5.493568821274987801e-01,3.139609007269425489e-01,3.641741496003027545e-01,-1.320208578764796026e-01,1.843662659301273377e-01,9.457709827109281320e-02,-3.198992229521645247e-02
-5.032243674979643977e-01,3.853791549635658398e-01,2.232763492719582951e-02,-1.056954789928261501e-01,1.332121325532156786e-01,-1.375540819300992146e-01,7.058157665812446468e-02,4.470685235489246789e-01,1.411162678286067285e-01,3.649140725115359446e-02
-8.165464381964553098e-02,1.932936697254104830e-01,1.656295605532601689e-01,-2.315338967878410037e-01,7.456507923867229659e-02,2.307563263129188968e-01,2.444810794214900829e-01,8.222303723036913370e-01,1.396260866825788649e-01,4.809031146807788565e-02
-1.120866354142142501e-01,4.684362708675479103e-01,3.826898976801292873e-01,-2.674636044895689624e-01,-2.098489867769448222e-02,9.450856635121485105e-02,5.915537844674744611e-02,-6.680533207494378234e-02,1.315311041825477922e-01,-4.422250226431748144e-02
-1.201308410998469939e-01,-1.450811287393816706e-01,1.022221215046962423e-01,3.367154648097686609e-01,2.566351295947302269e-01,-9.580593683287019768e-02,2.046317226453064353e-01,6.227001342699740594e-01,4.888402416838363851e-02,-4.608723413097176591e-02
5.899520106873935160e-03,-1.607242950749599164e-01,-3.610038709662145018e-01,1.590854273549085207e-01,1.984820710327124815e-01,-5.666462816094005595e-01,-1.009956932589653467e-01,-8.001573546682683169e-02,8.791001980048251951e-02,-6.255304266690960013e-02
-2.411504913598469524e-01,-2.394815085134666122e-01,2.990427004526101662e-01,2.825970149973483503e-01,-3.451514483100948105e-01,-2.321478200940535475e-02,-1.087672173844124596e-01,3.129499262323908182e-01,5.016774629655725848e-01,4.221700747292973510e-01
-1.231166851685968761e-01,-6.289409931631535500e-01,-3.142762720570783652e-01,1.004160122072873251e-01,-8.177403025093546440e-02,-3.132987386471965396e-01,-2.758015717668158354e-03,6.991591413993705761e-02,-3.697937433143264618e-01,2.558219262340081790e-01
1.212469285260960733e-01,-5.572805528362737570e-01,-3.359108216227183474e-01,-7.632023643487416409e-02,-1.005099546794536586e-01,-4.898201319307534662e-01,1.791181125703166233e-01,-6.471993637930076315e-02,-1.920367079235831831e-01,3.311735166912523343e-01
1.911758273242831485e-01,3.790315336196420914e-01,-8.417156341108220086e-02,1.056273911305204011e-01,-4.860571526195074932e-01,1.938918446984623511e-01,1.935315364348005329e-01,-6.809964459765713296e-02,-1.024390499533003734e-01,3.030402733109291979e-01
3.905672476464785436e-01,-2.294266382681658389e-01,4.494591932274819568e-01,2.530645752880336663e-01,1.801134833345004738e-01,-2.254745949359319157e-01,-3.577392821508207366e-02,-2.266390383845772460e-01,-3.693421374763201648e-01,-3.093208377292753775e-01
1.439525310096465838e-01,-1.920503011535649313e-02,4.137129520218563172e-01,-2.945976054712321490e-01,4.201056004138197242e-01,4.282568465287059922e-01,1.628920288707727260e-01,-2.070727934391506167e-02,4.755769304735779635e-01,-1.491208426615391325e-01
-3.825143553499928406e-01,1.921100882750342576e-01,-2.832274952886066899e-01,4.189986831161187086e-01,-8.297335829921959061e-02,3.986830236636932367e-01,-2.817177795212466029e-01,-2.085404121611624806e-01,-1.269133237689097637e-01,-1.878277108198714018e-01
-4.454899461388580617e-01,4.485760735488251161e-01,3.619200901090660616e-01,2.939997683974451270e-01,6.823920991120269175e-02,2.641764766588899915e-01,2.022293149157166070e-01,-2.911413033772833336e-01,-1.781492628884200347e-01,2.057874006558702007e-02
1.382582481353085702e-01,2.500346175442470509e-01,3.865397930051094888e-01,-4.571342420692521835e-01,2.024363476060281677e-02,-2.307691415465202081e-02,2.298347233702681958e-01,2.782757280759293184e-01,-4.401175756832558794e-01,2.530525907926843843e-01
2.529941832163132287e-01,-3.660892025536096051e-01,3.275698480050242001e-01,2.505715438329026989e-01,5.890058992976360264e-02,4.792993072797170351e-01,8.605259279175568599e-02,-3.099046544806194903e-01,2.420150494775515637e-01,-2.008323083911925100e-01
3.190506885089812728e-01,-4.694637467736018088e-01,4.434983161200453106e-01,4.105954281878329004e-01,-3.319922520739739258e-01,2.741418613840570020e-02,8.118039200920983134e-02,3.172478955594053573e-01,2.717329900046622226e-01,-4.391992751744272505e-01
3.195897429411331259e-01,-4.327374120496702697e-02,2.967818730222769319e-01,-2.529578588839117015e-01,-2.656662470314889446e-01,-3.892299792269698910e-02,-3.225079462542757569e-01,-8.330657835570111358e-02,-3.659150709416738034e-01,-4.516186535977841365e-01
1.030337220087743089e-02,-4.765460572467640765e-01,-3.478907308128439402e-01,3.669084460417959548e-01,3.895580343386282340e-01,-2.538849238609300896e-01,-1.587045144520748408e-01,-1.673360851820299700e-01,-2.775427700615807347e-01,3.230621244915490853e-01
2.573434654350451045e-01,-4.070163774894926950e-02,-5.164069008776384778e-02,-1.139642161404680193e-01,4.370757600170561696e-01,3.847579705542367168e-01,4.123965880709584697e-01,2.771799860055638165e-01,-3.231459241610443178e-01,-4.545246341659596179e-01
2.175165555539204654e-01,2.306606254010440948e-01,-5.922218897045411490e-01,2.648776403922009290e-02,-2.913146499365460995e-01,-1.972125118512757236e-01,2.562951409876911349e-02,-6.821951263438287560e-02,3.606251815906438840e-01,5.352867057112343785e-01
3.286383480112221034e-01,4.279234091704924303e-01,-4.418834099418478822e-01,-2.368651487930895361e-01,3.396746454963173734e-01,2.333803111450960532e-01,2.546748509948895678e-01,3.570838066513149500e-01,2.549547923829573182e-01,1.277408999863005323e-01
-9.864713173009596880e-02,-7.114391571648548407e-02,-4.763226848586477047e-01,4.406768575813785893e-01,2.523635503235139854e-01,4.242833986953711833e-01,3.093481024332352392e-01,2.984202582258011494e-01,-6.596922454884149301e-02,6.961369385861544690e-02
2.807030957369988089e-01,2.679149277887005187e-01,1.829751406602017350e-01,4.036278003195951647e-01,-3.734231387466300234e-01,8.945762423529840524e-02,-3.055713970820810865e-01,2.877973919158909322e-01,1.166646933494668303e-01,-1.137386396969217034e-01
4.827975971903393781e-01,1.755754350711430101e-01,-7.746972578658968545e-02,-5.447789738530505604e-03,1.547461993835332894e-01,-4.720826836185507136e-02,-5.984813962414604893e-02,-1.805868759212079233e-01,-4.514465589314127225e-01,6.255526407850819925e-01
-3.484566504637842677e-01,-2.141381064786823385e-01,-2.270578820666115938e-01,-1.731508251029117429e-01,1.399638978397959033e-01,4.753854112379809482e-01,-4.503840228127221068e-01,2.163236487304011912e-01,1.530578108679003790e-01,1.163457084363525434e-01
3.738899693129251189e-01,2.202029019559276213e-01,-6.871430428839957194e-02,-7.619335170452574968e-02,-6.242759421298812450e-01,4.056069506681207470e-01,-3.784500509039966792e-02,-2.116430400024025549e-01,1.409888219452892777e-01,-1.516499292051436132e-01
-6.906170062934771647e-02,4.243825195921848703e-01,7.183422257500055030e-01,2.265292622115079035e-01,-1.820285153134725831e-01,-2.953381181353582213e-02,-6.520859156974677662e-01,-7.474609690480068201e-03,-5.197064405025457745e-01,3.848675392600062750e-01
2.300460711308284154e-02,1.280665554141421636e-01,5.875713008199264786e-01,-2.454828142590039786e-01,-9.027155982566271997e-02,4.786330430021635829e-01,2.267377070118646032e-01,-1.372311670438054465e-01,-1.837522607455792378e-01,-2.318412548150214011e-02
5.481233922831875438e-02,2.780732038300884335e-01,-3.534459167210767579e-03,-1.962888439408722874e-01,-7.405835848481698291e-02,5.743821492481416824e-01,-3.392062795278723009e-01,-1.164643051545895674e-01,-3.784271629863023567e-01,-4.249262934932577784e-01
6.749238758554852724e-02,5.112776569484143736e-04,2.394075203193227752e-01,3.087182810168487973e-02,2.433520382420708422e-02,3.020315649943720593e-01,-2.734632178217291654e-01,-8.036705247622717707e-02,-6.099593905488278622e-01,2.182149391557803575e-01
-4.423543007066269017e-02,3.298727033405584042e-01,2.608013851768858360e-01,-6.573975993324647493e-02,5.701396795438612441e-01,-2.402354204135487836e-01,1.780680358275803232e-02,9.275905059336585212e-02,-3.629969842461743812e-01,-3.587037610779635344e-01
-2.307524860551511681e-01,-1.560309320961011104e-01,-1.926859907402427574e-01,-2.745191350372475081e-01,-1.397040827542106456e-01,4.479296721252842284e-01,-3.526619366812530632e-01,-2.379733929641823509e-01,2.970166903771618780e-02,1.198466825407174148e-02
2.218410508986489171e-01,3.684313173305944211e-01,-7.378047694598116601e-02,1.994749305602661893e-01,-6.105269941885019952e-02,-2.334289029960480155e-01,-6.146499600267225916e-02,3.248204691797938470e-01,2.142937651220707118e-01,2.869898582748681704e-01
-3.032274598635255058e-01,-2.240709748403943435e-01,6.060704329762956616e-02,-8.842863687226022729e-02,3.837844021237329373e-01,1.444978571524078992e-01,1.873076187630757505e-01,4.510661866362651873e-01,-8.822994476504562866e-02,-1.972752053623210919e-02
-2.940983666409354158e-01,3.322266159460920965e-01,-9.685616260622924301e-02,1.865947680709467982e-01,-1.090915250803621978e-01,5.124625880772357665e-03,-2.438685586950739836e-01,5.548942382460312350e-01,3.082261969685969882e-01,1.050392142307263466e-01
-5.576048562207559511e-01,-1.017801363816009386e-01,-3.574112231649477778e-01,8.787102495857866680e-02,3.653339255106655137e-02,-9.982103571468656233e-02,-3.784740220663563859e-01,6.216289881599919021e-01,-6.944771098944782506e-02,2.077669764807482944e-01
3.678239557505529750e-02,-1.070131793178113466e-01,3.219455886957546809e-01,2.837987089935049556e-01,2.008229862332744711e-02,-4.317817362986424712e-01,-5.935796621754502178e-03,-1.892578310996833602e-01,-3.657803354372042848e-01,3.179040519764825268e-01
1.980575962642468768e-01,1.203341145400742100e-02,-6.545699259225788713e-03,9.928845364549719610e-02,-5.973926200052420699e-01,-3.981530469913054926e-01,-3.338144851498245913e-01,-1.487472376190662748e-01,1.781935839980434422e-01,5.124030654536519958e-01
2.962685637111553416e-01,3.518310814404939091e-01,-7.377504842187693201e-02,3.439836855953170430e-02,-2.816585706833212854e-01,-2.983461072827036653e-01,1.953407831788695759e-01,2.144024873340268644e-01,-3.156134941597816407e-02,2.477883930381415689e-01
-1.847481672613805470e-01,-6.028791984950498256e-02,-3.640981106982433269e-01,4.018649495344029376e-01,2.710538798106935238e-02,-1.741863015585206065e-01,3.152773881595430372e-01,3.639429215093821224e-01,4.383808500365017902e-01,-3.593132989469933203e-01
-1.915682641681470955e-01,4.189273653969485256e-01,-5.965195430613727534e-02,-2.605604308136195979e-02,-1.170655510160052565e-01,3.575531329479172959e-02,-2.635019454912154724e-01,-4.157854852347837582e-01,-8.531243378558588109e-03,-2.404261878926772233e-01
1.694967370776009619e-01,-3.184785620834586911e-02,1.236807211176859170e-02,-2.594102515657665253e-01,2.985158984639690316e-01,-6.125345332467810149e-04,-3.393899481690221265e-01,4.855668388811740788e-01,-4.275363549183531231e-01,-4.764865439400368663e-01
-4.426649830275212194e-01,6.674910896039494557e-02,3.508874645273658555e-01,-2.987708150517716099e-01,3.612651396682636240e-01,4.372250025546545737e-01,-4.531092386823064033e-01,3.657150125771694849e-01,-3.293354954439992044e-01,-2.940099890988314701e-01
-3.290425156445884181e-01,-1.079159693367078704e-01,-2.783503917479905887e-01,-1.661592838201722822e-01,-7.842422658898820509e-02,2.787905435299937174e-01,-3.029711761697619354e-01,1.436413633611054175e-01,-4.816503682620452143e-01,3.497472042270389769e-01
-2.532027177159275055e-01,3.789811976712372799e-01,-5.614236423773957263e-01,1.217914927016776477e-01,3.654459451120813940e-01,-2.106757278221010610e-01,-4.451682390834286740e-01,-3.414987029383053097e-01,4.230828667524171860e-01,-3.209154223326567412e-01
-1.561954287135708733e-02,-3.697108262208427809e-01,6.618921438866663676e-02,3.074344233851720176e-01,-1.015577766592117848e-01,5.670753872648265359e-01,1.988381185415733776e-01,-2.062897713921460485e-01,-5.122033189057545455e-01,-1.969503408237685826e-01
-9.534361360951776332e-02,7.845680650490940988e-02,-3.730252060392863500e-01,4.236594472522146604e-01,-1.570758681583430405e-01,-5.985685529913709058e-02,-2.280819989688966376e-01,4.977774916732902177e-01,2.082121640026823317e-01,1.894667629465786041e-01
5.536822053310381797e-01,4.750063474845512834e-01,-3.172561033284828635e-01,4.094649766205622488e-01,-2.666749100028903766e-02,2.370582422904241593e-01,3.615952653172496145e-01,-1.063506050000947445e-01,-6.962645347620111114e-02,8.670797811308238179e-02
-1.164594990205800595e-01,-2.323665812229589733e-01,-5.216616328139820485e-02,1.217029902668474162e-01,-2.522651237958050130e-01,3.369502692572364649e-02,1.590642424371741248e-01,-1.338822829922252378e-01,2.706350266523160908e-01,-8.551710282906420380e-02
-1.163565865686738560e-01,6.124590252048672800e-01,-2.502012820410269289e-01,2.183782385372588231e-01,4.067962269421695476e-01,3.519775707062552245e-02,2.522401307998504288e-02,2.067497385766396967e-01,-4.925412137630394982e-01,5.543224289878835309e-01
-5.312680007034957796e-01,5.692764249860464698e-01,-2.855725291086464446e-01,5.727981773555839567e-02,5.626674245763486210e-02,-4.530182624148063053e-02,-2.190416162540857747e-01,1.981673754618152594e-01,1.636678276385492292e-01,2.122062966716014021e-01
3.150571147207675837e-01,4.535977409875619482e-01,9.321826169150418395e-02,2.450960865438597536e-01,1.613196672568791568e-01,1.322273222569315398e-01,-1.627329421570594681e-01,-3.612050859895784560e-01,-1.331962309211225104e-01,-1.976159485594570775e-01
3.368860017058478706e-01,2.965388177670753023e-01,-3.739975982596611959e-02,1.502687972612200273e-01,-8.328403328057216656e-03,3.729735739327529886e-01,-4.433452538142077515e-01,-5.149394794114964258e-01,2.421933959929422134e-02,1.497015988634351480e-01
1.365304963927236326e-01,4.463315197752070196e-01,4.159561436458725781e-01,-6.028863317529362803e-02,-5.043437437807139767e-02,6.184126108576568637e-01,2.067328993783684454e-01,-6.439573198062996662e-01,2.768876135590161436e-01,3.679703215545403472e-01
-7.886487217479752274e-03,2.567458134494544630e-01,8.114280712443187882e-02,-2.347334699859559004e-01,-4.746489016989232645e-01,6.269359247408375913e-01,-1.281895359799399003e-01,-6.250571231785294612e-01,-1.020371869305666812e-01,2.090431666459626747e-01
3.350437333078830071e-01,1.718132876758665106e-01,7.594399289208746406e-01,4.103450539621353310e-02,-2.687814901567547876e-02,2.134800387974947755e-01,-4.008917506795598995e-01,-5.730238983552481402e-01,-2.611510644436541018e-01,3.976611662874535713e-01
-4.202023940507036009e-02,2.000547001880192965e-02,5.136960568414671302e-01,-1.372339148200653891e-01,-2.592651576947356540e-02,-2.551428663293134336e-02,-3.759432459733962339e-01,-7.755474292933993707e-01,-5.387192692051682302e-03,-2.925715530049832203e-01
-1.950203619348739037e-01,7.037439133435816618e-01,5.315100141862610234e-02,-1.681326327669206699e-01,-2.165299205648632264e-01,1.850992568559292895e-01,2.624600651074407431e-01,-5.344343698690543487e-01,8.666501977998147810e-02,3.201277937559011133e-01
1.578109648480575944e-01,-6.993401001631767422e-02,1.100849208625492154e-01,3.948400137616513983e-01,1.544637686178199076e-01,2.983689994979729088e-01,-5.565120501769025285e-01,-9.219276759657658860e-02,6.689359648347584231e-02,3.500371598616623947e-01
-3.447322907415020232e-01,-1.517756820967106346e-01,-7.793546653279403991e-02,1.068744263027729818e-01,2.232981184137607655e-01,1.725275965090265068e-02,-1.726136965169023990e-03,-4.386760261340481581e-01,-2.222303864602127033e-01,1.558428441339080039e-01
1.625652744872828070e-01,7.854153436074937100e-02,-2.030368975687681932e-01,-1.519946195774105890e-01,-1.700150371855164155e-01,4.324452679754986484e-02,8.283061739069837170e-02,1.540899992897094839e-01,-6.936433814494684658e-01,1.286739808677739016e-01
2.124994559013338724e-01,1.358971159658719507e-01,-1.875650124737380242e-01,1.996577733059652082e-01,2.328852344225752768e-01,1.378295429829266665e-02,-1.525676449193238624e-02,4.851472973336986433e-02,-1.930577341774550038e-01,5.496584950002243036e-02
6.395090809979193935e-02,2.930293855725589758e-01,-4.964096503768493096e-01,1.927299933505214335e-01,8.728223220692122794e-03,-3.015911138258166035e-01,-2.450435191939404345e-01,1.770878616051949905e-01,-4.757446035296885589e-01,-3.715374109849687856e-01
-3.951814824359576456e-02,-4.805032069970096575e-01,4.499555361897167316e-01,5.192521808474608314e-01,7.930843799649317516e-02,-7.967582309991650957e-01,5.952346661165162228e-02,6.634771642943106951e-01,-1.826541941680706604e-01,-9.655204366498693069e-02
-5.671441014207224685e-01,-4.411097847543792860e-01,-3.570442296209263566e-01,-1.791391910465793824e-01,-1.694620504824558005e-01,-1.599616774424667820e-01,-2.019894591251436555e-01,-2.303660358379163720e-01,-3.223379509218626121e-02,3.891125731365375207e-01
2.334019031898875163e-01,-4.474026266485252590e-01,-3.008358183895724070e-01,5.266346274898231483e-01,-7.896273414823170578e-01,-9.610304653776673145e-02,-3.616978406684547287e-01,5.238377605717526447e-02,-3.546845383886918640e-02,5.485394188616059541e-01
-2.540411727525771490e-01,4.091745865692111156e-02,2.599409035453107419e-01,-3.496064902629167914e-01,2.422943323415634176e-02,2.749471550567425537e-01,-2.860152000274017725e-01,5.742620082619049118e-03,1.728991500051442476e-01,-3.922479775940430624e-01
-2.004790146263755457e-01,2.122575336970576043e-01,2.391507712222488979e-01,-1.666222249279102618e-01,2.047215200645901290e-01,-1.047746283976298681e-01,-2.839647508752489169e-01,1.308556342109013781e-01,2.285077201919478718e-01,9.515150836472797968e-02
-4.387538402876954291e-01,1.352882161754811463e-01,-4.197590214826520394e-01,2.738838081454995077e-01,4.400433015390817770e-01,-7.649112789179310368e-02,3.617049103265852494e-01,2.475817428176117496e-01,-3.411699015938948754e-02,-4.386732347041769620e-01
-1.190457652988853726e-01,-1.999368817087893435e-01,-4.325743191064853610e-01,-1.219581847066777552e-01,4.266812285383675407e-01,-4.401229765508404834e-01,-4.408456453466482183e-01,-4.809860928181436956e-01,-3.940198060570321292e-01,2.523967717910423070e-01
-1.052457699400413116e-01,2.593762978092147287e-01,3.234825916338086582e-01,-2.178736336114478755e-01,-4.057423197085817113e-01,-3.960459621622601789e-01,-2.328116466992822264e-01,-1.437333283175909193e-01,-4.137030112266967263e-01,-7.771238142062655840e-02
1.677267010368994060e-01,6.138175250346537132e-02,8.494623477184611027e-02,4.876551546183449659e-01,3.279478599361141944e-01,-4.304082424864463796e-01,-2.219961572569263963e-01,1.615984036855626083e-01,-3.229711626412425374e-01,9.721729157526823317e-02
6.484079733136233203e-01,-4.723295519501469752e-01,1.051354680769221311e-01,-2.241629674179667353e-01,1.894002054472806451e-01,4.409304468727983095e-01,-3.300871584539155634e-01,2.116068614613353938e-01,-3.586959118499760679e-01,2.589846562558355547e-01
2.553859601046863381e-01,4.128771780296816574e-01,-3.331301059169843558e-03,-4.194857612760799492e-01,1.889359959644443254e-01,-5.569628167320278544e-02,-3.949750149145538902e-01,8.429990557366181039e-03,1.899226122106104087e-01,3.239577878713744696e-01
-1.575085720417261637e-01,5.624822496040342568e-01,-5.214610960341631296e-01,-4.153433663247605573e-02,8.946774135604600164e-02,2.352168673903153595e-01,-4.786141378464993101e-01,-6.285560857090745357e-02,-5.552109357434926729e-01,2.316317780740350940e-01
-3.602364292880154695e-01,3.240619166763510361e-01,6.222948647391336741e-02,-2.713556959259602608e-01,3.583475941668957110e-01,-4.701422085346743107e-02,-2.251697272200589850e-01,6.221396969266201893e-02,-3.650150915451583766e-01,7.167822885095767038e-01
-2.993615034109022299e-01,-5.441210704021964134e-02,2.165273506112380952e-01,-3.655704582127694002e-01,3.424230783027448766e-01,-2.375789984617910355e-01,1.582539619970523559e-01,-5.284946091568635401e-02,-2.586299650655579652e-01,-1.076899737235052640e-01
-1.190937029363985655e-01,7.245968454560142158e-02,-6.731059200241572560e-01,-2.680284229926137574e-01,-1.547689562259766949e-01,-3.001029079672607597e-02,-1.834059604094527215e-02,-2.226946613313756373e-01,-2.970312840066032245e-01,2.578413623029629509e-01
-5.923056932232897420e-01,2.685835456889867912e-01,6.441920888941676804e-02,1.063780757346723116e-01,5.389688389365073773e-01,2.200916153843092589e-03,1.666973610933744285e-02,-9.798353022612817098e-02,1.700612059269845100e-01,4.913983781102189696e-01
-3.849250498239637497e-01,2.979490522844935665e-02,-8.478367814055121077e-02,-8.306385413668705697e-02,-1.231669021095884303e-01,-1.075504328945351140e-01,-1.554801438849862105e-01,-2.048474220467371570e-02,-1.193257321444862046e-01,-1.394294874137899098e-01
-3.259378259028105074e-01,3.206273621866923551e-01,8.839584084997613445e-02,-3.933666671657000125e-01,2.450779666743912455e-01,2.102463692451412014e-01,-2.355546754702874390e-01,-3.894823246023144669e-01,-1.358103799906405507e-01,7.044462346460962643e-02
3.637720460486256746e-01,-2.709987746461291480e-01,-2.988464856280513837e-01,-2.815550489160993999e-02,-2.357267508359725539e-01,-1.601552810084738987e-01,-7.539541467575995581e-02,-2.519895746912163004e-01,-4.959338760865347751e-01,1.766532434205772550e-01
8.380744916397019073e-02,2.865417234550073355e-01,2.754444757125547594e-01,8.900319737657658159e-02,-3.431338468147165366e-01,7.018177531524153467e-01,7.065043900297526824e-02,-4.617330428930514485e-01,3.354897148518835581e-01,5.535349543861295407e-01
-2.088621328285077128e-01,2.443710240710864068e-01,3.826250205898160672e-01,-2.644484592127779310e-01,1.592030373165443380e-01,5.995846040927297338e-01,-2.467187842302089387e-02,-6.145964613130556753e-01,2.590598573162667534e-02,-1.818838627944291408e-01
2.774129352313827179e-01,-3.423893595844339222e-02,1.654864367033845596e-01,-2.086935588495279215e-01,-3.589128957205432735e-02,1.360412488867468184e-01,-2.255616284597909971e-01,-2.459964896679311952e-01,-6.086803518326800999e-01,1.436167355517855848e-01
1.091778018257538452e-01,-4.659594222050051360e-01,5.488993702285287213e-02,2.802619236637701305e-03,5.598500360914925311e-01,1.183322709168870834e-01,-6.194715195195068524e-01,-4.061525783946033363e-01,-6.306324364630346846e-01,-1.016758042710207421e-01
-1.540596126070118421e-01,1.538375989900319929e-01,4.671408575990800005e-02,-1.506514809639668967e-02,2.931053308022076032e-02,3.641007087134603970e-01,1.266927725761189116e-01,-1.468677877730610037e-01,-3.432706671348063621e-01,1.404884105364820508e-03
4.355102075521270488e-01,-4.674539305023139302e-01,-2.290476487724487087e-01,-3.192805257474763958e-01,-6.751349660226979577e-02,2.717834033222062962e-01,-4.267707948137272056e-01,7.216950473508135233e-03,-6.180673376670388075e-01,1.619222930591085186e-01
2.185592614276654633e-01,3.642797663553360987e-01,-2.936604947556230583e-01,3.503242725096741145e-02,2.025058588576819085e-01,-1.059657544906380949e-01,-5.255209640046091257e-01,2.239508022719126357e-01,-5.549355611849653425e-01,-1.622485631012544616e-01
-7.321304272170993388e-02,-1.753337798093584921e-01,-1.463472978695708748e-01,-3.636961601718430859e-01,-3.889949335156668297e-01,-1.619919432033666840e-01,9.857171201950987172e-02,3.061191163757877656e-02,-5.452785856272847065e-01,7.127114272564287478e-02
-4.165344297284158115e-01,3.142688098212044201e-01,2.553315082371699907e-01,3.662777940374898344e-01,5.732979143491421375e-02,4.813233222594051619e-02,-2.965363907308034008e-01,2.611132336538925514e-01,-7.093508644433887955e-01,6.005319369259003448e-01
-6.749365790265422493e-01,-3.224918113590239943e-01,2.218222498787149888e-01,-4.236569244141889096e-02,-4.054175721914368702e-01,-5.248848245331279028e-01,2.225075187130933774e-01,5.883270342543075460e-01,-7.741248857271438855e-01,6.767089187180195253e-01
4.280410271145540513e-02,-1.731308332031495367e-01,-5.960856951485559579e-02,4.323178776045660254e-01,-4.422464139119225979e-01,6.000469131361389069e-02,9.707194466495977503e-02,5.317677811060126519e-02,-2.824494399423884139e-01,4.387292368966712042e-01
-5.021823374300393716e-01,1.611073952945830390e-01,3.105514434731446172e-01,4.712511178149654811e-01,1.151515814277478782e-02,1.379761970570682061e-01,-5.000154561620984150e-01,2.939754157695894099e-01,1.287100609990831646e-01,7.365161679953572405e-01
1.042288601610062149e-01,3.299868255463617173e-01,3.966902241254336436e-01,-1.354782426392578121e-01,-8.464503416094651400e-02,-2.380096775104159068e-01,3.830312525232693055e-01,4.087751464880436392e-01,-2.653563410836149994e-01,-2.157374337855250956e-01
-4.196364520337075160e-02,9.122414191324705601e-02,3.102371714052707397e-01,4.678430315887021074e-01,-4.254379848390054675e-01,2.703311964114871735e-01,1.992879629509997780e-02,4.992379499521086839e-01,2.964241311605512741e-01,-2.341381799185388024e-01
-4.521151208925243137e-01,-4.797182117907807797e-01,-3.597898288407374578e-01,2.837269758576519973e-01,1.611327945485224256e-03,5.054234487429928868e-02,1.630031897433948940e-01,2.700345303933099905e-01,-2.523449288649466382e-01,-4.344580995116892885e-01
-4.463754392075352517e-01,3.843536406428154639e-01,-2.752741618145285729e-01,-1.195429725384000857e-01,-2.199972249419542003e-01,-4.832369586728091915e-01,1.793639108106528379e-01,3.967298201047023132e-01,3.000551142436530538e-01,2.221859705333082136e-01
-1.589585666748612458e-01,-2.761957486838417797e-01,-3.424258852281485410e-01,-5.493347728421992676e-02,-3.573216796697000763e-01,-2.767232740379898526e-01,-1.682259432800861099e-01,-3.244868596943194933e-02,8.290683406862763005e-02,2.434665159543126234e-01
-3.528815518418110808e-01,2.881475258376474113e-01,-1.091934547089637303e-01,-1.939076906739839110e-02,-2.245716164438670351e-02,2.587373596764865336e-01,-1.313418909228354940e-03,-1.820685541761538073e-01,5.083342207307174621e-02,1.132603997252843060e-02
4.628272072392108361e-01,2.977851918394627817e-01,5.893149188659414089e-02,-1.693940656700783087e-01,-1.811276640017131512e-01,-3.064121736342626523e-01,-3.983557103579228320e-01,3.874211083532930200e-01,4.522376289457312182e-01,2.305247316792917167e-01
1.755910637118950901e-01,1.062116909618956127e-02,-3.425563308687413211e-01,-3.889407183614679853e-01,-6.310660968869384602e-02,-2.806623371583947257e-01,3.151646072316321989e-01,-4.611536685179215000e-01,-4.088726107659995668e-01,5.865958028190061402e-01
-3.228008432399224192e-01,-1.681789190209547272e-02,-4.042787724625066664e-02,5.272663282179309435e-02,1.791067207234262326e-01,-3.514317964438532504e-01,1.539673497640734190e-01,2.233542343342842518e-01,1.648850901537405114e-02,-6.853327291794168719e-02
-2.780649995987720113e-01,2.034026742019292011e-01,-4.272097339679867822e-01,-2.619864066244224077e-01,-7.258186469160546328e-02,1.410592058109694236e-01,-3.880143181306237588e-01,-2.146007622990872554e-01,-3.326850642814559444e-01,-2.880853367231032275e-02
-2.592999290421143521e-01,-2.129914724206900534e-01,-2.283754343045277801e-01,-8.285626585106295461e-02,2.610853447311001774e-01,-2.286510439143125129e-01,-4.193279130606245020e-01,-1.007223329283527813e-01,-2.511994973729742564e-01,8.236390619678736480e-02
-2.239900210924440915e-01,5.385016832219893246e-01,2.549038225348991271e-01,-2.399709474156635769e-01,-2.703121170186101874e-01,-1.577565806658742797e-02,3.112241582280961816e-01,-8.219950396407285642e-02,-5.182531385190597417e-01,-1.198906286457734477e-01
-1.329464575518252978e-01,1.371482870488052730e-01,-2.540196988681263091e-01,-3.780101665405712352e-01,-7.354574330088405054e-02,-1.949379594750624833e-01,-3.652589316612827042e-01,-4.916664184593022013e-01,-4.691904961292489573e-01,-9.881733656673082067e-02
-6.439446974406984880e-01,2.671517995823152747e-01,-1.097346821614300499e-01,1.817946546388465312e-01,4.529088858485793567e-01,4.021744562005209571e-03,1.435428939866567055e-01,-5.519377132814461129e-02,1.333670371605216558e-02,7.714358256347062515e-01
-3.702118696493415517e-01,6.520275230274202860e-02,2.107314642250482928e-01,-1.362192978400984453e-02,3.268340916338349778e-01,-2.602878928306700534e-01,-5.376459648529882118e-01,-1.125119933767568248e-01,9.170766076608870276e-02,-5.983030627317585670e-02
-4.953848482560233718e-02,3.403050623760003890e-01,2.465797486411202590e-03,1.241944112286207658e-01,-1.101919798810532397e-01,-3.797068522497348275e-01,1.586527281233316433e-01,-5.067423822358873009e-01,2.606988458723126789e-01,1.003381930537802641e-01
-1.356047617472270761e-01,-2.019494523759461091e-01,1.142060283534314796e-01,3.475789852828738841e-02,-3.367724512042955531e-01,5.847286771768414049e-01,-3.812274117672427298e-01,-8.843839240333525309e-01,3.762332918269208348e-01,3.349621684601281069e-01
3.760450268201294410e-02,-5.330378056790182478e-02,-2.118223447733158515e-01,-2.236310112177811171e-01,2.869441231594488939e-01,5.724535429373855955e-01,-3.192024671487457277e-01,-2.700225041356040800e-01,-3.173475401041295774e-01,3.817361251651376075e-01
4.807148141279453113e-01,-3.028257394925652490e-01,-1.013271542930825608e-02,2.902946558935129429e-01,4.407252137010264637e-01,6.558880479512323447e-01,-5.480191612608720231e-01,-2.055122620303649617e-01,1.638229461735286885e-01,3.220527259785312402e-01
7.630354942258969764e-02,3.389505722595881343e-01,-3.337257495525757789e-01,-7.592872056259264250e-04,3.311084521776089806e-01,5.027676120268853577e-01,-9.062364153109475629e-02,3.851210852902212795e-02,-4.783444696011173586e-02,1.482219356802743637e-01
1.612057446113217274e-01,3.009814762280641487e-01,-1.788953062905594693e-01,-1.948672766967885772e-01,9.140498323771970024e-02,-1.612121355528292055e-01,-4.478963184471267400e-01,-1.211880075039522831e-01,-8.455509324349189670e-01,2.926823685474732595e-01
-1.556675459944713014e-01,-2.128420950894824859e-01,9.720890850110351644e-02,-3.124390833348699159e-01,4.869047354889235457e-01,-1.930306089941587894e-02,-1.589103007767352638e-01,9.502253663291788943e-02,-3.688837473201427852e-01,-4.979318190263257171e-02
9.352524693473089623e-02,-2.928237432157351772e-01,-5.607070589974301467e-02,3.150343305235705493e-01,5.423010124780646563e-02,2.731545492843678868e-02,-2.476832202336248512e-01,-2.759792523947331988e-01,4.544804545099331156e-02,2.893618545739504722e-01
-8.954227284374165208e-02,2.468551817439945673e-01,8.077997104153020191e-02,2.054963267915164149e-01,1.080673561910639319e-01,3.816851605529690827e-01,-3.782411149767854752e-01,-2.549551638117406038e-01,-1.923994613041272450e-01,5.775647946474106453e-02
-1.222185229749159219e-01,-5.739927520983936771e-02,2.423771105181905527e-01,-1.689141950077895360e-01,2.319973400097276039e-01,-2.318826582148825477e-01,-2.169462780174914451e-01,8.753884791341787208e-02,-7.715857822545988398e-01,-1.663015864637345034e-02
-4.003630584946807347e-01,-2.757838693148901288e-01,-2.047634311135348648e-02,4.244949746607962759e-01,-3.412247972820005582e-01,-5.368150707719407944e-01,-4.153203898221723422e-01,1.120908170922743224e-01,-8.216229595442703371e-02,2.303227245682302332e-02
-2.520805341294207191e-01,2.574550805342443183e-01,-4.086779462149098263e-01,-2.016058065744192815e-02,-4.458198022282626738e-01,2.025982617054268020e-01,7.439893322146677590e-02,3.955378871596745144e-02,-1.586487002873143981e-01,1.910473194296108401e-01
1.718201230374577504e-01,-9.218516438273512137e-02,4.251395940912696125e-01,4.284087892517902119e-01,-3.689075744846198601e-01,-4.813666077539946464e-01,-4.324569238627960499e-01,1.712536737181266366e-01,-2.599355691970762217e-01,-1.697275510323256742e-01
5.286626918322012703e-02,2.028289511271500756e-01,4.464415068956082422e-01,3.645054954953996784e-01,2.389670638862905483e-01,3.448421720697755211e-01,-5.005005424888472332e-01,-3.594357214820778634e-01,4.050243272749058931e-01,5.119948745873097451e-01
-4.028985276191136833e-02,-3.549689319016569033e-01,3.881754017036660453e-01,2.417239730232499662e-01,-1.653708345056960072e-01,-3.768131212276479292e-01,4.813356872722985291e-01,-4.879035711172834411e-01,1.506384800267319413e-01,3.955157305411991508e-01
9.454864252297236205e-02,1.229954864866062147e-01,1.912957599945194764e-01,1.174905997515492406e-01,2.510712135865715289e-01,4.946526964135747328e-01,-3.648873905359953929e-01,-2.205661064136824889e-01,-3.974899738181917330e-01,3.722128839154165147e-01
-2.406471630835905762e-01,1.449686797421012030e-01,-4.564807478316958433e-01,-2.628196634757600791e-01,-4.423155910494600551e-01,-5.821721421482370373e-02,-8.925311676289578167e-02,1.731225633918546669e-01,-3.347342231586365457e-01,2.097490365889250197e-01
3.392706717712140607e-01,2.388179069060999971e-01,4.183978584295774961e-01,1.957011567576478761e-01,-2.775462490284290595e-01,-2.638188076457281817e-01,1.029068167118024346e-01,-9.298310736487806760e-02,-1.296633953433748154e-01,2.863065470951693947e-01
-9.507818258719973048e-02,-4.714136134406928802e-01,1.165624848670503838e-01,-2.904558537815097319e-01,-3.176745579949669107e-01,8.462515583060738894e-03,-2.717517516150769752e-01,1.837279604385204379e-01,-2.047012263679688360e-01,-1.036391235103781699e-01
-4.004385135133605722e-01,-4.082197914753059598e-01,-5.505897503236891755e-01,-2.705634893703529054e-01,-1.390473735830912161e-01,-1.317673634488152230e-02,-1.679805262462084059e-01,-1.639827087070144795e-01,-3.005522822751644507e-01,2.609512937369412588e-01
5.009041899809387605e-02,-4.964054691182869655e-02,2.129957743180376784e-01,2.053361675864343039e-01,2.086624598111941620e-01,-4.915645328299556027e-01,3.499379699567217727e-01,3.379899900643783539e-01,-4.149246622784653615e-01,3.656942699024318677e-01
-3.290444293142433252e-01,-1.966384680586899612e-03,7.734758857661783171e-02,-5.397939953801526164e-02,4.142003705430019611e-01,-2.543788071527313122e-01,1.870955812641297566e-01,-2.709794051386492653e-01,1.405664308601913270e-01,7.235850893087885094e-01
-2.421611790564309752e-01,-1.760224283489349451e-01,1.700599806855433160e-01,-1.890370422640960668e-01,-3.156237508078548748e-01,-3.363792951280410448e-01,-6.590097036823698573e-02,2.977643884460531298e-01,-3.253498073889047881e-01,1.664038202108454878e-01
-8.083240204556253472e-01,5.555247438133140703e-01,1.186392925523445524e-01,-2.336526796913436510e-01,9.785052226673568443e-02,-5.350330283776756346e-01,-1.296593633473980267e-01,-5.260247540212223960e-01,5.942009799883438831e-02,-2.223223561800159731e-01
-6.486116935578525311e-01,-1.516896114749463620e-01,2.536834838944199699e-01,-1.636194765029138076e-01,3.841498724350490557e-01,-4.366646804085295291e-02,-1.914282580079820495e-01,-5.547723801893236079e-02,7.474986297119017020e-02,-3.878023834299432464e-03
-4.747765847571028264e-01,5.274678379173729503e-01,2.362035942685695167e-01,2.180079334278689496e-01,-1.247828098764546118e-01,-5.806499805412891346e-01,2.784744973407667912e-01,3.035706414596196084e-02,4.435175674721735482e-03,4.134107342234133453e-02
-5.729766524668906680e-01,7.825162621577921862e-02,1.013789495360465157e-02,6.657454434883092187e-02,-8.477456041025098477e-02,-6.901105094206485546e-01,1.736328913494368867e-02,-4.668844438940509822e-01,-6.293181014375329729e-01,7.299594797345895780e-02
-6.559421746282816379e-01,1.522782057370725417e-01,1.015869002413571365e-01,8.930506293828581466e-02,4.005808516431434985e-01,-6.116851089040763467e-01,2.564424317981024437e-01,-1.106546914756607880e-01,-6.879920746802006271e-01,-1.834121588661963842e-01
-3.561388910146022768e-01,-5.353037952714198022e-01,-1.343629137983440580e-01,4.027992962999585314e-01,2.806310175975517129e-01,-2.013284673600106989e-01,-3.852625582128632042e-01,-2.408855569170063604e-01,-2.383245460201111054e-01,4.829579936686269059e-01
-1.184569792655016940e-01,3.969264634125248270e-02,-5.378575721394739384e-01,3.182321264300173036e-01,-5.703726515210203463e-01,-2.691711732892173026e-01,-5.371591836573296197e-01,4.618436310659555094e-02,3.732321848618532778e-01,1.791923362699539279e-01
6.502546549354585315e-01,-3.610735489630184647e-01,-2.928637507098943438e-01,3.448734951900413459e-01,-2.860628082696045626e-01,3.006458136186387353e-01,-5.462437561230778504e-01,-6.455367521405572795e-01,-1.494377700382656937e-01,-2.036195756988098682e-01
2.158664252376214440e-02,-4.696363583716643975e-01,-2.546984375674719581e-01,-1.391456663929048765e-01,8.352334511698292774e-01,2.191583206030725262e-01,1.526925848649705597e-01,-2.632090294936215713e-01,2.613939270980309426e-01,3.668618502931623171e-01
4.175474462940820253e-01,1.968195229926628445e-02,1.556827132616869780e-02,2.425141714674383941e-01,4.353679850193145628e-01,5.138957310754936891e-01,-1.985918987436472161e-01,3.158423737579364038e-02,-5.104986610814027381e-01,-9.004567636810081876e-02
2.926192615572236200e-01,5.049728963216479904e-01,-3.959239422144325560e-01,9.360525261923083665e-03,7.300492782008315418e-01,6.130994783491242606e-01,-4.803767127885560373e-01,-1.499020355184315367e-01,-3.404253241002370700e-01,-2.772515747201377209e-02
3.886200227857643519e-01,3.137195630534267421e-01,-1.887825735822102335e-01,9.834860198571522549e-02,1.633825015141112183e-02,2.043932514984643789e-01,-5.575253303670806293e-01,-3.620592107618809674e-01,-4.037295383012491357e-01,-6.417498192685268388e-02
-1.119131399385568382e-01,-1.615864029865042295e-01,-3.220811698755669528e-01,-3.486381677573895943e-01,6.514191294378331998e-01,2.725689891328857972e-01,2.116858252711071101e-02,-1.786492288054831457e-01,-6.577458300961156468e-01,2.907712644077600772e-01
4.832088142444884160e-01,1.690947105234607839e-01,1.902558642718016058e-01,-3.613078857164117585e-01,6.883696164672973294e-01,5.868880978592696529e-01,1.423226385424299079e-01,1.709200409167184465e-01,-3.367596315902877668e-01,3.001226477197264930e-02
-4.295834672868353299e-01,-1.121302925634986647e-03,1.825344474765073499e-01,5.914609662309775612e-02,2.843542665406272318e-01,-2.240485940468548987e-01,-2.444510165334321250e-01,-1.032621418668671909e-01,-2.026315400286000379e-01,1.907895841823738919e-02
-1.120138148127808875e-01,7.196048372146313099e-02,4.708605631119167634e-01,-1.957054009490681937e-02,3.954940328212679379e-01,-1.273884327336149980e-01,-4.663379936058915098e-01,3.357862449141146288e-01,-2.967340549059521715e-01,2.690291822613118389e-01
-5.996389926520138136e-01,2.295139884054737955e-01,2.961853727240270073e-01,-8.549069186426430655e-02,-2.296518932167258276e-01,3.379441698000111294e-01,-6.668792388821696004e-01,5.037491362990789145e-01,4.285372612692543715e-02,5.269113441770767459e-02
2.750134364575689272e-01,-1.840736066735193799e-01,-1.991409261291214872e-01,1.185483441554917444e-01,-3.153285832225350416e-01,9.396650598366329543e-02,-2.546489458545188045e-01,-3.362066523026620291e-02,-2.240556555316290110e-01,3.392660177934117005e-01
-3.840278748114087093e-02,1.183471383746545064e-01,3.981319162273025403e-01,-4.376550682636826672e-01,-3.399972435703069729e-01,2.667808581000862267e-01,-3.826244170546125312e-02,-1.511625814493455511e-01,-1.967290515185862732e-01,3.614013657499327015e-01
-4.030140713489025472e-01,8.963282101501728050e-02,3.562747140018973635e-01,-1.556348741975525640e-01,4.090125007267042534e-01,-2.428023799816921013e-01,3.141401749494886486e-01,-4.895037430988378319e-02,3.130540437367706486e-01,-3.273477356492568990e-01
2.288233266175076497e-01,4.609076660048143093e-01,-3.649474257505613273e-01,3.308794990852810813e-01,4.426745837272258455e-01,-1.163177173680269572e-01,-8.522093664467998708e-02,2.937247815160946018e-01,-1.969278426154295603e-01,-3.149343452757453754e-01
2.465146370029726031e-01,-3.220076340724886688e-01,6.353108144939574597e-02,-4.932568463526466607e-01,-7.889669545048302868e-02,3.689009059342288066e-01,3.118668061306389405e-01,-6.377047199520664844e-02,-6.145354979363391174e-02,2.014418461211684996e-01
-3.362178518057196142e-01,4.919346241767134920e-02,1.366977800536096077e-01,2.802168632468950982e-01,1.416790184893571281e-01,-2.266809118228851616e-01,-4.871503230413627011e-02,-2.904263494558885772e-01,8.512868027258300996e-02,-2.329696122441969885e-01
-5.608814110957092286e-02,4.669109638624177605e-01,-2.214790126782476276e-01,2.360159011053410485e-02,4.341463859952911508e-01,2.483232443699317504e-01,2.961692731096754461e-01,1.311534473382579835e-01,3.541688009527035330e-01,9.110952992476713252e-02
-2.089904617305707868e-01,9.137696986294788215e-02,3.360758777818775300e-01,3.173517047025186111e-01,1.228009623016411839e-01,-2.026776525101580961e-01,-4.270135571255314483e-02,1.688252655272661287e-02,1.429674056128178716e-02,2.784213815152472224e-02
-3.800398390223324041e-01,4.218229434668693267e-01,1.249077133925882988e-01,-2.437430235513234067e-01,1.536643016510703674e-01,2.088024059909280861e-01,-9.707221252897118430e-03,-7.480939766242693245e-02,3.831775190079608762e-01,-2.781765781204515453e-01
-3.952582678626769680e-02,-1.759839956860688170e-01,3.469251741414094981e-01,-1.484013952083312049e-01,-3.080632745301662978e-01,-3.521873388863761001e-01,1.935093463314822848e-01,-4.562174225252972892e-01,-1.753823193213633336e-01,-9.741878371841754258e-02
-7.118483650082043646e-01,2.662042836208281527e-01,5.425675914378980114e-01,-9.165620653998365897e-02,-4.996516140519802196e-01,-7.025027911518054724e-01,-1.980952067869974353e-01,-2.146349716952402065e-01,-1.435224351641517793e-01,-3.366978360636809220e-01
-5.714996304679224176e-02,9.798260044731317564e-02,2.044185098669150102e-01,-1.107995570721505459e-02,-3.366214877065041439e-02,-1.023923777621304376e+00,-4.246795074788989877e-01,6.241147599273768470e-02,-8.617369415140116451e-02,-1.688171362940363296e-01
-6.525734598655748286e-02,3.472740951252344943e-01,-7.808197379781264824e-02,-4.403621083803548747e-02,-1.241166702855843046e-01,-8.565096907644228486e-01,1.245480399792076587e-01,-2.210697763003344196e-01,-7.222645407746062229e-01,-3.566186669565052370e-01
-1.848019494773520677e-01,6.982113493511785118e-02,1.522902446080859340e-01,-1.362609106874454468e-01,3.400050198266119095e-02,-7.663391826031408227e-01,1.972178588542227717e-01,-5.326487043313906655e-01,-3.920106023667653816e-01,1.589995417784457465e-01
-4.074855546165914028e-02,-2.267854490624852254e-02,3.095438575826164884e-01,4.526361502639035528e-02,-2.933495715506767576e-01,-4.082432322972467942e-01,-4.753340710606169806e-01,2.426223968964817679e-01,-3.035383261895739371e-01,2.634898267439508834e-01
-1.199939253810421574e-01,1.483742552521415681e-01,-3.854319905575894212e-01,5.294518832986672141e-01,1.452626398203915314e-01,-6.336568477022243018e-01,-4.000184280017872740e-01,1.041226724668202659e-02,-2.340656659326549593e-02,7.296930131717538348e-02
-2.885196454460125515e-01,-1.965947522048671903e-01,-1.578225376553361037e-01,-8.115462769420887790e-02,-2.234770413939478062e-01,-3.188378792937653361e-01,-3.471783337429354965e-01,-1.409179228434961906e-01,-4.053354327544421154e-01,4.959111823399116603e-01
6.037914142800259176e-01,-7.915856367651941117e-01,-2.130667378100405962e-01,-3.978946519827794570e-02,-5.527223875040838674e-01,-1.133903358456756216e-01,-1.674841736271403259e-01,-2.566673919032870788e-01,5.232822566375856521e-01,7.234596586229772308e-01
8.763994807413757471e-01,-3.562133244758918793e-01,2.863932182621716227e-01,-1.994813494138709120e-01,5.596120325178206845e-02,-6.152463551831285904e-02,-6.437783899184866820e-01,2.655880723316591530e-01,1.221960168207771313e-01,2.485224841773516491e-01
7.758772908420633607e-01,3.332901129153639230e-01,-5.002650276153106645e-01,1.083806241390414954e-01,1.993154979943992655e-01,2.409592713697437383e-01,2.354843621348015059e-01,-2.240217233692058663e-01,-3.799716098725609004e-01,1.080239347058052357e-01
-7.171108230777255288e-02,-3.993597449961432955e-01,-3.339060396945921494e-01,-1.504322162811746848e-02,1.972520394832784629e-01,-4.198434076921535585e-01,1.709443116866709300e-01,-3.906279981487463804e-01,-9.681817702242129231e-02,1.719493400034829700e-01
5.478791664951422336e-01,-9.623038171881323488e-02,-5.157356935193957437e-02,-4.220135877217863207e-01,-1.056238321893736287e-01,2.466342134785343143e-01,3.066762163537449237e-01,-5.728414475096601510e-01,-1.510038863992898550e-01,-2.706814899809172406e-02
5.359827965557512064e-01,2.827228792957371395e-01,5.217011907986908170e-01,-3.143885308887424401e-02,4.974925363931096411e-01,2.186750362488250887e-01,7.576240158397695712e-02,4.233463094853792685e-02,-2.597119738077021123e-01,2.764189719681815760e-02
1.273562112344615305e-01,5.861531491200016042e-01,-1.204357533568485268e-03,-3.555577491340594642e-01,-4.566835216299378053e-02,-7.467706494165056441e-02,7.997648487226224900e-02,-7.283235728493676620e-01,-1.614624753791024103e-01,1.465971251853271928e-01
3.101105349219908033e-02,3.583584852702518253e-01,9.350919545829065871e-02,-7.098681586746025118e-01,4.033155002282170498e-01,-3.247668236070971326e-01,-1.662353095420186777e-01,-1.413877229182703144e-01,-4.992125144974977891e-02,-2.676127301822763815e-01
1.653271187051126578e-01,1.389523098419580827e-01,2.709310657558156588e-01,-3.452049049665200653e-01,3.451398632350084483e-01,-2.073994115055571574e-01,1.064551377880694066e-01,-5.126506103266852132e-02,-5.000297082707626517e-01,1.398417308429035222e-01
1.583082800487071312e-02,-2.600513507555795023e-01,1.200662983125017069e-01,-2.243422089090962579e-01,1.030264892691314244e-01,2.408486796039824851e-01,-3.444356070094046762e-01,-5.366038921077241897e-01,1.953593881737460680e-01,-2.262280304685472532e-01
-4.777173315641728979e-01,2.049475005308777284e-02,4.713999977654459439e-01,-1.380025728305631361e-01,3.751588200420961638e-01,3.718294190396455590e-01,2.740209397311155759e-01,4.538681364916137828e-01,2.820130918539631715e-01,-2.588330715960716066e-01
-3.720097812144694260e-01,2.312316556481129257e-02,-3.822663149708019348e-01,-4.426576814100200985e-01,9.076558795606781693e-02,-3.916104168667313701e-01,3.563003777588469867e-01,5.000378943278919186e-01,-5.285853261540931491e-01,5.661838650990154154e-01
-3.363002917802396241e-01,-4.129633578381790016e-01,-3.696885208564366088e-01,2.247576525419935078e-01,1.352050247421877349e-01,8.579702335823607973e-02,-2.456219553762629126e-01,1.863605708534637195e-01,4.147583921088123238e-01,-3.595305609499824251e-01
-1.153734599870958194e-01,-1.631180728254991996e-01,-4.700905701740036857e-01,3.562527686552997008e-01,4.818366088695410360e-02,3.098568456119559777e-01,3.798463522908852030e-01,3.003694339886444076e-01,4.743494893786960875e-01,-3.409993034618679086e-01
-2.938558946197732946e-01,1.946587804610794559e-01,1.160311614506115419e-01,4.840098185608808223e-01,-1.963468892566018476e-01,3.655821431196310534e-01,-2.634858465491626833e-01,-8.258371704129419122e-02,-2.383488240632366806e-01,-4.576589257675121591e-01
4.499259219307194524e-01,-2.748388517604197778e-01,2.206265460293676539e-01,-2.117262115946366707e-01,-3.564449282166508304e-02,-4.842324366768520627e-01,-3.429198259141500449e-01,-3.183055515254912954e-02,-2.972581514136292680e-01,3.679053278652412162e-01
-9.919702528179126511e-02,-2.746997189474388312e-01,4.053172048569445574e-01,-1.782078060530301045e-01,-9.895324190906015782e-02,3.295552006953304525e-01,2.126980169116809427e-01,-3.442181217916827629e-01,7.316129607760699094e-02,3.560747106099687032e-01
-4.057598118753723004e-01,3.736190395177586832e-02,-5.038291904775085012e-02,4.759913547687176227e-01,5.410463495278344803e-02,1.704651131321913982e-01,1.231071311266024593e-01,2.201225704402113015e-01,6.032586731154727239e-02,-2.925866483483254288e-01
2.632100414121193999e-01,-3.531586572925742851e-01,-2.933018402047729567e-01,-3.942545535292408809e-01,3.613584842455090373e-01,-2.671035023589961033e-01,-4.713076254232865803e-01,2.136935337824086636e-02,-1.151008509097183885e-01,2.705430828328249104e-01
1.637328052143897095e-01,2.826434574631259133e-01,5.452693219541172587e-01,3.353134151251549455e-01,-8.528990500867336677e-02,-6.806200301760491067e-01,-1.683772152989417847e-01,-1.683658506758382023e-01,-3.992030081372225925e-01,-2.737249326730078480e-01
-2.646544851941221022e-01,4.300302660493579565e-02,-9.391773565865374485e-02,5.981467624782704773e-01,1.360434196370232940e-01,-5.339960173446826053e-01,1.643400188467680489e-01,-2.569732104054313626e-01,-1.590763096119877061e-03,8.722319763415051219e-02
1.276017297711974086e-01,2.983725988802840012e-01,-1.288566707743264150e-01,-3.248926945457293325e-01,1.454963247447670915e-01,-6.613367793471650602e-01,-1.113931940406573569e-02,-5.915918277853506879e-01,-3.508786587172388338e-01,-8.658457262816378341e-02
-3.869211835769093000e-01,3.462242909275702329e-01,5.543181425749915681e-01,2.018730101202611815e-01,-2.091400915831401197e-01,-6.975878832327903067e-01,4.508554548441863485e-02,4.284621879839399863e-03,-6.902444045605915512e-02,1.267882236004979069e-01
-1.220059741059418973e-01,-9.504033392518915213e-02,1.049322685790493289e-03,2.198780053123661204e-01,-2.155878931107647611e-01,-2.185218572529697978e-01,-2.997529438498317544e-01,1.249424570212155777e-01,-1.401035375059946075e-01,-1.515025316250122323e-01
-1.345656583978597776e-01,3.908886122776577404e-02,-1.592195945931294265e-01,3.482420016958596154e-01,1.353428352870261753e-01,-2.844237587160706737e-01,-1.111991783026073932e-01,4.369273898390019228e-01,-9.442026806975702957e-01,-4.230087262857087360e-01
-1.869460907274109185e-01,5.323397051405417413e-01,3.132249974824568572e-01,5.661619182175365861e-01,-5.411914956341282723e-01,-5.895867914918666575e-01,-5.733613188124263293e-02,-5.198730147234877780e-02,2.805026506442750544e-03,-2.982374092430364332e-01
-4.778276787155213284e-02,-2.819964783938208597e-01,5.805682093539227262e-01,4.324802747519599921e-01,-1.646422374594567473e-01,-3.502528017241521296e-01,-2.293140988164601435e-01,5.724728423605298655e-01,-7.940869690892271571e-01,-1.551151278648012777e-01
-2.819818045193049350e-01,1.556764397534403377e-02,4.900512815325906435e-01,7.057421224838490714e-02,-1.029905786159202030e+00,-6.021250942433972186e-01,-2.549785286645530058e-01,-9.903283720389189845e-03,-1.709886743382957319e-01,-3.456924183861848771e-02
-4.707996035399956286e-03,-5.983195879083089141e-02,3.681107863767533184e-01,-5.033484126469113251e-01,-5.816053066865588539e-01,-5.070368172223770342e-01,-7.804989737190419774e-01,1.737581839695851171e-01,3.489467319067214301e-01,2.116831794659737864e-01
8.706079545214904236e-01,-5.145532945095543376e-01,2.230848537402591314e-01,-4.439973864380968860e-01,-3.139146354805305572e-01,-1.091200061221281742e-01,2.679645352756723775e-01,-3.586225640537747394e-01,3.099494565164832016e-01,-2.271998981209055468e-01
3.092858478228590613e-01,-4.158649789023195764e-02,3.465431255991725107e-02,3.654477145162833562e-02,3.055545913788300649e-01,-2.827428349689939946e-01,-1.700617985696109002e-01,-9.583264587859839645e-02,6.809436053083152418e-02,-1.788990586986998477e-01
5.666816714101838848e-01,4.737748424173505724e-01,-3.217328739488124478e-01,4.763406070509620949e-02,6.329938140352260600e-02,-9.058984747648128610e-02,3.273174183151232874e-01,-4.448316084016257776e-01,-1.214355041620786418e-01,-8.218187594025785914e-02
-1.709449571498992682e-01,5.088189809782298623e-01,4.277709039128088642e-01,-9.813796282620480815e-02,3.183988638383788983e-01,-2.755656870457672269e-01,-1.968566824271984483e-01,-2.672975114110637262e-01,-1.040850574281936974e-01,-1.180211950764204279e-02
6.935134395355473380e-01,6.006052316788599299e-01,1.354490461933646195e-01,-5.828874691817136355e-01,1.505667217037505168e-01,-1.114667007052935199e-01,3.127266105754593628e-01,-5.014462636941666857e-02,-1.620951293911800095e-01,-9.210153027594694328e-03
-7.227109598122365142e-02,2.423226619626511202e-01,1.335189919805441095e-03,-6.206440604963575636e-01,-1.857063372641034812e-02,2.064530245089443994e-01,2.162066217593446582e-01,-3.944739606784821162e-01,-3.497168629055011357e-01,-1.386334085146264106e-01
-1.567105927713423053e-01,4.640492340122033266e-01,-2.126606689035908937e-01,1.058105679260630955e-01,2.454634248567665392e-02,1.244600753883394056e-01,-3.497287614341653694e-01,-5.300155563964676908e-01,3.657415767547316232e-01,-5.124453767777942259e-01
3.106194051180889357e-02,-9.333055877212061494e-03,-6.889296683173380675e-02,3.891035739947351080e-01,2.793827257676412823e-01,1.112133555419211467e-01,-1.176726501825597626e-01,7.093346092216500087e-02,-3.001340083743044285e-01,-2.086415435114888361e-01
6.287558080708367803e-02,-4.881129490169745094e-02,6.963983217555255734e-02,-1.030737830483211166e-02,1.097830562582588626e-01,4.936667203408542370e-01,-2.781356859596400000e-01,2.416608961896100638e-01,3.717552651426320742e-01,-5.024525139584680167e-01
5.040596811963567875e-02,-1.017680128336639900e-01,2.624598650326616101e-01,-4.436027345020098211e-01,3.619875960592152664e-01,-2.640397315664511635e-01,-2.422723744465133666e-01,-1.147263910811193166e-01,1.340635812063978305e-01,-3.785097931448515585e-01
3.491785363353067800e-02,-2.982724913705187553e-01,-4.280033194813568920e-01,2.709169373579236040e-01,-3.564599365535845443e-01,1.037079073320764794e-01,1.951513541585875311e-01,-2.280907981158695752e-01,-1.553288892249229947e-01,2.270983466937031015e-01
-1.925996900270227352e-01,-2.177036493993805000e-01,-3.202316106667791873e-01,1.145525257509705502e-03,1.607496100742123180e-01,-4.182502820313517278e-01,-3.238607468659506772e-01,-3.113679659727379145e-01,-9.943335902428644679e-02,-3.988061228115564738e-01
4.267060738794121733e-01,4.717515125676841059e-01,4.973418773517251368e-01,-1.321183214554831620e-01,-2.314431425917855278e-02,-3.562008484585201251e-01,-3.618605296467208299e-01,2.633620757823342817e-01,6.646926455652610310e-02,-1.022529157172706593e-01
3.018698659468871393e-01,-7.821636807309984007e-02,-3.428635517298935786e-01,1.659014785315721663e-01,4.659320770647900622e-01,8.363447026929189676e-02,2.066437056669330474e-01,-4.831320688968258059e-01,-3.561233260415418989e-01,-3.849631628157434426e-01
-4.812347814399288159e-01,3.902118622816141968e-02,-1.169476716084984352e-01,-1.623409173173035458e-01,2.497898778484681781e-01,1.809770690991875375e-01,-9.968436260016541595e-02,3.966078660546474843e-01,6.097021872886188715e-02,4.889093296637808117e-01
7.078825367105644195e-02,5.512597749956026777e-02,-1.207556359260430340e-01,4.946346773387011453e-01,3.686172189984735503e-01,2.318297041789081081e-01,-4.351802296396110048e-01,-3.152647534730845247e-01,-9.474616929737056381e-02,-4.291119400760211589e-01
3.550326119291116189e-01,2.777831334177408573e-01,-7.831219188706217693e-02,9.292631850967876528e-02,-2.425505568488273839e-02,-1.932034928831412590e-01,4.265251183169387894e-01,1.507783776636517081e-01,-3.992261528138238424e-01,2.724926237333154533e-01
8.828465509798855138e-02,3.739756954672603384e-01,9.113143575614711389e-02,2.446175147736233124e-01,1.290254390622963265e-01,-2.251984943196043698e-01,-1.342607402659330429e-01,-2.416927117380099355e-01,-4.239183022043265803e-01,4.201781004222591293e-02
2.748472862412568718e-01,-4.674709656423572390e-01,-1.864782447202840143e-01,-7.094845227326827819e-02,1.406933386304300426e-01,-2.659722746127299864e-01,2.936237435045289113e-01,-4.709326738826721259e-01,-4.372919422612762119e-01,4.437391314090041727e-01
-2.642164364102347340e-01,-4.448795055661054487e-01,-1.293243047978144544e-01,6.708164598593270300e-01,2.989409774031846490e-01,-7.099953365444751086e-01,-2.616335581379656272e-01,1.768132741453533885e-01,3.257407880924249599e-01,-3.835127252859157343e-01
4.594824493244577951e-02,-4.388039187776450190e-01,1.652164442788844056e-01,7.446199190689651859e-01,2.003322247019375113e-01,-4.452844511089301127e-01,3.216590769330028299e-01,4.410892924143122173e-01,1.851786741831574490e-01,-4.310846842069619433e-01
4.403067145538420157e-01,-4.118181529369126515e-01,1.147629967004828305e-01,5.672692529134107930e-01,-4.929336306702005732e-01,-5.505063145377040446e-01,3.006455407788490852e-01,-2.056005483431184722e-01,-5.977901809053214333e-01,-1.851199280806704317e-01
-1.209333850755976714e-01,-3.099588063430391838e-01,4.300865075024092737e-02,1.831639080900166472e-01,-2.687768031126613333e-01,-1.016262970396301785e-01,1.141296448186474161e-01,3.869675093633056506e-01,-4.893035130714059044e-01,-6.778387484612763414e-02
-1.123734105467047717e-01,2.244102938015481996e-01,1.707062934872445314e-01,6.287417675910079717e-01,3.648042744746935462e-01,-5.930139935491485215e-01,2.338104274906212254e-01,1.529678743336543023e-01,-2.618068866598682182e-02,-8.025388312596773988e-01
-2.337347452460432906e-01,1.540789976353730828e-01,7.399131228157133922e-02,1.984775569856604138e-01,-1.273627705548370792e-01,1.770486632635520641e-01,2.050526160629939088e-01,5.746101054522160245e-01,-3.823414490840200686e-01,-6.728876692061360743e-01
-1.917691263617267994e-01,1.756823308976894135e-02,1.915360405068340377e-01,5.975212936944286624e-03,-5.824114440710245234e-03,-2.618673169586779315e-01,-4.524513416945858402e-01,6.451402157516479274e-01,3.660920463714681383e-02,-1.152554268099818952e-01
3.281961375674584125e-01,-3.034809976606840376e-01,1.963319376795610305e-01,-1.683162625298348924e-01,-1.073134001317299413e+00,-2.677068805386745853e-01,1.630418612734163830e-01,2.677928560657961699e-01,-2.114108949059079756e-01,-3.821338386998139880e-01
4.609716460322565990e-01,-7.934264159521925430e-01,7.679691204874153909e-01,-1.676220831508166698e-01,-8.896079544307748943e-01,-4.294207019866816966e-01,-1.515573737775136043e-01,2.076362301954618739e-01,5.921591555362997264e-03,6.977011978445869511e-01
2.803848059620907551e-01,-4.468775188445057167e-01,3.437804562387820201e-02,-1.970539495741898961e-01,-4.604915435420890435e-01,-7.167561249692315783e-01,3.096105917657985818e-01,9.720107400329457484e-03,5.953068076125753866e-02,-5.379496635333357209e-03
6.670136928478151983e-01,-1.732137110666809310e-01,2.086255145490472501e-02,1.962842432344194810e-01,3.609471682089473443e-01,-1.583550144500901202e-01,-3.259621626898178137e-01,-1.075137509598465824e-01,1.630908577313041896e-01,1.060656238500926052e-02
4.538768776382366005e-02,2.577798286958070118e-01,-5.191316597023847290e-01,-2.231329761370104137e-01,-7.560774388377768107e-02,-3.961976228483233275e-01,3.995156398346959015e-01,1.124947188801859316e-01,-2.571907268300560601e-01,2.497446414977022577e-01
5.192580071693265742e-01,-2.196711398061482468e-01,3.965196217664628264e-01,6.742346755554692872e-02,-6.606206365072700981e-01,4.645369234062306230e-02,5.395639988907859896e-01,-2.324758185467948046e-01,-3.373775840365634826e-01,-7.662489762340382593e-02
2.518908601593538785e-02,-2.492037468599123395e-01,-7.820860629271680908e-02,-4.248159853418689152e-02,-2.310757916773021059e-01,-1.886221314196214749e-01,-6.585012128172931800e-02,-5.213685632436806383e-01,-1.918786817704252190e-01,-3.414865453426115249e-01
2.137426926913868486e-01,-1.246237194230106066e-01,4.049574232063032353e-01,1.473946761875742917e-01,3.181625823696317829e-02,4.986977988578832066e-02,3.699389718592048237e-01,-5.340520894625973014e-01,-9.738680569487899452e-02,2.186554205089574210e-01
5.865763345502920945e-02,-1.566801623040964542e-01,-9.891591649875278169e-02,-6.067508032883045521e-02,3.220368669846064291e-01,-1.446895243476249981e-01,4.524219428094564122e-01,8.325537935990279248e-02,3.994524119604621615e-01,-6.249955475993380638e-01
-4.132306865483211245e-01,1.520000640305313178e-01,8.207092069100747900e-02,1.160091109090535394e-01,8.468068086494451308e-02,4.332753322844644095e-01,1.156619082935635562e-01,-4.300015164975728998e-01,3.105394107621447519e-01,-7.399104665646687451e-01
-5.152349720399113098e-01,4.234971063167924932e-01,2.409703748479710417e-01,2.415917876248644958e-01,5.849824892164861012e-01,-4.673199389327442055e-01,8.002143914972670302e-02,2.847823415399146629e-01,-6.737118554977500340e-02,-7.286524319071302491e-01
-6.366404797298118590e-01,2.737443607628166076e-01,1.641109243453501010e-01,3.513618459932651983e-01,-7.011987864128868542e-02,1.466296992952317302e-01,-3.964488365084529176e-01,7.906196356745021081e-02,1.533859522360616068e-01,-4.895653056669932446e-01
-2.077099918740203111e-01,-3.786073148707065350e-01,2.153172647943674134e-01,-2.350712834254366224e-02,-1.109568208958447988e-01,4.060979618685808257e-01,2.015680484026595998e-01,3.615441811830233387e-01,1.618451208869280816e-02,3.647163689449192669e-01
2.149402448345107408e-01,-5.074298080005319039e-02,5.149127718125770525e-02,-4.658693322654761104e-01,4.315306462944611954e-01,3.357261778776350902e-01,-7.131247761409564845e-02,2.823397181760966546e-01,-2.590810488011013324e-01,4.043738813725940573e-01
