-2.708386637164512667e-01,2.113491425492532994e-01,2.493162392762101609e-01,-1.032521611738220768e-01,3.346865653887097780e-01,3.825738276569757845e-01,-1.187078513964940907e-01,-1.505655053605229332e-01,-4.885059238503446366e-01,-4.638667508180343013e-01
-2.839588687829678326e-01,3.778357711655104811e-01,-2.902097444176106045e-01,3.042655434605764375e-01,2.048978207544300822e-01,-4.658975173601073161e-01,2.445252796242908255e-01,4.622262075817511473e-01,-4.118268032524581290e-01,1.116323101558818198e-01
-3.232918207840246305e-01,3.670322293074245179e-01,-1.045945180292559007e-01,1.010260505204454429e-01,-8.193542025989053457e-02,1.109253391284803492e-01,1.031609686129711934e-01,-1.045563005212152285e-01,6.636278998209088620e-02,-5.933253825941053883e-02
-3.679392589417495030e-01,-4.549963573162539854e-01,2.864892538903917041e-01,-3.299967271114414569e-01,-4.137767037832298378e-01,4.034376514094020205e-01,-2.569897169453227992e-01,1.365194921232106839e-01,4.843890248118478681e-01,-2.330376959304476525e-01
-4.351382295713371873e-01,3.680304742217654912e-02,-2.264295439902772600e-01,-4.374787660078401919e-01,-2.817716481362229075e-01,4.398814572653594324e-01,-1.903844970204016107e-02,2.390682484932529217e-01,2.111417078596345975e-01,-2.337891787806596344e-01
7.629636923052496300e-02,-2.853042735451266632e-01,3.468377119040991774e-01,1.997565852712537282e-01,-3.245768558244720436e-01,1.858754980920725997e-01,-3.379301549053495002e-01,2.571408957847847176e-01,3.124466094188829146e-01,-4.073448031986192097e-01
-4.146733077189264094e-01,4.358799509278366013e-01,-4.636192011808772939e-01,2.865805043122221507e-01,-3.794242044064799479e-02,4.354245762371654616e-01,1.757052287828108073e-01,-2.647321293678764897e-01,-4.786960488065703512e-01,2.239731725171725252e-01
-2.166732372737298906e-01,-1.147867090709143723e-01,-3.493021904069818495e-01,3.561642671166467267e-01,2.525151024886953532e-01,-2.900050265411254768e-01,-1.754554175026589169e-01,2.311879007389722185e-01,-6.166428327323481007e-02,2.081795929225043196e-01
-8.598163194309726975e-03,-3.959404670063150222e-01,4.034064452332536410e-01,3.786889873380724358e-01,-9.364845994366011173e-02,-4.664780429059478539e-01,2.080708583986409232e-01,1.207153059404959539e-01,3.592981586665777716e-01,-1.149852122987641279e-01
-4.053224288039495304e-01,-1.718463979043820533e-01,1.706263881096909962e-01,-2.223680655612513268e-01,5.310623409431070030e-02,4.345386523635254017e-01,-2.956687529226477151e-01,1.291524784129566283e-01,-3.764351641448236974e-01,3.426542052313015230e-01
4.321820938379082877e-01,1.877162370254712442e-01,4.860245248957593134e-01,-4.682633144505987666e-01,-4.152297155780633187e-01,-1.075995680033972057e-01,1.522115680196396426e-01,3.419717432889353148e-01,4.813363770291978483e-02,-2.524776749057917602e-01
2.634074484369934854e-01,-2.300402916204005166e-01,-1.642859243556662463e-01,-4.646829294703832547e-01,3.578527556375056262e-01,-1.560522794180362327e-01,4.574526300253984878e-01,-1.131929696775415550e-01,-4.177189751314698274e-01,9.140041889769412453e-02
1.752992345378706907e-01,-4.562390526709715344e-01,2.849898264273881265e-01,1.936590717861424726e-01,-7.454650791334273274e-02,2.814718096749381157e-02,-8.370900934835354135e-02,9.620654482381960082e-02,-4.090686803902898738e-01,-4.922280828094439120e-01
1.700388718810378619e-01,-3.943148391867647984e-01,-1.543961932432958151e-01,-1.034673976054527669e-02,2.174247959234244798e-01,-3.620533637720921849e-01,3.370369840084208590e-01,-3.021601089187865297e-01,2.514387356840275811e-01,4.800118122133664733e-01
3.834476606879693161e-01,1.192278232445377062e-01,5.392985811160957987e-02,-1.452142767089234232e-01,-3.461655888804019976e-01,-3.995523955259265847e-01,4.834932921265144845e-01,-1.741886417975785084e-01,-3.242629405255386538e-02,-1.318292671816959638e-01
-1.598721259848092380e-01,6.797821436746799562e-02,-3.818825599052498854e-01,7.831302760689390352e-02,-2.349785747018924564e-01,2.685052106644240100e-01,2.957506009634482957e-01,-4.440587214813642714e-01,-1.718895953776075625e-01,-4.223880817921633057e-01
7.456388378078715462e-02,4.462495921289855172e-02,-1.332305683141922215e-01,-4.240262834447607876e-01,6.931697243397083597e-02,-3.076015376680433233e-01,2.275907246001211970e-01,5.469300669796361980e-02,-2.564298150404321630e-01,-3.990520461258734164e-01
2.622665279472843336e-01,-3.288608514282763684e-01,1.334418608013749896e-01,-1.159622561064527213e-01,-1.325029283865076790e-01,-6.524299941326106023e-02,4.174406904830219034e-01,-3.834146847142584358e-01,-1.355971622249240172e-01,4.561598510163650255e-01
4.468748228849482862e-01,-4.239345698289304076e-01,-1.052767922958173230e-01,-1.173579909636531804e-01,-2.970620654080304845e-01,-4.606837593809436360e-01,4.694039383144367195e-01,3.132946804222684900e-01,6.833935547562375312e-02,-3.025173770085884950e-01
-2.528163113065615697e-01,2.740394220884557752e-01,-3.279673920226535699e-01,4.540391272469971318e-01,7.433052653593041903e-02,-3.913102509010245589e-01,3.370333221341056396e-01,-2.125065289458458739e-01,-1.298929878449165409e-01,-2.932329688120460798e-01
3.572209443019058739e-01,-3.151340861549933869e-01,-4.286955758422658080e-01,2.666865928884579739e-01,-6.466961513773406001e-02,-3.008055310858641640e-01,-2.121046045534646929e-01,3.020154585158154603e-01,-9.108323865971779121e-02,-3.238703706020099604e-01
-4.767062267821715604e-01,8.355236257711895487e-02,9.014237385498613531e-02,-4.619569697372838402e-02,-2.752925532157693977e-01,-1.630770056675876489e-01,3.529528948823845713e-02,1.915093622914966209e-01,-7.393074913009378690e-02,2.598600138023965389e-02
4.129881846391092459e-01,3.858339934696582985e-01,-4.490482136502681465e-01,-3.446128402612030905e-01,-4.093601934527366648e-01,9.462808114231169299e-04,3.586408882394195308e-01,-1.228038803387135891e-01,-2.801017865505747162e-01,-9.372600919670071029e-03
4.044940298596594319e-01,4.490519841223693520e-01,1.200142760504063766e-03,-4.328783681249752657e-01,4.950416065324332315e-01,3.507327695351468710e-01,-1.069408217885072787e-01,1.433636536306703846e-01,1.987762007334951120e-01,1.114665174208993026e-01
1.237594678370478318e-01,1.446933264323968515e-02,-2.009981509198399685e-02,-2.058623987878296369e-01,2.845946637540704982e-01,-1.008709290183651408e-01,-4.096991987271075830e-01,-8.059558814245537661e-02,-2.095174934301987646e-01,4.431781794163601740e-01
-6.602595448872095041e-03,-4.878580038916060513e-01,2.961100074271932892e-01,1.997743283364548095e-01,3.179353417800760973e-01,-1.398109868931945998e-01,-2.665102055022784411e-01,5.398618507779795461e-02,2.839085409200785559e-01,-8.232758687646934970e-02
1.303993791024582460e-01,1.909172647118281274e-01,-3.227777039505169698e-01,1.264635625793540941e-01,-4.924830976390136561e-01,3.684999264102954974e-01,-1.169548029045129889e-01,2.088645640923639801e-01,-1.308714512423571064e-01,4.975717263242225297e-01
8.344271381501855434e-02,-3.611777890078937681e-01,-3.119202425319641536e-01,4.593761901860712316e-01,1.797312332976930271e-02,-3.741602416711209411e-01,4.504281449777259860e-01,-3.079271717962716037e-01,-5.736320833275487807e-02,2.472595216000094132e-01
-1.194768216441143283e-01,-4.768387433906434714e-01,4.906948064169829316e-01,-2.110456293501092873e-01,-9.380150426895772497e-03,-2.589198638948063680e-01,-1.063745771537384366e-01,3.560717005672442426e-02,-1.676597251826974500e-01,-4.065238517216962499e-01
1.909082918435681675e-01,-4.924038300934455714e-01,1.920155006840904566e-01,-2.257910729180641063e-01,-3.626865044215532574e-02,-4.984966928108268691e-01,2.276628092569676909e-03,7.270766948706930410e-02,1.534535364330710250e-01,1.573199614554398051e-01
-3.180768482128271124e-02,-6.917715042973737738e-02,-2.184009293729258783e-01,2.002057264184941010e-01,-3.238119297856643097e-01,4.444951250288425859e-01,-4.044654784180079510e-02,-4.073358105367129722e-01,9.759833311574017678e-02,-4.393068693502354405e-01
4.794778317837100623e-01,-4.069277057119286001e-01,1.525340841604331255e-01,-4.439428701881532602e-01,-1.419102298870702494e-01,-6.780864132523678478e-02,1.188385805236250592e-01,-2.831754727803811322e-01,4.201203713680913276e-01,4.662296221921458095e-02
-1.427499401641862675e-01,2.150060809053802313e-01,-2.682561664564551140e-01,2.019210463032139122e-02,3.386147581339765678e-01,4.183875573623541122e-01,-3.951495900685483842e-01,6.275589195272980592e-02,4.318587832300320450e-02,3.332101815246262255e-01
-3.127973790631365936e-01,-4.356846184800611810e-01,-6.293447779197147707e-02,4.097947110300245721e-01,2.784943161996069061e-01,2.706310178392718618e-02,-4.036209535958436012e-01,-4.761019373509875474e-01,-7.970948617253559298e-02,-1.717513979247617673e-01
-3.090686369832142469e-02,2.820847452239448327e-01,-2.493157633093921743e-01,4.626681494202621869e-01,1.581892986140612939e-02,-3.303519927769261733e-01,-3.322838383650175142e-01,1.731287079509998827e-01,-3.025259743050787153e-01,3.658745492699422286e-01
2.844117732408359966e-01,2.616232740689879988e-01,2.870946483663153748e-01,-1.058785719431935279e-01,-9.738269393989601452e-02,2.538614628820252128e-01,3.483423079399816658e-02,1.508717170595629820e-01,4.566588335525357256e-01,2.135649441937662041e-01
-1.953738184413154055e-01,4.119602636413904895e-01,1.990537251223199189e-01,-3.611874032313874827e-01,-1.798659321029073277e-01,-4.511951189462790057e-01,1.756896290283816928e-02,-4.700181835661681462e-01,-2.875742940669374637e-01,1.295601956384055675e-01
-1.588729979174735296e-01,4.123006128677711435e-01,-2.245904627263361208e-01,2.984276361825883850e-01,1.675984335195003783e-01,-2.018454022047682372e-01,-2.309343277575452158e-01,-1.398998268319356919e-02,-4.811349419351291790e-01,-4.556888064462452648e-01
-2.105948896823217897e-01,-2.161125772425032815e-02,4.731073620638509558e-01,1.146092271077902014e-01,-1.177398110771869927e-01,4.783073356105345120e-01,-1.783837615574415392e-01,-1.122802832680055291e-01,4.240850200973299566e-01,8.494701673872567804e-02
-3.556078363967685729e-01,1.470256493061603276e-01,4.108204093651477429e-01,3.016226576397657011e-01,-4.227177834840464277e-01,-1.813889562316753634e-01,4.038710450711068267e-01,-8.194096007533205328e-02,-4.357788757362035525e-01,-1.725119980282980303e-01
-4.488730567693381968e-01,-3.462245519043416486e-01,-3.713957466991891221e-01,-4.951948368750950236e-01,-2.899804363015793390e-02,3.148582874038458601e-01,-7.510769417240914514e-02,1.325584764197889620e-01,-4.630018816197613019e-01,1.921391414133737374e-01
3.261130429404139330e-01,1.630733664519908310e-01,4.557694132501731166e-01,-1.976479565210196576e-01,2.638584063665387336e-01,3.348338531591596445e-01,3.500049968492422447e-01,1.795737686071187111e-01,-7.112170492879842099e-02,-1.457468982675758640e-01
2.582899946452089646e-01,3.414451407913532410e-01,1.614315379477691548e-01,1.932412586197472804e-01,3.287745498398983446e-01,3.551361634543434009e-01,-8.913443664224926510e-02,-2.457973449762859142e-01,1.868389581917876963e-01,3.539372172765114510e-01
3.473439023532109982e-01,-3.765382054331213313e-01,-2.179220409630659994e-01,4.327161385558756512e-01,9.960514024680941492e-02,-2.839316965296354578e-01,-3.247424045936310177e-01,-1.008242175853893072e-02,3.698549490615702373e-01,1.556591791857775582e-02
-3.800983347088398578e-01,1.488300360838186974e-02,1.850678982565517050e-01,-4.984677814357164061e-01,-3.957756934827251771e-01,-1.624314729462385809e-01,-4.072603877835725972e-01,-1.578004419615097187e-01,2.072624401055598309e-01,2.154172470791734240e-01
4.097845982170954526e-01,-1.653794561551537312e-02,4.653659301566547696e-02,-6.572425562092087080e-03,-3.955586164881691458e-01,3.451652688465857155e-01,-7.234167621945809812e-02,-3.087793821725724475e-01,-3.717062389139144662e-01,-1.477067567896803713e-01
4.349268656481414252e-01,9.219054690734580781e-02,-3.402554860839569484e-01,2.284707126286469325e-01,-2.951943769307190796e-02,5.977215249612309600e-02,1.748959209577659879e-01,-4.345429260794293480e-01,4.111412159543846867e-01,-4.733939240028251505e-01
-2.607852718037567130e-01,-2.402041521640963795e-01,1.398614532603343896e-01,-1.610393589883385990e-01,-2.863344185385705010e-01,-3.837680985481036616e-02,1.522304294093450305e-01,1.470914470900034909e-01,4.436339086607417048e-01,5.520490250431399348e-02
9.077613223486203503e-03,-4.036608450357888622e-01,-1.524475281854472397e-01,2.488831068297904792e-01,2.809255858429963726e-01,9.138679573828893676e-02,4.246393183844279773e-01,-2.455263241003092789e-01,2.831765508617068230e-02,-1.975244849870540775e-01
-1.042832998697636737e-01,4.993576944545943253e-01,4.184658878367447654e-01,7.502562830166795149e-02,-4.637424292374953128e-01,2.114707198878892358e-01,8.794968474711231665e-02,-4.667428465783479696e-01,-2.354062713908754850e-02,-1.856459192540491909e-01
2.218102510546340334e-01,2.397212780188951176e-01,4.288093504326730976e-01,4.676933396088421291e-01,-1.351343673171825077e-01,-1.117625286882073382e-01,-1.978721661352606798e-01,-4.711147392292768799e-01,1.069343934575337079e-01,1.019020273439219353e-02
4.198382963012721181e-01,1.536497115585745421e-01,1.234705052165145506e-01,2.243999150016597055e-01,-4.618784728447102722e-02,3.561155948885155742e-01,-4.046319905792792326e-01,2.324919596273062883e-01,-3.311805761871189913e-01,4.371636801351757584e-01
-2.361296036161153467e-01,4.976927608030712324e-01,9.359464045247201103e-02,1.553596281949278790e-01,1.255258799222798149e-01,1.748029789005727253e-01,2.753425538438072362e-01,6.452737995134560922e-02,1.488071204568426342e-01,-4.785382176933929976e-01
7.352064909011857274e-03,4.050673478500337321e-01,6.311166183195404678e-02,-2.452186309034681821e-01,-2.453930349734179117e-03,-1.401575702371772314e-01,3.641188123970294788e-01,-3.259999068234356034e-01,-2.166752484730719575e-01,-3.368922700943411952e-01
4.162632469484552900e-01,-1.339894104335305203e-01,3.418372142927650348e-02,1.378919104837257326e-01,-1.284582224070958123e-01,3.042531259226771700e-01,-2.590608020575657644e-02,1.503516444584431788e-01,-3.930921277593094620e-01,3.335197731552618228e-01
3.985314472083353321e-01,-4.844925125228638496e-01,3.790044084181126705e-01,3.316175828869932785e-01,-1.271747133236459382e-01,-2.219848958406313022e-01,3.786112589796197803e-01,-4.483796373220039211e-01,1.515818656393697061e-02,-4.741197901520738389e-01
3.643066880039674826e-01,-5.716469992608219641e-03,-4.315666125649647578e-01,1.396071681568374911e-01,-2.499407663957982084e-01,-3.529972323521467503e-01,3.867324236382224667e-01,3.362617566375083467e-01,1.931034649894513011e-01,-2.189203847816915127e-01
3.733163024962984355e-01,-4.798919643830533710e-01,4.750133381374261887e-01,1.063778797793900610e-01,-2.216355249609958111e-02,4.356190364267380488e-01,-4.198372987147613866e-01,-2.503755208340385785e-01,1.115212149245390361e-01,7.776312541462215844e-02
8.873797199946022174e-02,-4.305762735324789037e-01,6.370982116192334954e-02,-2.637059111536810829e-01,-1.391230075946862932e-01,3.541692160321426308e-01,1.105281832233058065e-01,1.561993062672073496e-01,-4.966463227307203465e-01,-6.429783627734452639e-03
-1.926960125315055061e-01,-1.390252177914972631e-01,-3.494830345151181406e-01,4.479777870665354600e-01,-2.266762648292256488e-01,2.685752878036513636e-01,4.435251538696270424e-01,1.263492464398658921e-01,5.432825898489268557e-02,3.914167135279242316e-01
-1.458551235320588724e-01,4.642399355280338313e-02,8.903206369564098388e-02,-3.917813873900796162e-01,-3.172642802945865870e-01,-2.768667073561574821e-01,1.809347571761578122e-01,-6.928177400956522791e-02,-2.042226030351735055e-01,3.611476726019036132e-01
4.203900705882093192e-01,-6.276242295038779451e-02,1.029908248665362298e-02,3.728888642243602392e-01,4.621862274091139144e-01,-2.239268270211138834e-01,-4.018689175171748923e-02,3.630451561733966104e-01,1.149156949785891113e-01,-3.911718708004369160e-01
-3.706110297180512103e-01,7.011030834139919676e-02,3.973348700562786412e-02,-4.421809036634602452e-01,4.252951317192563696e-01,-2.397573634528012698e-01,4.398449987954383689e-01,4.441825939517576316e-01,2.957284441088786978e-02,-2.359816840144064454e-01
4.702793509089576302e-02,-3.489560296547292717e-01,4.695298248991644496e-02,8.312220221853856839e-03,4.991711087276871628e-01,2.151743472539638657e-01,4.858032711156232142e-01,4.567669972240316345e-01,-4.786520638567137165e-01,2.011860441371550803e-02
4.234724062955692037e-01,4.414947134694733460e-02,-1.882433103021787235e-01,1.172105854925036272e-01,1.615610972780499588e-01,1.993144700449703544e-01,-3.096708837780590140e-01,-4.195145432867740110e-01,2.226021663444213150e-01,4.694739867828538471e-01
3.989161251214862897e-02,2.276110031947021217e-01,-3.556049057464666374e-01,4.065909696032946052e-01,-4.680177235094271082e-01,4.463121751817538119e-01,2.847787933749843514e-01,2.535918224037864155e-01,3.093768458194492976e-01,7.398183845787734136e-02
4.676936423354773747e-02,-3.938348733777065069e-01,-1.986592256582602467e-01,2.602418017048271359e-01,-5.424652449030849949e-02,-5.977097812828399692e-02,2.527233776261869069e-01,-3.851499923660726132e-01,5.348844403722238100e-02,-3.921571926466022040e-01
1.770685194780997063e-01,-4.419290124547226029e-01,4.474414082037154738e-01,1.906799938999520772e-01,3.158526291923813289e-01,4.341108426460545400e-01,3.801741835760294452e-01,-1.318302138721801076e-01,-1.254640324185513633e-01,9.634782542152114937e-02
2.945642323584447483e-03,2.790842846231373353e-01,-5.193125122565116214e-02,2.979097940090981167e-01,1.746663052606220456e-01,-1.524867257477000027e-01,1.908487959989338401e-01,-2.194194045582819885e-01,4.314772786278737171e-01,1.029403377459335439e-01
-1.048990323442787753e-01,1.977585536120490539e-01,-6.314352078489361697e-02,2.517375162797483301e-01,-3.553608726119323324e-01,4.325056119205192284e-01,-4.066877492976711528e-01,5.750386892596050931e-02,1.959689554810262468e-01,6.731649700319800034e-02
-1.683044249542961224e-01,3.226889380886027170e-01,1.555257479672000898e-01,6.254934085896877993e-02,-8.917361994960208704e-02,3.203858602736215366e-01,3.199442020438631462e-01,3.233011255864027267e-01,-2.832680110983326061e-01,2.004607648906180928e-01
2.642083626346850567e-01,4.741332066605205564e-02,5.418891453840004452e-02,3.446724508003022880e-01,3.564274365149008861e-01,1.775140629432223893e-01,-5.025353113876939171e-01,1.048627067453221789e-01,1.366396476008286016e-02,7.171286603740381627e-02
-5.162926837612680231e-01,4.634413467870862058e-01,3.021056285940962316e-01,-4.952540337861354169e-01,-4.711925837249837379e-01,1.040763132127192347e-01,-8.923817922486283749e-02,4.087542865971026118e-01,2.824272523083857234e-01,-1.077936676016335582e-01
-2.283559132561514549e-01,1.810426284373750361e-01,2.058258882204056783e-01,-6.494377035166754020e-02,-3.584128024426802006e-01,-2.979608961143624946e-01,1.331923971627844983e-01,4.458978236258381855e-01,2.107828977859725061e-01,-1.546757076285939503e-01
4.161963210051359274e-01,4.543490145430241212e-01,1.145180950786075236e-01,3.930295273927165711e-01,-9.478672572945399943e-02,-1.451047038489349239e-01,-4.042032109752948799e-01,4.164704942311873714e-01,-3.462094834150450939e-01,-4.578560137947124825e-02
-1.391791756747516040e-01,-4.212954081756862396e-02,1.248851216265260411e-01,-1.075101488726067644e-01,2.904986899494247377e-01,-3.773503364305567653e-01,2.290963230273177775e-01,3.614718927381969094e-01,1.004817967483138813e-01,-5.687822893386707684e-02
-1.470269700968011573e-01,-1.104309798264106884e-01,-2.035741519781090192e-01,3.487683447615019250e-01,-7.898005125054781417e-02,-4.278202652333656375e-01,6.717699306168907480e-02,2.572166235141151724e-01,-1.574097458323514553e-02,-1.426781554808196073e-01
-2.298760653518560834e-02,4.187996910148989449e-01,3.616325056503885138e-01,1.544460653373845860e-01,-9.430034430385178523e-02,1.751747368612036893e-01,-3.816225609588833056e-01,4.562579794179170145e-01,2.085652310499031339e-02,-3.470606114231222783e-01
-4.815554249086159699e-01,-2.221717529111438827e-01,2.980677072477431189e-01,-9.178702735833781448e-03,-1.516703557109454203e-01,1.647942157187713419e-01,-4.604897500254013371e-02,-4.820034057730243626e-01,-3.025358536030823831e-01,-1.950314513095860181e-01
2.179804236451431954e-01,3.000811411494032632e-01,1.870106362838302727e-01,-3.319694998348843296e-01,-1.504965166904631002e-01,2.230237237109082560e-01,-1.529254592926168332e-01,-6.510073024096772742e-02,8.088700933582998465e-02,-2.760293191801247437e-01
-1.611379849978968326e-01,-4.300271705407319733e-01,4.600886161239546857e-01,-3.645402072734154064e-01,1.171066266989113369e-01,-2.001905888434937497e-01,-2.586890905252395845e-01,2.663665731957921001e-01,1.126497559727160924e-01,3.075917265502869924e-01
-2.809174771391205819e-02,3.669783404399812321e-01,-1.541167466788210538e-01,-2.594582004610398451e-01,2.227812661029723307e-01,-4.776660863379846300e-01,-4.228456447584753586e-01,-1.981007846568213215e-01,3.855048274628241067e-01,-2.571298358748885238e-01
-3.214677886798310569e-01,-4.940829119219425358e-02,1.172455068756500518e-01,2.799004862540975802e-01,4.635749781280061876e-01,-1.865730058937629110e-01,-2.083640954525443068e-01,-2.500361646310621522e-01,-1.337728957534489727e-01,4.109278049574941472e-01
1.659056721765675979e-01,-4.697024716079987172e-01,-8.422488425947172175e-03,-1.126392569823096990e-01,-2.248220810481968979e-01,-3.980127745939736617e-01,-3.024725911565020464e-01,-2.565845850235652925e-01,3.885740560362386242e-01,3.213403470324425193e-01
4.820136853966947577e-01,3.234039848137180151e-01,4.000825058508374887e-01,-1.944044206839415923e-01,-6.785441301624794974e-02,-1.045082558693019026e-01,1.798775050127218167e-01,2.632654313679051450e-01,-4.423604030452199520e-01,1.018103509682123375e-01
2.298727504702708924e-01,2.837731715880147387e-01,-1.733984267093229281e-01,-3.263589335791761137e-02,-4.984531974582014913e-01,7.009211147404692532e-02,-3.706184069164542016e-02,1.200523454501725151e-01,-1.769557129767815873e-01,-2.016592455579335752e-01
-3.576826897320242726e-01,-4.887640335850727547e-01,4.230263261898243310e-01,2.118141573284413604e-01,-4.057293315444636568e-03,-2.110623590867115318e-01,-1.446605500527271132e-02,7.117974505246346499e-03,-1.207141229577982783e-02,3.940508765919120693e-01
4.054903838838880836e-01,-3.584846896949049899e-01,-3.756972252416333480e-01,3.423261522927479872e-01,-4.815260511023002898e-01,-1.795958730567457640e-01,3.191244999369767521e-02,-2.823309209386929974e-01,6.506671264152226464e-02,1.117073631748863594e-01
-1.220379564448756393e-01,-3.227500649132645782e-01,4.658792606963060856e-01,2.139428056815708135e-01,-2.207047175376930515e-01,1.972968400878570561e-01,4.752622401295416438e-02,-3.293656530275363425e-01,2.513764815138069819e-01,3.479054613934535745e-01
1.518948614977606026e-01,-3.558362530201850671e-01,-6.590710725662674019e-02,-7.244242741146524056e-02,-2.713604743318112078e-01,-3.452264308259432313e-01,-4.649076560927444812e-01,5.937990604881546869e-02,4.656831056268965763e-01,-3.168717993915228237e-01
1.874249335933543259e-01,4.693959699390541918e-01,4.372047434075615469e-01,3.519346889740402329e-01,-3.150448807367850490e-01,2.921352962988346125e-01,1.574775568797280589e-01,-1.754280677871548899e-01,-2.036374884443341304e-01,-3.804668379287036162e-01
4.111336881381869590e-01,-1.251739299797190175e-01,-1.152314761657717845e-01,2.092633724774203008e-01,3.601872729645009263e-01,3.218427548278864903e-01,-3.759278878868695384e-01,-1.745026333294004972e-01,3.449528310197740866e-01,-9.312074230731980096e-02
-1.060726120033262804e-01,-1.025967610474242120e-01,-2.108090893461041573e-02,2.181991848666290923e-01,-3.455868908666602235e-01,2.091409287554175933e-01,-9.531066358449030718e-02,-5.485983171664665821e-03,-4.811101395544833403e-01,3.842496632973445014e-01
-2.723383982148918636e-01,-4.142740411039615434e-01,-3.687389870468183450e-01,-1.496611509393205031e-01,-2.022267123603422798e-02,-1.834326974212348860e-01,2.526496812199728603e-02,3.925476432071993149e-01,5.491310479781428416e-02,1.547004893373082890e-01
-2.923577465083693205e-01,-4.667968738239708926e-01,-1.389341745851430665e-01,-3.765692013254668957e-01,4.542422088074422049e-01,-2.024567952301880788e-02,-3.123336727115930134e-01,3.837208985231270186e-01,-2.079122906528277637e-01,1.070191513790550164e-01
4.262574224313060989e-01,-2.804083013483170128e-01,-5.204992442088061111e-01,-3.091385971428964319e-01,3.257832472563544912e-01,-6.834064204719185465e-02,8.173089770505183316e-02,6.758188105504435439e-02,-3.598209355467883452e-01,-3.968942809481384448e-01
3.403048212397704990e-03,-5.739874522255906247e-02,4.081517107118446397e-01,-5.155946382833526825e-02,-2.511543467765375848e-01,1.450850092515633682e-01,3.980943046390019724e-01,-2.458062551289108902e-02,3.930498965400019973e-01,8.213682540393246745e-02
2.198898658059715017e-01,-9.340460782993278976e-02,3.123062024788898494e-01,-5.443376723300650394e-02,9.037511316715585857e-03,2.596829532288102427e-01,3.097742906120494188e-01,3.299278231364702330e-01,1.789426113772083771e-01,-4.930553587576593788e-01
-2.494347350143256981e-01,1.875887051746132905e-01,-3.916575597434154288e-01,-3.838980429610785450e-01,-2.319001962829000951e-01,-2.113377762710079433e-01,-5.396483462298732464e-02,3.751283126462205408e-01,-4.126727907058901079e-02,-3.625661647653014574e-01
3.826515282819868413e-01,-2.169300953348181349e-01,-4.148757900971819512e-01,-4.155596004276622124e-01,-3.285871637429615411e-01,1.858082047505839607e-01,3.055610379804264420e-01,-7.540886962366905900e-03,2.101909367867984268e-01,4.788825293260453586e-01
-6.715226680216886124e-02,3.324393305782544217e-01,-2.761217608669516710e-01,-4.081886333698749036e-02,1.380664713648273034e-01,2.209774413956167860e-01,3.376832041055148337e-01,3.467521025288792247e-01,3.326931857079865051e-01,-2.470602219703875169e-01
3.676804549950994372e-01,3.566543648674627698e-02,1.635491317020241475e-01,8.119581938888530137e-03,4.454428469195719775e-01,4.970549244290184410e-02,5.328864053294569969e-02,5.005600854770920760e-01,3.588156518663714323e-01,-2.787731081987235848e-01
1.305249744497809054e-02,5.084278860797337707e-01,6.282442556503838038e-02,2.600448703491738400e-01,-3.628271445639391635e-01,1.811892002720257716e-02,1.186805153037221588e-01,2.141191801567012554e-01,3.407930647476266617e-01,-3.463758264170728740e-01
7.112840122907486407e-02,-3.463186179096961609e-02,1.483364327142923655e-01,2.417416475900663331e-01,4.385109658026231649e-01,-2.371993758811661301e-01,-4.936352748512768951e-01,-1.415128841408945792e-01,3.228444260255351472e-01,-4.727593566519525115e-01
1.972354290232777030e-01,-4.103733745500385277e-01,-3.103559730576255227e-01,5.644221404509427997e-02,-1.016971800152606242e-01,2.896186014241463602e-01,-1.505516574361924764e-01,-1.950414042148595761e-01,1.086215708950931808e-01,-4.225026239893000524e-01
-6.785859647374825609e-02,-4.169294117715706682e-01,2.522694849256598149e-01,9.207007891492652307e-02,-2.082153307530106023e-01,2.445472394078848644e-01,-3.751032144178850780e-01,-3.329012720884437782e-01,9.978932148187893980e-02,-4.416080496007285250e-01
1.184504904063305025e-01,-2.544112801072193064e-01,-9.141572444745280079e-02,-2.355943454812186033e-01,3.143351073209272317e-01,-2.772040933500053983e-01,3.484893460082694738e-01,-3.819155894727146450e-01,1.684211494737057058e-01,-3.581227598869649587e-01
1.697073763252845424e-01,5.291449364671139965e-02,2.581437208017027252e-01,3.768450833687221335e-01,-1.404203896427490966e-02,2.229760466263093488e-01,-3.639351502353824763e-01,-3.671700758751061389e-01,4.437193400178040537e-01,-2.155375522133703148e-01
4.836579287175150066e-01,-3.961204795311142335e-01,-1.101934954706949854e-01,-4.974999497307667218e-01,1.182070642790388343e-01,-4.199587201920967350e-01,-4.658074355067108319e-01,-3.090918620155905794e-01,-2.287950640567562866e-01,5.935777465267555453e-02
-3.212715924582824623e-01,2.773339905206039652e-02,4.193746307215117652e-01,1.519586816764023629e-01,-2.756761793855356038e-02,1.633315222446512227e-01,-4.820502713151249563e-01,-2.353993406744946670e-01,-5.612857081120410652e-02,-1.607303967803564576e-02
-1.692466583612249054e-01,-1.805336232735077484e-01,-4.596085112993976152e-01,-3.846439849776470687e-01,1.413981920849556317e-01,1.649566281053750916e-01,-1.698481029244460622e-02,-2.597692246852092990e-01,2.547815067052118243e-01,-2.444037034459301538e-01
-1.886659521990482480e-01,-4.839043970906542480e-02,4.448823721178021273e-01,4.138535187253815639e-01,-3.074831376268537531e-01,-2.506237108391450308e-01,-2.476339055148957247e-02,-4.111463393177158254e-01,4.767852421885738767e-01,-2.608159224143207222e-01
3.013347039233886804e-01,-3.514280701692926723e-01,-2.124041564863747844e-01,-1.419875521404133645e-01,2.216431370842597559e-02,3.815197793369651258e-01,-4.943560964991301487e-01,-4.929066199505679480e-01,1.667885559772486204e-02,3.584694717052239188e-01
4.657938936053460099e-01,-4.255236484725785084e-01,6.203357297917706792e-02,-4.103263552154564064e-01,-9.840038459903625856e-02,-4.160171928964018773e-01,-3.805629613620867269e-01,-2.504016910645315841e-01,2.360119148152095211e-02,4.739026929271633083e-03
3.905295626628021988e-01,4.086768704043063916e-01,-4.075207787611447724e-02,-1.443992515741219784e-01,-1.793324757774704056e-02,3.957737046161428074e-01,1.694765248101914035e-01,1.186013122494433414e-01,4.640138675300591042e-02,3.574932852804035832e-01
1.735757010025596250e-02,2.322906233545282972e-01,8.531628135419984382e-02,-3.633572591584391387e-01,-2.080456492247484968e-01,1.170992541764276224e-01,2.029932670087559177e-01,2.978093297602208978e-01,1.731685601348711412e-01,3.246616097366678000e-01
-2.519931239098893716e-01,-2.273020893253216990e-01,1.547211545686622280e-01,3.618993811407359984e-01,-7.531554637414747400e-02,1.572900601625975281e-01,-4.236595949930604954e-01,4.197027600838595940e-01,2.477117008168404355e-01,-2.024524442841069138e-01
9.191074071031750392e-02,2.915013500527592893e-01,-4.993492471622959505e-01,-8.526101152075900302e-02,-5.349609736020227713e-02,5.893390816576696105e-03,6.868730870072232986e-02,-3.048815351254240413e-01,4.477391005779872146e-01,-3.923515449062365268e-01
3.824599181546991383e-02,2.516811297002783943e-01,-3.896113300763828780e-01,-5.026701581077560599e-01,3.374493716663133358e-01,-8.417187066168395349e-02,-3.025141508113421973e-01,2.497440074172829483e-01,-3.769760583749567906e-01,-3.890303238460484092e-01
-3.094737451017433583e-01,-9.580582356002820266e-02,-1.769439666466212369e-01,-5.118039732237561479e-02,3.404291564211579524e-01,-2.381021979165041935e-01,-1.736605091472432083e-01,3.875847551066792240e-01,-2.157946457355693071e-01,-2.681204668836596472e-01
4.592558477959386432e-01,-3.298019592580517800e-01,-3.074554211146042215e-01,-1.039714344842238986e-01,-3.931691445260590556e-01,3.895645650041046903e-01,1.448688656964663146e-01,-4.296613417237254429e-01,-6.283676627996193434e-03,-3.112317851938178337e-01
1.106752829105494967e-01,-1.483607809992857629e-01,2.622832612500303751e-01,1.703064157672898316e-01,3.367554228378489833e-01,4.584340155269336914e-01,2.076185449564639796e-01,3.864738145317082041e-01,-4.297236866420792167e-01,5.303641608295798712e-03
3.823770399621961857e-01,1.669391619240105373e-01,-2.435841127641817094e-01,-3.857591983899203436e-01,-3.514945034184036032e-01,-2.483844711289646956e-01,4.990154383562463991e-01,3.724447076537351076e-01,-2.692098317224771442e-01,2.189758227249272715e-01
-5.844952822042724649e-02,-4.747830144324327595e-02,-4.093978527684730695e-01,-3.949688952840416656e-01,3.833291904640508951e-01,5.365043159904023806e-01,-3.385809164171552643e-01,4.682202782317481660e-01,-4.842564561850268845e-01,-1.590037365280846660e-01
3.391766886933003655e-01,-1.986818605388181447e-01,-4.192186482458133412e-01,-3.504129235672963083e-01,-1.595599110466176251e-01,1.734707853183601878e-01,-2.191617831966261309e-01,4.317251167264503642e-01,-1.152660398832645594e-01,2.923394728526817476e-01
-3.490440754449106731e-01,4.159810296190584178e-01,3.124200821838043519e-04,-2.701142453040124014e-01,3.778072015035445208e-01,-1.364016170050496024e-01,-2.970275448689713160e-01,3.819595421108317734e-01,1.953110397421638222e-01,-4.767685730974504654e-01
1.379710144800458116e-01,-2.894825986746565882e-01,1.359408278628219391e-01,-5.470784664562363675e-01,1.679640338274067113e-01,7.102298970816957584e-04,2.389756678656789202e-01,-3.139024300401470069e-01,9.054941545469745445e-02,-4.327088756514754775e-01
-1.498431728718824761e-02,-4.961300678776895401e-01,-1.542231913359647932e-01,-5.778215239179591151e-02,2.653386946075713682e-01,4.403900445898807914e-01,2.512434597035139716e-01,-1.949799069637952464e-01,2.086428463992600069e-01,-4.187595298438542279e-01
-1.493284383048390229e-01,2.823495373666097263e-01,-3.758850316170064265e-01,-4.481896346746814253e-01,4.027404157095320070e-01,-3.874653568128684777e-01,1.680354304510457142e-01,-3.705503719126366780e-01,-1.626850078312828130e-01,-1.131641319003901663e-01
-3.711078384892945170e-01,-3.491156812965694467e-01,-4.203440973454021790e-01,3.389932950986876414e-01,-3.076041906267617532e-01,-2.316257115879017670e-01,-4.200035336049507961e-01,-1.833687260136539765e-01,4.455685747002231523e-01,-2.779446235478401084e-01
-3.469826556925808547e-01,-2.807814591152910100e-01,-3.437064877463654189e-01,2.213651505683618681e-01,1.507292055846967405e-01,-3.766190778330790190e-01,1.631996280713836900e-01,-6.346934115978181135e-02,-8.162342812394222935e-02,4.225252220560686278e-01
-3.167715292666495319e-02,-2.385648553195879318e-01,1.300041901050155713e-01,3.300889123689006999e-01,-2.652810832448728173e-01,-3.883099087660734638e-01,-2.506852090659298926e-01,1.150660215647449081e-01,-1.871504384129280552e-01,-6.345993421543766333e-02
-5.321018564629156344e-01,-2.242808637881296141e-01,3.039692672817992380e-02,1.326970366610948360e-01,1.511939345000229695e-01,-2.963925992436843848e-01,-2.233352454973581425e-01,-8.747320539325340039e-02,-2.235772552912751177e-01,-2.940087615306291591e-01
1.033843561374511166e-01,-2.876626565089028253e-01,-1.052159834741619171e-01,3.360361530590972867e-01,-3.753191821715778365e-01,3.351656479765234287e-01,-1.723310230356069339e-01,2.789738580568065229e-01,-3.598258790978821064e-01,5.401298512761739667e-01
-1.604353415579906073e-01,4.211440775688747307e-01,4.322711375807890555e-01,1.405711981644408026e-01,-4.613264499625900281e-03,-2.608374465240321793e-01,-2.528898270422398342e-01,1.408024623534123720e-01,-3.141159057799845500e-01,2.202316225100257874e-01
4.704474739360997582e-02,4.557317586665583092e-02,-2.491221419764297895e-01,-2.269863209733370413e-01,-2.013403583497235805e-01,-3.378246475259957249e-01,3.859447761559747225e-01,-2.823076533894118278e-01,4.408797328320143150e-01,-1.019196592589322325e-01
-4.335961290373218646e-01,-1.543648352911448363e-01,-3.114156224581523524e-01,4.720328215566926833e-01,3.222472544324949673e-01,1.335845579669774630e-01,4.724964228511351338e-01,4.287432446765734873e-01,2.175058403520301886e-01,-5.522428017915375492e-02
-4.882933251493333793e-01,-7.495809536288332298e-02,-4.585375510407674882e-01,-2.207917362424265950e-01,4.968683378351171354e-02,1.115651289328674911e-01,-2.632348179916105813e-01,3.437546163084865269e-01,4.612325019179815411e-01,-1.500737771482070770e-01
-3.606082456893214827e-01,1.269804459421508547e-01,-3.318025943300960123e-01,3.569412494087732535e-01,1.315391200036963582e-01,-1.163654392249178077e-01,-1.613040613742374729e-01,8.134002008868200517e-02,2.394990254849353462e-01,-8.969754108894946801e-03
-4.923158853681993130e-01,3.751911517737869795e-01,1.738870333648601663e-01,4.629120328248649829e-01,2.493197967923363734e-01,-2.562694284963179525e-01,8.155147365746664989e-02,-4.424480432016988929e-01,-4.027696310658416268e-01,2.898746397356934956e-01
-3.801419236187850714e-01,3.454052689316530200e-01,1.966590929274756316e-01,1.542161198798353006e-01,8.946038290727065245e-02,-2.576305680226432804e-01,-1.882954511696798283e-01,-5.939415703588413198e-02,9.637247877793730932e-02,4.328246799974859726e-01
-1.134106037317580418e-01,3.730271651166015001e-01,2.305327978543298961e-01,-3.076792484466154276e-01,1.579763226539135923e-01,-3.955972627851889190e-01,-2.452074411494342687e-01,-1.716614903041046025e-01,4.391444204859760170e-01,-9.732536809666636479e-02
2.649230169810952717e-01,-1.371706380645275059e-01,2.624056981200020844e-01,3.439431824623945255e-01,-2.274989105442580262e-01,-1.915990104402229000e-01,-1.833199341812343230e-01,-1.196606940183477519e-01,-1.622105941591693856e-01,8.798155297842993883e-02
4.398912951439609698e-02,-3.356874324994537084e-01,1.740459844119869037e-01,-2.383816883369101469e-01,3.395273755738993926e-01,4.835604667609450513e-01,-2.509621548608778618e-01,4.840954901844069513e-01,3.040841471315635092e-01,1.987983825074469690e-01
2.666415330779811632e-01,-2.842944275685508337e-01,5.351346283962467310e-02,-3.145757247263680223e-01,-1.666981986701850937e-01,4.691339306707760781e-01,-2.104054777529068276e-01,-1.596574664022140655e-01,2.074251258316121005e-01,1.888152116419073157e-01
-3.513865020544562068e-01,1.155646029631301058e-01,-4.936411312070638352e-02,-2.235388923115773085e-01,-2.004428227626099679e-01,-1.553937050887712994e-02,-1.263211637621192152e-01,-3.900059844076804449e-02,3.924875134412942890e-01,-2.074148164820742435e-01
-1.336353025086191582e-01,3.186292310943845130e-01,-3.127107910840690175e-02,-4.248600411988178172e-01,2.291602219760676545e-02,-1.327763736567675323e-01,3.333626692421539639e-01,-1.795796568962673978e-01,-2.780249800677485617e-01,4.014521012878319306e-01
2.448857289197484688e-01,-4.603430349707984294e-03,2.436497689491110841e-01,-2.802529292701600450e-01,1.715412640912044595e-01,2.308491330981363721e-01,-3.493723348434330522e-01,4.685185035300679646e-01,-1.563155543218890386e-01,1.787544281648980049e-01
-7.872935258151238236e-02,7.227640933639221943e-02,-3.859307908714866564e-02,-1.230139364654763146e-01,-3.569882783154939565e-01,1.917891868081405271e-01,1.972616337643884332e-01,1.455043545532055949e-01,4.345422096096752673e-01,1.279659662275439980e-01
4.809385112549030006e-01,-2.821172460346134739e-02,1.535737446929975880e-01,-1.044280959691951290e-02,-5.353502163765115895e-01,4.384469365654160011e-01,-2.127641550246726354e-01,4.119263207095820167e-01,3.718737051422973949e-01,1.875260196831956272e-01
1.267044684046603475e-01,1.417175343869218063e-01,1.683108358474508792e-01,2.784026842138135338e-01,5.368248893068785360e-02,4.670766982742001749e-01,-1.819321341845090700e-01,1.261242856504846133e-01,2.489461298863973604e-01,-3.589489760744439817e-01
-2.168253383312938182e-02,6.006763324070438226e-02,2.971467153318372301e-01,7.340604313258189406e-02,-5.040695228500164937e-01,1.105344473476217032e-01,2.585471041152589966e-01,3.926428859555711748e-01,4.682838242087096203e-01,-9.346905406525995996e-02
-1.268309313835648822e-01,2.410744815789434281e-01,7.648284595855427137e-02,-2.714046784452062711e-01,-3.292501273979108189e-01,4.963550047103889029e-01,5.376573121287471328e-03,4.346555499896598285e-01,2.700254135617078388e-01,-1.648498073608215264e-01
4.779022296572677519e-01,-3.833664902881897540e-01,1.402953114311109549e-02,-4.528379557873064148e-02,4.556778938815730928e-02,1.472840477350176487e-02,3.619250072434115895e-01,1.949045760784563763e-01,4.310343035930212507e-01,-3.998931734738438992e-01
3.792576696168833417e-01,3.567047662792816598e-01,-1.653187728006684787e-01,-7.333015219634518855e-01,-8.544233145391688655e-02,9.403381950784509002e-02,8.443708193549470664e-02,-3.875708384962066599e-01,4.226911037438745716e-02,-1.610873571832448226e-01
3.928783021932815145e-01,2.414494700950656769e-01,-6.076140749501968835e-02,1.002721623189061634e-01,4.848971857799164731e-01,-1.874061791751174266e-01,4.026749671517977358e-01,4.042294285858971103e-01,-3.155262938606598899e-01,2.866378123910316988e-01
-1.439316614345570733e-01,-4.244000892104113909e-01,1.423764548926434725e-01,-3.041160502458071235e-01,-2.706709244007504678e-01,4.364333123309604989e-01,5.187907238736304549e-01,4.322298672104399886e-01,1.556715544159182618e-01,-3.989868246347124670e-01
-2.160296639783703121e-01,2.114761010954059328e-01,-2.603356977578112907e-01,-3.508696825570374322e-01,-5.030194463927828430e-02,3.181488966403772101e-01,-1.530585651732923047e-01,3.113811386284048854e-01,6.652962063941809945e-02,1.938022798604159547e-01
1.024751818285420668e-01,2.348682756268581917e-01,4.062670548355775679e-01,1.703615833740252661e-01,-2.066508198118318512e-02,-3.075942323291117400e-02,-2.299350788768772802e-01,-4.464374039285796125e-01,-6.767197792353740748e-02,-5.205602131471975813e-01
4.416907158294710450e-02,-2.091406927195397503e-01,7.490501965142304375e-02,6.006984356517602874e-02,-3.454733106629910844e-01,-2.151000436225992962e-01,1.657795368049815310e-01,-3.080081245507997334e-01,1.576340504977952195e-01,-6.808104910749493421e-02
1.721083944202661808e-01,-4.106862814532154515e-01,-2.136379405113979224e-01,-2.473390461236792959e-01,3.906170588663700483e-01,-1.871117590257163621e-01,3.432303087507082573e-02,-3.176179279709327452e-01,1.615577156741925258e-01,-1.368788371545053839e-01
2.150067876163798963e-01,2.003568218035272144e-02,1.825960719748893346e-01,3.013463019629457618e-01,-1.322771604533731771e-01,3.600630096527382418e-01,-8.476305186675581194e-02,2.952556958962269107e-01,-4.510306350401594444e-01,2.963210331256917462e-01
-2.194823763074459921e-01,1.717425729529973855e-01,-6.669125390982856560e-02,3.994125298287941606e-01,-4.619975043126335335e-01,-1.100637820636821973e-01,3.934060532010734135e-01,2.756434513495114036e-01,-4.251987252083233582e-01,-2.060548066346126229e-03
3.778213593423733752e-01,3.617581981331232654e-01,2.645048878941880788e-01,4.697707811934299649e-01,-3.670060029449276340e-01,-1.651426371960979800e-01,4.404371661228054236e-02,-3.172860588854500286e-01,-4.029229313137721591e-01,-2.937317832470417445e-01
3.261707641349805287e-01,-4.422659995640259578e-01,5.156130608883682243e-01,3.880585944233352902e-01,2.823890383816739513e-01,8.654353695211912390e-02,-5.781045467153703848e-02,-1.000360859755158177e-01,4.762136194133089750e-01,-1.772132766969214054e-02
1.223571734307160319e-01,-4.889786577976836801e-01,-3.434518174834826354e-01,2.667969057646314979e-01,4.249069775438451546e-01,-5.133731449887634080e-01,-3.753133164840390390e-01,-3.224426173138301155e-01,-1.377558372670093512e-01,-3.467035257616383204e-01
6.383689381395175888e-02,4.327642625181341574e-01,-4.743515944582347710e-01,4.142676322616370421e-01,3.738620044165501533e-01,-2.223768502888486542e-01,1.387823319233832085e-02,1.520960861091831713e-02,3.575089538337147821e-02,4.999598384584300753e-02
-6.270806775171780534e-02,-1.445440061362702200e-01,2.500197492504814822e-01,-1.263807873598522258e-01,-2.694033848720835400e-01,1.388220723297237946e-01,-1.807459689505112599e-01,-1.916160103283939264e-01,3.531654737273222100e-01,2.844042029960901496e-01
-7.203520165592192104e-02,3.612276270289861424e-01,2.848376442359590310e-01,-6.872059564975585566e-02,2.323430699423109091e-01,4.527385041347052885e-01,-2.743547743663993232e-01,3.423354984773547827e-01,2.361237367243053109e-01,2.103894791843264889e-01
1.296191929524425149e-02,-1.041256620312665665e-01,1.622366713972021035e-01,-1.261836103474241744e-01,-1.944540065851609600e-01,2.742178425585422019e-01,-1.904172709366618310e-01,3.817227907217685678e-01,3.109559773929991833e-01,-1.599905972358166562e-01
3.672680599879949437e-01,-4.066132434680602148e-01,-2.567853371077687408e-01,-3.518034458825801125e-01,9.653017752015682906e-02,-9.026697937169048114e-02,-3.922485515479114393e-01,-2.899095894760616576e-01,-4.309852972222174006e-01,-4.096524676659771269e-01
2.488318945301981888e-01,4.676981565715480071e-01,-3.496372390761005866e-02,1.845120866916036273e-01,-3.137763347353079157e-01,-1.937783331878007165e-01,-3.628066750934667156e-02,-3.093067781019707696e-01,3.532985935016659251e-01,2.272884630134516457e-02
-4.309165245299040881e-01,-1.584130741979125276e-02,-1.820215728069876637e-01,-4.892563964364183837e-01,4.114810940775768811e-01,2.317904968408161237e-01,-3.862860141762511357e-02,-4.019434833979995680e-01,-4.327930592233932700e-02,4.045628304331625458e-01
2.763220115231284635e-01,4.114175459601134288e-01,3.443789333779312956e-01,-2.651368048817460688e-01,3.530761271049365907e-02,-1.265903890176323376e-01,-6.602349367893010912e-02,-1.770696213998448551e-02,3.063160618702972515e-01,3.246383726813056175e-02
1.181754900025651089e-01,-1.212431461869904331e-01,-1.322381329000985317e-01,1.769938125680008412e-01,-3.828015721723845854e-01,-2.378787589679059733e-01,1.766220006840848733e-01,-2.224535659956222988e-01,2.687802354369727698e-01,-5.865836115680132801e-02
-2.908485247195031764e-01,-7.147747108092650237e-02,-5.188630903514228621e-01,3.291133914366371760e-02,-5.077539182312271748e-01,4.633524778820071743e-01,2.309462143692901370e-01,3.075839261719474083e-01,7.113388143625336280e-02,4.189259952043235535e-01
1.388975116717108826e-01,3.086951351341853389e-01,-3.979679468020078104e-01,-3.298507651876911861e-01,2.273993651174453234e-01,2.671747739697756252e-01,-1.323209820522162072e-01,4.488188911983163609e-01,-3.533512548435018275e-01,4.051942658827203392e-01
-1.941574830507925009e-01,-7.671233951220250702e-02,-1.114109641934442063e-01,-2.997927567090832301e-01,1.451907259980277087e-01,-2.044733615940606541e-01,-1.470554508197753629e-01,8.092624535119945228e-02,-3.693635164603142340e-01,-4.673551559531350374e-01
-5.454243934823861661e-03,7.979630115259560286e-02,-3.322713508520158676e-01,-4.910974876379768927e-01,2.118676905551859779e-01,3.375933384969793671e-01,-1.822636213756250734e-01,5.379024198619694608e-02,-1.909524787941570267e-01,-3.879340424785884811e-02
-2.934221123940358722e-01,-5.080824142251301190e-01,4.294822083628179743e-01,1.055882928574913421e-01,-3.256827411287454010e-01,1.751954854816919482e-01,-3.241509856345679008e-01,-6.453662882926382294e-02,-6.116208953079665250e-02,1.579479480491727816e-01
5.142798746173201652e-01,-2.473248132198251903e-01,-3.786273215027902705e-01,-6.682044418541936981e-01,8.009876229269168035e-02,1.405635354171583425e-02,3.498765277921614958e-01,-1.710553136636808746e-01,-2.897245347257115244e-01,4.124447673545326709e-01
3.147825228731304659e-01,4.276153916381986164e-01,-6.385762096483246775e-02,-3.492302465219487839e-01,-2.129031369444281396e-01,4.718601924317717411e-01,-2.828330273282211316e-01,-2.568720630592543075e-01,4.856564242048262009e-02,-2.183053768873517986e-01
1.018439638499270133e-01,8.767909737208871845e-02,-5.014735581462769626e-02,-2.909132111654514907e-01,2.447794355020425916e-01,-3.608827995630704555e-01,3.052735582946031756e-01,-2.892317701614640635e-01,-6.689486666537365622e-02,1.328432638361332248e-02
4.654202495852242105e-01,4.011551585252638441e-01,4.480621659408148827e-01,-2.060666051754516115e-01,-1.521867070248341391e-01,1.289425536182127741e-01,2.191287147038587235e-01,3.115625333920034046e-01,1.424019270069942500e-01,2.168555304657240335e-01
4.011029393412749999e-01,-5.822341058056024199e-02,3.683729130351939274e-01,8.333333316251831380e-02,2.020514973285070237e-01,-8.917929003772279151e-02,-4.955689995709948725e-01,-2.042027996080700292e-01,4.048003434086102637e-01,-6.624957031744828084e-01
-2.901731319442302781e-01,3.589401975015076851e-01,4.722180424151628531e-01,-2.377494986159318924e-01,-4.150629827253424914e-02,7.710146254368249741e-02,3.233639639289720424e-01,-3.887158412765867044e-01,2.298462886924858006e-01,1.996612789165795321e-01
2.686207804532832477e-01,-2.411789756723597689e-01,-2.318827587628223275e-01,-1.128294051605676501e-01,-1.516414808216031973e-01,-2.127594685611269298e-01,1.993171687300255845e-01,1.216412254940434784e-01,2.623563712775536794e-01,2.569743335410952234e-01
1.310608847056237702e-01,-4.605398712348713341e-01,-3.296782804056463401e-01,-5.018886761726276680e-01,-3.886433115546368278e-01,-2.452697483375246290e-01,-1.596079511687179542e-01,2.902898282222168835e-01,-1.997577213906942539e-01,2.234158896785031490e-01
6.999850605186420938e-02,-4.866951729091846257e-01,5.815441933358497240e-01,-4.996177325223806198e-01,-2.009039787492979817e-02,2.121355493047649143e-01,2.788301855245170838e-02,-6.621022212265983975e-02,4.779662653897702174e-01,4.377594681724861214e-01
2.940731689819702788e-01,-2.630624922161331480e-01,2.105687322982655735e-02,-1.881427435434941398e-01,2.652005399949826092e-01,5.724947106136170361e-02,-4.453147416233748102e-01,2.297255154600813809e-01,6.200134676667541644e-02,4.849866155890977248e-01
-2.377250512528692947e-02,-3.183026300520959695e-01,3.941184737014560846e-01,4.269837161741988352e-01,1.944815378929616312e-01,-1.790550365678152123e-02,-1.725037073396699233e-02,5.364232665541600609e-01,-2.798145443588228032e-01,2.332227705104626680e-01
-3.354855017835354780e-01,9.575722165119171514e-02,4.825926168498779756e-01,3.378112506358620371e-01,4.052978280504764830e-01,-5.144235250311868235e-01,3.705198165417292744e-01,2.109245225836949289e-01,-4.470280384038611832e-01,-2.501622109489958223e-01
-1.000151609126963791e-02,3.450566190160198610e-01,5.822869573298159462e-01,-2.793260607099901094e-01,-6.743526515016493549e-03,2.486948905927784115e-02,-4.597012250403509914e-01,2.313149744809323560e-01,-2.823147960392977662e-01,9.655774359819860320e-03
-4.283176773264563142e-01,-3.299545496135462552e-01,5.210759901525927745e-02,-1.470444325891873683e-01,-4.208777697246701699e-01,2.336278340919931695e-01,-4.502912149399565522e-01,-8.000785966684655082e-02,8.603961305546798180e-03,1.207474031246081880e-01
2.959744035621345026e-01,-2.167987704230534274e-01,5.041798357195870911e-02,5.539307163434146336e-02,4.671752217836230292e-01,3.342385873864232027e-01,-2.846688076603989814e-01,2.489306261994828906e-01,-1.787944987865165425e-01,7.843643237850757288e-02
-3.051591699695950233e-01,1.906000672811344332e-01,4.021430193631719829e-01,-3.585145278409493930e-01,-2.052179374589714056e-01,-1.779729799205829466e-01,-2.093021895371026952e-01,1.929018345704912041e-01,-3.714244056079902268e-01,-1.476836637542796871e-01
3.562046665340306562e-01,-3.790052131221384735e-01,2.503725038288603932e-01,-1.384359924328979752e-01,1.727080879688974724e-01,-3.966371573355750302e-01,4.506933447694479178e-02,2.010207377596111289e-01,-3.852807109173325695e-01,1.595631493980019244e-01
4.084708724833866489e-01,1.758147525244730669e-01,1.640753851039805367e-01,-2.023576000865121294e-01,-2.210626020479089793e-01,2.526933697844624405e-01,3.302316186523117092e-01,-4.714967254033564648e-01,4.385916782607687803e-01,2.359198705056164136e-01
-1.730905961498114265e-01,-4.103930105850592258e-01,-4.908453988062022599e-01,-6.222284963522510537e-02,1.974154833194691205e-01,-4.482687103564186315e-01,3.256866238766917970e-02,-2.102312126470539111e-01,-1.982276613778268526e-01,4.783278671982175156e-01
2.729405111891187174e-01,2.540556700197955653e-01,-3.877339315049386226e-01,2.404945501286810672e-01,-2.100052125801870617e-01,-4.105716041798908589e-01,2.833116317691123931e-01,2.076035306879970843e-01,8.356211885325907918e-02,-2.908611500840828090e-01
-4.147689337078300786e-01,4.557847729709491036e-01,-5.019102408045843511e-01,2.878228009737777149e-01,-2.957067556213744397e-01,3.299573110018755862e-01,4.393937780506698698e-01,2.964107214712130012e-01,-2.885681509912860210e-01,-1.127069321610976588e-01
-9.748662915411331065e-02,-2.489440394096305298e-01,3.704030135962154135e-01,2.238703683772823305e-01,-4.078244382549802149e-01,-3.551027221090820585e-01,2.676146003987407984e-01,-2.966216523441350672e-01,-4.744013892669242116e-01,1.715226198766827692e-01
7.812382603547352034e-02,3.195793622863823402e-01,1.465296709685091348e-01,-5.831067358706602116e-02,-4.261217924007735802e-01,-4.639593941304066826e-02,2.053486535144154190e-01,-1.331467525072399793e-01,4.656463178939415082e-01,2.898930027050775626e-01
4.519643084168379343e-01,-2.589221846047702891e-01,1.204759081700783330e-02,2.900504869532485319e-01,-3.032540798769107204e-01,-3.227039053443632455e-02,-3.753862968201997219e-02,5.312058750883823510e-01,2.038277407445275025e-01,-2.928272360750438508e-01
4.551763677010240983e-01,4.843995356100370270e-02,2.381783372715114699e-01,-3.065907811902399693e-01,-5.217511624385942071e-01,4.842552819826557164e-01,1.152240234026275650e-01,-1.026120680547905686e-02,5.173257140857902975e-02,3.967584869122240954e-01
-9.686584159484296075e-02,-2.042653792607361518e-02,-4.011846483459903523e-02,-4.429464581707821536e-01,3.941765028216082795e-02,2.748018838912423267e-01,4.480940022762584518e-01,5.346933494622870819e-01,-3.032348487724744607e-02,-4.079337373049762155e-02
3.752744239500648282e-01,5.182572513228787814e-02,8.388681484037846525e-02,2.952485460673633932e-01,1.765655035409774420e-01,1.092079305328523819e-01,-2.317681142707633257e-01,5.326640193814689006e-01,3.422173041627214474e-01,2.785926941814512170e-01
4.917936782685333741e-01,1.939686201522086983e-01,2.969979121937001421e-01,1.331653369381625707e-01,-3.018354077089964171e-01,-8.293008393459808114e-02,-1.755035691803258913e-01,-5.251848387865851869e-02,-4.500822557679263203e-01,-3.829097023869645344e-01
4.108699331736005433e-01,-3.290814131573472356e-01,-3.452838933394514753e-01,4.020656875671713149e-02,5.047424315595546718e-01,-5.132504144676869329e-01,3.207591426499866172e-01,3.442214695838118343e-01,-8.487354664950567951e-02,-1.582129180188246165e-01
4.536464436453784832e-01,-3.470121799541072694e-01,-3.393024304922205581e-02,9.183549719923679577e-02,-2.686112450591989775e-01,2.763827378360133591e-01,-4.218333664765941404e-01,-1.282635013447588623e-01,2.157780205541353913e-01,6.326679316720507096e-02
2.212368479405265320e-01,2.796701106742474630e-01,-4.507010842727592337e-01,-1.957546722107294801e-01,2.180118774515003577e-01,-4.297333643836526162e-01,-4.159927194163108854e-01,-2.249847923844042752e-01,-3.333501451105245761e-01,-2.326332443261170391e-01
7.214452436511433753e-01,-2.296961778402339671e-01,8.662942159123139443e-04,-2.556123827418487759e-01,1.417242576612542382e-01,-3.741761772930626839e-01,-2.907794700032780358e-02,4.460346131732861319e-01,-2.253200843000956188e-01,-3.312488754528548213e-02
7.954180321189797676e-01,-2.662358644259524287e-01,6.606091924164585183e-02,-4.320427186823245225e-01,-2.428065268366761675e-01,-3.614867965098353397e-01,2.782382534761316806e-01,1.635542009724426094e-01,-2.980453695435011929e-01,1.688106462020079745e-01
-4.369371589658704175e-02,1.490022676365161391e-01,-8.801919306365404982e-02,-1.145024448919007010e-01,-1.336578704108059013e-01,-1.715322881799966059e-01,-3.609269248029562949e-01,-5.990693851686279547e-02,7.393604268718122208e-02,2.865555210278731835e-01
6.526524050412454425e-01,-1.621799385665676496e-01,-3.418856830533104629e-01,2.147467818751442881e-01,-3.610081266244064002e-01,2.052871407021575612e-01,1.235109584985354288e-02,6.825635406459266974e-02,1.547787322892372475e-01,-3.630710966339915635e-01
3.264131076956740540e-01,-3.493376199368911084e-01,3.755280008441024692e-02,1.403022830654492882e-02,-3.675774850959865891e-01,4.124023173142137288e-01,2.409228729023858429e-01,4.149789551259057407e-02,3.924140407545451681e-01,-8.723245106400570603e-02
3.847010789434525679e-01,1.025012638977993717e-01,1.041742022909854792e-01,-3.329304689292786890e-01,3.268330713655345221e-01,2.029703636325072280e-01,1.185185998497313709e-01,-1.988732316289701374e-01,-1.247067821860377984e-02,2.133073428361308699e-01
5.697627959324511049e-02,-3.403869471392482748e-01,-1.664129676724055429e-01,-2.646620537517854754e-01,-3.958321154806235254e-01,-3.459172550446042993e-01,1.595968165024898577e-01,-2.451570861125900169e-01,3.410738792921472751e-01,-1.160077260619641337e-01
2.401693070223549498e-01,-4.545578248528310272e-01,2.352988692415314276e-01,-2.938748877476323185e-01,-6.494347093517727210e-02,2.664643937127509910e-01,1.750515733266060359e-01,-3.330189367599129535e-01,2.237331936980782310e-01,2.963382463654944954e-01
-1.051753832130298411e-01,-3.486094200561837275e-01,-2.621306209555156891e-02,-4.894416785513085455e-01,1.969291536192656622e-01,-2.934240754879556823e-01,-4.763681751917278051e-01,1.908864036446380752e-01,1.241104775959607637e-01,3.625243915004623951e-01
2.764420600865075683e-01,-3.749551060516474466e-01,1.429493786851813997e-01,-3.965477681412360456e-01,-3.068506009360899012e-01,2.563043487485067717e-01,1.207002002447489231e-01,2.889114999425561048e-01,3.208956757730433984e-01,1.423376727120774163e-02
-4.738346855947324077e-01,-2.555169456683653584e-01,2.883214870099871652e-01,-4.912982313721328542e-01,8.096029982724416152e-02,-1.111991520269226680e-01,-3.920065274744540251e-01,-3.811879421712867644e-01,-2.288370612244487456e-01,4.776949030334093904e-01
-4.412148485867936065e-01,-2.197345538468079840e-01,2.288765659426585108e-02,-3.871277876264172524e-01,9.229035078859264274e-02,1.802952549264897064e-01,2.892945638811310061e-01,2.216405799460340331e-01,-4.064084126642032446e-01,9.092141636979410302e-02
3.535905067170865695e-02,-4.949201895373800397e-01,-2.418394036817488046e-01,1.391530168481890650e-01,5.919962977790482750e-02,-8.816330325662613543e-02,-2.092508313484811866e-01,2.793384675853939902e-01,-4.343837661608773160e-01,-3.924005737842002350e-01
4.127802175106997096e-01,1.565112482271510119e-01,-4.840179293815066730e-01,-1.932879616513930310e-01,-2.000805962173209662e-01,3.681484427989701880e-01,3.228305491660511395e-01,-1.458419078412832859e-01,9.850868043797358919e-02,-4.769457268207632494e-01
-3.180015763674080009e-01,-4.192540663141639534e-01,9.109764251247706029e-03,3.586422762600396386e-01,3.386204894421883660e-01,2.862919493052130115e-01,-9.711330928488855901e-03,7.003016572887259261e-02,3.157925042021291206e-01,3.786126640941495647e-01
2.184256390671046322e-01,-8.978453722556258010e-02,1.130783846909582668e-01,2.018948421487068989e-01,-2.331140464744355933e-01,2.557540796887023404e-01,-1.525351317139000684e-01,3.097684782109423329e-01,-3.382846323847984310e-02,-9.638834268006360451e-02
4.115184988584002501e-01,-2.922317441466337762e-01,2.075079803590067773e-01,-8.295185979893968109e-02,1.123731503907029194e-01,2.654008056116358150e-01,3.736146164122013946e-01,3.650411568727765510e-01,2.203960528954936049e-01,2.835092777204333836e-01
4.047249011003260788e-02,3.232461864892019476e-01,-1.244321813142558603e-01,1.736004607218120943e-01,3.174883019802579587e-01,4.640950553180187010e-01,1.483444593475785056e-01,3.788915160678880123e-01,-2.257827897097548775e-01,2.593635856404229167e-02
1.787260934944230883e-01,-3.285358882254110213e-01,-5.244140477101976172e-01,5.100486057488566871e-01,-2.313233921579057120e-02,-1.266168025648951312e-01,-1.371431867300571261e-01,2.101289248650117236e-01,-2.854680439806683845e-01,4.007284570496947446e-02
3.571226652745419505e-01,-2.228506507880577969e-01,-6.069003019181576364e-02,-1.723131409694911020e-01,3.034417179465755399e-01,-2.422766314334749982e-01,4.627733568793776509e-01,2.559824376907292656e-02,1.835447111869965564e-01,8.878615967248887353e-02
2.135213078418092270e-01,-4.642463858181820613e-01,3.136630404339003642e-01,-2.426502576471073758e-01,-1.172730768796602235e-01,4.698267166364695768e-01,5.255390738156708874e-01,-4.417270977634368267e-01,-2.024657329290391605e-01,-3.462486910793154959e-01
3.298666220055377352e-01,-1.181663923553166740e-01,9.316326026257247539e-02,4.047483818164307467e-01,-4.189359586545675640e-01,-9.687178005786714619e-02,4.995909746952518771e-01,2.428762359113118274e-01,-3.938934815531356382e-01,-1.776514964793108886e-01
-4.564107328487326809e-02,-6.591661622692466249e-01,2.111298138485613596e-01,3.252103777157338005e-01,-1.771101173650368177e-01,-4.781875783137956581e-01,2.424444138280290872e-01,-2.392963709949100515e-01,5.519897583182401535e-01,-3.903627040215215116e-01
-2.316890757929596922e-01,-5.104781856202333934e-01,4.011605039862540800e-01,-3.139575610391381333e-01,4.630713670506128032e-01,-2.340908694662056366e-01,4.962667018994566526e-01,1.170652333833187425e-01,1.956689800329108053e-01,-3.673639325391553356e-01
-6.402249549894578617e-02,-4.191427303315863329e-01,-3.772975914962022892e-01,4.235671567339955312e-01,-3.724519387071155707e-01,1.976917429921896951e-02,3.571484561788468293e-01,2.183128780581689021e-01,3.934192623972080916e-01,-8.476934851071978028e-02
-2.404132800238925616e-01,-5.133902685735897142e-01,2.743775957297781010e-01,2.105133824348389693e-01,-4.021746821422703677e-01,8.106701883886989479e-02,3.438326299255716617e-02,1.722079621570022923e-01,-2.058676711384483382e-01,4.740578364815972168e-01
5.519329252515160766e-02,1.672798873449185195e-02,1.079841885110661842e-01,6.523707248374577272e-02,3.065994176640536861e-01,-8.991349005707925668e-02,2.602257798870387037e-02,1.286709985443240112e-01,-2.395815293915352640e-01,1.003831016761143752e-01
2.923576569276310488e-01,-5.290857752731997765e-01,-1.303378615627482917e-01,-3.392765008229579188e-02,-3.344405305405968032e-01,-3.178298106318551142e-01,-1.712039396677602632e-01,-7.349800490028736422e-02,9.194176985564787852e-02,5.082309293778245612e-02
4.196286749921573356e-01,-9.921875218408123323e-03,-8.505954437516471955e-02,-1.257992644251663683e-01,-3.346605969862803120e-01,-4.801819694682287198e-01,9.182162892224829398e-02,-2.532208906211148025e-01,-2.422885501776787798e-01,2.588150881970568418e-01
7.762354881840667631e-02,1.581028737509039550e-01,2.551207615214040048e-01,4.380765278047754063e-01,8.354602730410706779e-02,-1.301941925526395039e-01,3.622247303797389018e-01,-2.887037608982703230e-01,-3.743726028689831759e-02,-2.168502693854066909e-01
7.437532049818336155e-01,-3.991066477949122282e-01,2.169419457348437663e-01,-1.065479825494077271e-01,5.040363317709023461e-02,-2.759248085945691931e-01,3.190362337337996346e-01,4.079713896965674047e-03,3.382425214056578033e-02,-1.743004241204798854e-01
2.300138472351799801e-01,-3.969574365706847741e-01,-1.663071475014883116e-01,3.011491451334099012e-01,2.863783593764770430e-01,1.765598690503782930e-01,2.349498410072087826e-05,-3.614584580692193350e-01,-4.422062494236093239e-02,-1.930184473340961215e-01
6.487390055538451161e-01,3.078798169864785939e-01,1.731776736381077375e-01,-1.541222687854912066e-01,6.553524947343422613e-02,-1.441536643230380832e-01,-4.052789525651134817e-02,3.129416129489288045e-01,6.742949328462374825e-02,-4.928459872667132480e-01
-2.528196672633815090e-01,-4.089918477941409947e-01,1.711085957427483650e-01,3.938265418356274306e-01,-4.730347276311602789e-01,-7.080460757666309259e-03,3.336520144659983478e-01,-1.532502953288507885e-01,2.445301030067778547e-01,-4.052974035439455003e-01
-2.175606947217108844e-01,4.153945936104928571e-01,6.009124385048435490e-01,1.020746228381402276e-01,9.222030301762379478e-02,-4.544004887059730491e-01,3.630108337590493006e-01,-1.995758757661571514e-01,-2.160746820678859093e-01,-4.093064630220256128e-01
1.072972734811062090e-01,-4.102780242504964203e-01,4.386838470349778141e-01,-1.733064540251798846e-01,4.279413615217153577e-01,1.461710412963132810e-01,3.352062027568334379e-01,-2.531768264121108114e-01,-1.494893774254136415e-02,1.633965983912915865e-01
1.193058912858607212e-01,2.329881885693984023e-01,1.364387375881244979e-01,3.309350091669750471e-01,3.504903628000010096e-01,7.615979450662778427e-02,2.119881963220367482e-01,-1.974953296854375373e-01,2.727228472018924377e-01,1.782285208434018497e-01
3.875417851399312608e-01,-4.840432190748835128e-01,-2.255392580020765259e-01,2.805924461891902699e-01,2.691918951540360205e-01,1.628712509729652314e-01,-1.024140959173746868e-01,1.645717078709446335e-01,-4.582184300771286467e-01,2.130788071849988308e-01
-3.531065147213665600e-01,-1.919226081402881923e-01,3.696523286331905855e-01,-5.027505439907337115e-02,9.556554058925519068e-02,9.924603875375234696e-02,1.365241545826914038e-01,4.713617118452474997e-01,-4.552082067085657102e-01,3.391701489202256781e-01
-4.369239621521018302e-01,2.569279214844137349e-01,2.619319197741547603e-02,-4.720960188135469027e-01,-2.405968477101536884e-01,-2.880839884879581383e-02,-3.768633610387704669e-02,-4.622525375242260703e-01,-3.900298855221511207e-01,3.884372833527330315e-01
-3.134099390200659196e-02,-2.120068630893712780e-01,-3.982263517115638973e-01,-2.621149400014873843e-01,-1.013749462724006373e-01,1.551478457900201946e-01,3.212132366819291374e-01,3.226212351463490502e-01,-4.431915254578395746e-01,1.537578507986369913e-01
-1.798774816415492361e-01,2.238860976253908425e-02,-9.060262705024460517e-02,2.784698569067830531e-01,5.772963704582613487e-02,-2.952345605117460137e-01,-1.590643273405572822e-01,-2.972843466840872084e-01,5.280169435176958886e-02,4.007115250168009624e-01
-2.936265056330191747e-01,4.766740910060368597e-01,1.743345041660009087e-01,-3.422095076617385767e-01,4.599692411847010054e-01,6.413531552058300556e-02,1.437163284209543312e-01,7.270003383044758294e-02,-4.418734804659814053e-01,-9.339824255076810411e-02
1.986074463398067591e-01,1.908385915519661968e-01,3.659483572703015608e-01,-3.549843536809639821e-01,3.134760532435428970e-03,2.879590753006843751e-01,-1.742667280520092052e-02,1.858251219507064123e-01,6.976963135072622446e-02,-3.238147664712340279e-01
-2.972530714872937407e-01,-3.474237345723852899e-01,-4.592816338965200473e-01,5.168838307756022932e-01,9.760886703253622565e-02,-3.229225756060538077e-01,1.967834363233064016e-02,-7.189379661543103539e-02,2.032239087305524883e-01,-4.122818426302496952e-01
-1.308175533101024746e-01,-3.818701010244899274e-01,-1.652596587969760167e-01,-2.462133107437371737e-01,-1.119913993003186226e-01,-3.873662729126148840e-01,2.406167240972584831e-01,1.658066222956427332e-02,-1.791775358206348923e-01,2.177937316568007431e-01
-3.886453583415105384e-01,3.118417738628282976e-01,1.611411754429132592e-01,-8.862046718051476424e-02,2.846523811080730049e-01,4.434903817312428331e-01,-4.881210467319085228e-02,2.519046355054819775e-01,3.815023607958097085e-02,-1.272533134402771271e-01
-2.257559842720306409e-01,-4.804045127253441239e-01,-1.018584343437119871e-01,-3.310168255418009520e-01,-2.326898823105559844e-01,-4.430639327298516172e-01,-1.614729096745121106e-01,2.557327908431291652e-01,4.143139156197318540e-01,-4.299456830664522000e-01
-4.935122632670651543e-01,-3.213351144333810305e-01,-2.447327947858846664e-01,-4.079158796775571305e-02,5.214257429423260759e-02,2.984638447768750980e-01,5.439359634636670160e-01,-4.211685209286001319e-01,4.509937816932997889e-01,4.636719851710236484e-01
4.033852989709657000e-01,1.142485054002769645e-01,1.888809715479676521e-02,-2.106167332068069054e-01,5.125866846066868820e-01,-5.246276125649947941e-01,-3.573503584253869825e-01,-3.921350670635397329e-01,-4.038874665421133270e-01,2.640938814279413238e-01
-1.986761731298948008e-01,-2.743811207727934187e-01,-9.110762570165736873e-02,4.789124014627479387e-01,-2.170135929804728747e-01,5.643153871661484716e-02,4.856509809411087564e-01,-3.965171407653308999e-01,2.545248472755681779e-01,-5.323534819777555466e-02
2.685066548787525265e-01,-1.654633914150249185e-01,9.265804747024236621e-02,-1.584236332088212740e-01,-2.329695162334388947e-01,-6.643868323379131802e-01,3.137057677912645226e-01,4.799014505057552227e-01,-3.739302474200970616e-01,4.216432334557856376e-01
1.729375364727883946e-01,-9.369652554998537941e-02,-1.952891475201423699e-02,2.884584008154254531e-01,4.376289185929269632e-01,-1.096488747134820307e-01,3.867288643279366833e-01,-9.758905369341365488e-02,5.673277877505128464e-01,-2.393463848405388283e-01
5.443166671946025881e-01,-1.221556754155957158e-01,-1.327100463647769985e-02,5.106641645673036800e-01,3.382756516068478048e-01,-3.861636112038058233e-01,3.380923968918886358e-01,-1.699797213479179447e-01,-1.873073770794859705e-01,-1.028922840858774446e-01
-3.234388416143562650e-01,-2.030716521467535729e-01,-4.057455552912032637e-01,-3.635905765898258535e-01,1.717360794333963880e-01,-5.224693050704449782e-01,-3.262686943554435892e-01,-2.988413634748389169e-01,-6.475390566784174073e-02,-3.778493787684888972e-01
7.397262126834974749e-02,5.066142281621418414e-02,1.159546572332788988e-01,2.413706494930658031e-01,-5.900119542096219499e-02,-2.449349466164519595e-01,4.284588413052085043e-01,-7.119352353251684473e-01,4.435382461057782999e-01,-2.002875022822213080e-01
3.998185295254711447e-01,-1.461583675073112321e-01,-3.931765160132016934e-01,-2.218962405928900927e-01,1.308028095130550350e-01,1.875016646939756115e-01,1.872842121398190229e-01,-2.491142363101754229e-02,-2.929759084877123221e-01,3.150212893333843578e-01
1.113423279906642915e-01,-6.076428137266892682e-01,-5.043323043435771202e-01,1.589589531802179101e-01,-3.780376139112396339e-01,1.723568825631434098e-01,2.388472766729178298e-01,-3.975286483307163277e-01,-2.516697891613211002e-01,-1.229442092291787025e-01
-7.053127311456536264e-02,2.361023348216662321e-01,1.159491652714169790e-01,6.491196368475321554e-01,-4.001994497451494270e-01,-2.456294890051837765e-01,-1.476325307496381134e-01,-6.321701118214882731e-02,2.808687500861898889e-01,-5.277635602406740567e-01
-3.253472542181294613e-02,-2.000470954242064836e-01,-4.411325089213304906e-01,1.099713427350534345e-01,-2.644876485218385920e-01,4.994729157135494590e-01,3.068634013173427433e-01,-2.148150576380341292e-01,3.841266851651752301e-01,1.889266044501966835e-01
6.760889121022931048e-02,2.972740584198170222e-01,1.878867834420586830e-02,3.445400911473607275e-01,1.914817092558377121e-01,-2.906334203935470595e-01,3.856693816851232692e-01,2.790955885370510758e-01,-5.670442534849688687e-02,9.038755846632109958e-02
-6.924661257749172190e-03,-2.211039028745314661e-01,-3.237722805380938151e-01,4.989649575543705917e-01,-7.818356383593731695e-02,5.672460320272521006e-01,2.584456104135232080e-01,2.497375212299854930e-01,4.786952525755173160e-01,-2.865349850370977891e-01
2.574051283142673729e-01,-3.462051257469945797e-01,2.715406197477078787e-01,4.060983083803152427e-01,-1.121224050250828608e-01,3.535393036631461205e-01,-3.518391283829393479e-01,2.568368338127368644e-01,-3.762827790704239561e-01,2.717763201283190377e-01
1.306759337020269897e-02,5.249672475311426695e-02,6.901097608291717478e-02,2.732151763560722313e-01,1.392923512999038049e-01,1.773543424183780526e-01,4.511526470676860967e-01,4.451844148615594077e-02,-4.594735770325454882e-01,2.053050705539740672e-01
2.750927506060672489e-01,-3.550197875652400525e-01,9.751525370217721533e-02,-2.751419729045963547e-01,-7.153675328663650079e-02,3.235654927017967974e-01,-1.405812161657683523e-01,3.385587440451680585e-01,4.762102108130870093e-01,-8.273319758455178335e-03
1.979597546357539928e-01,-1.226174147480548621e-01,-2.854814480423831236e-01,-3.257555048194542557e-01,4.173194535178575970e-01,2.554786941699249692e-01,3.863239537066403551e-01,-2.245171182539652532e-01,1.137800118166017310e-01,-1.652375182670565287e-03
1.185548554695113888e-01,2.686813430328178764e-01,-8.346145347254695090e-02,2.037046945273198462e-01,-1.770849155888546966e-01,-1.904214324810159509e-01,3.063804002883720456e-01,3.453300797936592614e-01,4.696033400691109749e-01,-4.237336159372547262e-01
1.837508426735802447e-01,1.374767111179244113e-02,4.084364326460859784e-01,-3.382265011320608750e-01,2.454824809048117285e-02,-3.998268130104887241e-02,-4.744347296909247058e-01,-1.584349867984097826e-01,3.499048053225775612e-01,-3.149926159701774697e-01
4.843022162885055049e-01,4.349164138801653867e-01,4.792231077178614289e-03,-3.978921714994744230e-01,-4.395414010098374624e-01,1.098667196082491783e-02,-2.299338592168544415e-01,2.675878621496832754e-01,4.453022352285117558e-01,-3.426629808159011858e-01
3.791183880897110448e-01,1.266486921089207129e-01,3.659841201320083726e-01,3.515661142604551981e-01,4.092464142121965409e-01,9.183580356478329709e-04,2.366239377194798987e-01,1.690691668043425300e-01,2.182660914736244925e-04,-1.057525732854310146e-01
-1.672137304875888353e-01,4.254965013183560907e-01,-3.737874166708234358e-01,-4.093953524495215768e-01,-3.529493803884543590e-01,3.892687437603850609e-01,4.218591187245289698e-01,-9.278622310433273790e-02,-1.395408659171234744e-01,4.747923188283876827e-01
3.730938509743411124e-01,1.598626369328926822e-01,4.486022370571626228e-01,3.663093826242279083e-01,3.928292292896683191e-02,-1.829984396121770995e-01,-4.109977157012398297e-01,-1.985665792284404818e-01,1.486028676844979579e-01,-8.552111996872958921e-02
-2.707318542844936449e-01,3.282420707228659862e-01,2.315692252489193748e-01,-2.673825264014955683e-01,-1.900164673293078949e-02,-4.711876717292759476e-01,-2.053910865352229775e-01,2.684207942299743910e-01,-1.696899068071905103e-01,-4.791544339105561767e-01
3.703905692396592397e-01,2.117791119556477752e-01,-2.526995148406111502e-01,-2.959974447387718199e-01,3.710076027234268103e-01,4.580626378387536723e-01,-3.958619074170057761e-01,-4.391823591829319834e-02,-3.455581700798352474e-01,-1.314541981024884565e-01
4.645395651813486945e-03,1.772299923443389560e-02,1.442491075346485907e-01,1.585175217029917150e-01,-3.501588647349762051e-01,3.044315261520502136e-01,1.490065707700496400e-01,4.429997866013157815e-01,-2.617339750790999633e-02,-4.341124556247348276e-01
-3.267645168085033802e-01,-4.679973984667618603e-01,-3.711443908000619518e-01,5.466746479358511879e-01,-2.692154829139413175e-01,-3.014062390739002950e-01,3.483204732139766335e-01,4.823214119072271600e-01,-3.026842170123517639e-01,2.828785995564533917e-01
-2.504620629932954867e-01,-1.457475412038893026e-01,-5.037141504901423428e-01,-1.692785337070113749e-01,2.235675817012930389e-01,-4.495721808639224215e-01,-3.109736544642164868e-01,9.683286949015844358e-02,-6.548643103513025754e-02,-4.518704646539387255e-03
3.304555935125007560e-01,7.517889299723984342e-02,-4.098451507561316487e-01,2.282636438022453418e-01,-1.413887684090061325e-01,-1.048919653600461077e-01,2.898644030251374404e-01,-2.462551615481497480e-01,3.688886370405513038e-01,5.712184793958996476e-01
-1.311284268661510877e-01,1.075449671044367839e-02,1.886580229383154339e-01,-1.515211294223709794e-02,1.683514424537054244e-01,-4.870323381720293582e-02,-4.559958616661802799e-01,-1.787445620627704512e-01,-3.198905243809441745e-01,-1.177313996585756771e-02
-2.255296524461353203e-01,-3.993323246240255142e-01,4.813770058888970360e-01,-2.138004451293556429e-01,4.471855191636366356e-01,-5.435719926874791330e-01,-1.612306963607287869e-01,3.240302286594533288e-02,3.689511659362603169e-01,3.751310808997278534e-01
2.505885476889984642e-01,-4.012533524942258900e-01,2.387974713499039503e-01,7.042500884097123437e-02,2.115239501684895718e-01,-5.277895806780412702e-01,-2.435383109597855644e-01,-1.881317486774776726e-01,-2.545427129477031980e-01,5.557454107546735272e-03
2.173820786327139709e-01,-7.301894966619376648e-02,-2.275643442320682275e-01,-1.032157932086142232e-01,5.354859696624144488e-02,-2.299391983666590200e-01,-2.179271686703085631e-01,3.716333241240784568e-01,-3.398201241566679576e-01,-2.132597451589006432e-01
-1.534560841282526511e-01,9.114523343013321288e-02,2.086344307554141853e-01,3.494955240653070394e-01,-5.510536726809471542e-02,-4.504793394713803578e-01,3.112602079589465998e-01,-3.937281962235795740e-01,-1.445087655896627188e-01,9.543358710405328016e-02
2.210655118688978349e-01,-4.855995012202817818e-01,-2.493630110307906989e-01,-8.170291523434149161e-02,-4.998315543758842239e-01,-3.650527782150608802e-01,4.104073279684304909e-01,-1.437917061348516039e-02,-5.537721020541479244e-02,-1.448349974990950362e-01
-6.086653637930537764e-02,-2.042975143216762268e-01,1.097076960449650147e-02,3.257445868517462595e-02,-1.499093472731327648e-01,4.463850034823647062e-01,3.231843762526535185e-02,-6.778332340945163459e-01,5.758330529402511111e-01,-4.214872073025179022e-02
3.427985106349047961e-01,4.088715246003348236e-01,-2.962095968130789569e-01,-3.763862289217436569e-02,1.387933734655419082e-01,2.345263135395724285e-01,5.574854140303995287e-01,1.008057175711119663e-01,-1.873613504496176030e-01,9.948634275276709016e-02
2.465232155616252641e-01,2.474201342760254663e-01,-5.570353219954644608e-01,3.478057308184775431e-01,-4.422043336166437966e-01,6.448517612254131004e-01,4.801063286672616753e-02,-2.423988722700925469e-01,1.392030844614371710e-01,3.229156172030481220e-01
1.406341049517733088e-01,8.075711969714799432e-02,-3.965282233593490635e-01,1.740952554181028622e-01,-3.198666206580244586e-01,1.055596846665311089e-02,2.375113498857459593e-01,2.412447562141664392e-01,-3.769399535541639867e-01,-3.506726756542126733e-01
5.298139559676647847e-01,-4.031596570174417193e-01,-1.942500373350279086e-01,-7.835439082650001719e-02,3.145213170725446039e-01,2.621432370099606723e-01,5.038257344528652704e-01,2.223315789300350509e-01,-3.089335968675008259e-01,6.530461250093050340e-02
-1.431435431170957617e-01,1.299257102582550560e-01,-4.993274756303848760e-01,4.415762546658780208e-01,2.825211535748136105e-01,-5.212134519907328511e-02,3.401980295795752340e-01,-2.382998494418479551e-01,-1.324950979395462525e-01,-1.812231252158275630e-01
2.201745793393137807e-01,4.386882123505845832e-01,-3.267484487833504092e-01,4.566734288535306274e-01,4.598681930307568222e-01,-3.509283575520193432e-01,5.065125457015440258e-01,-4.414920427662491487e-01,1.058257884703576318e-01,2.658763839499527770e-01
-1.927121433951266283e-01,2.583936098028181139e-01,1.846325623788490355e-01,-4.229889357727836252e-01,1.699842968350577521e-01,1.474705374225914745e-01,-3.219193017295581272e-01,-6.450662290020538203e-02,-2.547824198683193431e-01,-1.533646049030776282e-01
-2.831693532524257595e-01,-4.010560562664772233e-01,3.833655219169930239e-01,3.843292653716213758e-01,1.739727890967131818e-01,4.355152450996091495e-01,-3.983090816996626704e-01,-4.681062709691426460e-01,-3.923166820138433430e-01,1.739681067726369657e-01
-3.260832183322318611e-01,-4.893864816970105447e-01,3.887421556647294510e-03,2.963905680717770358e-02,-1.707691219805944349e-01,-3.680128925733764933e-01,6.512025539558917442e-02,-1.803424614232734813e-01,9.785675799869716918e-02,6.040153791375581921e-02
4.345190949282148329e-01,-3.758675806866121905e-01,8.551948177792738359e-02,8.457254399249013177e-02,-1.600993767270830481e-01,8.338669823821844018e-03,1.475207437207156080e-01,3.190044573198125843e-01,1.350792383291369303e-01,4.062885216988335602e-01
4.562686359714136497e-01,-9.758609069818538484e-02,-2.783507905007173364e-02,-1.027304427183151209e-01,3.561216832835808477e-01,3.796948784110926733e-01,4.945092791598506010e-01,8.246687196852681145e-02,2.179511799848377340e-01,3.206652767362086487e-01
4.545079201861409318e-02,-3.924639789639344095e-02,4.278321479226540602e-01,8.921770872370038408e-02,4.613948033306756735e-01,-2.117411578883938716e-01,-1.151813761667215379e-02,-2.424600515607270093e-02,1.229912581706123775e-01,-4.735376551802431555e-01
4.305240864099154074e-01,1.910035514816449398e-01,-6.206535723902850687e-02,-6.125938778544832986e-02,4.886368639123095381e-01,-3.680442936235889806e-01,4.006341784853873489e-01,-3.019277146229936704e-01,1.526437540755799793e-01,3.070364810078939355e-01
4.015175694146592145e-01,7.560785963421418066e-02,1.876794510592823539e-01,-1.641433636771005289e-01,-2.405329523961446392e-01,-3.023817294860362548e-01,3.257757840038084662e-01,7.050804812338325178e-02,2.257396486095802068e-01,-1.821659318740866951e-01
3.598969570451777955e-02,-3.625434125650822126e-01,-6.146513783015820215e-02,-1.625470286968696554e-01,9.703407362223163968e-02,-2.901157597876238281e-01,-2.135920955528926024e-01,1.719133164135921432e-01,9.212451661003930037e-02,-2.322361546248030706e-01
5.506401007001370668e-02,-4.058697815898562045e-01,-6.717983313571361526e-02,1.528338785409069922e-01,-1.472968914824236697e-01,2.243131595848664173e-01,-1.647467044236613706e-02,-3.069654242169555514e-01,3.076087218465933804e-01,-2.586459132601543476e-01
4.022190298991359936e-01,1.861061118057522890e-01,4.409068788234692393e-01,3.256033823657531467e-01,-1.479237200436037680e-01,-2.170910982404101741e-01,2.289796677804173120e-01,4.595136198851059728e-01,4.052229099095672193e-01,-3.846360771297577807e-01
4.328037001590471777e-01,4.047669079350693644e-01,3.276967192644369420e-01,-6.623469698583747678e-02,-1.691707472553370326e-02,9.562241979079011411e-02,-4.324559939956572341e-02,-2.999265132923306099e-01,2.490031551413013633e-01,-9.613806730327212682e-03
-1.146460122232894618e-01,4.836171738342391613e-02,4.157698916641858200e-01,-1.838158021354672211e-01,-3.495904291314216872e-01,-8.137691435171977294e-02,1.665777537592063873e-01,-2.584571620590366270e-01,-2.171528203371069984e-02,-2.732686258609038910e-01
2.753791368644918636e-02,-2.639823839623268303e-02,-4.027762846749523007e-01,5.300341924417049100e-01,1.256901750772146109e-01,-9.201165306860689674e-02,3.273084612416378159e-01,-3.753641381735550175e-01,2.254813652533713964e-01,-2.141165539498882109e-01
-4.099071747972580226e-01,-8.965543216605149912e-02,3.205488308733084324e-02,6.860150500707112853e-02,-8.105261449756677450e-02,-4.017495514563246828e-01,-3.461959148655638363e-01,1.378161889162441145e-01,-1.783374076084440762e-01,2.822340409031017794e-01
1.947583159759207760e-01,3.367409002735470835e-01,1.741137691797923770e-01,-1.891593149154477960e-01,-3.040079477189785440e-01,-5.813101153963020629e-01,2.496537424993290899e-01,2.911453421405493791e-01,7.618859405039858645e-02,-5.066781652137872932e-02
-1.194916885070335943e-01,-1.912507109137831507e-02,1.668894094614569723e-01,2.517358616548875244e-02,1.425954454245727775e-02,-3.339867895345275950e-01,1.557444537440142718e-01,-2.086002745278009163e-01,-1.939361109363464397e-01,1.958346335155377108e-02
1.447389206551969454e-01,-3.829591605196848159e-01,6.706803206049709587e-01,4.790445380211124093e-01,-3.406206099199210469e-01,1.649108205570689878e-01,7.127009970089913382e-02,2.045223628858198472e-01,2.471400608479162597e-01,4.523994427727046630e-01
-2.987745205715816588e-01,-4.564635609637308633e-01,1.127811016117217097e-01,-3.832225530109963363e-01,2.865056526362188549e-01,-9.837456534492416971e-02,3.499862752702455615e-01,4.533082756579446260e-01,3.005909143799184377e-02,5.088052894744148347e-01
2.963701413378758143e-01,4.557521176568862242e-01,-3.208012157133394160e-02,1.509047974329150998e-01,-3.102227898782699000e-01,2.011708357419109833e-02,1.864757448818823715e-01,2.162785781680011121e-01,3.024553439269547228e-01,1.642818174342041693e-01
4.097628992138805382e-01,6.007553509120032720e-01,-3.687635897687508990e-01,-4.337003551425907544e-01,8.050350641185421985e-02,-1.661444585929469919e-01,5.445673477854674482e-01,-3.060463565226250252e-02,1.067406861339584012e-01,-7.293628877385674447e-02
1.623054913406183630e-01,1.082493605958961963e-01,-7.993828057183868796e-02,1.010199923683335471e-01,6.109716278149253388e-02,1.793678600148454830e-02,1.480451526079752493e-02,-5.984277965787081904e-02,-2.446135106921507318e-01,-1.708400829612401195e-02
2.840265923590377106e-01,4.195747643251111492e-01,-1.158413819720483656e-01,2.136613395183469266e-01,-3.463899427886935611e-01,1.197472104521331293e-01,-2.430425539883927233e-01,-4.032271825943288812e-01,6.111864804467573992e-02,-1.150572550448773768e-02
4.740411261531004561e-01,-1.909276107609931550e-01,4.500210268441547784e-02,7.804298085403368335e-01,-3.463660758288024388e-02,-1.951144285832545622e-02,5.919669569947181298e-01,2.787030854258235602e-01,-2.318309635362241772e-01,9.143444975580816703e-02
-2.591256295374466667e-01,2.976193288070304588e-01,-1.551729582344460456e-01,3.824674307170692900e-01,2.484379296764369083e-01,3.540089988766744744e-01,6.982027027400798669e-02,1.938948189055967330e-01,5.700652619384873748e-02,-2.874968705476508846e-01
-3.178820307514103050e-01,3.569673745138451371e-01,2.551271254123146370e-01,1.850199440582806498e-01,-1.775364550203068215e-01,-1.922833196146594148e-01,-1.822401238752579811e-01,-4.695389517160451498e-01,4.901180718045176632e-01,-8.057978266155502167e-02
-1.037502370985101674e-01,3.734202647688296128e-01,3.680643982588882035e-01,-2.402662575011893231e-01,-4.373774781419427771e-01,-8.533075706889217682e-02,3.555176863735091952e-02,2.124579731531321403e-01,5.139481358640484165e-01,1.754670736084012750e-01
-4.082134361101055916e-04,-3.030947765190611931e-01,2.924570085907932659e-01,6.762784636433082086e-02,5.946629632781467167e-01,3.876618105339628695e-01,-2.018838058949578088e-02,-5.491734955410161323e-01,4.014130372876115738e-01,2.843072215961290131e-02
3.806412269745714227e-01,-2.509144015489843671e-01,1.765112136297406487e-01,-4.198761260162270359e-01,-9.135187381048463784e-02,-4.033005988768885164e-01,4.863219342871266671e-02,-2.313237058291905679e-01,3.997184108920966983e-01,-5.639142362804684394e-01
-4.271468654858014136e-02,3.577555029061810221e-01,-1.248944246538909869e-01,6.473119891269761561e-02,-1.589827756408468962e-01,4.282637283862652383e-02,-4.243772334313157812e-01,-3.470014039348044976e-01,9.556211169585766829e-02,-1.131296934289197642e-01
-2.901937473474900386e-01,4.323008020612272295e-01,1.142423681421200765e-02,3.095509748641401826e-01,4.738607934257331178e-01,-2.679728388544284634e-01,6.702817997814970730e-02,5.613066533177932943e-02,4.101402086541020009e-01,-2.573384092033611514e-01
3.193878595357090844e-01,4.822697145999055302e-02,4.590777817897357949e-01,-4.315902336134355699e-01,-1.966639152306879079e-01,8.827651066277757141e-02,-3.105830022439877158e-01,2.281887048221743568e-04,3.941297385999588121e-01,-7.800312892913809082e-02
-4.109013823419166989e-01,-4.950020389644077534e-01,-3.330433031674770450e-01,-9.388831931638184913e-02,-1.641269936443185418e-01,4.079358522031599210e-01,3.176042874476958655e-01,1.473776375571632935e-01,-1.815783519354741693e-01,4.662367378232503690e-01
-9.026755015226331502e-02,3.255268191576258241e-01,3.746455130714603232e-01,8.698689131575584876e-02,1.752544395716315040e-01,4.121962073686162298e-01,-3.355298414196190016e-01,-1.440928441808607130e-01,-4.275362162481462502e-01,-4.582775225145974130e-01
-3.286762979050215638e-01,3.487553222861840552e-01,2.732690522979077108e-01,2.101703611859501719e-01,-5.299511761579778907e-02,1.693608499322001582e-01,4.333032256227607737e-02,-2.570752635371442718e-01,-6.330799593847222240e-02,-2.229277825627702658e-01
1.166712686795740722e-01,2.847151504310332926e-01,3.309510129743312712e-01,3.114236437433269833e-01,3.347058064532287824e-01,-9.895368494429560013e-02,4.257448265536824539e-01,-2.328265715692220406e-01,-3.830014902504124130e-01,2.350166672094781140e-01
-1.162596892118246822e-01,-4.372287291871271853e-01,2.629746057555672895e-02,-3.039068339315582623e-01,-5.943838667225270767e-02,-3.814138424288138901e-02,4.861360051183358233e-01,3.441782072928503515e-03,-1.106540121798598036e-01,2.685961983518786456e-01
3.846001822607105769e-01,-1.633667593565695797e-01,-4.202741968918917159e-01,1.934826226575012131e-01,3.939190623618459286e-01,3.738561496948470397e-01,-3.781485971046321670e-01,1.778998673338369474e-01,-1.027781539378171405e-01,3.966848481676474303e-01
2.169213977923356018e-01,2.314365077576049090e-01,1.147794190151742860e-01,-3.716893580618527149e-01,1.938468850978936342e-01,-2.746096238174408621e-01,-3.959936454612744683e-01,4.631673352346088457e-01,3.996078061442971396e-01,-4.961691278649878190e-02
1.430851030487428899e-01,1.499864628553693735e-01,-2.898658799665912444e-02,-2.981113200347016434e-01,3.897505717584941465e-01,3.350694751312182085e-01,-3.867093410648825280e-01,-6.411655612273003957e-02,3.853429050940406775e-01,4.536802743430511375e-01
-1.558949104938228414e-01,1.762392474166047107e-01,-4.236508795220718104e-01,5.239542495885871620e-01,4.831959712415609398e-01,1.819794967751060810e-01,-1.987616171080403005e-01,-2.253294293519563229e-01,4.598750707741260935e-01,1.877152830816043450e-01
-2.743893496278022037e-01,2.187679172445784470e-01,3.913689293039211425e-01,-1.978489335222778367e-01,-1.974889785213870541e-01,1.092716642333868421e-01,-4.257691191334905256e-01,-3.277664039287636055e-01,-5.724330046923899878e-02,4.033488917036556765e-02
6.106549471453626143e-02,-2.726099334981735983e-02,-3.069040671691383171e-01,3.977175290236161231e-01,-1.500240675982429106e-01,7.522588484675640785e-02,8.528803178223916259e-02,-2.076710407754711329e-01,-2.193247213720217748e-01,9.428478553819272245e-02
-5.088418652607481496e-01,-9.987991849688274137e-02,-6.877787265473929434e-02,6.985696676137179671e-03,-2.609710895644182238e-01,-3.377729570791168645e-01,-1.947479090226871823e-01,-2.817033276372162831e-01,3.748516633411504428e-01,4.226051968798950620e-01
2.870077538358587962e-02,3.956760897361558671e-01,4.598364053592735035e-01,1.993108203070221573e-01,2.572053523228319885e-02,-5.941315786749687966e-01,-3.377457317799932301e-01,-4.893800539901759644e-02,-7.017155547948861205e-02,-3.002345759167653894e-01
-3.916090054187055386e-02,-2.975055885902156971e-01,5.569935930917699896e-01,3.988425865552203686e-01,3.295735043108831697e-01,-3.893315844080474930e-01,-2.899244311823370168e-01,2.002383643169063365e-01,1.627498988462944829e-01,-3.470657990789398628e-01
-3.851927833631628717e-01,2.443317277242649799e-01,4.197381537736208923e-01,2.271864751999573828e-01,-1.619946801812097159e-01,1.812314570101167532e-01,-4.939916063958266212e-01,6.837941761941949970e-02,7.938159635356446808e-02,2.943052597196522124e-01
7.729396704865179601e-02,-9.735359370731409834e-02,4.596629870097427850e-01,-7.246095000435585076e-01,-2.002852760566097845e-01,-3.767473946024288423e-01,-4.599159751487229553e-01,-2.805175179795397766e-01,-4.137182447753282588e-01,6.214356605199790051e-01
3.344341846086275605e-01,2.890530933318458673e-01,1.500375029327150576e-02,-1.139661136771247252e-01,-6.068472280668707475e-01,-5.105605314437069442e-01,2.266569676136058198e-01,1.026810488583290160e-01,-4.077578744516592857e-01,1.600088684329732114e-01
-1.063273068112262770e-01,1.398518660168256711e-01,3.558586868034768758e-01,-3.204012252642550185e-01,-4.442530880948308281e-01,1.873826823589911372e-01,5.450418342018858303e-02,-3.399853473453482433e-01,2.725166636872132231e-01,-1.235215463121793755e-01
1.113830390116804653e-01,6.480826768428099224e-03,1.291277791771441863e-01,5.134089779122960606e-02,-4.606920665723158170e-01,8.284042929483580175e-02,4.586687439338625605e-02,1.073145871501190868e-01,-1.442580468403083238e-01,2.903122074540991360e-01
-1.754373372623119487e-01,3.178945789124652532e-01,9.987446520734546973e-02,2.039230895783053776e-01,-2.006511041239086579e-01,-8.660660656532336021e-03,-8.537263630398289616e-02,5.144652509191982581e-01,1.427079702534303218e-01,-2.746417780239051587e-01
3.597655008540651123e-01,-2.058003946191442890e-01,2.987892319539283900e-02,2.307291211296775557e-01,1.033823824218123300e-01,-4.232621859165027756e-01,2.144327819912536237e-01,-1.500254827097049770e-01,3.161839296199003835e-01,-9.370310334375971106e-02
2.205112857567112505e-01,3.034990094817036632e-01,1.378335640614058721e-01,-9.100083050909604787e-03,3.023224328416710960e-01,-3.891358710518071362e-01,3.750139773080973238e-01,3.487052881112964187e-01,3.601085511028134789e-01,-7.760106252920774550e-02
2.836292708693206599e-01,-3.043426897166802772e-02,3.645903661745013014e-01,4.244244837228768885e-01,5.388902154703252567e-02,2.808154482601658564e-01,1.851970640009175939e-01,1.247135328710416158e-01,2.479139403064984648e-01,-5.523910993558681648e-01
2.100141288265234829e-01,-3.317344954618671737e-01,-2.917864517149444392e-01,4.450039820796005130e-01,4.861452364993049113e-01,1.594287293916993586e-01,8.739047062876756367e-02,-1.146801082707300384e-01,-6.237642597891252666e-02,-1.237154277428683356e-02
1.566885438306424849e-01,4.620414431597515970e-01,-2.460555551215574677e-01,-2.556679225209632089e-01,8.399015641032740688e-04,5.001705130044331593e-01,3.130156543218479137e-01,-4.587942955277284907e-01,-4.275048123450453375e-01,2.745502537298076806e-01
-4.570995913805286359e-01,2.270499036960440531e-01,5.849159632024165251e-02,-1.611512379517767990e-01,4.462247738031608901e-01,3.925947793082744663e-01,-1.824875106242932477e-01,-9.660074973074860016e-02,-3.474939576259528790e-02,-2.757096536111386942e-01
2.666369690821386862e-01,-3.954589963282880705e-01,-1.444798241985817133e-01,-1.599413412510237442e-01,-1.490876230025687532e-01,6.533915764219447309e-02,-1.713340248504644989e-02,-4.582357665515858214e-01,-2.083681707057904453e-01,3.258541331908495486e-01
-3.116479488073439080e-02,-4.202862713766225555e-01,2.138149898014059247e-01,-4.661870905633073159e-01,-2.608076761943628821e-02,-1.022733944280641016e-01,3.785744288052409617e-02,3.610537759947953229e-01,4.328229758024521034e-01,9.125823086100512405e-02
2.152489683480945659e-01,-4.506865475112986630e-02,4.427030055354415350e-02,2.849961684029219122e-01,-4.617964280818427913e-01,-2.650178471042068939e-01,4.524862716841370758e-01,-1.093265555862257959e-01,3.375568808666060822e-02,5.679058343779003204e-02
1.087325847002684927e-02,-3.437006096367067887e-01,-4.414724082519659865e-01,1.739002325038642091e-02,4.057894974218829304e-02,-2.429299931701865145e-01,1.747358363875589071e-01,-2.325454279778360958e-02,-2.047273972107963580e-01,2.993683757296723424e-01
-4.493164177462335429e-01,-6.577404187500711374e-02,-3.423660611793806208e-01,-4.745581007651844541e-01,-4.892880132138539007e-01,2.485649584742152252e-01,-4.645949712242898877e-01,4.829345550182949642e-01,-3.497880989250820583e-01,4.086377834196485148e-01
5.810829169850532938e-02,-1.395736954978351284e-02,-1.537532980080308365e-01,4.411181583744864798e-01,-5.565557241970795627e-02,1.323905599121003307e-01,-2.364042430549593010e-01,-4.579565550731152790e-01,-4.002237811661557010e-01,2.042323957535188139e-01
-5.088669177059701454e-02,3.853566820946142113e-01,2.010733777184827153e-01,-1.876667320233492420e-01,-2.557678198891255028e-01,-2.008553189524365512e-01,-3.899884061500794585e-01,-1.826579180857516582e-01,-2.280285703719153734e-01,-3.642612079690404903e-01
4.702856699703628629e-01,-1.086196416962385558e-01,2.309321285931689172e-01,-3.958956467118762701e-01,-3.926890602902632366e-01,3.353496813952311362e-01,4.360118516599704730e-01,1.542139345892329372e-01,-1.568704505702436247e-01,9.126039258792749409e-02
-3.585083660192544541e-01,-2.136891048801959903e-01,6.945884339868796387e-02,-4.643131998491731860e-01,7.960871023053245343e-02,5.252534772835097676e-02,-3.166390937500054292e-01,2.290243841891309307e-01,3.807296844387117463e-01,4.690490331859452355e-02
-2.572658052451642363e-01,5.434479136438146590e-02,-9.867436221710247646e-02,4.746549777742234411e-01,-2.349927347814109724e-01,4.336396539692018992e-01,-1.751460127092602792e-01,4.166001882041388549e-01,4.417212204456367197e-01,3.375870775898738851e-01
3.686035077626805267e-01,-4.685113610549141439e-01,2.215045462592778180e-01,1.170214559454534481e-01,-2.292498626503333414e-01,-1.623247639705203138e-01,-6.528668367956114160e-01,-4.172454702519307057e-01,-3.133663385925116729e-01,-3.277609579363522374e-01
1.062511164181646761e-01,2.775923160770260023e-01,4.572905751663541296e-01,2.535202647651030872e-01,3.227726947575025596e-02,3.715966495432529437e-01,-6.960218705413975249e-01,3.174366934319171607e-01,-3.345936490960369630e-02,4.273511070580686133e-01
1.351894505633265686e-01,-4.044080877104158644e-01,-1.229459634883762753e-01,2.311999113454482335e-01,4.072953703337731796e-02,-9.031416336008640799e-02,-5.223658024996661320e-01,-1.636626291480345330e-01,5.296731038449357110e-01,-2.194348367957306145e-01
-2.532233165370332273e-01,1.352590552822773018e-01,-1.212638552934484498e-01,2.776534884835453743e-01,-3.798068462904222731e-01,1.522776214112696834e-02,-5.229399317762238875e-01,1.535336156669355745e-01,-1.145941239426749580e-01,6.390322000495714250e-02
-3.999343144007868056e-01,3.739041876825204835e-01,1.986756961919499201e-02,1.688534313857590619e-01,2.235106152921129130e-01,-3.915994253045625428e-01,-7.406759841137685596e-01,5.937570295289449351e-01,3.065761752265681594e-01,2.296905166534531639e-01
-3.295260615825841843e-01,4.080426423800784796e-01,4.366200438974683351e-01,-3.917591448994568459e-01,1.999008878841776471e-01,2.711800437452864254e-01,-6.190269496597612386e-01,4.266387629868637066e-01,3.282723353414042644e-01,3.063945163433448582e-01
2.568065009330223331e-02,4.613065756854886623e-01,5.137370895147489458e-01,3.012785297600579781e-01,-3.858383924450055624e-01,-4.564918715014222306e-01,1.370287058383447554e-01,9.412837361124609670e-02,7.972326774156854312e-02,-1.840978700687357084e-01
5.590203678333303342e-05,6.592108579439103222e-01,-2.093207521961458206e-01,1.594407894468883105e-02,-3.103742243235492748e-01,2.477248498691215217e-01,-1.102301455441257738e-01,2.195510628779031026e-01,2.998611036385008810e-01,3.232656476413597185e-02
-1.601957813799992081e-01,1.738877387305407807e-01,2.305603897265864344e-01,-4.114993639193372243e-01,-4.640913065319876019e-01,-2.012312460565256200e-01,4.516753298410348116e-01,4.290597867496415141e-02,4.231279298312178305e-01,-1.430151760495770585e-01
2.638757740115341699e-01,4.933461043707925708e-01,-1.828836711899738676e-01,-3.054883881226196918e-01,-6.488830075842507705e-01,3.184208286994414938e-01,-3.089510315191280054e-01,-1.820052921614526420e-01,9.267452457708726110e-02,1.270782541672970389e-01
-8.715600729745634490e-02,2.656215045016585008e-01,-2.784131528459072857e-01,6.512232980180303610e-01,1.273597941916048137e-01,-8.662696145087958599e-02,-3.914340270055208237e-01,3.290696860198708551e-01,-7.669313383890168090e-02,4.460459094332126506e-01
-2.531122227477584641e-01,5.359581535802081520e-01,-6.584897065403861292e-03,4.061519854283137665e-01,-2.017679197806000746e-01,4.332433614907393871e-01,2.158963522456660844e-01,4.912891986904406871e-01,4.384989189679620036e-01,1.514475771655274553e-03
1.826347968749125598e-04,3.707422991944631652e-01,-4.892878907342576578e-01,4.469042560123828722e-01,-3.761031010042171774e-01,-3.924885709997404104e-02,-1.302305922175458000e-02,-1.741974155368344324e-01,1.071653334474255703e-01,2.496755966566252538e-02
3.256904558751917977e-01,1.574138824160111194e-01,-6.317992070884009825e-01,-1.276363364995818928e-01,3.050448473111440628e-01,1.848103253054305672e-01,-1.090334909386045242e-01,4.729021354506960928e-01,-9.837775028710148834e-03,-7.704624050565919702e-03
-3.957930368466899829e-01,-2.665855842536052900e-01,-4.826945245356749070e-01,5.191003344428323230e-01,7.290532580755740288e-02,2.730237468919392563e-01,1.006997003633117310e-01,9.482987105116343074e-02,-4.477116291413445470e-01,-3.837070735535120236e-01
4.188045835596777011e-01,-3.031987073440409880e-02,-1.652880683706812182e-01,1.392786032479821912e-01,7.874321143918665278e-02,2.811325292553232824e-01,1.176245348449367067e-01,-3.449106981314739029e-01,2.159788183128336925e-01,-5.477332225044020397e-01
-2.978884455617427651e-01,2.322141663991729790e-02,-7.184879264950476407e-02,-2.376259415492421034e-01,-1.957036722519284455e-01,-2.471077753962854229e-01,-5.281768890415862172e-01,-4.934728607773756354e-02,-3.473860122113007765e-01,8.273404284139562401e-03
1.739422765207617461e-01,1.983892602896592250e-01,-2.113476419212917123e-01,6.331641440559433384e-03,-4.039017724247211394e-01,4.576828355540852877e-01,-3.440089797794067539e-01,3.390783428734242544e-01,-3.040809077288297302e-01,-4.188593134192012402e-01
4.667664340404050760e-01,-8.821341735110486970e-02,6.908096830491163021e-02,3.977560973738509253e-01,-2.302694571867177908e-01,-4.441056523809658874e-01,-5.534558632928201494e-01,-4.125493777584774979e-01,-4.582460829670801372e-01,-2.233138808315192694e-02
6.860792616374133956e-02,-4.353891056593056086e-01,3.751875112236340015e-02,4.579611543821685560e-01,-2.495436292764081077e-01,-2.921212015383440330e-01,3.119277669912618456e-01,2.604402271334032085e-03,3.789383524506535483e-01,-1.944780773817971209e-01
-3.085733196881680906e-01,-4.621727864816893572e-01,2.393818059655003216e-01,3.877396751477292236e-01,1.006688988636677273e-01,-6.709757276969452455e-02,-3.609387392298581410e-01,-7.108863681760872744e-02,3.446699023572457610e-01,2.676944134131439834e-01
1.997304704755665794e-01,-3.280677730659424252e-01,-2.087462232256378364e-02,2.025773352628142954e-01,-3.217845036605815889e-01,-2.555671272353940426e-01,-2.242482437215860547e-01,4.160749531356583986e-01,-1.625733775312098173e-01,3.503264803948016315e-01
