-4.685060822215059151e-01,-2.597558138185904197e-01,-4.873368349858929471e-02,-4.802660338434404097e-01,1.482940382517813072e-01,-2.668895982887299345e-01,-2.128693389519264734e-01,2.273170995004291095e-01,-1.561287820003437465e-01,2.567829349772188241e-01
4.143547660149371481e-02,1.471023872262654519e-01,-3.408383080325286807e-01,-2.272690382908812701e-01,3.688766560498027980e-01,4.654113773955844136e-01,-2.219400930803200334e-01,-1.468493321283118602e-01,-3.703538036950789758e-01,3.973794104665311910e-01
3.797013152499569832e-01,5.127132469641471069e-02,-2.221393952472446864e-01,-1.371681908818119522e-01,3.449726801510660246e-01,1.130069479969381258e-01,2.638596881192355886e-02,-2.377910143573404023e-01,-2.658261845374374488e-01,-4.570790620639039181e-01
-4.167041017898068800e-01,1.142464589744707215e-02,-3.975664755768345549e-01,2.625623398078428261e-01,-3.831872066386224907e-01,-3.089427042963998060e-01,4.546768117551536204e-02,-1.082160730606698262e-01,2.462631861667148314e-01,-3.887701503628455124e-01
1.794150191777144077e-02,4.916744632232147305e-01,-2.903690911787468742e-01,1.014715767171008448e-01,-1.171846311944527569e-01,3.372095409969256830e-01,-4.656455201516939146e-01,-3.773946781561491326e-01,-1.421048204163317674e-01,3.641026997683701749e-01
1.563547167436138696e-01,3.548429574123943553e-01,4.203006493508055774e-01,2.334711738908522294e-01,4.894191483637231888e-01,-1.871822204194230066e-01,-1.229540424946858751e-01,1.185720762935087436e-01,4.567928616714318490e-01,-4.338782658037603213e-01
-2.774792904928852222e-01,4.526329353128517585e-01,3.790162652970032742e-01,-4.579092806355488654e-01,-1.803461957033618279e-01,-3.207423507020191744e-01,3.944327992591932230e-01,-2.272875003473617816e-03,1.426437198658416783e-01,3.737522934033673527e-01
3.371734868056832646e-01,-3.420111930869956240e-01,-4.457549554250779811e-01,2.957546319652636785e-02,-4.769171998613123131e-01,-2.038014846274222025e-01,-3.446017155765331852e-01,4.483636302382694172e-01,-1.078467897169604756e-01,-2.531172953311008333e-01
-1.537993259302183544e-02,1.995620246167342515e-01,2.588638322813073822e-01,3.578277646598508888e-01,-4.611739231052691679e-02,4.059301618195368944e-01,-4.356959265989465702e-01,-2.031569851597669202e-02,1.680462208120383494e-01,-5.032090931838728576e-02
5.246079630741352223e-02,-4.914781247190086466e-01,-2.944078732393957676e-01,3.658268686168016925e-01,-3.338532039224898496e-01,-1.325464702619899571e-01,1.283332955269810283e-01,-3.164722397387542130e-01,-3.058135355096036623e-01,-4.692216029582039205e-01
-2.484153806804524356e-01,3.048688330522364986e-01,4.535869398048171797e-01,8.776906698459618905e-02,-1.684323831795222493e-01,-7.072464546740819813e-02,-2.784312779025854834e-02,-3.664614024461236852e-01,3.345179920823416198e-01,9.817413264618624069e-02
-4.979836359914692201e-01,-2.022788542771639941e-01,-1.016553986315592434e-01,3.742081600068566383e-01,-1.216311518469301856e-01,-2.093794024068839840e-02,-7.798157566082353220e-02,-2.692795959780077686e-01,2.998584481864318141e-01,2.036676999471958016e-01
2.898286367475418346e-01,-6.759964319278179146e-02,-2.853280663559008556e-01,-2.095683012329104811e-01,-3.569437747008452622e-01,4.781154664201274218e-01,-8.922444404472072710e-02,-4.323276455702255161e-01,-4.146956936759758072e-01,1.551926444658049270e-02
-5.988802994912333783e-02,-4.308991403807272413e-01,3.257449703937554952e-01,1.801075841712667519e-02,-3.588097042652579338e-01,-3.443697820008152499e-01,4.575714614205499964e-01,-3.084060426546563760e-01,3.590176095977960502e-01,-4.103719086974641495e-01
3.490958237115284607e-02,-3.685024188635657727e-01,4.527346570132546599e-01,4.937147508695343134e-01,3.339305690540211313e-01,3.753277321603851191e-01,-4.757734204782129162e-01,4.269816634956953849e-01,-3.643370681013211598e-01,-1.660058438314893636e-01
-4.559000046087697267e-01,3.906202336322858737e-01,-2.769667500214378214e-02,5.499125537564375499e-02,-1.590775408829397108e-01,4.819559242562626578e-01,-4.920376826971878947e-01,3.737773904538698733e-01,-1.620488191298607161e-01,-3.477664158061451460e-01
-6.834701091670758455e-02,4.239455650499919792e-01,-1.412197156332060111e-01,-3.115309812751050345e-01,1.998371435090839920e-02,2.906890436702448399e-01,-2.988862898664761403e-01,2.154659974303110292e-01,1.783945573640977056e-01,-3.351180039920516607e-01
3.499706482377137329e-01,2.884010265454562960e-01,-2.494390547609355580e-01,1.931651752134132538e-01,5.897220587665473468e-02,1.849319973395346928e-01,2.520584627303722458e-01,8.724640895858670753e-03,3.312470800282329431e-01,4.455135636850491299e-01
-3.377382972096244496e-01,-1.952090946567560936e-01,2.775454891584012707e-01,4.508081008286861646e-01,3.493189023622293443e-01,-4.915032808826309552e-01,3.114076596621416226e-01,2.005746257046216730e-01,-1.452501351561864273e-01,-2.009031503382676664e-01
-4.004461846609452813e-01,1.059597491674431069e-01,-7.596854491253091091e-02,1.743914099782865046e-01,-4.268326998189165833e-01,-3.889454132283999277e-01,4.552770522654391860e-01,3.161817716129656231e-01,-2.774948434386161344e-01,4.821180105537152261e-01
4.233308233762480000e-01,3.429979775952650134e-01,-2.912336122452056086e-01,1.918920891771123127e-01,4.539108012952716154e-01,-2.379457074216579926e-01,1.274007252778844856e-01,-2.159103319088611916e-01,-5.243137548947408161e-02,-1.797699494935227627e-01
-4.534407273661688054e-01,3.005719885321318507e-01,3.056332877254348546e-01,-3.006208964512260273e-01,2.450024010217104475e-01,6.053757180437903396e-02,1.717830805718008058e-01,-2.891121416508091180e-02,-2.779700403826830257e-01,-4.978859105373744515e-02
-4.401082618551787062e-01,2.916823439960808950e-01,2.895900962299740589e-01,-4.570047248182664834e-01,4.943027864409121896e-02,4.556625949916295326e-01,-2.920438277008957639e-01,5.390525007436976213e-02,-4.756036416825280555e-01,1.971139227914156800e-01
8.874997632931203029e-03,-4.135292882764936562e-01,1.045620598889422798e-01,-3.453882615976435755e-01,1.712743597477242030e-01,2.788633102134745467e-01,-3.855494550903704187e-01,1.486323708758985063e-01,1.647471926245296370e-01,1.383703321051759916e-01
3.012770951405867592e-01,2.647525287861450805e-01,1.060372893865292460e-01,-2.501222215702202378e-01,3.396434817726320943e-01,4.443129926676543939e-01,-2.527088682518087159e-01,6.874037488305972943e-02,5.560354272056644565e-02,-3.132084637496864721e-01
4.154278988816256790e-01,-2.629727631580580649e-02,2.063090321577740749e-01,2.361111846916822410e-01,-3.387097823953104658e-01,1.030483633503498364e-02,1.827897738972041608e-01,4.419440149396025586e-02,2.469628231119052053e-01,-4.152655001265393442e-01
-4.300098983904701022e-01,-8.797059557982045419e-02,4.911664346769689660e-01,-3.590459743059064568e-01,1.838706784416069273e-01,1.940167381729799578e-01,1.219915222644838426e-01,-1.365560749229430826e-01,1.058028446128227440e-01,7.874029520765657431e-03
2.969262042584946970e-01,-1.406661931497994455e-01,-5.874910194125292778e-02,4.555114978693600158e-01,-3.562159151953706582e-01,-2.105818928848015581e-01,-2.668499609930996552e-01,3.080515844140594428e-01,-3.947949504658828102e-01,-9.465893279519731196e-02
-9.517659979805648263e-02,-2.966418364569555211e-01,1.573102215621952071e-01,1.342776905111401076e-01,4.548870077155944824e-01,2.327761190388464851e-01,-4.647538968772614298e-01,-3.336167304437418490e-01,-3.373203393782967519e-01,1.217972878709835255e-01
6.003863255463004478e-02,3.814533883427866368e-01,-4.830156795410601722e-01,-1.905021718932196906e-01,2.598029512573136190e-01,2.539370636788098601e-01,2.153748408990036889e-01,-3.315932528006299007e-01,-2.765517583168932703e-01,-4.415144107802249640e-01
-1.200872483650862049e-01,1.987250423824539203e-01,-3.238953248305408983e-01,4.428807162380986595e-01,4.661545806567312100e-01,-3.166802832841196791e-01,4.483491405799571727e-01,3.592938295408897309e-01,-2.564768021883672700e-01,8.466418847573398132e-02
-2.401196280659514404e-01,-3.804947582460748833e-03,4.400583908493347352e-01,4.233992996212697646e-01,-4.054465316138711750e-01,6.752098758352476082e-02,2.234747854534903100e-01,-4.933021318308264958e-01,3.826629619623495016e-01,-4.802921779104060152e-01
-4.284666352237154752e-01,3.495054982762436091e-01,1.095189057039129832e-01,4.571528010606937253e-01,-3.732874432152341604e-01,3.802413777116204208e-01,1.068126243279855642e-01,2.863801174671996574e-01,3.018284751351196435e-02,1.385938092000850164e-01
-3.861956932862547487e-01,2.480121897029209307e-02,-3.075097646311703015e-01,4.297030379347279161e-01,2.062925018520744003e-01,4.553692138985429572e-01,7.179595793437155982e-02,3.088650176081944032e-01,4.091757699489620426e-01,1.586449220491979450e-01
3.264833487264935385e-01,4.995515643771021863e-01,-2.462568441951762110e-01,2.051426154509380095e-01,3.469135180320877254e-02,3.823948440185992448e-02,-4.627346286488303040e-01,1.033780420823213891e-01,8.294205361873914495e-02,9.651784205801357264e-02
-2.758252488515856582e-01,-3.192124492634419719e-02,-4.575982912795025226e-01,3.115011451480366178e-01,-2.978095169422009247e-01,3.707418640026931000e-01,-1.107923297528470019e-01,6.554648413557473408e-02,-1.443437176236450070e-01,-3.966104324061794362e-01
3.997539518117327884e-01,-1.760009745466208086e-01,2.713675080265331441e-01,2.220250755344003735e-01,3.500086944970802194e-01,4.813544532277835852e-01,-1.330420596981257142e-01,4.859116846207005569e-01,-2.737720512354220870e-01,-1.180701173864640435e-01
2.140406322499068537e-01,4.224530898385878142e-01,7.201980980015555700e-02,-7.341798040463776154e-02,-1.320585956345154965e-02,1.693119551356719876e-01,1.947902774169443015e-03,-1.017658410342384551e-01,3.064501333970264807e-01,-1.936250613496899864e-01
4.397072447945578610e-01,4.643708480075898204e-01,1.960551107502744028e-01,3.376917282829436373e-01,6.897653859255749309e-02,3.996500305167740436e-02,1.227366832600354229e-01,-6.460696434429964718e-02,4.928320915618862874e-01,1.678635879864774083e-01
-3.383918780621641420e-01,-2.618442354781057024e-01,3.903333852986375363e-01,4.669534682053552710e-01,4.093086351325650463e-01,-3.358768740225107075e-01,3.175288591426439488e-01,-2.424568287719508219e-01,4.443400710568679579e-01,-3.868317081850252692e-01
6.001850539444648219e-02,3.082526114111809878e-01,-1.181401945918793411e-01,-2.771027657044893844e-01,4.835865437191357724e-02,1.552847700664073544e-02,-1.253782998603653331e-01,-8.886663672957326524e-03,2.123022938702450457e-01,1.294851196757760593e-02
3.681161737353639829e-01,-4.819654292736708090e-01,4.596835352995106566e-02,4.549583264311606312e-01,3.339876653744232038e-01,-3.659330467363750006e-01,4.780271656050629620e-02,1.256960449723865461e-02,-2.994235288788385518e-01,-3.222148972904942399e-01
4.738128457446432601e-02,2.360738148092420274e-01,4.275233256118892711e-01,-3.919230559741829212e-01,1.723585567986044842e-01,-2.006174778407111003e-01,-4.832740774902707925e-01,1.333821325148835113e-01,-1.765121811874666713e-01,-3.556541842881191795e-01
3.019469589778391860e-01,9.220450797290004330e-02,2.595693359918238574e-01,3.471439598030238716e-01,-3.129423197559082492e-01,-5.416662267689666826e-02,-3.339605699047775711e-01,-4.365532756432317640e-01,-4.628474328613328415e-01,-6.483092913194930806e-02
-3.691097879184923602e-01,3.701534157228900668e-01,-1.604478082193667166e-01,-9.450005978371898985e-02,8.881808949870521885e-02,1.407454819171334026e-01,-2.801428952086618129e-01,1.726107626721766763e-01,-1.380952093432808725e-01,1.618167214661183143e-03
3.563523208350035665e-01,-2.318922368359942476e-01,-2.938805537990329397e-01,3.361752617564581769e-01,1.236354821414288596e-01,-3.647714098836941088e-01,9.669499889213713228e-02,-4.305305603773702527e-01,-3.146058098757472110e-01,-2.846072563710862480e-01
2.235415671079340472e-01,4.001071237544921999e-01,3.058331170242737929e-01,-2.003236643870744682e-01,-3.188766893145582593e-01,-3.903601956469170409e-01,-4.157805277487721662e-01,-4.742095238786391276e-01,4.475795529623263075e-02,-1.101388513401700409e-01
2.739616227564773965e-01,2.413241200464120162e-01,-1.422020885041407057e-01,2.641351756983713328e-02,5.029234339379869967e-01,2.789542993456921582e-01,-5.060669927360479659e-02,-3.149020687568103161e-01,-7.525152231324341856e-02,4.763249217213332276e-01
-4.890189052876492415e-01,-3.225619720774921401e-02,1.140030624094577477e-01,-2.522058335213211988e-01,-2.130318736726213025e-01,-3.036642873413775701e-01,3.686415321630797104e-01,3.993108360290183456e-01,-1.593441125726402785e-01,3.165769912818372500e-01
4.077787687304089692e-01,3.927515210060750772e-01,9.947742308322299332e-02,4.283923917090429745e-01,-4.889657725245030173e-01,1.061166659915816074e-01,-3.619877664758331393e-01,1.832090305890866078e-01,4.992295609905238463e-01,-2.322143581735347795e-01
3.503698649312648183e-01,2.272289947856885317e-01,1.667369948458390372e-01,4.605890215464784609e-01,-3.198374157531797546e-01,1.909724323847579452e-01,-3.094194430726773248e-01,3.545440483717272051e-01,6.863817443642879212e-02,-4.135570810674646935e-01
-2.785747862664824659e-01,-3.450137790061239551e-01,2.689064761501085421e-01,-1.943129970565710130e-01,4.056925678676368552e-01,2.470009441532261818e-01,-1.105712171459512505e-01,4.988698435619928762e-01,2.265994060602262161e-01,-2.715557054458176411e-01
-2.036358312495040734e-01,-4.890886063256740801e-01,1.986706922659004781e-01,1.894430617323843991e-01,-4.115467678835915688e-02,6.300919281321704091e-02,4.014527183250267139e-01,-4.063350568638243177e-01,-1.521267425871206669e-01,-2.390873171098503169e-01
3.188150844470376555e-01,3.076761918135262341e-02,-2.874718220509525635e-01,2.476970889211491944e-01,1.103004568232010818e-01,-1.776345123737285148e-01,2.476889240408257642e-01,-1.620911198333923053e-01,1.506502315068737330e-01,-2.625662551824495816e-01
-1.113603419209210355e-01,-1.264812381209643455e-01,-6.424750928375289050e-02,-3.789027295851961075e-01,-3.474335998526291158e-01,2.986242604372844056e-01,4.765027081917675433e-01,-7.798835055518527071e-02,7.965614014018629341e-02,1.040371575763648776e-01
-2.428534044638940709e-02,2.086595580444479958e-01,-3.829665624527145429e-01,-2.305325228869112841e-01,-8.094894990624579290e-02,2.774612135411385072e-01,-2.470288562513456021e-01,-1.204827342495555648e-01,-1.954760406195011901e-01,2.717560242976821416e-01
2.777067224062339523e-01,2.520407267930485640e-01,2.527724747847912568e-01,1.023207926385473199e-01,-1.341966503868469163e-01,-2.893035005483639566e-01,6.643222158392325660e-02,8.570480918466982789e-02,-1.801642949021724505e-01,-5.121915783130159827e-02
-1.166222047593205996e-01,-4.977582343709295309e-01,3.790212647600612605e-01,-3.748973678922172259e-01,4.106489202621833590e-01,-2.668417442451507249e-01,-2.606302777480860589e-01,-7.194244127462168237e-02,-1.203413144332629997e-01,-1.477252155110000409e-01
-3.906487595377392541e-01,-8.033774448366802490e-02,7.955307118550158929e-02,-1.458924307055888270e-01,2.644665412971584084e-01,-3.950229322981297919e-01,-2.928130661794198786e-01,8.292259613124637607e-02,-3.415678430053671888e-01,-2.973560129512937134e-01
-3.728889547476484934e-01,-4.713737847590414587e-01,-1.126147879459495210e-01,-4.696391375401186008e-01,-4.481386621650274571e-01,4.454281303128934666e-01,9.672334676782164131e-02,3.418842175624591806e-01,-2.022147058196571978e-01,-1.515722050976980317e-01
-5.066632213502569870e-02,-3.806836808162356728e-02,-1.304859762845870519e-01,-1.019761845454356802e-01,2.488361112838948785e-01,2.392755378174047515e-02,1.785715818543023303e-01,2.219305367006181029e-01,3.525832892428084619e-01,3.644927388572049565e-01
-1.256227287027062989e-01,2.613933263671976981e-01,5.932153361984891793e-02,2.124347179459769031e-01,-2.794958443824262506e-01,-4.999464689004581852e-01,-4.281644505388467747e-01,4.463872101508118972e-01,2.544229835829644459e-01,3.607748294345441420e-01
-2.448813402068466261e-01,-3.002702995990307877e-01,-8.149222969171154157e-03,-3.482267082876722708e-01,3.421399000398725465e-01,-3.318256702715952078e-01,-2.623430163332450826e-01,3.279040421908732128e-01,2.507314171507736278e-01,8.982153641567809654e-02
-5.203127116590968750e-03,3.640383440198154963e-01,4.895128591583273736e-01,3.129721381817968662e-01,-3.148516685987850505e-01,2.544625236037788563e-01,-1.813931429924049155e-01,3.520043283534875223e-02,-3.055885412656967337e-01,2.208112051654336546e-03
7.728920581025544578e-02,-7.768912762940670402e-02,6.638586498787016343e-02,2.859517520282655045e-01,-2.982816373961909018e-01,-5.065744915384695624e-01,-4.598662208326622092e-01,1.468000332945020026e-01,-4.395687815484460859e-01,-2.705527292813985629e-01
-1.215806910539538738e-01,-2.687554470567553588e-01,-5.025948466604258924e-02,-1.976492778618562651e-01,1.341091520526859482e-01,1.794297622965762007e-01,-4.425439695150452935e-02,1.860524151676725413e-01,3.572698460435086432e-01,8.288373282183776614e-02
-5.002324946056445620e-01,-9.772481858238195318e-02,7.177795011642550127e-02,2.362519646269480023e-01,3.205380149052829419e-01,1.666250008820170658e-01,4.191100905603922788e-01,5.192925727135867531e-01,-8.186530749284449959e-02,-1.145443869658197521e-02
6.795206462547434545e-02,-3.087351615265541138e-01,3.928243375626931377e-01,-1.428628559823744981e-01,-2.746978457328225209e-01,-3.699779414033748954e-03,3.775181647679182878e-02,1.590725842205753249e-01,3.336839571927913140e-01,4.000513579530156072e-01
4.086127003842819350e-01,3.180314702744367339e-01,1.910082378943082221e-02,-3.211395890308891277e-01,-5.245171449478693015e-02,-4.340611511439457226e-01,-1.325742354518052168e-01,2.439590079290120672e-01,8.376801666109025268e-02,5.796385325963249180e-02
-2.066374355509929123e-02,4.215428208612960748e-01,1.764842244595263010e-01,-3.832675019848020281e-01,-2.346436430431610848e-02,5.764686291971373583e-02,-2.216053296599519162e-01,1.376425436383940382e-01,-6.415037024145413269e-02,9.866379549859551068e-02
-1.916501638232000482e-01,3.512887572578555218e-01,1.517310929089764060e-01,1.616319198153084447e-01,4.516804153793261278e-01,-1.805105739474958393e-01,7.428289787058454940e-02,7.226622999789196131e-03,1.839435330466281660e-01,-3.828086514531912621e-01
-2.338897964089759751e-01,2.941880168406951768e-01,-4.016696260213484804e-01,1.842535762306026781e-01,4.482590643325992108e-01,4.592718898600092747e-01,6.722175678672495658e-02,-3.158084776369277091e-01,2.382037171868543468e-01,2.272076005065246374e-01
-3.670481524551384989e-01,-1.525059511537665280e-01,1.089784212495793214e-01,8.090834302145508139e-02,1.612113142373237384e-01,-1.609834076394837943e-01,5.516314392791016319e-01,3.623426888463333051e-01,4.325778520035928332e-01,2.756279852143569409e-01
3.939274896348170518e-01,5.216331294020088993e-01,3.061037379090090216e-01,-1.278166867049969624e-01,-3.557815783785108210e-01,-1.604661333176752441e-02,1.124869130948172313e-02,1.333304938718127552e-01,-2.660956727109791142e-01,-3.632575066230178673e-01
1.438589361366960362e-01,-1.730463013377995518e-01,3.518792016211241130e-02,3.564766580621266806e-02,-8.222193990353132698e-02,-4.456977421767888692e-01,-3.208350103470845611e-03,-4.386117421996692523e-01,1.772240756647329996e-01,-2.529503902393694936e-01
1.942804795862719813e-01,-1.662450278562697947e-01,-2.697751173959753723e-01,-3.391778599742475975e-01,-7.393556784433927276e-02,-4.592167863926572835e-01,-1.438787692377021810e-01,-3.954397078044972758e-01,-4.598263821399224960e-01,-4.714925094677328010e-01
2.607317551764158914e-01,4.744603366719216675e-01,2.352978212597394703e-01,2.406179000752396990e-01,-8.268403322451338411e-02,2.428640925301049636e-01,4.043649632410243333e-01,4.166729175013841185e-02,4.011798992243414408e-01,3.796397506285767443e-01
1.992043417901358526e-01,2.302908586648495515e-01,3.051841019095001828e-01,-3.966841008957397441e-01,-4.653078816990712796e-01,-2.741624564883750059e-01,4.167901292695186943e-01,8.530951697922474486e-02,-3.992306315867221733e-01,2.336127072631957458e-01
-4.022955325658906234e-01,-2.331933003239383684e-01,-2.022066311385831150e-02,-2.333607777879408152e-01,4.521052889168365452e-01,-3.216371008652548213e-01,-6.366137353062135962e-02,-1.848472116688026912e-01,3.124414053434292904e-01,4.325041969646732376e-01
-4.783928832393309349e-01,-4.319691474853460389e-01,-7.133904010642369564e-02,-7.619594690495477829e-02,-2.786169248411857757e-01,-3.814889612910323247e-01,-2.853930131192616848e-01,7.824571783658466895e-03,1.975363416015807894e-01,-3.803744982116741280e-01
-1.853010228784527647e-01,-3.419396227376282904e-01,-1.707711924212026999e-02,5.116771499142271779e-02,2.472229156212511214e-01,-2.539875857570851880e-01,-1.990467333372505920e-01,1.016198399397543195e-01,-3.895566446742916300e-01,-3.088550847362755980e-01
3.512366579977059255e-01,-2.692302871923646715e-02,-3.973455411081394661e-01,-1.316930988381248557e-01,4.052810527290033882e-01,2.193843343306661198e-01,-3.624203024793633959e-02,-3.991295347751893097e-01,-3.152535376839335490e-01,-5.842931273724317337e-02
4.213582518237031227e-01,-4.119557420925608615e-01,-1.635950452648952114e-01,-3.141237805121084303e-01,1.387317971006227502e-01,-3.860106959979814345e-01,1.767877643360838691e-01,3.765758234676928051e-01,-2.149054640270572358e-01,-4.452745793907503247e-01
2.261585767045700690e-01,3.986360181254060553e-01,4.162541487330305712e-01,-7.735852279062227499e-02,-8.438710899954113276e-02,-3.778078154054731463e-01,-3.586829271568658939e-02,1.043896530945782608e-01,-4.584281348922745747e-01,1.298370692624603862e-01
-2.333047990630412460e-01,4.584344802087185755e-01,-3.501836179585419151e-01,4.358697058875660169e-02,-4.342049577261812843e-01,-3.229592346751587462e-01,4.459562812633014461e-01,-9.520741603792547136e-02,-4.379481831022727367e-01,4.455735138491911940e-02
1.515765467319781512e-01,1.813725212258771591e-01,1.748654710201331675e-01,-3.155869229342748716e-01,-2.617043123331680987e-01,-1.375810484518098509e-01,-2.831029217231803008e-01,3.923565577848812658e-01,3.062780430542180743e-01,-4.308353885535056160e-01
3.557255794620015066e-01,-1.858327830087882215e-01,4.970317477980064069e-01,3.764805170819647828e-01,-3.266865310293095015e-01,1.723540529834473589e-01,1.801248044145977167e-01,-2.201966330869707111e-01,-3.653549877850950645e-01,3.755792530657431905e-01
4.096841773715047541e-01,3.700466686805116145e-01,-2.327727813746687524e-01,3.907358066023193244e-01,-4.326353489286376836e-02,-4.270599506297299564e-01,-9.330157123551263351e-03,-2.673049971350172083e-01,2.865750615660071499e-01,3.581838610160464897e-01
2.159778223827536758e-01,4.573414568118010504e-01,-9.577528974688828689e-02,8.924235891047199720e-02,-1.972536615675174743e-01,4.254589918174511709e-01,8.313920716626843621e-02,2.235427101799606492e-02,-3.795512060624284256e-01,-1.439345915625341310e-01
4.871598076983327807e-01,4.844125176793754317e-01,1.081612479698081802e-01,1.515496652232036223e-01,-1.698042633859708217e-01,2.041380766254152074e-02,-6.917447001243136329e-02,4.471006642834620126e-01,-3.693377300857974554e-01,4.709643976968104773e-01
-2.260289194061404217e-01,4.423278309184242030e-01,-3.210363525640317350e-01,-9.529103965118734809e-02,3.835131951957410634e-01,-2.902873153032574649e-01,-2.315707361562657496e-01,1.060823255691632633e-01,2.607450595666722659e-01,-3.220936895195060101e-01
3.194901800529744151e-01,4.637619787506513241e-02,-1.981356364204892896e-03,3.180955958203871559e-01,2.899335768162868976e-01,4.419531570540489729e-01,-1.841767665997882941e-01,1.443803879648977995e-01,2.307633421659078810e-01,2.818691048366316065e-02
4.155828379127228245e-01,4.237863498230807768e-01,-2.503270082768650371e-04,-5.292057945730470614e-01,-4.124876305094618556e-01,-3.557142342748125241e-01,-2.531081051856265973e-01,-4.146808153328517821e-01,2.554244100473694878e-01,-9.551422648398372184e-02
1.637088547980845507e-02,5.530565628361821390e-02,-3.736825270191779236e-01,-1.233985253933203574e-01,1.952606589959422212e-01,-1.608990791230496264e-01,7.800124514566379730e-02,-1.480655817408159380e-01,2.790982441021627736e-01,1.889510625583723791e-01
-1.958940954681565316e-01,-3.663893641362118148e-01,-6.387752576887888167e-02,8.567289285623351514e-02,3.658991333607400920e-01,3.058032164112048923e-01,9.533519894939924966e-02,1.122934961578674617e-01,4.451621594313427410e-01,9.023025287115518656e-02
5.730383157233688296e-01,4.138291925843323171e-01,-4.565199251172903927e-01,-3.023352376578486989e-01,-1.532396960805662393e-02,3.703458684688315516e-01,2.297400311777349213e-02,-1.531075932884544133e-01,-3.054842090339756067e-01,-5.145083731581934217e-01
-2.120523349385284029e-01,-1.777085985039819904e-01,1.153834917677806077e-01,1.118797342739618617e-01,-1.107675972711955892e-01,-1.530039822569137682e-02,2.156667603062868699e-01,1.118911274750234996e-01,-4.068957551421212848e-01,2.469670196827501996e-01
1.437496178672905134e-01,1.557226790493120572e-01,6.277668097864740060e-02,-4.809431889311358010e-01,5.090976283334622821e-01,3.342128767301885683e-01,2.443846532717182662e-01,4.196218123724830551e-03,3.922087606370001089e-01,-4.093473940510197195e-01
7.878438016030012703e-01,5.050141174359922269e-01,-4.585246957245511235e-01,-4.892802667873518141e-01,2.504210958220366434e-01,1.572594200606073356e-01,-8.905862826248911457e-02,2.182766591653853561e-01,1.571561347341424164e-01,-4.951811095659849893e-01
-1.425249567523261540e-01,6.318190693583138062e-02,4.382493241381422155e-01,-9.210550825353877036e-01,3.343406843724622268e-01,-7.110595293348001555e-02,3.881851551092491692e-01,3.701218365399295829e-01,-1.431306434802457062e-01,6.274507614689567303e-02
3.591949919197998109e-01,2.095227397144843740e-01,1.041204558923923412e-01,-2.352634805818551167e-01,2.073869273303282912e-01,2.753038182107421794e-01,3.571952557186285349e-01,4.570515833050611820e-01,3.063163332830914354e-01,5.977679619705179165e-02
1.280431051878136439e-01,-2.856649461897760658e-02,2.152787345845436420e-02,-6.916506479068983415e-01,2.778682274648663353e-01,-4.129496652502053222e-01,5.180564169361742133e-01,-2.024856678825285861e-01,-2.921258893409771629e-01,6.920784177585138919e-02
-3.910584850735001061e-01,2.263403434719030438e-01,1.437798059070999890e-01,-7.587024177059487062e-01,1.390190664437796486e-01,-4.419023948465149870e-02,-9.771701370277540225e-03,4.575464796048959726e-01,-9.902238770336682649e-02,-8.648939702802341256e-02
1.912090291138841477e-02,1.079019619081143799e-01,1.171671422865902118e-01,-8.756351384567581664e-02,5.921204877600032557e-01,2.816032453291799631e-01,-4.252557062609887972e-02,1.124501175838008571e-01,4.101904111697239341e-01,9.752674302021903385e-03
-3.712844258132509956e-01,4.084069986886825765e-01,-1.588719908207716636e-01,-5.116875935749213289e-01,2.588530303781378938e-01,-3.850251877967286185e-01,5.017255460913163656e-01,-1.750130322127338989e-01,3.193390034750092643e-01,-4.199151376433606919e-01
-2.920599380643982279e-01,-1.065534246732136037e-01,-3.807825538745180927e-01,1.932790029660473585e-01,-9.186099289356573078e-03,1.022548202107738946e-01,-1.726951594485499897e-02,4.977946556684947343e-01,3.978376999724460572e-01,-4.973332483088124256e-01
3.403584708435904993e-01,4.246734086468750835e-01,-3.666121327684360859e-02,-5.426981851789236533e-01,1.181478344554041521e-01,3.968194851290915981e-01,-1.341638454246053269e-01,4.760312555035962623e-01,-1.394158041188763020e-01,2.085741930931919175e-01
-1.878070953774966245e-01,1.180893392559053956e-01,-1.138525779667228233e-01,1.745767391487450249e-01,-1.980300730574476586e-01,-1.906035919304132353e-01,-3.867291137457619377e-02,-9.298199427557109209e-02,1.524023644405815003e-01,3.710250958577920311e-01
2.888058564090558167e-01,1.789802619125634153e-01,5.785258567868432553e-03,-2.089022349941035139e-01,3.602804198135798885e-01,6.812763964542428718e-02,-1.967830245109750964e-01,-3.544245298403664313e-01,-4.295735919257429036e-01,1.482456710241392972e-01
-1.829408009762243659e-01,5.502403565340769492e-02,9.131978182469555755e-03,1.541108929835613151e-01,-2.711020036392891575e-01,-8.468594582471160315e-02,2.454138355333458088e-01,-3.229913275444521448e-01,4.564941430127590904e-01,3.781849172631287503e-01
-1.098257357918999422e-01,-3.797974392421483159e-01,1.206455634870772647e-01,-5.571401693910872643e-02,3.071388401904980303e-01,-4.330315967621674589e-01,3.463463497178396744e-01,-3.132862193565359443e-01,2.234958362930316023e-01,-3.359656471906103947e-01
-1.304345807480701280e-01,-5.245260464187639915e-02,3.620273019339667053e-01,-4.447599266441708554e-01,3.415719356769157389e-01,1.723800564440284289e-01,1.674064522609186242e-02,-2.692497769323884960e-01,1.546392385307741035e-01,-3.283279369979027473e-01
-1.194991615120725159e-01,-3.286540957631192694e-01,1.195260769276514784e-01,-3.989554960078999790e-01,1.633965621669442037e-02,2.848552195769272766e-01,-3.881800608130558938e-01,-1.825783284978990118e-01,1.369298027245539895e-01,-4.747786784550529493e-01
1.768549366184863636e-01,1.694182076811818483e-01,4.917943708267489833e-01,-1.918762191563974095e-01,-2.997112456004552006e-01,-4.911623198703046200e-01,9.999111577559545438e-02,2.105248002424807696e-01,1.530332837315300787e-01,-2.042314655879554353e-01
-1.880106653441079578e-01,-5.057567720475730777e-02,3.970153134487628965e-01,-3.500848328853516794e-02,-3.840400419750051864e-01,3.353770630478029591e-01,3.484019264199160748e-01,-3.712048745342070855e-01,1.995071127796236854e-01,9.154486948114798350e-02
4.813825666045546403e-01,-4.877240067017973857e-01,-5.193307980706647620e-02,1.424530754785908841e-02,-3.214973360435223748e-01,4.844524212677896180e-02,-4.111760520219946424e-01,1.237220783018193326e-01,3.223677448761199105e-01,2.043249501018059577e-01
1.827072854745430686e-01,8.281543222767689949e-02,-1.787863689249541421e-01,-2.928593569065849334e-01,4.017835895124751699e-01,-2.068573579638487148e-01,4.489731952347920108e-01,1.719184039435392441e-01,4.262698430164411634e-01,-1.743834677493461341e-02
9.234542104506297810e-02,-2.845773816014538493e-01,-3.439223768593091882e-03,-9.183836144274079571e-02,3.583716914302529366e-01,-1.334041233834282192e-01,-1.510890635786028002e-01,-2.289580969183300230e-01,-2.812519258068302275e-01,4.976505455814952961e-02
-2.644929282348677524e-01,-2.491450154380847049e-01,4.428924537596468647e-01,-3.970708065105535978e-01,4.874201001830821833e-01,-4.615440607923565475e-01,-1.417800041837281866e-01,-3.950853503769555242e-01,1.279082837786631351e-02,-2.287470967444075742e-01
-3.313266020794775057e-01,-8.116445971835103967e-02,2.167542361885379520e-01,-3.735550192846270878e-01,-4.447302824712974778e-01,9.335410360848075961e-02,1.780412280717322548e-01,-2.431211836641446189e-03,-4.877713067948096781e-01,8.209499148291882209e-02
4.618524175354195016e-01,-3.496694930930447365e-01,1.392514954872764166e-01,-6.106753290869303408e-01,2.469212223799339134e-01,3.356544578362197218e-01,-4.354715112228399465e-02,1.893610036164270760e-01,3.900056708121191762e-01,2.371334428928354165e-01
5.243273829412230524e-01,2.716997980528149115e-01,-1.361768091477518483e-01,1.002455712317617958e-01,-9.259198123391074176e-02,-4.676143274785083959e-01,1.890472808897834534e-01,-1.358930124496293690e-01,2.262889591960986491e-01,1.326124405810027163e-01
2.432494748445579169e-01,-6.252816271815267446e-02,1.381086684448551427e-01,-4.345554899752520073e-01,-1.419539676256433014e-01,-1.742159649554275991e-01,-1.057258777853741644e-01,-1.448369435097887903e-01,1.932778216926231141e-01,-4.175678370206740153e-01
4.796528502828091844e-01,-1.249155361263796504e-01,3.398005539563782318e-02,-4.583119127866170373e-01,-8.650697667564866827e-03,-1.956471720033247652e-01,1.202526381630695390e-01,2.662411442316068300e-01,-2.996544338427701848e-01,-4.470005405255416675e-01
6.087282705397335514e-01,1.631299673121391625e-01,1.273337038577806446e-01,-2.689484273823907201e-01,-3.709909467111495718e-01,-3.532490460151446188e-01,-1.231325295221722960e-01,5.945840663019292816e-01,-1.889872114110372203e-01,-1.096110689604467767e-02
8.150929134999993497e-01,2.520060786736988967e-01,1.569112532472918542e-01,-3.430391214330991145e-01,4.931976862305767484e-02,-2.349530735669628501e-01,3.654741660457850871e-01,2.864879501395610206e-01,-3.812155852534007128e-01,2.054941261478666625e-01
1.320888651096035482e-01,-3.515869373389990393e-02,3.291753280465669063e-01,-9.486593455021385957e-02,-2.138488399776479754e-01,3.621556660794116866e-01,-1.897534897589466252e-01,-2.843084949671506045e-01,2.526356825947920215e-01,4.684146284100012408e-02
5.733615026470184617e-01,1.178558396010117859e-01,-3.786779580818510627e-01,-1.042993752917673878e-01,-3.994631298191231861e-01,2.755699165672424455e-01,-1.063514980631222462e-01,-2.305481958353201299e-01,-2.070686106937595361e-01,-3.184451270127595102e-01
5.668580503996650810e-01,-5.161327151709452915e-02,4.567440549993066479e-01,-4.057389079726210768e-01,1.675494093702017129e-01,-4.325613931173784010e-01,2.210047461731429533e-02,-6.626462789417753019e-02,6.634182764950983385e-03,-1.626116775179540785e-01
1.886092151986887566e-01,5.788854449236151556e-01,-2.585163450828931730e-01,5.594121528828732703e-02,2.333568287004681996e-01,5.444878353457031916e-02,-6.654957272305342744e-03,4.142618624380238201e-01,1.559061854219468413e-01,-1.031062270869454178e-01
1.330097831236494166e-01,2.301176698103607754e-01,-1.148144547698351087e-01,-1.268269737012203691e-01,3.437726302599038997e-01,2.482276460729072320e-01,-1.693150923387119200e-01,-3.895489982793640116e-01,2.034709931340126371e-02,-1.469208737162733813e-01
2.442213632468927809e-01,6.921090423583837747e-01,-1.373466537395863218e-01,-5.427744836764827885e-02,-3.603873842431835617e-01,-4.238842604125080959e-01,-4.007956865336129715e-01,2.410566829411751322e-01,-4.371720429554631360e-01,7.530462023774216196e-02
2.478525201865549310e-01,3.435821293197875437e-01,3.834156624681512304e-01,3.503230066399708187e-02,4.086351649832548061e-01,4.106966625772468515e-01,1.658067228556691641e-01,-3.112857887550880137e-02,-6.069219361105179789e-02,-2.793296685930616308e-01
-3.760581658813683670e-01,1.213716005972408918e-01,-7.718370728410342552e-02,-3.291516432990004848e-01,3.853393215418492446e-01,-1.380411409006016277e-01,3.368431203276275321e-01,3.648966410101175950e-01,-1.862493811037218769e-02,-2.139565944810210840e-01
-1.421361670845159575e-01,3.381398812648935270e-01,-2.599196239263853458e-01,4.473581919054138156e-01,-6.235043505388322693e-02,1.342878396866329371e-01,1.691929230019776492e-02,-1.657008820376957292e-01,-2.162217026568979128e-01,1.910103087436988978e-01
1.958773288203611296e-01,1.950019314631660228e-01,1.121794121420150031e-01,3.745635403711224942e-01,1.183643434627604102e-01,1.826083917044751259e-01,-8.511290844662247612e-02,5.531301325033214505e-02,-9.270201126506265321e-02,2.619233027589517593e-01
-3.200066695617383161e-02,1.677035154669272443e-01,6.681569430181370783e-02,2.913945345834954015e-01,-1.805949716553744144e-01,3.401891283959356249e-01,-3.149131841972619972e-01,-3.249797401880438197e-01,-3.109101922126679685e-01,4.965347237289328142e-01
-3.100457624309300719e-01,1.780454042464183484e-01,-1.515170670755604798e-01,-2.389885081724475724e-01,5.199571383371384137e-01,5.689905162059037680e-02,-2.402384616562017738e-01,4.061146957249059941e-01,9.998197461076174797e-02,-3.968401912738077630e-01
1.896598015881843236e-01,9.072257791525324688e-02,3.210214916842187849e-01,-3.850273095217507935e-01,1.100716492275547187e-01,-2.789295103508323548e-01,1.284476622755707786e-01,-3.320683042790741890e-01,-4.747381073474100099e-01,7.361300649164471965e-02
4.083731793793141662e-01,2.779734717677539435e-01,5.604819149023095026e-02,4.912713448626864765e-01,-1.076740372909831683e-01,2.098906507696453316e-02,-4.729763372673350119e-01,3.987463883309807500e-01,-2.587786847368098719e-01,3.161817728890818358e-01
3.209866740143976216e-01,4.089091440539912026e-01,-3.954582107389923440e-01,3.110664553016821432e-01,-1.497014133306617811e-02,-4.648439803437505735e-01,1.137920877661691144e-02,2.123131356983950502e-01,3.960562694051201760e-01,3.801112720544655987e-01
-5.878688373481065488e-02,-1.299972129317635838e-01,-4.286433112732089823e-01,-3.523437968113308227e-01,2.824946976201661020e-01,-3.364498194519058849e-01,-3.873518044360855228e-01,1.498284402126389692e-01,-4.556917001172101633e-01,-3.044417775420849015e-01
-2.373005982415551385e-01,-3.987934186955209293e-01,9.597235466427346540e-02,3.937610717533647775e-01,5.215304053155156959e-03,4.063497529147635512e-01,-1.585111218803378907e-01,-1.812105745886047892e-01,-3.386522129426864369e-01,-1.681185096262200751e-01
1.403677278329786005e-01,-1.383249817347252837e-02,-2.661808044905257173e-02,4.397423390304562862e-01,-4.005564526488381016e-01,-2.993974751370941934e-01,-3.008005669998841669e-01,3.071294524052118891e-01,4.538796078321488681e-01,3.326455997129047493e-01
-4.363909095069714028e-01,3.340398733171305867e-01,4.969734910444398857e-01,2.397259678493649515e-01,9.805981613397644903e-02,-3.841744833901805101e-01,-5.157570226183190165e-01,2.675105353104132999e-01,-2.910677581634407707e-02,-1.191833105726346625e-01
-8.304545913611781349e-02,-5.182384788966718503e-01,1.516758584378703582e-02,-4.764143537818574248e-01,2.454534376225055992e-01,4.109957182399410769e-01,8.034363477433169309e-02,1.363418386782112857e-01,-2.655987049228959451e-01,-2.214974293599754063e-01
4.236232114764256762e-01,-1.122245463980117985e-01,1.681504586044128280e-01,9.829149070176619596e-02,-3.015347600759429314e-01,-2.526567122470612659e-01,2.092204405051350802e-01,2.672303002167609742e-01,-2.949208023325958772e-01,1.823686309349864185e-02
2.605730985907683817e-01,-5.680372573350448429e-01,-3.435237427784441078e-01,-2.550038586363873039e-01,-2.112657338045514643e-01,-3.509447595955917931e-01,3.216755288378665700e-02,7.543823252111363231e-02,8.526947813190047243e-02,-2.450335031925905960e-01
2.969234315869451538e-02,-4.165321761986211513e-01,1.504987009010457233e-01,8.065534302812706058e-02,3.122242761181521220e-01,-2.221738322799065093e-02,2.570718750771116556e-01,-9.370599728449838239e-02,4.115165550727846455e-02,2.029110392526631557e-01
2.814219151033590244e-02,-2.232859245308467522e-01,-6.342063824982223652e-01,-8.469161451626670833e-02,4.029475604707397629e-01,-4.807904031110935006e-01,-2.912822642425324515e-01,2.407188552328220210e-01,1.066811931976115180e-01,-3.009546699058854302e-01
2.149050027399279084e-01,-2.393504588859510784e-01,-1.098118313720176792e-01,-5.447775508191974314e-01,2.626718909955208514e-01,-5.668948142074824448e-01,2.526867094056546859e-01,5.621235440633470803e-01,4.993897521800672590e-01,-3.325244897152007106e-01
-1.114629109325781103e-01,-1.525793289060548563e-01,-2.403811122522327426e-01,7.417226608720232928e-02,-3.102369699950703885e-01,-2.997715390721757411e-01,-4.080051685036216180e-01,1.560488599727519465e-01,1.996196437644410029e-02,-4.253163460782832805e-01
5.680338650963391300e-01,-7.116890865420851808e-01,2.159480966377797517e-01,-1.079233304025683793e-01,-2.124538246198166835e-01,2.825844944840150141e-01,-1.559339514786848013e-01,-1.708031734103002131e-01,-1.852816939058731793e-01,1.790338582047225624e-01
7.543872057510659923e-01,-5.481076963203891372e-01,-5.951427732913760343e-02,-6.042984217295360033e-02,-1.138345635155224925e-02,2.999949658909155659e-01,1.997001154020024150e-01,6.097545862245150605e-01,4.665715424830613189e-02,-2.022291783124642861e-01
4.447422266927090195e-01,-5.666679196936511564e-01,3.707530851297733410e-01,3.609357978888936835e-01,-4.087567814051126791e-02,-3.769637895833121699e-01,5.081445143489953242e-01,3.337524394189175792e-01,2.411193929683606296e-01,-2.154849816053894251e-01
3.331728214826053525e-01,-5.413356248481198119e-01,4.899376917444874663e-02,3.463323702227457529e-02,-1.119268256516762622e-01,1.348665777697899137e-01,-2.181935820719357322e-01,1.447500187561555351e-01,7.940066944787890768e-02,-9.690502753622028120e-02
-1.532652338582048412e-01,-3.738670634809760362e-01,2.816732662388488628e-01,-1.051218132768256125e-01,-2.118161344544788605e-01,-2.403927368842011802e-01,5.169428017406839659e-01,-2.374049231354538863e-03,3.350436537367599832e-01,5.302944025139496448e-02
-1.163697184296319173e-02,-5.217130756027340555e-01,5.637975612342946974e-01,2.062946139864951789e-01,-2.992072295344659905e-01,-3.449547765670645805e-01,-2.037076387523243937e-01,5.267122322105562832e-02,-1.546342785925600427e-01,3.077455750730668793e-01
2.022479566778073445e-01,2.642614382604908108e-01,1.657286746238534891e-01,2.858557894040678615e-01,-7.520185017969567565e-02,-1.582573259163789492e-01,5.631623128658990174e-01,1.939442067910993883e-01,-1.304493778447892438e-01,-2.784438244240930449e-01
-4.463740323245619923e-02,-2.724335054409915968e-01,-1.095463742368726207e-01,1.482199727011857537e-01,5.251622933922723939e-03,4.569075743870105177e-01,1.447714786551066411e-02,-1.635903979065070624e-01,-1.736816144980174448e-01,8.489282954048414653e-02
-1.450519540355088011e-01,2.445561099376575981e-02,2.213633665699945088e-02,7.516314026012690941e-02,-2.304854064736263364e-01,-3.751087497452449404e-01,-3.519003503057435006e-02,-1.982559787643950189e-01,-2.651758996294198423e-01,5.124578672185839401e-02
-3.954835617376090129e-01,3.704507206917818096e-01,4.389927795951641953e-01,2.670999278559491596e-01,1.232302205791178246e-01,5.996469670937791818e-01,1.035909075797569745e-01,4.150929459415716311e-02,-1.106816205839342426e-01,3.886155906495791096e-02
-8.374013357733597548e-03,6.867999799292109908e-02,4.298708124906841510e-01,-1.430300350408478943e-02,2.431004234696372557e-02,4.419612653222263488e-01,-5.451406157551996756e-01,4.232951502092721086e-01,-3.298530463377277733e-01,5.407736670466066764e-01
-3.055174989559681920e-01,2.618898858765192003e-02,-4.126743397932763902e-01,3.903847996304801726e-01,1.351783067803961295e-03,-3.364484233051295292e-01,5.441261907880266813e-02,5.684566748979341666e-02,-2.717516201508125007e-01,3.225397746346487238e-01
6.056398676781064166e-02,-2.522078622822059302e-01,-4.139271128945246625e-01,-4.349543172940444347e-01,4.044789720815401002e-01,-3.582207049139222721e-01,5.020509564794666674e-02,-3.761045120427162769e-01,5.685547758782131395e-02,-1.179290980076061618e-01
-4.733673723344669071e-01,4.349588376034240755e-01,-5.607772424951207313e-02,4.631697740423135201e-01,-3.648126025152888530e-01,-1.544358750404387914e-01,-5.636948534174947012e-01,4.078910813909017441e-01,4.165993029740162057e-01,2.934989546687729045e-01
-3.764963706437013946e-01,1.799797934552440637e-01,-9.850103514391775339e-02,-3.620308967599784600e-01,4.069314833976062085e-01,4.161723143922457235e-01,-1.417248950602472135e-01,-6.518978915584877631e-02,-3.268831709440504496e-01,-6.719050732754026922e-02
-3.716295827317145362e-01,3.633538396203956911e-01,-1.273679828765692523e-01,3.188752326069971832e-01,5.474648504175260583e-02,2.797511047387487015e-01,-2.385529533381058331e-01,-1.529434827852004242e-01,4.956306900737271759e-01,2.293522231339407969e-01
-3.124967835844951747e-01,3.340590716450311248e-01,-4.810788214302267329e-01,-6.215661206072343320e-02,-4.094508296961967830e-01,3.269515335808759193e-01,3.458114830126384209e-01,2.728765553654332807e-02,7.045430714666833794e-02,1.382906188224987121e-01
-1.536520916501815381e-01,3.932463690783469801e-01,3.474971969560040619e-01,2.270377565181199431e-01,-2.682001265314326588e-01,4.328890904271316953e-01,5.044167772385586140e-02,-2.414922311887008899e-01,3.479144708369215633e-01,3.974261561155580935e-01
-3.370659651469490870e-01,2.202436896538889355e-01,-9.346677339392340036e-03,4.875198870491145864e-01,3.614576418457082774e-01,1.302360348951187297e-01,-1.281776946386832816e-01,-1.338023006990463892e-01,-3.703070189908001519e-01,-4.540529612779092838e-01
2.854847257845993802e-01,2.256136153949794831e-01,-4.082801352373509052e-01,1.632591656973525485e-01,-2.341492998505866618e-01,-3.343025627783307585e-01,-4.515681066004272742e-02,3.782516268616579747e-01,3.222848538162377818e-01,-8.187329876592847056e-02
4.364941229918732901e-01,1.654375585419879668e-01,-1.027762781769088335e-01,-1.228387347858159312e-01,2.090142258470245873e-01,-1.543185135760572479e-01,3.997180468056264480e-01,-1.159177411375111877e-01,4.395191026270174328e-01,8.737968611208968284e-02
-3.933255452969414701e-01,-1.779552940969048036e-01,-2.428449472777803875e-01,6.551031706598534066e-02,5.496950289223175024e-02,-4.985580432157569186e-01,-1.037929574879557781e-01,2.723623328094824658e-01,3.387559578132748883e-01,4.598589759780142283e-01
3.710970192643888721e-01,-4.457868818646139042e-01,-3.643987393350747173e-01,-3.230967954476248183e-01,-4.640152488211980036e-02,-5.255413427818477201e-01,-2.490222644191929235e-01,-3.158458516103924696e-01,3.480979431618123066e-01,4.996065350053020548e-01
-2.135927641108132172e-02,2.323086875475917634e-01,1.206862303226353683e-01,-4.784857203421438165e-01,-1.725840904632772177e-01,1.540714912949766313e-01,1.832094535411479819e-01,3.171996064353589384e-01,-1.734426651181815993e-01,2.907357115976295578e-02
3.405933337029571906e-01,-3.137820437935208706e-01,-4.448896294386647243e-01,-5.454586593356697266e-01,-6.424662383003926225e-02,1.574785225394340418e-02,-1.428831639179986568e-01,1.408462816434663534e-01,5.252338872595672115e-01,-2.363050618032334904e-02
2.868197145834599504e-01,-3.468040290556311245e-01,2.762229654471523022e-01,-8.165899064265509655e-02,1.637651085138246143e-01,-6.288304057881292097e-01,-4.537696339083570340e-02,3.457767788947391230e-01,3.175311489112893348e-02,-3.371330388986954474e-01
2.259117458582505511e-01,1.367605040993070120e-01,1.929344064934009895e-01,3.464078259244918745e-01,-3.009244461065516824e-02,1.157063061225791778e-01,4.817178658795621266e-02,-7.840086625918978036e-02,3.959868177786809440e-01,-3.966927703968200492e-01
5.209426492761745076e-01,1.412906594515440798e-03,2.496512932425104525e-01,1.492813966554604466e-01,4.252413500756210829e-01,-5.891315662729274677e-02,1.050687000691810508e-01,-1.471559427478518756e-01,-1.514698458450567387e-01,-2.630661626745603998e-01
5.141386924758253874e-02,-4.650334850309559842e-01,1.529461862454620236e-01,-1.379866571971631317e-01,8.752309896146780177e-02,1.539333297986629212e-01,-1.595403502025832809e-01,3.198281688180057980e-01,3.896361726898974198e-01,-1.318524578221002552e-01
3.922699062200282194e-01,-6.130708231043211637e-02,3.216551185841586835e-01,-2.591104512824611850e-01,-1.760454256504857540e-01,-4.750314150203052699e-01,-1.390170257922638264e-01,-1.269297878419479997e-01,-2.063222659635691528e-02,-7.326735292537464028e-01
4.392241509824794110e-01,-3.502920289531939041e-02,5.200686573486404396e-02,-8.465836510921051494e-02,-1.427914700218969601e-01,1.458740227562658857e-02,3.991189293330511534e-01,-4.376606189332339636e-02,-4.704097459277422066e-01,7.618545009827848435e-02
3.314817383014958541e-01,-3.686505501596724632e-01,1.287614253964606270e-01,2.695276770426323631e-01,-4.549064486362680571e-02,-4.282898659663404994e-01,3.832178623896057013e-02,3.155352989338796599e-01,-4.911584531043970969e-01,-1.473924721544833671e-01
4.556927255017315659e-01,2.271087551478184474e-01,3.124779638878966148e-01,-9.863940879418600649e-02,2.171367070225009854e-01,-7.681467248374927725e-02,-1.478416691444118247e-01,-1.191872554412948954e-01,-2.237750513132036878e-01,-3.117347942182595588e-01
3.620488059192525920e-01,8.247466812303978767e-02,4.476051226220699175e-01,2.945681082640740911e-01,-2.052228827349654727e-01,-6.035269304752426400e-01,-2.262861309498757217e-02,3.244985983916896105e-02,1.020949322170363639e-02,-6.108016882011972903e-01
3.197783938196831904e-02,-4.570057165197899396e-01,-2.777026191744091932e-01,2.398683433296492501e-02,2.145303982425890155e-01,3.953563102252716233e-01,1.405688899026185101e-01,3.156191811684160714e-02,2.208228738039033634e-01,-3.775545433335413259e-01
-8.400004615545537956e-02,9.919410681856184742e-02,4.562840907988389150e-01,1.132047608693679541e-01,4.147417161008370989e-01,-2.322098077529924365e-01,-3.449743298123889024e-01,-2.248802424558853930e-01,8.633886534154659731e-02,-8.123101929892431738e-02
4.065465392728767613e-01,-3.183292189220954804e-01,1.822848115221105403e-01,2.780739081342693542e-01,-1.810073634074388649e-01,4.501248389414424372e-02,3.107114065343833387e-01,3.023456951328080122e-01,5.060411448473737250e-01,-3.244561174615873123e-01
-2.452818004451556844e-01,-5.750069257226231301e-01,6.617548555127529541e-02,2.088112861109521490e-01,3.081271730620307459e-01,4.087401766213801801e-01,-5.654474654198338862e-02,3.425966101323588836e-02,3.705677292692058367e-02,3.282841269416640895e-01
-4.329056870266466683e-01,-1.775019869086161550e-01,-2.248439700995537860e-01,1.397379318514578306e-01,5.759962406406587271e-02,-3.391708015943284416e-01,-2.833204317397425287e-01,-7.648539582104788015e-02,-1.003174923309016753e-01,-3.106368803365300857e-01
-3.875074023828362635e-01,-5.530292627767353225e-02,2.957815254472400124e-01,7.256364458528955508e-01,5.894110628231200577e-01,-1.672425952309438690e-01,-4.626596337389421443e-01,-1.316867384296601939e-01,3.898555199057053278e-01,6.790333791093720039e-01
-7.667984700533374554e-01,2.088186317261582492e-01,-8.994648151639929312e-02,2.812278256044097868e-01,-8.246894313850038072e-02,-3.360459835816808627e-01,-6.283820476175925318e-01,4.765292869595390557e-01,-2.196546345177515791e-01,3.425249817320603074e-01
-2.290722354647325987e-01,3.599628897553659446e-01,-3.645658780810260291e-01,8.625148657554873588e-02,2.899920392171684846e-01,-3.016281367097983779e-01,2.211835406432264839e-01,-1.480564016783416370e-01,-4.809453511989116858e-01,-2.689424004358119125e-01
1.337590885070774893e-01,-6.443068857380031267e-02,-3.207122847271574040e-01,1.804217933721153910e-01,-2.119432898368325546e-01,1.740724794519027396e-01,-1.175651887112592192e-01,1.891058610353978930e-01,-3.228331808523625668e-01,-1.907812403024334025e-01
-2.779497323780024676e-01,3.986212921307529244e-01,3.438908564235703680e-01,6.231843950946356486e-02,-3.397170933750739627e-03,3.624411157612144052e-01,5.260246322973578109e-02,3.157631929943288118e-01,3.459448549648295179e-01,3.689348094444370729e-01
2.871406309734928636e-02,-3.257795207789758174e-01,-3.850408699082089742e-02,3.804716416986995697e-01,4.924954049563010638e-01,3.729814447245605180e-01,4.211444718837776824e-01,-2.444236201170694456e-01,4.455422228553941877e-01,3.318725157572989248e-01
-1.961912089663412073e-01,-3.759562703956852991e-01,-2.802606663162690026e-01,-6.996223603192891494e-02,-2.943110868032782212e-01,4.465220966934201341e-01,-3.697096270977636712e-01,-1.188338694707655185e-01,-3.103072442514167029e-01,-3.277413908872259807e-01
2.839438032413476587e-01,1.435745859669326496e-01,-1.716875701223456452e-01,-2.526179151076071716e-01,-3.209483970839185907e-01,-3.747334060866348016e-01,-4.694582928790487775e-01,-3.232239594984257502e-01,-4.654074312357600052e-01,1.196697463599498933e-02
-1.804263509854961700e-01,-2.404788635979467903e-01,2.064980350166562562e-01,4.342830313344443471e-01,3.813106147800328638e-01,3.538544361754170087e-01,-4.309083854953582593e-01,4.028250240709483898e-01,-5.414337073575414827e-02,4.887164336663617492e-01
1.642562186670737112e-01,-2.025600670440092510e-01,-3.210749012370427979e-01,-5.472836476280121820e-01,2.533573131466487771e-01,4.733838469662232096e-01,2.898150450277278689e-01,-3.466512862437040599e-01,1.856379174092251116e-01,2.599226741875984015e-01
2.576205220199867529e-01,3.576483003303483899e-01,-3.125023803605617712e-01,-5.028483971256281215e-01,-3.807503379598548565e-01,1.753686994505593566e-01,-6.562355934820194303e-01,6.579930788971173616e-02,1.138061053528896804e-01,-2.428921741964293890e-01
4.204458027077721538e-01,-1.983018548502022138e-01,2.670293384800669426e-03,-4.324038487379747858e-02,2.199160425451601175e-01,3.591654777578823232e-01,2.710053521592167836e-01,-1.046168911544773372e-01,3.962180885745408276e-01,-1.840182713514083579e-01
3.254766594064254503e-01,-1.949293092088794921e-01,-6.693004249268896810e-02,4.658111526079903968e-03,1.883827966310702984e-01,-1.920456891204146421e-01,-3.173024596029509481e-01,-6.108636508646350105e-01,-2.739026521191881836e-01,4.145603201266457871e-01
-4.499289776488625825e-01,-2.708321682373848738e-02,-2.263919590105365476e-01,-3.826228869362894858e-01,-1.479700292582651622e-01,-3.469663222589430829e-01,4.499946371592739719e-02,-3.354177169696007099e-01,-2.431997093999424542e-02,-3.735917168141150713e-01
2.222637166743722803e-01,-1.333075745077920149e-01,3.078244003989589750e-01,5.155003222945139102e-02,8.313718369863119795e-02,-1.474761158937159533e-01,-4.582545496134484142e-01,-5.505985949508610533e-01,-7.629569061636030936e-02,1.200847806532159973e-01
-2.962097584953500840e-01,-9.429831504853060375e-02,2.983948830431193966e-01,-2.351436319602250580e-01,-2.548135760664595462e-01,-1.577642312627018650e-01,2.105671106976219620e-01,-4.356689231999032463e-01,2.114412015391374799e-01,2.348846844992695526e-01
1.783508018852556776e-01,2.706831726305832797e-01,-3.255986239470745613e-01,-1.654725927621640558e-01,-2.206837783033180067e-01,-2.502927795370485375e-01,-2.006797934970956654e-01,-3.273681670652454634e-01,1.357067030765471971e-01,-5.214879905220215495e-01
6.709857852371290399e-01,5.256239915422028508e-01,1.908324455930826558e-01,2.004632329308826677e-01,4.298600525003069828e-02,-2.559493218492173705e-01,1.542927550383873803e-01,-4.096391984676830966e-01,-4.311699911052441769e-01,-5.653699438197317129e-01
2.575233307209984779e-01,1.162125368767087802e-01,3.079947640109328422e-01,1.278922168939840287e-01,1.092035292418327454e-02,2.245323654265404256e-01,-3.916145359792964631e-01,9.035452622966848313e-02,-5.079879317049132981e-01,-3.228972739558326199e-01
9.534689823289622668e-01,4.864316989104278122e-01,3.244871277911640095e-01,-4.328810810008992815e-01,3.537270435816405878e-01,-1.689124682730822335e-01,-2.399705709574980195e-01,-1.070963116811947530e-01,-1.753689239505246966e-01,-4.832288939435701591e-01
7.312153946263226789e-01,1.774314513316833930e-01,-1.844562671386034136e-01,3.497233499206929275e-01,2.111921825904559680e-01,-3.163860002925562021e-01,1.745766194856358255e-01,5.141992733309194014e-02,7.501353859640247368e-02,-3.676049383459973341e-01
2.473355826257813139e-01,7.413545549011760216e-02,4.662125592318955847e-01,-1.914571635692707136e-02,-1.212864344623515722e-01,1.969516304638568166e-02,6.964496849315300608e-02,1.908690867182123718e-01,-6.118856454273069456e-01,-7.965120295334894296e-01
5.265333013318181932e-01,-1.173519354638402068e-01,-1.528127325765336608e-01,4.603762932181248990e-02,2.773898737179159579e-01,-2.400581936490888413e-01,2.121967566074216965e-02,-4.241909222395318785e-02,-3.507676167948517998e-01,-9.686647065876252682e-02
6.362521072884266826e-02,4.838708222137090564e-02,1.712684434331094852e-01,2.915726267784871650e-01,-6.407186747246033931e-02,3.531353978557511680e-02,-2.471829074651093749e-01,-2.324059176352008260e-01,-2.849101141699676987e-01,-2.798804272275661753e-01
3.771270699385125269e-01,-2.833544229592332431e-01,9.876561271833397826e-02,2.397032788682961768e-01,-1.773762257130375997e-01,1.808683765555701983e-01,-5.412380372566499842e-02,-3.664576397100399729e-01,-2.479576402215822317e-01,5.885222851151498263e-02
-1.146172662462682512e-01,-9.394619162807606172e-02,-4.153051275516837781e-02,-4.846551767389855464e-02,-9.149406104239146686e-02,-1.887480114311357038e-01,-5.685292948037000693e-01,-9.513258114311051727e-02,-4.779353544415736454e-01,6.633287454379419024e-02
5.748023417949546521e-02,-5.067911181629103368e-01,-4.045310536069460922e-02,4.222813321198850556e-01,2.163077657419363031e-01,1.118872256368873136e-01,9.890325673982364174e-02,1.968251400138047724e-02,-3.960947847411318001e-01,3.540186262191346023e-01
-4.326815380327652671e-01,-9.570827961723307395e-03,5.880100266297072498e-01,2.667336701959529544e-01,-2.527003146614290041e-01,2.422956510388322715e-01,-3.939443741254168851e-01,1.655024892626346389e-01,5.290261329410576169e-02,5.783381129554024946e-01
-6.131727452486612773e-01,-4.386463402098255693e-01,4.787092124552980166e-01,3.822610711853393628e-01,-2.419037472717704418e-01,-4.275020033323848057e-01,-2.301640161776261420e-02,-2.437034864079394292e-01,3.666059264390951755e-01,5.034632220172463590e-01
-7.142537238643965614e-01,2.084800226402373224e-01,3.358077869920779168e-01,1.231045349082181273e-01,2.416736271842847283e-01,-3.162252458418399192e-01,-7.056203329792170020e-01,9.686227413792798668e-02,2.909146584870006547e-01,4.553707299454169966e-01
4.079688798733288602e-02,-3.322911493173261177e-01,5.081586697236911004e-02,-8.750606798342346060e-02,9.337602884082618626e-02,-3.108251601134833786e-01,-3.718580657365218034e-01,1.692357918887625046e-01,-1.271204383169188268e-01,-9.657588780109438442e-02
7.816111207224471502e-02,-4.362549869560846671e-01,3.826129151289284769e-01,-5.693225514524698216e-02,-7.019363893252401898e-02,2.397974824292125606e-01,-3.613351786095518325e-01,2.775969446796525131e-01,-6.423158527257299966e-02,-8.601681623805707000e-02
-4.233702157406946665e-01,-3.271956212808379005e-01,2.653142650829738991e-01,-1.840309804156346762e-01,4.626621640587238321e-02,1.815150935707733615e-01,3.081927545115092926e-01,-3.836233218158918712e-01,1.123179066676541493e-01,-6.383718904240538727e-02
-2.271098846775806424e-01,-3.061454386295445196e-01,3.223506230719678234e-01,8.804831379363083077e-02,3.852712886834489536e-01,-1.689633257197673544e-01,-3.665033540215575369e-01,-9.956407946201942250e-02,-4.377222717330907509e-01,5.685045585901894391e-03
-5.511508742584492887e-02,-3.708550923095493279e-01,2.440644197668738746e-01,2.614463878624940230e-01,-2.019952139744744801e-01,-4.764378148079646547e-01,2.521511816569468011e-03,2.066055254898941929e-01,1.922212406540615148e-01,-2.229921321470446638e-01
7.351145033382218419e-02,6.845631898546965244e-02,4.330482773314708878e-01,2.707066056435717960e-01,-4.732581171394449338e-01,3.676493802104282560e-01,-2.720281876694708584e-02,-4.695872056181953358e-01,5.953541175746298458e-02,-1.303212677730167524e-01
1.459484971763201910e-01,2.886088637306973292e-01,2.455748637706599638e-02,7.603143560097015696e-02,-7.279984074541574757e-02,3.667325233374278404e-01,-3.325908675212777554e-01,7.134129592712198931e-02,1.882870336743077133e-01,-1.224796562924213711e-01
-2.364082477205206034e-01,-1.974955832438906600e-01,-8.865276985847379831e-02,-4.256754317341366334e-01,-4.487842896811694016e-01,3.862602004132728584e-01,-2.391685169010867862e-01,-5.501258663761847689e-01,-4.593227098237711026e-01,-2.587749139706617130e-01
-1.941840061068223280e-02,-2.671020388984075011e-01,-4.275810613768069590e-01,-2.482694059336994497e-01,-4.913794360888624757e-01,1.498272172641780253e-01,2.845284075201934826e-01,-3.324029279017403082e-01,1.979068330429904210e-01,-2.028196887153381478e-01
-3.562790276649333010e-01,1.440001680379691951e-01,5.439460047378783525e-01,1.806307905936269664e-01,-3.993574295224217030e-01,-6.059869211339703465e-01,1.719082581842596158e-01,8.559297847849355609e-04,-3.039786869521066692e-01,-3.139268682618638895e-01
-2.048039556565833808e-01,-3.551595076011428431e-01,-2.322271956402839066e-01,-2.422512252298344160e-01,-4.567734558602251638e-01,-3.462076513183990657e-03,-2.399833630749675095e-01,-3.167668238413878790e-01,6.228563790630746722e-01,3.581904983455838631e-01
8.152967956680837180e-02,-9.254759695030485844e-02,1.576471750987638587e-01,4.279712659635044325e-01,-1.015720892094803263e-01,-3.789987151977616819e-01,3.961229304185542310e-01,-4.636255107585877111e-01,2.939025718392216380e-01,-3.086204934946365497e-01
1.334938486403114410e-01,2.367865179595706748e-01,-5.143986935715822995e-01,-4.597869398909974759e-02,-6.634144512995829301e-02,-2.092965047975938186e-01,2.187960417685652081e-01,-3.300025323213588990e-01,-6.617944107767447480e-03,2.386291413964005681e-01
-1.313727433794383836e-01,-1.659218100190763953e-03,1.563439278488221451e-01,4.826731929945429767e-02,-2.933647488310869300e-01,-6.327643514019737347e-01,-3.532215125868127248e-01,-1.507535601051749052e-01,6.211988028251155813e-02,-1.569258334505374275e-01
3.572463935324236561e-01,-2.918622923341651632e-01,2.020483015520264103e-01,4.428889685333149695e-02,-1.261454276634355887e-01,3.743481675812039035e-03,-1.327559380074798678e-01,-3.319862798867152520e-01,1.052185423658641844e-01,-5.383949138891039876e-01
2.454286582793395455e-01,1.845778410893393062e-01,-2.604072286642151665e-02,1.123388316178659668e-01,-1.550668115012062143e-01,-1.313513902456570070e-01,1.937571792760778289e-01,-3.276791132668296358e-01,1.477836704069545037e-01,8.328459380337782658e-02
5.873913721664645315e-01,-2.707845226567261870e-02,2.709788716074492121e-01,1.664930848700543406e-02,1.010950109805778402e-01,1.207567258283356593e-01,2.032281568106487912e-01,-5.974065490107819537e-02,2.265866627906897857e-01,-2.697580109327766817e-01
8.113749654264699185e-01,1.626321126457580812e-01,-2.208202445362244526e-01,2.200508490288019814e-01,-3.554791161757038243e-01,6.889915676421627666e-02,2.703722390485275850e-01,1.673924002351422358e-01,1.615924985020881777e-01,-8.671449356800333685e-01
3.290580555850695088e-01,1.047059214339631644e-01,-6.022290312946911722e-02,-4.537167398553973996e-01,8.797252649395513602e-02,-2.274825398399739074e-01,-1.730078189150533186e-01,-2.359038033533601697e-01,-1.162097557466509196e-01,-6.211374814154103641e-01
3.246836576779502104e-01,9.595152444895889421e-02,1.171512860219164898e-01,4.262629988251244728e-01,2.236134747787653365e-01,-4.521733019135381060e-01,2.206127408151130689e-02,-2.197952390893380403e-01,-2.904363648495378314e-01,-2.043726550246404428e-01
4.713099950728238396e-01,-6.539767262165874229e-02,3.573750542782456185e-01,1.217767869263987612e-01,1.043137297271161806e-01,1.322321088682952284e-01,8.159145591924354610e-03,-6.609200402981927347e-01,3.344304217970983095e-01,3.240398701743758547e-01
3.510827432933020242e-01,-1.086104701048610510e-01,1.942829861831125715e-01,-8.723936006541023469e-02,-1.607360301072487396e-01,-1.763463650690317019e-01,-2.987180132104350072e-01,5.458565479277029120e-02,-2.574472703079190294e-01,-4.602449632441019123e-02
4.112307717267959517e-01,-9.137653948147203553e-02,3.054338731230076265e-01,9.932755864901644804e-02,1.117804850674147810e-01,2.367003724486991534e-01,6.351363476446570192e-03,-1.460184902206044799e-01,3.373511171896822480e-01,5.684765265272619800e-02
-8.182833628765034950e-02,-4.073975091243902669e-01,2.382131047886139052e-01,3.861144856748520704e-01,-1.978119124065852441e-01,7.757787214864592107e-02,1.609128112692560231e-01,-1.858136932525905061e-01,-1.752307553523575756e-01,1.829827722684497504e-01
4.653941009842202381e-01,-3.430906587124708529e-01,2.402711881489028589e-01,-2.990337672578928865e-02,2.340470971675698286e-01,1.468652730600264987e-02,-6.102711125263259317e-01,-3.184611498431330068e-01,2.753233115348055482e-01,6.179514645909076759e-02
3.766617140168223576e-01,-4.274710320984808076e-01,6.450122353419157628e-02,4.234899144872715238e-01,-1.436851723049095142e-01,2.246740864130352400e-01,-1.514054994807191024e-01,-5.621708584301899903e-01,3.371606980295045464e-01,7.235103322143839055e-02
-8.257536195772239296e-01,-5.944936413558538080e-01,1.301863166539619643e-01,7.362286385289722457e-01,5.039351885842199286e-01,-4.612271698937049913e-01,-3.793632635757075988e-01,-9.334480319881587052e-02,-8.261386921673630201e-02,3.957251986305367897e-01
-4.241718023032792773e-01,-4.081550597071526565e-01,7.582121229935975260e-01,5.256508971838005362e-01,5.659690699340060860e-01,-4.409311202291623100e-01,-7.953377444340264946e-01,2.196979652822164675e-01,4.423330335078856090e-01,5.398128241361939139e-01
-8.552404689568200713e-02,2.392053597288966438e-01,6.614799373691881978e-01,-3.727942234926294729e-01,3.503148667294134211e-01,-4.452615496456240329e-01,-9.489772739884629049e-02,-4.953118607261820100e-03,-7.017310335898688245e-02,-2.665551519323378082e-01
-2.456573077582218101e-01,3.465037377098145743e-01,-6.022046851794934236e-02,4.902098338509032482e-02,-3.391664124153143112e-01,-4.117784689349983374e-02,3.065382238120888392e-01,-1.309445351168405658e-01,-1.878341182656352928e-02,2.770043489623418842e-01
3.505533178327522315e-01,3.466563300520574264e-01,3.420162797832255741e-01,-2.087175465151052123e-01,8.994466278163257278e-02,1.043159947303307633e-01,-4.443431703169326008e-01,-1.891979534508718142e-01,2.387451964382348857e-01,1.178124289324871954e-01
-4.792498933098242042e-01,-2.109407916402661343e-01,-3.695650418531589154e-01,3.901598253339889633e-01,5.773088090078603435e-03,-2.063343455062562337e-01,-4.689860773385433057e-01,2.802701467717415573e-01,4.243096966681526583e-01,-1.030995494341775953e-01
2.645821255629237645e-01,-5.707048042986402614e-02,3.888353138853217761e-01,-4.742051496626142337e-01,4.060083513392628296e-01,-2.618866957703339104e-01,2.002687498578652747e-01,1.332274389452329233e-01,2.829114449690473543e-01,4.577697028238410515e-01
1.572724188151342767e-02,-1.732291925967930357e-01,8.833883606671827371e-02,-3.691137243854690220e-01,2.283498537849927568e-01,4.506291816812428297e-01,-2.981437534196370032e-01,3.205986852334175019e-01,-3.491235284632451807e-01,3.996397662512321536e-01
4.840791540708771490e-01,-1.418469096377822369e-01,1.104377169644557150e-01,7.895245763832398067e-02,-8.000755152397634462e-02,-2.672327152251528504e-01,1.163471565758669446e-01,-3.920487455884217876e-01,-1.205584678231075152e-01,-1.151555761017134666e-01
1.520979129594777213e-01,-4.441381384390103576e-02,-1.689760659720652702e-01,-3.418798580720299740e-01,-7.992143281829440504e-02,-3.148047420403144447e-01,-4.810291269100754330e-01,7.145074257294004028e-02,5.087148961891161392e-01,2.816247607581524592e-01
4.129080575378671347e-01,-2.279815195512151504e-01,4.030281315638141737e-01,1.391463890628961420e-01,-2.254085653107015808e-01,2.918219277512304477e-01,4.654402754871204972e-02,-6.372803344194604147e-01,-1.334872922851462473e-01,4.916729745076344749e-01
-1.828732529240884308e-01,3.664817650337434118e-01,-2.833252199503406565e-01,-1.397849454251753332e-01,-1.675484405541010358e-01,5.020825440147411861e-02,3.368815785877573576e-01,-7.012465974537103464e-02,5.329344154094538544e-01,-2.200263845345136471e-01
-4.519616814823112505e-01,1.806000421461202987e-01,4.408838440304071460e-01,2.583685704823518448e-02,-3.012848778055455257e-01,-5.281833254554982870e-01,-3.017447868531541455e-01,-2.199725245060263901e-01,-2.142514043820662462e-01,4.630300329041974194e-01
-4.391241791676790962e-01,1.490756633199750714e-01,4.322744279829097702e-01,2.342253655551768468e-02,-2.864416808505186318e-01,-6.688593749898795737e-01,-7.842059175419721639e-02,-3.974551794169257635e-01,2.123752641608630809e-01,-3.720149586036342049e-01
-1.050627472453790484e-01,-1.766618090014222542e-01,2.668619877493506598e-01,-3.889874515820569700e-02,-4.414702240529475019e-01,-6.418669177034665996e-01,-2.324102216529309317e-01,-2.992222839040512561e-01,1.418415425410244068e-01,-4.214175483557367485e-01
-1.403573620237089092e-02,-3.030972281841430860e-01,3.509190451300657210e-01,3.527034585267421751e-01,8.903690158341337479e-02,-4.961920292590616399e-01,5.778985072138664858e-01,-1.280078959033328218e-02,-3.988969716450683767e-01,3.226098014389564006e-01
-2.841674176784950157e-01,3.212421003366396355e-01,-3.298070806759259010e-01,3.488007933708601738e-01,-6.887433198683248770e-02,-4.837695430319201018e-01,-3.062318521496543156e-01,-1.191397918392348571e-01,7.806493783033541245e-02,-2.995322188486170822e-01
7.131649642388284381e-03,3.250742608288348379e-01,-2.327760151823046186e-01,1.963458055386717582e-01,-4.243868787580936108e-01,8.792982693552763018e-02,1.911303602650600564e-01,-5.007026484595583637e-01,-4.576924991086798733e-01,-1.770573087738082363e-01
3.034449377034415529e-01,3.541304929129038825e-01,8.247559693610648224e-02,8.012146654131904744e-02,-3.942175140623458973e-01,4.557506549745374974e-02,-2.834345727305927487e-01,2.855308290639078581e-02,-2.800037628061744499e-01,1.700986806450096311e-01
1.127152698778511875e+00,4.439840732278340085e-01,2.912761916159062325e-01,8.069283467784808817e-02,2.975777010410725620e-01,-5.300133509179619229e-02,5.422199878768323433e-01,-4.715040527451490604e-01,-3.406230179909319200e-01,2.386729958803263663e-01
9.928172775950373508e-01,3.890592956147997383e-01,4.422677996301781489e-01,-2.134668544398919676e-01,5.879885825978925723e-04,-1.147860977387719916e-01,-1.008193182909858203e-02,-3.515060893923867558e-01,2.170647515824975296e-02,3.711226350186722645e-01
7.134984822522427717e-01,8.534258188057235184e-02,-1.310261882726915794e-01,-1.115084492826304459e-02,-2.166261862804819485e-02,4.569092828652711602e-01,3.419026469575411897e-01,-3.377807774930312590e-01,8.659569951051370243e-03,1.971426220322105016e-01
2.942817553252731755e-01,-2.968982770753388900e-01,1.385716205384733279e-01,1.109426637438276214e-01,-2.265333533085558682e-01,-3.022362530280614523e-01,-3.388657497536162189e-01,-1.997194676363041599e-01,1.793577220918017856e-01,-1.883131321355111312e-02
3.834346857922896201e-01,-1.895912131883235041e-01,-4.512552995838020609e-01,3.039415305307749393e-01,2.678553839352643684e-01,-4.186659457435877307e-01,2.063754374257290025e-01,-7.674325924139970834e-01,-1.804980236145270478e-01,7.134893093918366347e-01
4.563329075345368135e-01,-4.826125840508498355e-01,-5.112843273437945452e-02,4.637632666517048086e-01,-2.373155474020209321e-01,-3.680060835885403669e-01,-3.919372725683745173e-01,-1.854106291140805718e-01,4.716654379679630638e-01,3.836020475006424735e-01
5.350058782240501021e-01,-3.157745717297998911e-01,-5.014890829618250112e-02,-1.544952976698803215e-01,4.925825238317650401e-01,-1.855065050043269159e-01,-4.266518130996170832e-01,-3.539619849498574222e-01,4.118772532247411688e-01,-4.140664239176383016e-02
1.850382173481247006e-01,1.487952709827029263e-01,9.386818423746814966e-02,-2.552323528086190008e-01,-4.284495024337103275e-01,-3.994830806467850604e-01,1.645173400443658562e-02,-3.456780520272080270e-01,-1.554707812829240199e-01,3.334751302715802668e-01
4.444345458580261504e-02,-4.667803468628445307e-01,6.177094053952368602e-02,4.993891727832610594e-01,1.757209297133207615e-01,-3.688669164574939208e-01,-6.939109112646565936e-02,1.343797148794128871e-01,2.801599929675244530e-02,2.832483353496148548e-01
-5.026032789696698311e-01,8.229098567026654765e-02,8.020526063830514252e-01,6.611622053597154824e-01,2.358754281333912406e-01,-5.995303881225811926e-01,-6.083701874445650581e-01,-1.629521511447119264e-01,1.125413229572535534e-01,3.626736823870742032e-01
-7.779327576158989732e-01,-4.184154545397003599e-01,6.146736535719722339e-01,5.939579383350446218e-01,1.659986721811518295e-01,-5.975898218149326979e-01,-3.208256501389334381e-01,-4.154697274521716444e-01,-4.326629811165890183e-01,4.426874100720334937e-01
-2.545278635119607169e-01,3.205725613727586909e-01,4.507764752334569303e-01,-1.551099137601931188e-01,-5.149988730965993078e-02,-1.378145289130794648e-01,-1.661538775779080115e-02,4.060045498216331428e-01,2.232078177132848784e-01,-3.663490780152497406e-01
2.438775446485926257e-01,-5.161500054891915434e-01,-3.310703908681075780e-01,3.978981424008373735e-01,5.169730606633090586e-01,-2.051360380147021836e-02,-1.043774642815046005e-01,4.832195942359298058e-01,9.901086477406374764e-02,5.081780626382872423e-01
-3.421952840765150050e-01,-3.034206353892222041e-01,1.149814293226329165e-01,-5.901069952765608528e-02,2.755056558206391282e-01,2.532868837841121823e-01,2.559735820119193872e-01,2.086115782710291633e-01,1.198881159008077096e-01,2.211473302683037989e-01
-4.906748946928651267e-01,1.954808115682314662e-01,2.462445528849702692e-01,1.320056571105577281e-01,4.638652167915852664e-01,-4.043270421673484383e-01,-3.896440101368843778e-01,-2.862419008935277454e-01,-3.163471706710468956e-02,-3.422106278139255275e-01
-5.969671850653886225e-02,4.877427145551680443e-01,-2.730583800560903440e-01,8.777346345882315604e-02,2.783162206674281713e-01,1.482048881467228352e-01,-3.384250121007056911e-01,7.678507633147377276e-02,1.532723924567467588e-01,-4.269442654755119526e-01
4.869507113856932912e-01,-4.306231027895943697e-01,3.092448372083261288e-01,-4.912680311101249031e-01,2.428961290035472342e-02,3.736738305258098802e-01,4.843273155166559762e-01,-5.486053593027053754e-01,1.865171322930702091e-01,-1.143699645547448240e-01
-4.004763286707190839e-01,-1.358996217649703353e-01,4.111569995427548085e-01,3.380606960709922060e-01,-4.383979452540276434e-01,2.534068681739967688e-01,1.623416575534102346e-01,-4.339437838521233437e-01,4.229440538849817133e-02,-4.289216969486277509e-01
1.533762139588208395e-01,2.712507832520502649e-01,1.260896445726727155e-01,-4.937815765487524322e-02,1.803995124354218216e-01,-9.952851499893390630e-02,3.019409936209141443e-01,1.352905250136826054e-01,5.069144278579671564e-02,4.021298546226011877e-02
-1.759388390508694333e-01,4.004595931976637213e-01,-2.486590467708645613e-01,3.435764036755051265e-01,-6.207751930467667600e-01,-7.377666962584919497e-03,-4.560384709620981525e-01,7.034565973642446790e-02,-3.386657978124231749e-01,-1.336999768273498257e-01
-3.050668897727247253e-01,-1.599153494395391117e-01,3.120337815114307412e-01,5.237890186784776025e-01,1.046623397982411885e-01,-5.391544242155817956e-01,-1.666183261783417136e-01,-4.103291669686882082e-01,4.884964498444550607e-01,-2.689546413010446280e-01
2.116934870567274141e-01,3.808808757469654971e-01,2.960875544763814093e-01,2.353509674241467675e-01,-5.790764172530806775e-01,-2.489453828835573868e-01,-4.843097722696648733e-01,1.097975855757011565e-01,2.018737073729831855e-01,-2.310532179192019142e-01
-1.895631478472198095e-01,4.488259856124854341e-01,-2.916806263883795491e-01,5.434522822141817366e-01,-3.473803737989504259e-01,1.609983738176014867e-01,-3.995314186060771600e-01,5.237968969655039109e-01,-4.143040421339982404e-01,-1.471087411227075537e-01
-1.795898082917845306e-01,-5.405769712211307143e-02,1.167461298566177946e-01,5.406715346914010567e-01,-4.467629098940233134e-02,3.050656443729847789e-01,-2.094680723935123112e-02,3.067796295637846560e-02,1.598808804434506681e-01,-3.244906992650298805e-01
-3.437442649230833536e-01,3.301349625805928834e-01,-9.385706434726559522e-02,7.668139518493838347e-01,-2.780897324670411619e-01,-2.639958410967738756e-01,-3.756951312589477676e-01,1.393693282558035873e-01,-2.212322788455517442e-01,2.646209638789487339e-01
-2.910473028760621195e-01,-2.633469400401490801e-01,4.916991138579097642e-01,5.634245391157605143e-01,-1.951157005973608582e-01,8.297415983228001446e-02,-6.591726061326615670e-03,-8.262700292390966206e-02,-7.470134266154732083e-02,-4.942755450152992447e-01
-6.967765352083823416e-01,9.017828094305831155e-02,2.490922237417395602e-01,8.635850164477806290e-01,1.376184166993835445e-01,-4.631739912744449739e-01,-4.373685952752109918e-01,2.483407418571101644e-01,3.437267451831544918e-01,-1.408183813163759179e-01
-1.200177339083724759e-01,2.666527280394891397e-01,-1.179334562657653879e-01,7.025529570141400004e-01,-5.898449907663443070e-02,4.715589322454306620e-01,-3.649180225674571454e-01,-8.156732015698681115e-01,2.373174983491118661e-01,2.102245017067886496e-02
8.897851890766601546e-01,5.861024827672518533e-01,5.276794711119853210e-01,-2.577094780809494057e-01,9.079702720438458108e-02,2.282418078190043276e-01,4.696106820452138758e-02,-5.945536251060086208e-01,2.183171579256417971e-01,3.533208553805133323e-01
3.688054606563630489e-01,3.558158491893214648e-01,9.288872558854298356e-02,-5.323072725986924963e-02,-5.323296782704283608e-02,6.765632136649532002e-01,-3.582985831091320961e-01,-2.985015279876445105e-01,3.023941484054232243e-01,7.860374858176246704e-01
5.340889405962025993e-01,-3.415399437416792305e-01,-5.543388968956352025e-01,-3.083846342630447990e-01,-2.896067948985056040e-01,2.402225857566532841e-01,-7.542752961111313936e-02,-8.040723701976593141e-01,6.002423115925106245e-01,-1.059105383117426302e-01
6.767704894682058381e-01,-3.818353171712468574e-01,-6.543164474271770392e-02,1.187163689517717752e-01,-3.306419646252482802e-02,2.003084729283146626e-01,-7.749339497891479835e-03,-5.474602609976436662e-01,2.877950683809157306e-01,2.298954100877090567e-01
5.769556350632347730e-01,-2.198169357492000403e-02,-1.051831454642973285e-01,-2.710278092164408736e-01,2.115207048870184625e-01,2.718123811078703156e-01,1.204881345857817115e-01,-3.860538455565422078e-01,3.397267554869399797e-01,-3.949961568228224085e-01
1.674375012651241335e-01,8.585968918151504203e-02,2.900138507539787858e-01,-5.216679072221904606e-02,-2.112683411638421049e-01,-2.752332343772443957e-01,1.026301108290586100e-01,-1.299506437813384430e-01,4.258966545855004115e-01,1.581420357473584636e-03
3.898720438724266879e-01,-3.204640582071498489e-01,-1.639110147452414734e-01,2.975050747202577228e-01,-2.990659938029486264e-01,1.380883089836537625e-01,-1.228575730795055942e-01,-4.526031473752648582e-01,-5.647598892637151202e-02,-3.236248165630851159e-01
9.356949835450727448e-01,2.056443054052972119e-01,4.915836844416710538e-01,3.467570811481132664e-01,9.971876322920257552e-02,-5.425265672629143721e-01,-2.357801915036512319e-01,-7.071083642932443625e-02,6.087403654806604614e-01,1.469776039860800076e-01
3.105948220277532923e-01,-7.056283547990048477e-02,-2.553477816443672221e-02,-1.036015330973553000e-01,-4.118616985156948740e-01,2.044089544351243848e-01,-1.602273042895836497e-01,-2.544695685983942579e-01,4.875525501919293347e-01,5.282314654756312122e-02
1.656378936895686049e-01,-4.768000403478163673e-01,3.677417311198368788e-01,1.989369113782883391e-01,-1.406625703908651603e-01,-1.440119758351340873e-01,-2.137131010539118636e-03,3.133480646866512037e-02,6.025517022600435091e-01,-4.305318424708927116e-01
-1.491557061620579494e-01,1.934799379498095551e-01,2.179938532109806093e-01,1.148013356708034727e-01,-9.762690128880090190e-02,-1.385525138900924325e-01,-4.286720674717154900e-01,-1.653915093819557924e-01,-3.973255872361798891e-01,5.080636295851687773e-02
-6.775581503124594729e-01,-4.566336633410321144e-01,6.243448180503448075e-01,1.961734955264117161e-02,1.222485972365296436e-01,5.817036009874639729e-02,-3.627583918755513115e-01,1.504048060358214867e-01,-3.942472793068304004e-01,3.161477054029790956e-01
-9.318924536379941115e-02,3.823758925035067313e-01,-7.489620936997846978e-02,4.100839111167134399e-01,-1.637731267984735839e-01,1.338115420226860530e-01,1.862970117883907539e-01,2.818481015281251167e-01,2.470867053586661144e-01,3.088448918224573347e-01
-4.711020014783826731e-02,4.791796561727047765e-02,-3.231862141370512309e-01,2.368336386557239048e-01,-4.581164831154823647e-01,4.585612801369270408e-01,4.333426043908513714e-01,-1.861503064097234095e-01,-3.513242528025977141e-01,1.813478110593707837e-01
-3.416710904373450042e-01,2.530613763976085062e-01,-2.833253881031673194e-01,-3.707239578119729262e-01,1.223073194568429223e-01,-3.203454453802735968e-01,9.391477654071044012e-02,3.126433088039288766e-01,4.162136628666061045e-01,6.607774825979229050e-02
3.150986811960160283e-01,5.958964261595192657e-02,4.554447973802623340e-01,-3.454404680251235010e-02,1.451374766876622480e-01,-3.633112072992963348e-01,-1.005414071870448650e-01,4.179787509526365907e-01,-2.275057585278824901e-01,2.350496118191975903e-01
-2.099476016493338672e-03,4.193725242164185185e-01,1.206860902581213674e-01,-3.816767795036345168e-02,-3.725634432833550558e-01,-4.821588509864153105e-01,-1.834057994405846256e-02,1.443069210586883123e-02,1.624934693034628952e-01,1.975120573160089599e-01
-3.877607152392006373e-01,-1.088547146986400260e-01,2.317603164603534716e-01,2.808327222339276341e-01,-7.033251685697121391e-02,-3.728845047969506776e-01,-1.379406792213731525e-01,-2.322732663452130863e-01,2.519064964399558848e-01,3.946833573508490289e-01
-2.897240567597005323e-01,2.846192280059550161e-01,-3.109677748630849115e-01,4.404077460729199367e-01,-7.339736793078188541e-03,-4.714410176641544159e-01,-5.502493627266858978e-01,2.457730948366221857e-01,-3.562813969507363510e-01,4.618713277581504850e-01
1.614854095724479743e-01,3.218157256654043952e-01,4.329485099184911534e-01,1.347292946717549289e-01,2.995734727932410912e-01,1.022540981250699282e-01,-5.077954704757153825e-01,2.698537483040927554e-01,1.667633202416732574e-01,-3.812972621866360656e-01
-3.470671254828563423e-01,-1.699416294914483372e-01,-1.088788447426009831e-01,5.859328493982463026e-01,-5.886708667289325403e-01,-4.983552962629994587e-01,-1.594979608765036694e-01,1.826197559158211081e-01,-2.759728826194992463e-02,-2.778616864762529226e-01
-1.459495667865825796e-01,3.505967263474851214e-01,1.695940433536456959e-01,6.664927192667702283e-01,-2.504629562241817986e-01,-5.103538946433576751e-01,-3.757300813812531476e-02,1.972424903105096106e-01,2.362589837712634477e-01,-4.417122094230616774e-02
-5.902133913223867046e-01,-2.288655014905395246e-01,-7.572711206567550590e-02,1.096550484004519488e+00,1.473132470787936847e-02,-1.002273765918900161e-01,-3.929311471070928152e-01,-2.650167795642464075e-01,8.277537123962977472e-02,-5.376430626470565105e-02
-7.317995670335423197e-01,4.354999601946741850e-01,4.720361923702928730e-02,6.502622695771790307e-01,-3.861615173471313889e-01,1.598612305229478447e-01,-4.061953009709926010e-01,1.692791475332413795e-02,-1.574219513779878954e-01,-1.086851098658973419e-01
-5.866454555178568508e-01,-1.827076319435784191e-01,-8.538227286654005710e-02,4.904932117718796003e-01,6.344488861811042879e-02,-4.646468784893361126e-01,-3.454391823806823303e-01,-9.234970915341601458e-03,3.505514327678454500e-01,-8.249043954039828042e-02
-6.110617577602570627e-01,-2.335342934907687698e-02,-3.254492043423988790e-01,6.343875950092439098e-01,1.310281659997800385e-01,-4.109830190414339723e-01,-2.004495675314412473e-01,-3.293001042179292126e-01,-4.810797062473297636e-01,-4.089899538551260982e-01
-5.767570617664706800e-01,-2.344360478999854558e-01,4.888780402445613293e-01,3.060432422363782434e-01,4.630812750111281129e-01,3.412326114594245730e-01,-1.247285633122847404e-01,-3.672898840315570457e-01,-9.267609684957463234e-02,1.451926670902753680e-01
-5.771676547267249324e-01,2.060537100234433594e-01,2.424905250299097259e-01,3.610054389186566071e-01,5.716026596315397779e-01,-1.058812306667354375e-01,-6.118556307757365698e-01,1.318231110350657209e-01,1.598996892022841176e-01,-4.468488210882291117e-02
5.103196416971622629e-01,3.331195360616948098e-01,6.571893644936223078e-01,1.029039030018370632e-01,-3.654103940241429371e-01,8.734722663925849062e-01,-2.330283558183112169e-01,-8.231503344146127998e-02,-2.781018125570977606e-01,-2.294468453519399043e-01
4.509178396922208232e-01,4.459245428928382826e-01,-1.997005459842981223e-01,-5.073648738214440179e-01,9.149134933629084199e-02,1.330076498857569178e-01,-7.680220676444546868e-01,-2.501573183020727176e-01,3.478418121720637246e-01,5.727449476124467642e-01
2.089209779701531045e-01,-2.301645136453906934e-02,-5.852028127903083909e-01,1.514918846226283033e-01,2.839697851743552270e-01,1.034052324870591288e-01,-2.854475345633291083e-01,-2.510803755109660140e-01,3.180823655077251733e-01,2.114698561431992974e-01
-8.486635447550670841e-02,-3.390875967519956652e-02,-7.246790496674980486e-02,-5.557578587794874403e-02,-3.984612216955708830e-02,-1.193668697638349818e-01,-6.047309507534157635e-01,-3.109899503261042142e-01,3.506518406060658011e-01,2.285679433905863367e-01
5.673080024045193959e-01,2.021916091521373526e-01,-2.998921832796900278e-01,5.242738802948083698e-01,-2.668453499264311080e-01,-4.107821838070417897e-01,2.587574572607096446e-01,-2.579527566902590219e-01,3.327862527346851507e-01,1.682655348445466145e-02
3.903447960549131790e-01,6.770118074594626278e-02,-3.485791891476842652e-01,-3.043982718446600622e-01,-2.585361505481680311e-01,1.601271943559082755e-01,-3.754070955299011469e-01,-4.408477521762221851e-01,4.152474945436023801e-01,-9.609168139031872002e-02
7.221900897871378344e-01,2.329199625649129579e-01,1.981352134986719693e-01,2.873459751018796471e-01,1.513447300434402065e-02,-4.591805826537616042e-01,3.533548904079649722e-01,-6.507874071734694003e-03,1.868493544690356112e-01,-2.724637001907874723e-01
9.921299431389338230e-02,1.345800226904318997e-01,-5.926497334890594715e-01,3.985706387069941070e-01,-4.953541300507821044e-01,-4.312509279383904270e-01,9.828073612097593115e-02,2.306388873233879422e-01,2.466055565737508282e-01,-1.450960813716451192e-01
5.902166235106552916e-01,2.824576056764050991e-01,4.856301553296923923e-01,2.689296178404913529e-01,-6.545824902021382119e-01,1.699005113151366986e-01,3.504959034304622745e-01,-3.007901426962049096e-01,-1.473008979145275787e-01,-6.654014514550997683e-01
4.804339436292081045e-01,1.086744955732683914e-03,1.723187918988313139e-01,4.816342508379309884e-01,3.572036095198602990e-01,-1.637275020743519938e-02,3.465618031405100496e-01,-2.756865830939167483e-01,5.490300521801096956e-01,-1.924030046324257670e-01
-4.644804294593571359e-01,1.409679372952440946e-01,2.727926670867109049e-01,-1.116931056730061655e-01,-7.541110503044300140e-02,-8.975307458525905169e-02,4.210448397533160247e-01,-3.678439514059794191e-01,3.073734764293959421e-01,2.039717844947885605e-01
3.467514848614958733e-01,2.735592242198818247e-01,9.032764217215399905e-02,-2.602077823384512656e-01,1.419172711723084568e-01,2.103349010500024097e-01,-1.682817018687199628e-01,2.400646253722556467e-01,-2.520573574831351249e-01,1.817119544067885284e-01
1.047730679214591426e-01,-3.121848565354691796e-01,3.305948875232643802e-01,1.548096235549462907e-01,2.089569552141560538e-01,4.315147024753466232e-01,2.091300089808842966e-01,-3.588752618282292084e-01,9.544840769529470970e-02,2.685118762943317638e-01
2.412727062549571699e-01,-1.402353921423500627e-01,1.906739078135530618e-01,3.983775093280313429e-01,-3.496656891063848471e-01,2.712532877043652424e-01,2.280819283010756260e-01,2.812980240631384188e-01,-4.751031490903468435e-01,-2.719757160948718666e-01
-4.272953543669849585e-01,3.082867960079930802e-01,2.603613195608386888e-01,1.741206104007866351e-01,1.326732939814399825e-01,4.970841716133407862e-01,2.209330157806933259e-01,3.101220636365562694e-02,-4.565215596090925199e-01,-4.317437181117442790e-01
-3.050465397724080319e-01,5.069246112765297685e-01,-3.698545062444968945e-01,2.867996468020890255e-01,2.902401913204499251e-01,4.166591594780398311e-01,-4.962415360352772087e-01,-4.418564134213990857e-01,1.987576333514149141e-01,1.984500227409946860e-01
-2.818255392450975672e-01,5.619729961353077397e-03,3.640061840607678456e-01,9.086200689457892693e-03,4.269192736889623196e-01,-1.556983930839780650e-01,-5.709976842970140853e-02,-2.248769497432950293e-01,5.312549711882755960e-02,5.213970519353725713e-02
4.829920541049508298e-01,-3.810696197909926308e-01,4.014198272656953614e-01,1.191619375951307597e-01,-5.639382533425290472e-02,1.374059722969489528e-01,-4.711224636364688689e-02,-4.236962723822326748e-01,-4.265648844559734587e-01,4.383516354798891457e-01
-1.407330251527433018e-01,-2.249400455551826480e-02,-4.446948084858324268e-01,-5.635307876034807706e-02,-4.573322895380461661e-01,-3.984495151977930361e-01,9.836529564115624458e-02,-1.142683929848428981e-01,-6.101245295716565403e-02,-2.670121093843980664e-01
-5.236653450349604971e-02,6.563907333106714370e-01,2.328776111453058906e-01,5.875817902678107801e-02,5.134403592190635995e-02,4.520758415621183857e-01,-5.721985086735522641e-01,1.978360398474519055e-01,1.099155916497211866e-01,-3.027400496578125932e-01
-5.395765302381987372e-01,2.022244242119902724e-01,1.622276555386469865e-01,4.935747928163589093e-01,-3.560756604419967886e-01,-3.245319918706753848e-01,-7.241998027400797788e-01,7.258017651510507984e-02,2.905499949496710976e-01,1.635916831006234695e-01
6.287629065931917005e-02,1.736127469890498265e-01,2.258167484027859273e-01,6.319188295215846241e-01,4.444351881054489084e-01,-1.107423607970262069e-01,-1.909858768988910438e-01,5.848238286129555652e-01,-2.299614272233092283e-01,3.705923840724294482e-01
-1.828723142296273807e-01,6.447825560403541711e-02,-1.652262539257419796e-02,4.956544105405296108e-01,-3.060832314688144429e-01,-3.098732756965162372e-01,-5.853638509512539834e-01,-1.029925103520759472e-01,-6.170405818965837841e-02,7.338981191060818532e-02
2.358477071673278636e-01,-1.074000746609964779e-01,8.435794531255152995e-02,6.836329925312795153e-01,5.068538060728764449e-01,-1.409017111037715042e-01,-3.687276487164042188e-02,3.203960540750601105e-01,-4.978068087592112390e-01,-2.035101058989126077e-01
-1.396887552622209649e-01,6.400069324005408511e-02,6.012310083147537343e-01,2.400655238007223247e-01,4.495910389907444293e-01,5.953655749451504386e-02,-2.578769630853627315e-01,1.283924083521051918e-01,1.603807402509425592e-02,3.902921936714754403e-01
-5.770963510034012867e-01,1.455883949431604485e-01,4.976136432024727552e-02,3.657343116444659592e-01,6.808946909033148920e-01,-4.816585998129504498e-01,-6.660095573921656076e-01,2.693353135866853876e-01,3.414817576724148429e-01,8.701555452018149006e-02
-1.203730520990186070e+00,-1.471792487160475116e-01,1.759323734125557426e-01,4.417678431189170363e-02,5.883855420170974737e-01,-1.377620457627073414e-01,-1.823918267646996993e-01,4.898205898751066822e-01,6.795671970896566272e-02,-9.003361798666954796e-02
-7.667078607322747041e-01,-4.491546092557915371e-01,7.888709284747386086e-01,4.573750561226176958e-01,-1.500900782310194970e-01,5.507555364364068451e-01,-6.894058605076914814e-01,9.656792304382952885e-01,-3.156343201555266154e-01,-9.686530274287506737e-02
3.196769903689553605e-01,1.445953606072976072e-01,8.444736585789353045e-02,-2.143569501240793762e-01,-3.956038122778222643e-01,3.934741550334533433e-01,-9.954121138557165960e-01,5.877711858025408409e-01,2.063329932774845832e-01,-2.658480747670622923e-01
-5.426902750024784755e-02,3.081037915767599888e-01,-2.821885953942295244e-01,-3.774277213253835472e-01,-5.781509986043700117e-02,1.579799159022670929e-01,-2.555384259230193411e-01,3.121754975642656582e-01,2.920749680419654770e-01,8.988410753383965085e-03
-4.642768995309331506e-04,2.494574965733376282e-01,-7.551311718928278571e-01,2.131525111033680531e-01,-1.000683987896501537e-01,2.864154314910094534e-01,-3.655683345111126470e-01,2.333615571625626828e-01,-2.138685461901722873e-01,-1.082196520636078269e-01
1.844714288231941168e-01,-1.047401573332422536e-01,-6.562318806689846351e-01,-2.619247047438084675e-01,4.346108484435100283e-02,1.749448171453718281e-01,-2.736710384325127809e-01,-2.517195263233210079e-01,1.573748427937136374e-01,-6.331640448080846362e-01
2.772332078204094996e-01,3.412397543247870924e-01,-4.069005463093790520e-01,-2.020407304907669011e-02,2.878184203736934843e-01,-4.647138993447147426e-01,-4.772430255838402968e-01,2.547200271275982808e-01,-1.985645504817587781e-01,1.256510086450537134e-01
8.375157765470457594e-02,-1.802420534273411340e-02,-5.361488578041465614e-01,-5.773296410237550337e-03,-4.263771168203452921e-01,2.574831474359961722e-02,9.008704178501418525e-02,5.667939567598218042e-01,3.111485473486306774e-01,-5.008601987150959056e-01
3.976680537559184048e-01,4.135396601688066109e-01,-5.295724801781517277e-01,2.465282862344590764e-01,-3.169537540176102230e-01,4.968176035960010506e-02,3.912200661278837643e-02,-1.996834168420454358e-01,-1.924265881906245534e-01,-3.532927152667937332e-01
2.831943789268110967e-01,-1.132401142114331238e-01,-5.001284905542602299e-01,9.985156424157044797e-02,-4.175407317855347328e-02,-6.516925921927643750e-02,3.586746205611540117e-01,-3.651410176503996907e-01,5.975984321389862242e-01,-9.757860977095490773e-02
8.288550993856352855e-02,2.453197423584389247e-01,2.495193913919718509e-01,-2.749028966905369131e-01,2.532527347524979877e-01,-4.582838094388405614e-01,1.533015872276374814e-01,6.060004640092549189e-02,4.270329902470779704e-01,-4.018978188383920958e-01
-3.547119175268064195e-01,-4.920496274412949206e-02,2.627471090231006667e-01,-4.340256499913431876e-01,-3.239691534081226565e-01,-4.341162804307449052e-01,6.248128866655169311e-01,-3.639186981538524712e-01,-3.453382071375759449e-02,-5.324206607566042138e-01
-4.871770456708039432e-01,-1.999378069883355480e-01,5.705354863729816817e-01,-4.521360997524410952e-02,-4.102346190905606371e-01,-6.003905817326257721e-02,6.491293845499688242e-01,2.947968101736554436e-01,4.542830631806778902e-02,-3.421071405652679753e-01
-2.597763311952765997e-01,-2.806305095766948865e-01,-2.511392074218494197e-01,-2.008347718819582239e-01,-2.479051145972035186e-01,3.141567724893094549e-01,4.304336470098666669e-04,1.510814437212984196e-01,3.718905970126502591e-01,2.348983785105076827e-01
-4.092962624493960977e-01,-3.060018102188456490e-01,-1.767292105176479777e-01,1.253952943132512488e-01,-3.096764904221181447e-01,-2.454026826676629913e-01,-4.796383152512391779e-01,2.679084774513024181e-01,-2.494530812895359440e-01,1.337166474849667275e-01
-4.791924202504982966e-01,4.861870650691751949e-01,2.035881493724724656e-01,2.357127113307992128e-01,-3.880307279414425825e-02,-4.322909402412076774e-01,1.512479748107675437e-01,1.183822221867636554e-01,2.548361268792185275e-01,-1.497114978370170102e-01
3.879828803263317138e-01,3.013356746218419646e-01,-4.040677187018265615e-01,2.571356052529142899e-01,-2.833392460706914417e-01,-1.991219679992185521e-01,1.166026015599636867e-01,-2.648219453042691685e-01,-1.762832541306763035e-01,1.556418824266916218e-02
-3.516910477982786998e-01,2.639204747613292379e-01,4.703267742145067487e-01,-2.193981037633644382e-01,-2.925841823554728993e-01,1.797153180218644397e-01,2.733540040982081476e-01,3.095918949746330751e-01,-4.438092385883658508e-01,4.660953215252112147e-01
2.199687883671624100e-01,4.633672584996056387e-01,-1.420855512412944888e-01,-4.883064433089942535e-01,-2.895944725073909543e-01,4.483316962454316768e-01,2.721868920225659627e-01,3.507199696496982044e-01,-3.967614016053684911e-01,-4.062114146607550547e-01
4.295080552270799656e-01,-2.653940769615795170e-01,-2.652716515566766464e-01,-3.052660232190917422e-01,3.512141179471517383e-01,-4.098452637695880196e-01,3.698148875200577002e-01,6.231881383338595121e-02,-8.439937195662787495e-02,1.747167522829445874e-01
1.956668728416775804e-01,1.674212041291521236e-01,-5.278325767938434332e-01,-1.758479215730113787e-01,-2.998465098125047690e-01,3.031444303302863741e-01,1.050247826818914570e-01,-3.001979650520169574e-01,4.030261071964933578e-02,-4.647584910250291967e-01
-7.298219305972125648e-02,-1.317659239610141364e-01,-4.558334555446661995e-01,-2.880837353527341410e-02,2.519070704054061083e-01,-8.857381274937452253e-02,-4.561584495163460429e-01,4.298261892150816860e-02,3.322259863930213108e-02,3.072034792686774152e-01
-1.807279154193576209e-01,1.454168579425060316e-02,2.147009286323422472e-01,5.764523743361773533e-01,5.141864713089129291e-01,2.854523777145158148e-01,1.640473464129423853e-01,3.926463864310278384e-01,1.541271607718947001e-01,3.488195363444380748e-01
-3.751878098191588351e-01,1.155980461171020324e-01,-9.262362945783395030e-02,5.219886894514002007e-01,5.295990225210225333e-01,-3.235054929668330637e-01,-4.613296255393248280e-01,-3.064990276715230666e-02,1.231561980800002787e-01,3.062800191802628191e-01
4.438393459124260337e-02,4.412059089740735796e-01,3.104979306566094666e-01,1.063818346969121198e-01,4.480955322365957061e-01,-4.752587425084616179e-01,-1.932057283750111820e-01,2.825000222933621297e-01,-2.428555473806698617e-01,4.591410414167553800e-01
-5.475716268556609645e-01,-1.420406523523669029e-01,-1.841048207289771310e-01,-2.437660808656547107e-01,5.610317013252235085e-01,-3.154166712983715037e-02,-6.283315061608717444e-01,7.096198920447240044e-02,2.770881902998436619e-01,-6.283719499001716446e-02
-3.467386304672093189e-01,-2.378042283258316736e-01,-3.098758552620254347e-01,2.769801146620095023e-01,1.989390560989147405e-01,-1.956861305310164945e-01,2.124215603843837216e-02,4.519359422855828701e-01,-3.376532087361377443e-01,-4.291710118350484937e-02
-5.416221393585162192e-01,-4.666697267835804852e-01,9.775680232550523763e-02,-7.142583608296369790e-02,5.210855286865367919e-01,-6.629516510384101391e-01,-7.414659448357595328e-02,9.778871714513319782e-03,-2.773469116277602620e-01,-1.286316592366596179e-01
-4.502850136065621456e-01,-2.935880412440833864e-01,3.318978330531202059e-01,-2.501193303666143231e-01,-1.056264007885917150e-01,-2.775303342955571240e-01,-4.572405271126800397e-01,1.928641294157562303e-01,-2.674907768869722591e-01,-3.135256882009885837e-01
-2.117599520913045763e-01,-2.767960798347475770e-01,1.709445657907942839e-01,3.540109006931191349e-02,1.066900291098768633e-01,4.600882485880219419e-01,-3.072731365753941790e-01,1.005870350296214522e+00,-1.763260063382233057e-03,1.715800800798320813e-01
1.356844096777796160e-01,-6.697707933718249906e-02,3.682164700359252252e-01,-3.518280653067204500e-01,-2.684944409951380354e-02,3.513992530016313287e-01,-1.230305725198999334e-01,8.767895212036767028e-01,-2.552779299446384376e-01,-2.155254142635655568e-02
-1.348870119154397529e-01,3.250375333555323709e-01,3.850778773561574359e-02,9.887098665623197946e-02,-4.449967919681604434e-01,2.851141047377697690e-01,-5.217495352660025398e-01,3.367531578084617117e-01,-5.399472705312517995e-01,-2.870179433822165824e-02
2.079463516679798951e-01,4.006913924368143420e-01,-2.138465082244190574e-01,1.621389446520889732e-01,-1.221244942265728439e-01,-8.772313060505970705e-02,-3.901760235306506175e-01,2.546270684601393830e-01,3.133908131152992049e-01,3.843888678539054971e-02
-1.811880610082531595e-01,8.591432858375255832e-02,-4.178532860667727444e-01,-1.038943392052535525e-01,-1.490955255596607409e-01,5.242919882536186543e-02,-4.570931254697108703e-01,1.987826571832772005e-01,2.248955787297327313e-01,-3.709354668820080692e-02
1.625060308622578720e-01,3.721545463542437204e-01,-9.532778258577602470e-02,3.455080332819943090e-01,-1.787703411031979217e-01,-3.864946671720577154e-01,-1.270098605289945448e-01,4.737343929653953789e-01,-5.537630913564431379e-02,-3.460127343901673314e-01
1.813851502570411681e-02,3.001802994717489015e-01,-5.282397018902369457e-01,1.131215196885874963e-02,1.744794286715714293e-01,-4.152309087666706811e-01,-5.947657233483488737e-01,4.015115284519727989e-01,3.880819466360974079e-01,-5.357127893792391210e-02
1.344854304720385363e-01,2.471835715104132025e-01,-3.874664632674509335e-01,2.549951893489555421e-01,-1.738651373797051036e-01,-3.114517208312195251e-01,1.352037539095539975e-01,6.027082840618521731e-01,-1.586759752646584587e-01,6.743567209093979942e-02
1.277664393552515598e-01,5.257215096737758442e-01,6.293179834186850286e-02,9.991222856784330586e-02,2.625108034493748854e-01,4.494211915946594860e-01,-8.860655324299579472e-02,3.852277763853880210e-01,-2.183964617098528571e-01,3.671764370442755498e-01
-2.060190470736169566e-01,-4.871563793615135002e-02,-2.844665369472401673e-01,-2.278890893725258882e-01,-7.235072400627655387e-02,-7.058685204406978109e-02,4.268825102764614021e-01,1.674555386495668249e-02,4.356541240274286464e-02,-4.005127728615980320e-01
-5.290444059854374492e-01,-2.404901820982099925e-01,6.463092253369991935e-01,-2.459524511850007811e-01,1.878153936170014540e-02,-1.976398074251824871e-02,1.915226258873796439e-01,-5.622291584402008269e-01,1.680301765505557987e-01,2.488268379582573575e-01
4.574166039018873892e-02,-2.000093147939692104e-02,-3.062313570209985736e-01,-5.238155219584128552e-01,-4.294018648627773854e-02,-4.277748124851410427e-01,3.490333677983556981e-01,1.387685327440274508e-01,-2.536183484626924889e-01,3.958023029740275756e-01
-2.965283718448876241e-02,3.578925595355266220e-01,3.534350855752628751e-01,5.920572280114054509e-02,4.605355452194925814e-01,-9.236116184666975926e-02,-1.160014965881839581e-03,3.225862016347088440e-02,4.479357191144492933e-01,4.439197912729640483e-01
-2.839321781083416554e-02,-6.751024937246459523e-02,1.740783515894566980e-01,-1.245225845479332044e-01,-4.308306926673864945e-01,-4.479721245474116986e-01,-1.630068920685895373e-01,-4.251109106943389282e-01,-2.333512849345637796e-01,-2.577925311424327307e-02
2.053305167517300578e-01,-4.425518892739830346e-01,-3.351907647034880200e-01,3.005746451492805615e-01,2.629189885316764452e-01,-2.473807019046714850e-01,1.402500803075909241e-01,-3.020045962773798554e-01,2.319644265027500929e-01,4.893881814786217865e-01
