-1.993093268345235911e-02,2.432829469725156790e-01,3.001088674417031754e-01,-4.911687276469703378e-01,4.215131940224852158e-01,-1.560668937884267526e-01,3.253571898387264127e-03,4.791496990925540045e-01,-3.957501379460343083e-01,4.481023622912571058e-01
-4.062065390270189758e-01,-2.789374006645766180e-01,-4.706057934586717062e-01,-2.934016748927620322e-01,-1.254486382274849487e-01,1.161030169283439051e-02,-3.036906422289203933e-01,-4.647043925203616088e-01,-1.102043928634545145e-01,2.355231654671059993e-01
-2.728703181820176793e-01,4.370835083386799269e-01,-4.321453306421019214e-02,8.666774457475723281e-02,-3.191920546511280987e-01,-2.078879514140736795e-01,1.661997196904099194e-01,-3.909561690862958239e-01,3.885460927488180727e-01,3.450872601190316247e-01
2.598525576576804497e-01,4.215103165183248790e-01,-3.395705732898454121e-01,-4.241961965545403834e-01,3.013800704367767258e-01,2.402085105484831895e-01,1.317953233357465059e-01,-3.583016468328248938e-01,2.817941577403992870e-01,2.268257847983629616e-01
5.169096233637660021e-02,3.694067795077976557e-01,-4.971647621826971175e-01,-4.660918415488420896e-01,1.736564572459399214e-01,-1.647582087265138107e-01,4.487601990462288803e-01,1.556923636379108355e-01,2.905914108692062570e-01,3.253335650276797386e-01
-4.333861601786093143e-02,-4.137853469274569429e-01,-1.532006732291353313e-01,-3.342499564257384592e-01,-2.862311952895270073e-01,-6.841470363276724864e-02,1.159323243147284410e-01,-3.765555822257184160e-02,2.320832763360558271e-01,-1.480796042869295670e-01
2.673008199953487152e-01,1.661003769617879211e-01,-2.550192430981966796e-01,3.626944710549416251e-01,2.226433753737987881e-02,4.627253479224779920e-02,1.488380032130685870e-01,-2.923180452054087164e-01,-3.255760619466752659e-01,-4.809189453445794626e-01
4.372643236691542423e-01,5.073736365709446972e-02,4.754526500857967353e-01,1.577565192079932732e-01,1.840206289122647831e-02,-2.447317858867796847e-01,-1.320595744740594712e-01,-3.250424891381332310e-02,7.473301384763453292e-02,-3.430350344295131082e-01
-4.691972325040940084e-01,3.771621775106200891e-01,2.995288753853744268e-01,-4.952469730776123402e-01,2.882405801490954822e-01,3.423782967486329043e-01,4.534428622737016190e-01,-3.028662814864416242e-01,3.827699278181884157e-01,3.847819501797620778e-01
-4.084827425290049607e-01,4.035888975252084898e-01,2.356093313376650400e-01,5.126909884238373127e-02,-4.061511309414885806e-01,2.228366530317746896e-01,-3.695653287468797510e-01,4.283918514069662287e-02,-1.366168340445579332e-01,-1.255714657047281024e-01
-4.073103305398271812e-01,-8.799315927900652756e-02,4.224330351434703035e-01,-4.434751235480451914e-01,6.652660457483594580e-02,-9.047950162422602194e-02,9.109645021198994885e-02,-3.926418963327427125e-02,-2.323844763175354489e-01,3.202607294294609330e-01
1.182499681745989850e-01,-3.639933789366103234e-01,-5.837141481916920116e-02,-1.614666071165236083e-01,3.758281091016628106e-01,2.855381199100264222e-01,4.122435009031177877e-02,-1.464947121692764531e-01,-8.376937181876520366e-02,-2.491891318629596008e-01
-5.328018212913001456e-02,8.296265688171983177e-02,-3.077838218126199288e-01,2.848737081621848244e-01,1.382087405320167883e-01,-4.588572798978843292e-01,4.874307757790172779e-01,-3.463599263072850154e-01,-2.356120445735061242e-01,-9.566051496167751744e-02
2.361734131724118058e-01,-4.071778036879559748e-01,4.937388371738045678e-01,1.215591607923642431e-01,1.190521545233650530e-01,4.983375982277911120e-01,-4.049721850369258913e-01,1.111115375447353781e-01,-3.066235946013870506e-01,1.723013648620143612e-01
9.145265723406266478e-02,2.297387304404164277e-01,2.768888291542407135e-03,4.375470739608131043e-01,-3.711047922054813708e-01,-2.310196678943509385e-01,-4.042064908321560956e-01,-2.240077596408910354e-01,1.943069745764252898e-01,-3.399560565210645313e-01
4.514195489661204652e-01,-1.388784708056333417e-01,-1.784652962637461593e-01,3.351795180445620304e-01,3.273416706429073120e-01,4.527580527572397373e-01,-1.587769292610402908e-02,1.797464730499223340e-01,-2.512922851261934487e-01,-4.600887101060250894e-01
4.715797124901310866e-02,-4.732990927528561431e-01,1.623951552319178315e-01,5.954455102111577691e-02,4.774223263328535860e-01,2.878965779738387187e-01,-1.765940355778129467e-01,-7.428791963760927874e-02,-9.225014474052184443e-02,-2.623975707179866390e-01
-2.647244589672536619e-01,4.977701333497639991e-01,-1.458385030748953204e-01,-2.090014205634999900e-01,3.449531076701040089e-01,1.454261734242445481e-01,4.090726603143275408e-01,-2.224329984821028089e-02,-1.982787636847271884e-02,-3.633556014015120739e-01
2.717603178927242569e-01,2.171471713683975902e-01,-2.494845721080162504e-01,-3.059304381429517328e-01,4.152360379984487704e-02,-3.380579854722265409e-01,4.411848840088937740e-01,-3.231237572513071532e-01,-4.251977675997198336e-02,-3.878319936416289027e-01
-1.290798841562769139e-01,-1.578956742172682448e-01,4.128348557648732209e-01,1.717084648317189488e-01,1.179899637890873265e-01,2.307393979785365631e-02,-1.511555168735680688e-01,4.123865621820969607e-01,-1.920909864245433640e-01,-2.364195835322246420e-01
2.561637361988090555e-01,-7.154213912476503623e-03,4.441288477781846211e-01,-2.664285804458645379e-01,-9.877035436524515821e-02,-3.626209390877164762e-01,2.094858444512315288e-01,-2.926344879474629401e-03,-1.101820102990190842e-01,4.474108664732857621e-01
-1.558728849374646508e-01,2.888820778502872999e-01,1.670911431755971455e-01,3.368587598405324846e-01,-3.935582348299340727e-01,2.155875302025639928e-01,2.558914135249974464e-01,2.245373861607035115e-01,5.847304811242803879e-02,1.906505849065240898e-01
3.810336504706939298e-01,3.071565165405304998e-01,3.045579362696962944e-01,4.456431276794740604e-01,-1.702371974176217495e-01,-3.490359966587931462e-01,3.345360534140822129e-01,3.734899156108860141e-01,-2.782694401154895969e-01,-7.577145551284469871e-02
6.171801377588215232e-03,-1.166458399145786640e-02,-4.448692397558416667e-02,-3.491895639141033847e-01,3.616259339862640809e-01,-3.974717068889975224e-01,-4.047511859372351362e-01,3.360810059843289399e-01,5.505998155421809592e-02,-1.121012335697800788e-01
3.212604512197251294e-01,-3.478010932211902384e-01,-2.448926585086219909e-01,1.056376844290068812e-01,2.040476127296869668e-01,-2.490431179966410280e-01,3.203036426842430506e-01,-2.500569809031220059e-01,-8.113940262959107308e-02,-4.240212513289097762e-01
1.997309392846036702e-01,4.333567870665531729e-01,-9.379822789780144221e-02,-3.750419209662680942e-03,-3.460264485862746264e-01,4.803673849855791267e-01,-2.917370397614808541e-01,-3.772870539439017734e-01,-1.738782814740953420e-01,4.315809623169865050e-01
-1.188711461729824448e-01,-4.293657125178639844e-01,4.248352765708696133e-02,-9.827207102885715528e-02,3.143054108633569488e-02,-3.544971189875900652e-01,3.623049192280277664e-01,-4.654991464244904731e-01,-4.769211731834889778e-01,2.278145377707960773e-01
5.854200682028631864e-02,8.669137132303274262e-02,3.027568521075781338e-01,-7.959031892174438239e-02,2.392008929402342776e-01,1.465649579063735830e-01,-3.085728000645994173e-01,-8.130749065202202974e-02,2.526900767436486284e-01,-4.623057266234811835e-01
-1.134205816828506019e-01,-1.103263381551565642e-01,5.402872225698572561e-02,-3.929835308119844495e-02,-4.551193181415436051e-02,-3.233934270432036184e-01,3.352685569137426880e-01,4.329347510228119256e-01,4.612242282924657877e-01,-3.738132656845832846e-01
1.918811288940155957e-01,1.551088735584780220e-01,3.568918242973884714e-01,-4.856782984643440160e-01,3.792449190024199113e-01,-2.233548288039642893e-01,-1.689515227011600673e-01,-4.604599932173961685e-01,-4.520954703390664964e-01,3.782085410348001719e-01
-1.026890645154824450e-01,2.111100963527867969e-01,-3.801048121098064558e-01,-2.743971212056640629e-01,-1.659069331721116924e-01,4.639349442751288799e-01,3.057495710408864031e-02,-2.590014930104392876e-01,3.820402379845833085e-02,-2.027153000718604492e-01
4.957106856056761601e-01,6.743885644097025178e-02,3.554024077225270261e-03,-7.010384525969493019e-02,-1.993738026786220918e-01,-1.097642939500242769e-02,4.339300904488552213e-02,2.905762638613326176e-01,-2.304995320499670930e-01,1.828294944425765678e-01
-4.013061257977752483e-01,-3.511444324748275725e-01,-2.912355330332628278e-01,2.744178058343825777e-01,-1.778233925684640643e-02,1.377954689982439640e-01,-3.989156388150066346e-01,2.884959922803481680e-01,3.539270051557651953e-01,3.337255256430200490e-01
-4.162219679595623445e-01,4.140557272444931880e-01,3.940505011681342817e-01,-4.850722428744072001e-01,4.186246990204712248e-01,4.042258432399022383e-01,2.455775865245695688e-01,-1.392831031813620002e-01,-2.996912370899381672e-01,9.347444945437366481e-02
3.205928053583912418e-01,1.909314286178420139e-01,3.474340281536036912e-01,-1.612316522174417344e-01,-2.450032980348590753e-02,-2.775052198304631679e-01,-2.623820020379799001e-01,-4.207151436103986897e-01,-2.630403587567282653e-01,-3.620001968735329645e-01
-2.217108291618243576e-01,4.351920072028184205e-02,-1.278488787394204407e-01,4.655842006732991978e-01,1.453844730422318154e-01,-3.537665993299738409e-01,2.872089251009167787e-01,1.746483054940090041e-01,-4.341492075595376754e-01,3.250943379591695881e-01
1.604964429683957694e-01,-4.376159445490461208e-01,-3.249917200776326898e-02,2.377584323921530796e-01,-9.850287546908702285e-02,1.621925682321219142e-01,-1.899775254034886396e-01,-3.549953051372359281e-01,1.807981842709852766e-02,2.324804555702223163e-01
2.278847743058240727e-01,-2.390799945499162416e-01,-1.474345462335907748e-02,-7.415701726365882263e-02,2.082493468868622521e-01,-2.824954652289277113e-01,-2.447959290089523066e-01,-4.352235979116297893e-01,3.705070979692322575e-01,-3.789689280123578752e-01
4.870341965739146128e-01,-4.481263843982459250e-01,-4.156106446345475547e-01,-4.550768832144631570e-01,2.804798424623552444e-01,-3.651274333755058499e-01,-2.131501469630225076e-01,-3.711201896255196253e-01,-3.052196081529992000e-01,-4.475224733039192548e-01
2.446876492225348310e-01,3.803079462546887224e-01,2.868172238963823117e-01,3.505004056168098958e-01,7.599743483134237254e-02,7.460356555515414156e-02,2.588905549388413607e-02,-3.026200678048511783e-01,1.978297801598808137e-01,2.111816079124368417e-01
1.733110117441943876e-02,3.258447210163299412e-01,4.145328306354786330e-01,-4.941923643217652762e-01,3.343878775975963613e-01,5.159238593340487178e-02,-4.024898590346474014e-01,-2.698531356237262036e-01,-3.754042705485857168e-01,-3.810603538683053904e-01
1.713919282036704128e-01,-4.418484066790411280e-01,-3.466303670196207998e-01,-3.366460240158669626e-01,-4.058678688922064404e-01,4.642074981563018010e-01,4.616021845266428669e-01,4.765756448562743497e-01,1.752083660597562875e-01,9.370487247361500294e-02
-2.661417942266580128e-01,4.968261911387867324e-01,4.771349820252648866e-01,3.907220659286700370e-02,-4.299724361861887445e-01,-4.633842939468787447e-01,-3.394678601488687608e-01,-1.030773024553383183e-01,-1.899385604507817515e-01,1.606000340581656693e-01
3.570342888642438761e-01,1.665151287045164574e-01,2.026129872967736278e-01,1.565660075179058086e-01,2.013502806901026621e-01,-9.947040475116331049e-02,3.384978357050237863e-01,1.851649380542190471e-02,-3.970818350472908875e-01,-8.455973699988721115e-02
-4.184943781591880518e-01,-8.497616803235769067e-02,-2.440578040961199069e-01,-2.878738762435931187e-01,7.960419940954234497e-02,-2.177155441271128866e-01,2.319827481451318396e-01,2.649587168599142756e-02,-3.562697832490602790e-01,-4.244900332309703428e-01
-2.571845383009802588e-01,-4.560886812320738004e-01,-3.667006740873634540e-01,2.553685519517439051e-01,3.570804689699266787e-02,1.041103074925038867e-03,4.827101235819252767e-01,-7.363898392713438823e-02,4.480581022320299645e-01,-8.096600789240422646e-02
-9.143490957430706889e-02,-8.451357578022045125e-02,-3.919625722359317832e-01,6.603385017032001314e-02,2.696328432093232363e-01,-4.311858780922033785e-01,-4.812428479119109648e-01,2.721027705196110147e-01,-2.002657898287217020e-01,-5.362943919845587076e-03
-8.552352927079655276e-02,2.107072546291164153e-02,-2.516671809426873074e-01,2.464391357949149985e-01,-4.410483634087851157e-01,3.191943320208844304e-01,4.391625457675720767e-01,1.275415995078976739e-01,-2.479047042755429600e-02,-2.873866305486796335e-01
-4.410332832264619585e-01,3.366091506998993843e-01,-1.624716318243330793e-01,4.069267819142198261e-01,3.391487412884990754e-02,1.478155363070978168e-01,4.125931423042672463e-01,-3.191450460000490041e-01,2.454596334697127791e-01,2.643786530071359775e-01
-4.133732642744687991e-01,-1.627329141732081486e-01,4.049788784338856362e-01,-1.205159848494786745e-01,-4.170082467627213019e-01,-3.105676069987214349e-01,3.772384778390557303e-01,-1.055751583839131535e-01,1.632971476186688420e-01,3.502783242148306830e-01
-4.975911769445298116e-01,1.576518677783855793e-01,-7.498347543934681669e-02,-2.020251563042020082e-01,4.323506997186584155e-01,-2.330298695744048298e-01,-3.954947721532410809e-01,1.587372170515150352e-02,4.171335170535788728e-01,9.759744452381105551e-02
4.693811090309693013e-01,-5.296956128442408679e-02,1.662381777763551061e-01,2.013693903435545274e-01,4.225170868420560222e-01,-4.707771323075491399e-01,-3.481282661359404451e-01,7.933587669455581526e-02,1.688745522668509691e-01,4.366057946439777515e-01
2.765542494086214304e-02,-3.972661785194860906e-01,-3.021234736941602605e-03,-3.821521649905447737e-01,-4.461076690410181733e-02,-1.158079590949395582e-01,-4.918850706091199010e-01,2.643329386393714620e-01,-3.727754359878124868e-01,5.396417756624993789e-02
-3.885374060199427992e-01,-3.563897069975382470e-01,-2.355104222353562315e-01,7.229867686892033074e-02,3.181520163526921352e-01,2.187350731112344127e-01,3.558767669766069730e-01,-4.429068388081549013e-01,1.278296934968841114e-01,4.463322787101087208e-01
3.722985108034044810e-01,5.590290091954353002e-02,-3.511265208848504127e-01,-1.728835790226662672e-01,-1.819527362908621715e-01,-2.726221010470867290e-01,-2.914659067406499826e-01,5.162000015703271938e-02,2.368354526866155996e-01,-2.605481941762630704e-01
3.887312312425450500e-02,-3.889269133369950282e-01,-2.988741679479268044e-03,4.887678886101894937e-01,-9.555371622552631672e-02,2.352937233674597672e-01,1.532694205980054125e-01,2.002611692618643247e-01,-2.105216373316532719e-01,5.353713107508606406e-02
2.540886172595719916e-01,1.250809713126084244e-01,-3.887685283858455243e-01,-3.741527485460984792e-01,-2.819995548356469817e-01,-4.700671528556187306e-01,-4.351861554064162529e-01,6.044273613908268672e-02,-2.735563987207234593e-01,-4.873873907692288232e-01
1.503322930989247908e-01,4.106388493977136678e-01,-2.107732549060535865e-01,2.163776887893164858e-01,-4.680005985165348603e-01,-4.104579491968319838e-01,2.391527951080058001e-01,1.510126995664310412e-01,3.537525903969598318e-01,3.891615761071420265e-01
1.712009172467874041e-01,-4.182314043019818017e-01,2.857265434795803194e-01,-1.081704717102232177e-01,-1.527461941150135283e-01,3.487049805076747888e-01,1.420319469039407201e-01,-4.330979955803038739e-01,-4.581684881419239574e-01,-3.100177317878198835e-01
-4.960431724187596703e-01,3.925083464949776779e-01,4.192201455909025931e-01,-4.542300172935119784e-01,-2.989641425058571222e-01,2.235838321708641108e-01,3.879416277764051180e-01,4.314786589099490199e-01,-3.376878518261123840e-01,2.649938419201093853e-01
-1.082190196820351086e-01,3.623506249807428858e-01,4.041659225324907290e-01,3.919038455074337901e-01,-2.671081898996095494e-01,-2.273901864443290677e-01,2.329869021085987923e-01,-2.889606618516971648e-01,1.077480845709004459e-01,4.763853266073704851e-01
-2.945389845506447557e-01,-3.105173774420449395e-01,4.675660177994899747e-01,-3.708663495323270554e-01,3.351497196766051734e-01,4.228738188604214132e-01,4.464512461485019568e-01,-7.546745792518745610e-02,-3.018765084772842555e-01,-2.643981315406774835e-01
-3.466933870953780583e-01,-1.906485638673456329e-01,-1.032024798852135272e-01,-7.057376447188305757e-02,4.572569159041954823e-01,5.023719866786591215e-02,-3.889899617333125170e-01,4.513063764511362486e-01,-2.481270673227031487e-01,2.072290866283011401e-01
1.615426881858524621e-01,4.139777066500897607e-01,-4.985859524111846408e-01,1.012647841250237657e-01,1.656973298484509111e-02,-9.710262997524599093e-02,9.621624926349851836e-02,-3.911953221934354463e-01,-3.898180516738021795e-01,1.365804873138492213e-02
-3.280527592242300505e-01,3.209545760487130250e-01,1.824967049733710878e-01,-9.100942681569343384e-03,-4.627796717243394808e-01,-2.026666577139582259e-01,-1.349453236177642346e-01,1.424861451289657632e-01,3.844196013412160551e-01,-2.422109976740593335e-02
-5.046295860253723342e-01,4.893657218659129837e-01,1.001122760398119593e-01,-4.243575472593651421e-01,1.544055757792679728e-01,-1.382706698858933610e-02,2.843272728849611727e-02,-4.658461623092046699e-01,-1.001197976110971000e-01,4.621641191998879239e-01
-1.776720875777568903e-02,-3.846601700308253657e-01,-1.924236901455571302e-01,3.081203187719798176e-01,8.658261215181022041e-02,-1.982528823504593474e-01,-3.845107806059018807e-01,3.345438711589938108e-01,-2.921001042196093023e-01,-5.538033838343810189e-02
9.352896141682889852e-02,-3.032812908211851011e-01,1.938976160706943064e-01,-4.248037017489622591e-01,-2.730007718664909655e-01,4.635179739342288885e-01,-2.442743225688012165e-01,-1.395733473744462383e-01,1.819229133620890726e-01,-6.214463409398347793e-02
-1.653642561712251602e-01,2.585028915245816128e-01,2.262096513284367061e-01,-2.617466810932037383e-03,1.651653784192147478e-01,1.640395256504914023e-01,2.609145523044406612e-01,-3.475664283390258458e-01,-3.490829064710547769e-01,8.473120043431146831e-02
2.990131269387447110e-01,-4.406973928615143254e-01,4.732406960554232274e-03,3.110642901656150427e-01,3.943391212695499526e-01,1.808487952765830131e-01,-7.286860726449163883e-02,-1.823799638439932425e-01,2.828752425925748493e-01,-1.081530707450597539e-01
1.541774428119928320e-01,4.691453213796420996e-01,-1.648846038192846308e-01,4.202165391743586387e-01,2.781199912038403999e-01,5.031600860369863648e-01,5.130173362514049012e-02,2.195027910564595064e-01,-1.039674706243886998e-01,-4.635102506743405543e-02
3.914283864668505197e-02,2.260091497593841314e-01,-1.997795036014082815e-02,4.270526025409844550e-02,-4.402472065762942921e-01,-3.963264118027615690e-01,-2.570391403697571686e-01,-2.657386196911016851e-01,3.182566463195025674e-01,-2.269437366652756471e-01
-5.427740742433044829e-01,2.598782104183990915e-01,-4.060967738258092208e-03,-1.173235728456858001e-01,7.984998793296313457e-02,-3.984819145293805875e-01,2.785188892763620916e-01,3.846235294512887481e-01,-2.522435789440984899e-01,-1.264590874533366438e-01
-4.963340702492506917e-01,2.151477583291912798e-01,-3.481225942633213166e-01,-3.697063731236132078e-01,9.765201012744993692e-02,-3.173702395608917759e-01,-5.391426747792476409e-02,-3.227591077076357173e-01,1.165840625725015761e-01,-3.795413817707494197e-01
1.025069093153817695e-01,-2.447055656165223192e-01,-1.057187362222156979e-01,3.140700985648228194e-01,-1.143936967317685238e-01,3.606980053348295412e-01,-3.459776323605249782e-01,-3.445617310054143734e-01,-1.952195785425904218e-01,4.541517447621664094e-01
1.224988250292338571e-01,-1.145642442355243040e-01,4.954544161792678175e-02,4.629041767802680174e-01,2.837356045391508513e-02,-4.357499319568338136e-01,2.738530237580970028e-01,4.810805632692902178e-02,2.413567847687397017e-01,2.017281786151688128e-02
3.089633211317470152e-01,-8.862291521610065476e-03,3.490246585351867159e-01,5.813955903652658769e-02,-1.296367597370950142e-01,3.879022791742249288e-01,3.265047704752339214e-02,4.312461471615391395e-01,-4.299406993243932718e-01,1.699455922652143847e-01
-2.327968538556497158e-01,4.679580340478174949e-01,-3.842182945046611620e-01,-1.851030585235537707e-01,-1.425631023344332005e-01,3.536906133090903515e-01,-5.709276938109483085e-02,-1.410102504796324208e-01,5.415530304917705318e-02,-9.936009993711260313e-02
-4.475821752236281981e-01,-8.446307770880868981e-02,8.687405378046571258e-02,4.328407911367883332e-02,1.560110186864532844e-01,-5.405020584153451962e-02,2.965858150983446961e-01,1.052616717194341037e-02,-2.238466602984401921e-01,-6.098110219073021865e-02
4.565790725290035934e-01,-2.077724501433652338e-01,-3.618372650710844352e-01,1.299734797319607171e-01,2.419245185626307804e-01,8.199055348742673166e-02,4.899243688266953223e-01,-2.461396784566834139e-01,-4.834875635150381878e-01,-2.842390921689357808e-01
2.782271706914216103e-01,4.018458024657838301e-01,-2.292814296630565213e-02,-2.957747885650857111e-01,-1.039141220122631430e-02,4.409001230819408756e-01,-1.361716446986293849e-01,3.178989176563248864e-01,3.339716873283805620e-01,3.065150718824966036e-01
-1.798850559670945037e-01,-3.529326886701338317e-01,-3.159249811443524680e-01,-3.032690721876827866e-01,3.189966951764752201e-01,8.746617398080117067e-02,3.174773513220941618e-02,2.236030774989517522e-01,-3.622957827541958831e-02,-2.959405237454945103e-01
4.873853736010340110e-01,-1.012183418544458785e-01,-1.628454867583372101e-01,2.916341901339792875e-01,-3.391003741985654241e-02,1.456682121907525440e-01,3.455146112664394531e-01,-3.484057928333011978e-01,3.637497622303272893e-01,2.891818312683481773e-01
4.424237999765473495e-01,2.523168141712743839e-01,-3.511861182175352036e-01,-2.028259875094480802e-01,2.947605922537109846e-01,2.700312955335880671e-01,2.028416477261228701e-01,-3.549929021815823038e-02,1.035420116300833637e-01,1.807772094782790495e-01
-2.572344839117732263e-01,-2.265216154044484009e-01,1.493459688923872708e-01,2.264472418537948339e-01,1.637801621081410308e-01,1.417808955341757216e-01,-4.536070293661291775e-01,-1.970323677698135878e-01,4.011009945275918476e-01,3.225134086077560691e-01
9.967546042176743393e-02,-3.240620283388419010e-01,-3.267921162538230950e-01,-8.655944179737407040e-02,-1.605070793035157095e-02,2.449037419806907590e-01,4.467161273794263976e-01,1.885851130564588918e-01,-2.935840742555289040e-01,7.490837833739638629e-02
3.518977649853751583e-02,8.734235535132375827e-02,7.886244695761122914e-02,-1.430482340724200940e-01,2.212640824897220693e-01,-3.772726568078683673e-01,-4.195150728571806487e-01,2.614216366412629999e-01,-1.859073381990424267e-01,7.990279407800553180e-02
-3.323995407947111236e-01,6.138202313696990847e-02,-3.128848755422486971e-01,-1.222204005512979863e-01,1.374185911325475073e-01,-2.750029321844596475e-01,-4.002114269453082018e-01,4.786448229966657614e-02,1.258619789613586171e-01,2.987965208952190754e-01
-2.390565236534642757e-01,3.502213481904570269e-01,-4.722313258910741940e-01,-3.982135406984295134e-01,5.643858458602536016e-02,-3.872222969217081756e-01,2.117023881093845761e-01,1.473378927985410647e-01,1.264461190791271727e-01,-1.575902382706726446e-01
-3.337725517036952971e-01,-2.676198682417290087e-01,3.116284953278823048e-03,8.594148660515424365e-02,-1.924508979566066091e-01,4.089703360503795793e-01,2.232893049448375355e-01,-6.097564064118777410e-02,-1.282341607873304645e-01,1.169436255922744194e-01
-4.424681316889524374e-01,1.295482138094180558e-01,3.366992915784145501e-01,-4.193639290969963795e-01,4.604133059193842858e-01,-3.525869207869400390e-01,-4.988643039731568973e-01,-2.747283233100992206e-01,-9.249790880695671347e-02,-4.431863859805991179e-01
-4.178157307193433589e-01,3.278298410842803712e-01,-3.222559121320824338e-01,-1.921594714502750656e-01,-3.570754739881843443e-01,4.384980671518430850e-01,-3.478327875755772847e-01,-3.209587720648422460e-01,-2.486771870640174242e-01,-3.249858075611663510e-01
1.838298321921142120e-01,-2.135432663467981551e-01,-3.302877962137344258e-03,3.507040166606650300e-01,1.158178256190851713e-01,1.132086248008374735e-01,3.959162612331816322e-01,3.596039633840119043e-01,2.694906074954877551e-01,2.359528035946907576e-01
-2.461245632167653463e-01,-3.972433958394540610e-01,-1.577939113773142166e-01,1.404543546883928740e-01,-2.341771517152263504e-01,3.798110732151910307e-01,-2.278418395804696420e-02,-3.424556174289239419e-01,-6.066347228718371731e-02,-4.187738003322562519e-01
1.249515780969616269e-01,4.087139215539550285e-01,8.147154413567041925e-03,2.933172935080697319e-01,5.700968731974784959e-02,3.471766573109657528e-01,-8.837497658093558528e-02,4.990874401872951588e-02,-3.989300114082275361e-01,-4.699050497013903538e-01
-1.127996700444763994e-01,2.182104678476360082e-01,1.880615958943137045e-01,-1.690593617719388375e-01,1.104185523812826059e-01,5.274945209753859748e-02,-4.165315135260329593e-01,-2.238987276612990074e-01,2.473492133508444768e-01,-9.292709176836931595e-02
3.804802126403516310e-02,-3.818643468586576106e-01,2.191115302207776935e-02,2.293051414539797883e-01,-9.125170259203736756e-03,-2.510677291846283299e-01,-7.478439628101296588e-02,8.063084516533745860e-02,-9.469199418414075975e-02,-9.497057042047100939e-02
-7.797306616730126372e-02,8.146149979936678776e-02,1.134016113605520147e-02,-3.483771218588684881e-01,3.657021271531677997e-01,-1.754314436305781100e-01,5.275153717598195235e-02,4.290856248716189841e-02,-4.847609528532503820e-02,2.351728797655978087e-01
-1.909497852611752589e-01,-1.373889562545529963e-01,-2.147578616762594456e-02,4.029213906381629018e-01,2.871608073640564696e-01,-2.725091879824899643e-01,-3.281210882395269035e-01,1.195196092193682863e-01,-2.496087703835623076e-02,-5.500852301358070129e-01
1.651287275653233189e-01,-4.232234126025726795e-01,2.323397222111630439e-02,1.757792927764873503e-01,-6.798191604538975086e-02,4.643293830318176996e-01,2.025731952911853095e-01,3.687137631786577829e-01,2.929312628232633164e-01,-2.823671403834998594e-01
-3.417500053246443903e-01,1.114028777580292479e-01,7.024033898205966908e-02,1.113483963320339304e-01,-1.293230575336229426e-01,4.919072137123400301e-01,3.533580790438912711e-01,-4.157641678348453773e-01,-7.613506818749554705e-02,-2.492103079672134403e-01
2.048006142938556540e-01,5.189847924452595240e-01,-5.454861289610148933e-01,3.079505269153972602e-01,-1.659808323269084118e-01,6.104241104835832488e-01,-2.956666055758537248e-01,-2.647086876074034034e-01,5.303285360181209107e-02,2.746584376898447699e-02
-4.877296576371349390e-01,-1.926442440172848047e-01,2.918091526519013268e-01,-2.966212628168843901e-01,-2.803047834523942905e-01,4.521717246230279597e-01,-2.438417706460449252e-01,3.396576209082031172e-01,2.063802870063540240e-01,8.042969222331471102e-02
1.945035005268270778e-01,4.850728708573511239e-01,-1.847266712907594255e-01,2.205860239079144303e-01,-1.575935190616434972e-02,3.813040687411361485e-01,1.997873814720414476e-01,2.411902173484775647e-02,3.589180754963131048e-01,-3.663763002538433233e-01
-3.572621867252996353e-01,-3.458062213894544934e-01,-1.434340007543773443e-01,5.818097367055371505e-01,-5.329439219343775486e-02,3.860022505887873989e-01,-6.522791891880538873e-02,-1.164291497172962875e-01,-1.003382201998928580e-01,8.179573386220113929e-02
-5.107232176826528303e-01,-2.547838595494330005e-01,4.519045074686087737e-01,1.254152061914735050e-01,3.266273975218381698e-01,-2.688881303817261537e-01,-1.860523914469752460e-01,6.367628822164156377e-02,2.253749321551967374e-02,-2.339474054205762932e-01
-2.383292648089281873e-01,4.619736885483391453e-02,-2.900295611064818702e-01,-9.737579056724211812e-03,-2.500055142795515328e-01,-1.353151135466054700e-01,8.500292776687835838e-02,4.736391701028995482e-02,4.526755498873740423e-03,-3.580586546025386202e-02
-3.638310040945756940e-01,3.431522809936953244e-01,-1.894787142149911563e-01,-1.767989821819655749e-01,-4.933920856560147228e-01,2.630436587556656339e-02,-1.909256644687126747e-02,-1.081787400928014148e-01,-4.179076873704984374e-01,2.718252235289684848e-01
4.218182431321865211e-01,3.427738504361712429e-02,3.450895587493699179e-01,4.085401988063682710e-01,-1.969020747821370251e-02,-3.475606524914537920e-01,4.326485850185320392e-01,-4.706064013771438237e-01,-1.410928834012994404e-01,1.640491057728925006e-01
2.884149299571773795e-01,-4.247160457133786204e-01,4.118169072172261219e-02,-4.517005877702388039e-01,2.453989138778500667e-01,2.602433085576297822e-01,-1.131538896820137308e-01,1.179484454993961484e-01,9.771737057870108836e-04,3.549558627428520130e-01
-4.399589628165194964e-03,2.011204468013697844e-01,1.288317024060275651e-01,3.353730541631935735e-01,2.445424811382795882e-01,-4.683780956605546053e-01,-1.016608367876976199e-01,-2.293273752794498521e-01,7.537385193891371626e-02,4.661976774259922740e-01
3.464720675034175246e-01,1.498315423391014534e-01,2.822154371708316400e-01,-2.385051488369603900e-01,1.549815851798632682e-01,-2.524483492077151947e-01,-1.934895088217867265e-01,4.088235570343520253e-01,-1.325847169679943427e-01,-1.711764425378533572e-01
-4.946223569836961653e-01,-2.744351121772212743e-01,3.510960219258726367e-01,8.478669925699110210e-02,4.194153342750984725e-01,-4.685275511098605516e-01,3.906732945318232009e-01,-3.155526781834337435e-01,-4.516775260504074518e-01,3.747344420952095079e-01
4.385769665544739793e-01,-2.919627356459045253e-01,-1.859356715487834877e-01,3.213950077310837039e-01,-1.592478871222651193e-01,4.731478533825551197e-02,-2.164150512366723733e-01,7.241740498912818159e-03,-2.184888181688167397e-01,-4.152468067616870706e-01
2.129834517985915998e-01,-4.784909486802752521e-01,2.751109146265081143e-02,-2.791057655958377182e-01,-3.513909498059175074e-01,-2.480823045691184225e-01,1.553182864159343424e-01,1.760850282391864252e-01,-1.887174943001711236e-01,-1.433985341536758162e-01
1.727685056598080027e-01,7.098258266962327589e-02,-1.643031572471325696e-01,4.324880799983943924e-01,4.950144892433579469e-01,-3.419540479288100121e-01,-2.942489290913203881e-01,4.335846894473344704e-01,-4.960210875258474483e-01,-3.499206172317167463e-01
-4.796182282078826353e-01,1.502996448861650403e-01,-6.258401239112466180e-03,-1.074941493153785399e-01,-3.646378947069510157e-01,3.699534645735294003e-01,-4.582508310262018436e-01,-3.957981786184091438e-02,1.475129575622876055e-01,2.231121633610318178e-01
2.824172257403962938e-01,4.073747141337825117e-01,-1.468424731746015566e-01,4.514114033743679144e-01,-4.440281832878809620e-01,-1.188694108006129874e-01,1.788144907630446201e-01,-3.437577548786583947e-01,-9.775469684370362289e-02,2.205424924541446730e-01
3.200951776873982024e-01,-2.418518155025254635e-01,-4.702738444035071685e-01,-3.339280760555745076e-01,5.131493953268409514e-02,-3.965603148389615362e-01,-6.870408381668764719e-02,-3.646381647469233989e-01,1.251157151842662366e-02,-1.444391688475844260e-01
1.757135388564445011e-01,2.167838408756396495e-01,4.859838510672551681e-01,-3.154687166640164353e-01,2.079867047867462460e-01,-1.423592393648530630e-01,-1.158792178099092574e-01,6.559363008361250406e-03,2.045056834823492653e-01,-4.945252774200749601e-01
-3.463138452008642787e-01,-1.430915592438762873e-01,1.759516627533221633e-01,2.581902139098149473e-01,-2.552386354831891468e-01,-7.812411967769458676e-02,8.107194711536884479e-02,-1.690330798996913242e-01,1.550327273867691258e-01,-2.018588653050851500e-01
4.646760540677186690e-01,3.058903042310298082e-01,3.768274573466049437e-01,-4.036799341192983115e-01,-1.989625674570623115e-01,4.320168962706698590e-01,-3.146307500186695805e-01,-1.050428957773287264e-01,-5.476237029474200213e-01,-5.377593199884492248e-02
-2.984177425916130777e-01,4.776250176195927510e-01,4.041475932230246815e-01,1.313135881176642483e-01,-2.140051322007422430e-01,1.004473948720694711e-02,-4.191902815412091310e-01,7.655840112814736587e-02,-3.550822181241892195e-01,-2.911573647712431545e-01
-1.261021287286043235e-01,-3.713478858065818455e-01,-9.179893764234642317e-02,5.176243516593325156e-01,-3.154036262458910223e-01,3.343295569527934830e-01,-4.856512195884752914e-01,-1.246447595936247266e-01,-1.305121539990708734e-01,1.592792516464771047e-01
5.022534956193321909e-01,5.562247676327263246e-01,-4.504578420066249894e-02,4.321710873365524064e-01,3.561802322144688726e-01,4.016840005519661805e-01,-4.207317540573726200e-01,1.809661359844026984e-01,-3.645364995805546182e-01,-3.493333595538237746e-01
6.520761433372662674e-02,-1.700398418251573562e-01,1.731553156319219633e-01,-1.146134647094110837e-01,3.897292813548083878e-01,5.907022115749083202e-01,-4.366419132416325399e-01,4.171632988646319790e-02,2.937905036715414142e-01,-1.610798407012199729e-01
-6.576923268018340651e-02,3.028947873703137783e-01,-7.637882798484937376e-03,2.041879780018345802e-01,2.626053064440973528e-01,-1.839860430045234252e-01,-1.909091118264812370e-01,-5.455211266812907134e-01,-2.590786995261104009e-01,-1.739673587666578647e-01
1.924550427331050279e-02,-3.314339754854676856e-02,-5.656345216288984901e-01,-2.314751583525184730e-01,3.232456758574145383e-01,2.288584984662122845e-01,-3.085159570584786737e-01,-5.644849885119928024e-01,-2.665255798445765323e-01,-4.979721367626591122e-02
-2.735431142604105026e-01,3.189644082948608905e-01,3.008223522368140557e-02,1.234282375520104613e-01,3.932058712640180698e-01,-1.401792297550749078e-01,-6.768685124311744905e-03,-1.098198333170577745e-01,2.237768686890465042e-01,-3.763931781532525167e-01
9.555252802201741336e-02,-9.961320760155767395e-03,-3.529898104996483377e-01,-2.503150059026346130e-01,-4.069081062628264189e-01,8.552228843370231204e-02,-6.585626841970416978e-02,-2.650298219180665105e-01,-2.184764156203255481e-01,1.127742990852148713e-01
4.121396341202057667e-02,1.218741140638970738e-01,-3.372474279392671526e-01,5.991197574087331335e-01,2.586408697870090645e-01,1.303082388592417991e-02,-3.623045859689796866e-01,-1.160568014294798417e-01,-1.700097123225403628e-01,2.291222113567118468e-01
2.513135442336871320e-02,3.597242918024081554e-02,3.432677829219920040e-01,-1.371947345340870095e-01,4.716486392047442022e-03,-4.204828771057079195e-01,8.688720353596220136e-02,-2.826068438200267652e-01,-1.142904505276053778e-01,4.048911695227214169e-01
2.023048165839604062e-01,-1.124440139299826558e-01,-2.879323318583280056e-01,-9.386170718891215237e-02,3.485553308046145937e-01,-4.726760777301572403e-02,-1.206799652500556291e-01,3.566772600026527629e-01,4.907351345389729946e-01,2.996985708353894773e-01
-4.625557306257085249e-02,2.966101011488012085e-02,-1.325671517056384863e-01,-3.274997133802289850e-01,3.930254845348193915e-01,4.134023193709556177e-01,-1.921950095209263853e-01,-1.908535646445594369e-01,4.615622372578945254e-01,-4.127674153027354742e-01
-3.511843505144811584e-01,1.858770728292465091e-02,1.652237524719521733e-01,-3.632186162689787223e-01,-2.875317098368003199e-01,1.931832690861177149e-01,3.984522323553669199e-01,-4.271860883230158557e-01,8.831134024806533422e-02,2.884996478805835762e-01
-4.321089552741901318e-01,-3.254429386337503449e-01,5.739875894568729174e-03,4.658063932364054915e-01,1.326866300607523197e-01,-4.702060951605359085e-01,1.565934500520278772e-02,-1.231680482965484130e-01,4.711938424796069946e-01,2.048001223886021516e-01
2.068547606546281559e-01,-8.137278471273323710e-02,-4.499103951478405916e-01,-1.755632782431293115e-01,-4.682642586368446214e-01,-3.002533228482790473e-01,-2.749383276426353717e-01,-3.225261956506356165e-01,3.634199546791227475e-01,2.083229075428752464e-01
-6.403858352060988468e-02,-1.510983255891535093e-01,1.001335697366387278e-01,2.300718986898727114e-01,1.336330125631101165e-02,-3.876428624281632040e-01,-2.907360049056929019e-01,1.249986652517004861e-03,4.579277694214684558e-01,4.444918368259617725e-01
-1.832882621974510629e-01,-3.963593998251750405e-01,-8.922382397471094462e-02,3.786921548353326394e-01,-3.007859687845030813e-02,-4.649351387579431227e-01,2.067979687748956463e-01,2.573865741428018605e-01,1.389842281007118152e-01,5.444021913134110269e-03
-1.778014682468777863e-01,6.701751743338071887e-02,-1.280275835662758321e-01,2.922846032519321180e-01,4.206422643089177127e-01,-4.259264581420956208e-01,3.619679028364058970e-01,-2.943196062252442791e-01,1.411437641430825507e-01,-9.643404570313202431e-03
7.480750930143920119e-02,3.829146291715801453e-01,-2.008662909152789666e-01,-2.385346584865843944e-02,3.733286918111303199e-01,-2.820981493949604058e-03,-2.476720366187339928e-01,-3.887001452428172077e-01,3.983989502898624968e-01,-2.283624782199828729e-01
-1.519608144667876637e-01,2.313922920240103487e-01,2.901364604320780249e-01,4.443914917885243288e-01,-8.396783084311010281e-02,2.003017637910526894e-01,1.493436822300586719e-01,2.282671935409664732e-01,-4.434431322482695892e-01,-3.525756831112667466e-01
-4.911264365682432853e-01,2.026970823832968949e-01,-3.833545033441090322e-01,2.823663220238007976e-01,-4.266012803639510076e-01,2.505746799745930953e-01,1.626109057001830921e-02,-7.614746533220660696e-02,3.388401570927496720e-01,-1.074242192303891813e-01
4.406495767484434056e-01,3.445716861477147730e-01,1.496549089474111527e-01,-3.577736838787658469e-01,2.677780169846979974e-01,4.131817894801050883e-01,3.788781170700414314e-02,-3.144061518003390954e-01,1.503878520610021363e-01,4.996021386253648999e-01
-4.854335207010761488e-01,1.773001729553765893e-01,-4.123881361187013428e-01,-3.019919048148622109e-01,2.238356468801727950e-01,2.506026250023213886e-01,-2.306141842348832446e-02,2.394801528673344559e-01,2.630416306949533434e-01,1.406451215350048578e-01
-4.644970973242419920e-01,-1.299755332495383109e-01,1.154350390919069297e-01,-1.383067010810429542e-01,3.296501225989049155e-01,-3.998588472964396123e-01,-1.068258314991219898e-01,-1.905762918641051296e-01,-8.614503301886110298e-02,-3.786851138306769338e-01
4.000226982466901782e-01,-1.093300670546317188e-01,-4.691619073510261972e-01,-6.864933629669435489e-02,-1.098384345157479153e-02,-2.167667330255290681e-01,4.607683243551372598e-01,2.244280533929476074e-01,2.609233907354416727e-03,4.398294104339042776e-01
3.303974710602888276e-01,3.353291873339159790e-01,-4.259741282016835662e-01,4.320437816616270466e-01,3.441329743331987268e-01,3.216872228351002061e-01,-1.266625039049089352e-01,3.891008097978674862e-01,-4.223989165090581976e-01,1.176405761642192321e-01
4.683663755596738087e-01,-3.005943275220089306e-01,-2.789118414391771883e-01,2.549476712642612802e-02,-2.699466226812337610e-01,9.687730253043139172e-02,-8.284880441743573687e-02,-6.564959363239175616e-02,1.209721305487567872e-01,-4.997342287279109008e-01
-2.084967578725544224e-01,2.387204543173233329e-01,2.127239459790800646e-01,-1.472396507552498623e-01,-4.991182532047894888e-02,1.664818540987671458e-01,8.409641984015849003e-02,-1.375891962446387229e-01,-7.220517436270923461e-02,3.551638359795075695e-01
2.364202382025349103e-01,4.581444999972795751e-01,-2.376568326237908646e-01,-3.920926103698387233e-01,9.096448718470578898e-02,4.045288206727879476e-01,3.557766510800484117e-01,-5.484941382756152173e-01,-6.021559907915681187e-01,-1.289494645390653615e-01
-1.464421912982173321e-02,1.847345066099397026e-01,-5.764257776232976083e-01,2.203238457184646115e-01,-1.451345978279934279e-01,4.517165064417039133e-01,2.511104664767711547e-01,-4.325530807642282149e-01,-1.324470196890968343e-01,2.587139191406638283e-01
3.780927104276478601e-01,3.132872468512799546e-01,-4.213981088138524789e-01,-5.641879388090807745e-02,1.474042639017358047e-01,5.648168869866694308e-01,-5.922997304066592861e-01,-4.005590085044978821e-01,-5.569655336928017730e-01,-1.812757034856113947e-01
2.599781915382643610e-02,3.977133697924088440e-01,-7.155432943341368812e-01,-1.234667831030360624e-01,-3.713650922693804146e-01,-4.226068166915245561e-01,-2.673774217854049673e-01,-5.143290852322909279e-01,2.586983734489938236e-01,3.239792255042294733e-01
2.532913186667369865e-01,-4.410637964758355040e-02,-1.287872205668326719e-01,-1.106983828032972461e-01,-3.376928279881444284e-01,-2.080494365226286113e-01,-3.523925127287885761e-01,-3.373059353091016344e-01,-3.897262855345777766e-01,-4.263972050387052626e-01
6.010747362942620020e-01,5.152653027275966302e-01,-3.899301376504462069e-01,1.043924015153308155e-01,1.238770096913025115e-01,1.152967304396118886e-01,-5.579805659759953240e-01,1.604210574821398894e-01,6.001767045212571400e-02,-2.299800857062801462e-01
1.246606261729753806e-01,4.632388772213201777e-01,6.212098582706650912e-02,2.454282807673335010e-01,-7.272463438163667693e-02,-1.082459608496045972e-01,-9.435995494715521126e-02,-4.006301438145168925e-01,-1.357866432863480688e-01,1.579242975149975914e-01
-3.392883919798526660e-01,1.100323914393364910e-01,-1.006416560869107524e-01,5.593724232688674913e-01,3.976130063329789965e-02,2.168304549736441711e-01,9.607872765414597616e-02,-5.442827303414515816e-02,-2.271567468811560853e-01,3.103775109815462008e-01
-4.313906518955470948e-01,5.987159834659935287e-01,-2.449545046778775770e-01,-3.314193622476566126e-01,-5.625966528280500201e-02,-1.598339478719233431e-01,-4.510061213832504134e-01,-7.120648084396470623e-02,3.807984033524924872e-01,-9.664408656064940595e-02
1.793534178636467524e-02,5.291401619832304393e-01,-5.874992237834013309e-02,5.211882746354177254e-01,-2.033419351654653928e-01,7.648657827907581752e-02,4.549812875993459182e-01,2.100610265287257972e-01,7.552777005909150354e-02,-1.550949029435312876e-01
-1.088398105408071859e-01,-3.541192679878021887e-01,3.337165033862753982e-01,3.490193891788491709e-01,2.057785140816077163e-01,-1.761848032159211985e-02,-2.810602118470995614e-01,8.055895981401957340e-02,3.499928868530720050e-01,-3.805122851398569650e-01
-3.056848958896243862e-01,3.766531990106998240e-01,3.210615768160841599e-01,3.253000924761025314e-01,3.035958166942170355e-01,1.093631973357611642e-01,-5.186644143092140197e-02,3.183721005962557582e-01,5.520773501263463029e-02,1.106252459505082664e-01
4.086728322374174605e-01,-6.084720034686289664e-02,-4.929486625400378297e-01,1.841123435890077431e-01,-1.713767541831546504e-01,3.148142822180890477e-01,4.606457290699132456e-01,-3.295792900260659519e-01,-2.065955746371429258e-01,-4.214050516947108471e-02
-4.240789907534546210e-01,-2.657759964465743474e-01,2.002456618288902257e-01,-2.116047613169999911e-02,-3.454695526038035203e-01,3.107928005699994722e-01,2.991572670979281701e-01,2.670213745769861591e-01,-1.726820314291083458e-01,-5.308680488204473580e-01
-4.443680805371969522e-01,4.588791911568769200e-01,-3.053087104483975245e-01,3.386679439885917353e-01,2.889081349388977205e-01,-6.180787619212133738e-02,2.418105552804204472e-01,3.404841201473145507e-01,-6.396497625803328202e-02,-4.294077564292874544e-02
1.226976691481751758e-01,-5.235892725833803801e-02,-3.819236066892459647e-01,-2.907676928698415542e-01,-1.086244084659883369e-01,-4.365301934311963672e-01,-7.517839957511646132e-02,1.638980666504783745e-01,-3.883473127023532867e-01,-1.939385808284033175e-01
-2.255963009521694783e-03,-3.261385787939378722e-01,-1.367485153991318259e-01,-4.411004525523975484e-01,-2.222084830603680838e-01,4.587180341160235209e-02,1.945981159756793588e-01,-3.099415764172009369e-01,3.782236637566420145e-01,-1.403745955395606648e-01
-6.115485347237938768e-02,4.221355534426250999e-01,2.678472187118400294e-01,-5.685018533090079040e-02,-3.653440793177233359e-01,-9.869269613462040847e-02,-1.802389945484868528e-01,-8.808007591018206239e-02,-3.696422477496449366e-01,-9.639212169331826119e-02
4.612249882450268901e-01,4.601536850269007384e-01,-1.007927593431522384e-01,1.369589769267502699e-01,-1.666879062556541058e-01,-2.704210020831859795e-01,-4.421618979606959376e-01,-4.206459476368756834e-01,1.491420477018396695e-01,3.466117409465374610e-01
3.833195284828782579e-01,-4.307034477308859660e-02,-3.220234415978915354e-01,-7.884933903305584024e-02,-1.737381747225887341e-01,3.441277864197161418e-01,1.192357561894879653e-01,4.303046057573668981e-01,-4.456837302894193220e-01,-3.176994403841937320e-01
1.447127392687172776e-01,-3.877330931439727513e-01,-2.193019838477901218e-01,8.057128440713746953e-02,1.962478881575321632e-01,1.873252862506451510e-01,1.639322860404674176e-01,3.894515144149743313e-01,5.507382108107460733e-02,-2.283411855093328002e-01
1.948121413880820121e-02,-2.030374287512332898e-01,1.937253363964325584e-02,6.116222040313037261e-02,-2.193297089095084251e-01,2.069159953405390051e-01,3.328070575603228054e-01,1.833375155520780009e-01,-3.225627437798996855e-01,4.695837613547422795e-01
-6.885944119774523031e-02,1.609138837631137950e-02,6.617070389489849991e-02,-4.210451110957867948e-01,8.505340871257503765e-02,4.575260758732377364e-01,4.087913707296109145e-01,-3.509543597971406109e-02,-4.253582270028608003e-01,6.036195386207823116e-02
2.669549120104506429e-02,3.640776293790102813e-01,4.526968404075384922e-01,-1.722008073868119826e-02,5.876481565941218260e-02,-2.617031360048980293e-01,4.420570985062361458e-01,-3.896726190855635541e-01,1.260970015456346245e-02,-2.496008160846307222e-01
2.343770697309293660e-01,4.771308436052396629e-01,1.604690297810611177e-01,-3.248734927527502925e-01,2.177918735568629416e-01,-3.351885346788101988e-02,-4.793728790156474573e-01,-3.098992616286852519e-01,-4.675784986769107587e-01,-4.266560880263723932e-01
-2.733034313222196809e-01,-2.842299127654172031e-01,-3.220439653691694049e-01,-5.988925357709399405e-02,3.886894069051214928e-01,-1.507975559277894839e-01,1.502785088186386619e-01,1.715962964196198204e-01,-5.098099110676385798e-02,-6.333183714285978150e-02
3.354172810805239879e-01,2.729192716695664767e-01,1.441623294721168791e-01,-3.114630718896473915e-01,-3.011330159124673278e-01,-6.861116121389328193e-02,2.691009421793426060e-01,-2.347119657606678289e-01,-3.078386505630630321e-01,-2.255649261663997818e-01
1.368088838693548859e-01,6.039379781706365885e-02,1.978248396600950643e-01,-8.355105778278024142e-02,2.687456200229383363e-01,4.291859835206051632e-01,3.308440260149291268e-01,2.245455717766127735e-01,-9.909862545793075850e-02,-9.945598952861360587e-02
-1.402041141739369945e-01,-3.046338565843728641e-01,-5.021105995898921259e-01,-3.056705711812099380e-01,1.766971237729251382e-02,4.715437667900120311e-01,-3.144281228454686716e-01,5.420876340965346402e-02,-4.852986340238480412e-01,-3.260524315145753305e-02
5.598399916242701169e-01,3.656387250084398577e-01,-1.145207487030590610e-01,6.051829361263631746e-03,3.571286575508916261e-01,2.535764149668613410e-01,-2.045597146647214759e-01,-5.391426738372222527e-01,-2.716791199404926527e-01,1.028438222812268349e-01
-7.260000526597956694e-02,1.873902208019364024e-01,-2.353067932730945888e-01,1.962200059377773864e-01,1.496499150388641008e-01,-2.841984656584060631e-01,-7.420851148943060586e-04,2.236373585156390398e-01,-4.440507452320899828e-01,-4.124830505045699036e-01
4.286005304648214387e-01,1.181268141809198730e-01,2.673395002912234975e-02,-4.495483143779945012e-02,-3.557703202840220014e-01,-9.713793152263686115e-02,1.156641175686802109e-01,-3.629883947810814693e-01,2.374079156686269634e-02,-3.816989013838940625e-01
7.431951816265304489e-02,5.686543828860034233e-02,-4.682690287663586748e-01,-4.037421310684471409e-01,-2.680720437742235562e-01,2.731484497464189420e-01,-4.425191103560595085e-01,-2.351197622227698958e-01,7.905084735284091668e-02,1.183669129871205150e-01
2.652407207429560154e-01,-3.890350720761836523e-01,-3.512358925138775456e-01,-4.219829268560975621e-01,-4.619089319526114568e-01,3.275836157578714269e-01,1.171868347725427140e-01,6.846269514438334258e-02,-3.984180600556875840e-01,-5.895884417542993639e-01
2.275021265786850155e-01,1.464887872434145477e-01,2.952486819912820692e-01,1.017387274764282833e-02,-2.724102614827299540e-01,-2.897298672239292938e-01,-5.462161030186889477e-01,1.586167277401502873e-01,2.771011335922065610e-01,-1.989231833937560312e-01
-6.876537005961785853e-02,-3.339831434353504602e-01,-8.744225175757010249e-02,-4.680931079324706090e-01,-5.787209207387735699e-01,8.234392908788308596e-02,6.402913316497349516e-02,4.486405835163794209e-01,1.821333756235989643e-01,-6.431450775295108335e-02
4.327288227886128547e-01,3.544724283872570658e-01,-5.879296071824641201e-01,-2.925368749503680088e-01,2.011990937147037362e-02,-5.734906744612164875e-01,-8.508368712797295674e-02,4.143155701417319814e-01,-2.775244901577625378e-01,-2.095168422505156447e-01
-2.332729592630959081e-01,5.168778378790006567e-01,2.142610843330668147e-01,-4.156778585190473718e-01,-3.337091659542265609e-02,2.547096198353839824e-01,-2.474050379014283707e-02,-3.493458040452140922e-01,-1.280752578437437117e-01,5.143137699618900438e-01
-1.921975394699545481e-01,5.381929738594102286e-01,-3.304341039664415725e-01,-2.253890934792109890e-01,4.721440089442331955e-01,-3.441392856588254556e-01,4.317606348279440787e-01,-2.104948786701347219e-01,-1.445896972740877973e-01,2.289070070555574432e-01
-4.214152481749294243e-01,-1.664980945744960750e-02,-2.320855853672031122e-01,-4.634695303025547775e-01,-1.332487615762707744e-01,-8.901914271414364255e-02,2.605761369831327001e-01,-1.486962307754215729e-01,-3.299297604452129384e-01,1.380312465570270597e-01
-4.536061804053683755e-01,-1.626922424639845044e-01,3.889991329434259182e-01,2.879771788752646389e-01,2.482463655620202325e-01,-1.221416919521972448e-02,5.165902128734322085e-01,2.681178371519696846e-01,2.938243673783242915e-01,1.953596561315167623e-01
-1.162900168359713576e-01,3.414274538965305639e-01,2.426078498570931885e-01,-4.439019870755190889e-01,1.194196621333230846e-01,1.248003061412977371e-01,5.582493496701550900e-02,4.320723557241069601e-01,1.363681878844127671e-01,3.488899038343600267e-01
-5.957313463678014925e-02,4.633217946813215082e-01,-1.297076763251037990e-01,-5.588811870748716659e-01,4.131138700456962048e-02,1.009806464011829552e-01,-9.376107454940871277e-02,3.594283995600771053e-01,1.780498679616817903e-01,-4.092464195151592765e-01
-8.605011556726352429e-02,2.660725487944197096e-02,2.504746962152078482e-01,4.150043688824951449e-01,-4.616710311321296500e-01,3.132798783962579825e-01,4.706410985640370193e-01,-4.625986022331394221e-01,8.352036011475193200e-02,-1.664324708320655266e-01
1.722159682860250479e-02,1.284939959497820583e-01,-4.949875182043415034e-01,-3.842404638456459187e-01,-3.530224192101403813e-01,3.050709758676754466e-02,-3.515146772683386961e-02,3.975472717131963152e-01,4.503725217510540224e-01,-4.251480465411616172e-01
3.231907696755000892e-01,3.063681405983885719e-01,4.546525695183397109e-01,4.696598910877002320e-01,-3.802434166893382816e-02,-1.973703455721634581e-01,4.216113998910218652e-01,-2.419569125372772189e-01,4.628133044898862791e-01,-4.190394312334732030e-01
6.964226519637799206e-02,4.034059946104516237e-01,1.030837010846111096e-01,4.059483833861867175e-01,4.186516697249536567e-01,1.281331532049153066e-01,-6.869481706705776562e-03,4.405934848758544242e-01,-8.791408155335091179e-02,7.932879386171352853e-02
4.764616562864239513e-01,2.390146277131305896e-01,-1.527508223464815185e-01,-4.266761504880334233e-01,2.847484038583449339e-01,2.239668306604678250e-01,-2.909112946815718970e-01,4.640694541274541229e-02,-7.313198683463183192e-02,-2.401225574882404068e-01
9.968614986117077525e-02,4.382733211935010975e-01,4.117567151818674609e-01,-4.022349040085602678e-01,-3.777523797063905286e-01,4.532528056621055734e-01,2.759218238043530946e-01,4.878744017644481845e-01,2.395383930658496752e-01,2.336551844776385001e-01
7.758489799437978673e-02,-2.435043751730445460e-01,4.426279866407302199e-01,-2.882839174048906217e-01,3.829600446093775479e-02,2.244893561131733051e-01,-1.471929746344339263e-01,-2.213092771113034651e-01,-4.213529577068338416e-01,-1.669333084003225276e-01
-3.956179450059943425e-01,4.672271903023806350e-01,4.788892242476635031e-01,1.461132057346747060e-01,3.843907556714282192e-01,-3.879989404566394628e-01,3.407013441072102578e-01,4.530344215128689900e-02,-3.799047076676897450e-01,-2.260207820779908117e-01
7.865413813214448824e-02,4.736190482825790582e-01,2.004368556307121463e-01,-4.477274177864118410e-01,-3.104614156194769325e-01,-2.600702267971131132e-01,1.492502555458175562e-01,-3.947212478111297718e-01,-4.499453830759846812e-02,-2.681969669534446932e-01
1.851481784133508779e-01,-4.920736617644753119e-01,-2.988778447286336570e-01,6.555152498760878632e-02,-5.151698554436868749e-01,1.282879974605915518e-01,2.090399706953830483e-01,-3.681264909473157543e-01,8.164619758683389072e-02,5.334143884027076066e-01
3.195135184355191726e-01,-4.196572632136319481e-02,-2.155801660311555679e-01,-3.135166174159850078e-02,3.445377032121053062e-01,1.275311278510475599e-01,-4.567488775966693226e-01,-5.106370329605355307e-01,3.557855884406409958e-02,-3.348703408694554684e-02
-4.168314627240383152e-01,4.563951207573475055e-01,-6.703002923123445311e-02,-4.602888364106847430e-01,6.988675273370334451e-02,4.641730529349530898e-01,2.696116666266644146e-01,-3.375455464911513714e-01,-3.722310022984136046e-01,-1.313954177660661693e-01
8.705482585171475662e-02,2.201571808738683744e-01,4.364407260059260940e-01,4.475973432609289815e-01,1.491865550567720022e-01,2.306457044624153074e-01,-2.175741351224262654e-01,-1.785745811002986128e-01,-3.546448129180712061e-01,-2.933582732458540621e-01
4.995542269126614365e-01,1.533092128217935501e-01,1.709748892928205921e-01,-4.943382513348281160e-01,-4.179198143255792308e-01,-1.936760021885673977e-01,4.008338690688854622e-01,1.077613348984155922e-01,3.777767080851427983e-01,7.612017045868973118e-03
-3.683095230497721723e-02,-2.764331537539354566e-01,-2.371740298770878275e-01,-3.801611118991402583e-01,-4.505983689514084234e-01,3.892158104064089574e-01,2.392904456561863874e-02,4.251025496374391532e-01,-4.218220604151828312e-01,-7.003923610554591006e-02
6.956139250908695004e-01,-2.022761445152667648e-01,-2.636000900945061898e-01,-2.027239302127254172e-01,-1.599120591396067659e-01,2.769980852732356613e-01,-5.056626527120856585e-01,-3.006306016872403175e-01,-2.506407778172287451e-02,1.717424365835595879e-01
5.928917855833537587e-01,1.281934347314595546e-01,1.189292733621988146e-01,-1.040683864756636462e-01,3.395396874910864837e-01,-1.192667860403008456e-01,1.968474198243899964e-01,4.119709259660643830e-01,-2.292089774861111873e-01,-5.387203131585022176e-01
5.260028315862819159e-01,-6.081601598718067853e-02,3.595511459356539041e-01,-4.045614836856520347e-01,-4.402763278688419657e-01,1.799111469040385602e-01,1.360994192159337424e-01,2.116701611663161509e-01,2.133475052529794080e-01,6.448378205399717469e-03
2.595340667272784674e-01,-6.007122183288339246e-01,-4.549522064791047815e-01,2.712917465733787337e-01,-2.215619178349451379e-01,-2.506355960220941204e-01,-3.286138605784715838e-01,-1.998469510450292808e-01,3.712901635087731966e-01,-1.576668398897323464e-01
4.052217956717335534e-01,-1.816723780310407210e-01,-7.484218088666344526e-02,-5.204995412747973615e-01,-6.684524992107298003e-01,-9.780962095061608574e-02,-1.512006913239463679e-01,-2.721047350993393010e-01,1.265975493833705057e-01,-6.280738692318250660e-01
6.034329892090674052e-01,-5.144074261699146076e-03,4.601356900680252382e-01,1.010319358533215417e-01,1.492882563244344873e-01,4.380015232457368790e-01,-2.944794459399984188e-01,1.486887626848106825e-01,3.970460850674898540e-02,9.422179209880859885e-02
5.745387895669231693e-01,1.689721238641632706e-01,-2.833304204077596866e-01,-1.118230040100411105e-01,-1.032782898909779673e-01,-1.102177313821224858e-01,2.478936729395024019e-01,3.358421704222203097e-02,1.226617952671620743e-01,5.904940347414125990e-01
-9.323634561326699099e-02,2.626544942209973477e-01,-2.071817917572452150e-01,8.920079829082289136e-02,5.534393339138337503e-02,-4.353476020545120062e-01,2.212801570930043871e-01,-4.682111742792504638e-01,-1.239584417811781386e-01,6.029505706952529437e-02
4.892768519746414912e-01,1.218056264769111635e-01,-1.202589642586004565e-01,-7.756325858989124300e-02,-3.385591139020575624e-01,1.589447437506339433e-01,9.467176455690878845e-02,4.123674057216050737e-01,4.248187350916980964e-01,1.307263497819242670e-01
2.066674879556458233e-01,2.570486581533433790e-01,1.093688033914489155e-01,-4.064259125833752928e-01,3.817747126280147257e-02,4.517998018920012238e-02,6.007602799520925241e-02,-3.496651475357169248e-01,-2.767150092660862204e-01,-2.977373816925563133e-01
3.044303304515735831e-01,4.791060184652563558e-01,-6.398768494301054766e-02,-4.821809610693039150e-01,9.033992953825163708e-02,-1.580514887099679355e-01,4.129563150223442558e-01,6.152559459621382842e-01,-5.332029503417700517e-02,3.394269532204994833e-01
-1.069443385882364317e-01,1.693583122804312724e-01,1.153368533713144961e-01,-5.253502798538295382e-01,1.375785914602177806e-01,-4.542727782928712155e-01,5.501001237752998207e-01,-2.538987923303300670e-02,4.894266788418004388e-02,-3.459439620257702686e-01
-4.667062446508598028e-01,5.165279312208269635e-01,-1.204719227833899314e-01,-1.156540579778534417e-01,3.319893958697757164e-01,-3.777703456259660642e-01,2.104619667611227485e-01,1.720188927320418504e-01,3.082609867839374851e-01,-3.354613829826291749e-01
1.304191118167791728e-02,6.255864265307266303e-02,4.544822089385997521e-01,-5.059265624199380529e-01,-4.652052788621350299e-01,2.461761549977680708e-01,3.478772897986444623e-01,-4.628570308071287137e-02,-3.451408832446339336e-01,-3.658639573645613985e-01
6.742465901771522996e-02,3.492768312819504173e-01,2.187381017987090615e-01,3.212245650861981217e-01,6.681109059547865950e-03,2.631060081919437410e-01,-2.655613885171241306e-01,-1.601957923125923722e-01,1.714757229984273657e-01,3.239131756271876328e-01
-3.732315435034314066e-01,2.017810921356393838e-01,-2.772518076645909546e-01,-3.764140086040413946e-01,-1.016824115779870787e-02,-2.694441318630722559e-01,-1.583843499866882387e-01,3.718881734104575454e-01,-2.637929587512171103e-01,-1.253311198544374561e-01
-9.230961783279615848e-03,1.592661968378041026e-01,4.364768489816088226e-01,-1.272770990134165225e-01,-1.537677271147663838e-01,-4.594434424045631404e-01,-6.903757404335200687e-03,-1.993112704534296120e-01,-1.535899950144881954e-01,-2.733077632844521654e-01
-3.518228151792151537e-01,-9.872368642610761247e-02,1.962902262465601733e-01,-9.402474082975771641e-02,3.220473093067684894e-02,-4.031454064416853944e-01,-1.237055682826564973e-01,4.324761527936917815e-01,1.977703965377395345e-01,1.743275846583497157e-01
2.980818796181833874e-01,-1.254840856169605889e-01,-1.981353326632459277e-01,-3.475643168056998245e-01,-4.171824095428806611e-01,-2.611340976618828011e-02,-2.723122732061090123e-01,-2.764004816585606816e-01,4.828412863165572055e-01,-1.596757854680901367e-01
4.069774527974704403e-01,4.672884915348761437e-02,1.563527728507947689e-01,2.564740179536114870e-02,1.462877549083987649e-01,-1.125946556503566211e-02,-1.720947459050881367e-01,-4.309945548667534210e-01,-2.124580808609832505e-01,2.623277144085301438e-01
-3.277874793834191225e-01,-4.875405085230625352e-02,4.114541089026706455e-01,3.270289480233156687e-01,9.002802808088140873e-02,-4.208845514903102880e-01,3.883249681424072453e-01,-1.197933816258467815e-01,-3.234991379252594168e-01,-6.948902789893128540e-02
-3.010118507159190715e-01,1.339670379342063622e-01,-2.301934156540837162e-01,-3.665021506374465665e-01,3.972715768703009576e-01,-5.945798854121648463e-02,4.415878968204274280e-01,2.963321016688856835e-01,-4.419873583464152822e-01,2.791253313920845011e-02
8.303471219890944111e-02,6.429790668234149076e-02,1.883547487142721022e-01,8.904226953868231431e-02,-4.270799400041409011e-01,-2.851514728819753430e-01,-2.581150683901438023e-02,-3.193284094647955151e-01,6.353387790837577986e-02,-3.047238375730930149e-01
2.139384203416871133e-01,-3.989531187007869795e-01,-3.049367877434532303e-01,2.295100751515862791e-01,4.562534512593994784e-01,2.573212236982678203e-01,-3.713148526916709158e-01,1.368374208578287676e-01,4.838975743044721112e-01,-2.564683649392945908e-01
-2.318140468110962971e-01,-4.696460996226992091e-01,1.422181083488997799e-01,4.785728876925212094e-01,-1.846786703671341179e-01,1.455762686876087564e-01,-3.598816259916355897e-01,-3.103668805485859661e-01,3.729378461764825681e-01,3.446596959931609305e-01
2.939915297669321026e-02,2.258973729039878975e-01,2.268862507521558769e-01,-3.784757168572135955e-01,-5.115154380590499761e-01,5.181228200880787504e-01,2.292051363208728321e-01,-1.073126557547742638e-01,-3.731943749153027873e-02,-1.893460999899604091e-01
-1.186097477492381452e-01,-6.153090695058986981e-01,-4.245575863372361702e-01,2.560834331372398021e-01,-1.719216299160858663e-01,-5.176812730010259267e-02,3.840749213598022155e-02,-2.104003062313448413e-01,6.726528800014482112e-02,-1.305591825112623616e-01
-7.102345162704666592e-02,-2.598345232456066300e-01,-1.350505244417452289e-01,2.245912109753709918e-01,-1.439296134277089911e-01,-3.863521232473556000e-02,-3.349806053249558269e-01,-3.942499956156980678e-01,5.884432283991084534e-01,-5.024871176768113366e-03
1.545776531365004036e-01,-4.088269602252371238e-01,-1.509740015530484369e-01,-3.343965565336478596e-01,-3.865528684226995360e-01,2.072069724479085884e-01,1.531478055400472826e-01,-3.300266641035844994e-01,1.567708028062730352e-01,-3.179229743056535273e-01
5.038776734614016650e-01,-5.872157568306668463e-01,-6.641380172843726337e-02,3.588085720872850187e-02,1.642300033487440261e-02,3.300001685693260689e-01,1.654580436461495496e-01,9.201384724651237579e-02,-1.039439445127020856e-01,2.043677218595966183e-01
2.775695542709577524e-01,5.722902409529749546e-02,4.256537666056994240e-01,-1.575905273655133498e-01,2.167821497739547687e-01,-1.671635923242687782e-01,-1.336018345213850489e-01,-2.904561252096138357e-01,1.017033391092293793e-01,-5.302316297157725344e-01
3.546532964564400592e-01,-3.666672798410347545e-02,-1.049421779480243788e-01,1.788042319448278697e-02,-3.064629577332008137e-01,2.670564977240438842e-01,-2.444357114626481142e-01,-1.044953355432526321e-01,-1.675780570981801609e-01,-2.031599626085323074e-01
4.366422854658526531e-01,7.380042522738367028e-02,-2.577513250026624014e-01,-4.203780049177643363e-01,3.540127712397934112e-01,-6.284650838503323678e-02,3.457837737887360929e-01,-1.419546947232047940e-01,-2.539556670004221584e-01,-9.474417274243480958e-02
4.334873734794080780e-01,-6.755222103148710300e-01,4.833760687129375760e-02,-1.286593152902777426e-01,-3.154173603625986533e-01,-2.371687857538350985e-01,-5.418857319199142653e-02,-4.694976510361512090e-01,3.916472339827612448e-01,3.645015244292990064e-01
-1.333314953441076811e-01,-1.230595751943500543e-01,-3.391859411280086917e-02,-5.411396240795637302e-01,-2.131495475426813946e-01,4.737769090527354510e-01,-1.585104985612826312e-01,-2.355369636718616377e-01,3.631857221217525966e-01,-2.848517025391519158e-02
6.812097188208963983e-02,-1.370313933539653029e-01,3.767067096439343232e-01,-6.583755712275694005e-01,-2.463024841822582939e-02,3.421134637110446186e-01,3.611256472904941228e-01,6.676867996753041434e-02,3.176869265875054138e-01,-1.964879176989547116e-01
5.392218206891959964e-01,-2.231903096889424898e-01,-3.941040902385431477e-01,5.880796959958550785e-02,-2.631705378938710704e-01,-1.656408045046044164e-01,-2.142531705976745415e-01,-2.238495117175329507e-01,-4.678353714888764947e-01,1.747775590180825345e-01
3.109155296015870817e-01,5.390545112908665670e-01,3.005186158939388563e-01,-1.971770861937595376e-01,-4.044154923836328908e-01,-5.685505255759910892e-02,4.116429627642322342e-01,-2.525968871709122765e-01,5.257976580002327038e-02,2.994704971500902757e-01
-1.802543193773732677e-01,2.720502765925841837e-01,5.587538164762729381e-02,3.446814130819971789e-01,-9.505891482149392280e-02,8.579948161630102099e-02,3.277610671736095327e-01,1.547979810914271448e-01,-1.794947587847261772e-01,-4.656397167954917093e-01
4.680304982177088124e-01,-4.088992140594435720e-01,-2.818484565051480595e-01,-3.565801376104216769e-01,-4.125402270858707920e-01,-1.345785220396476523e-01,-5.615109398093519333e-02,4.057357653813275511e-01,-7.850423424527577798e-02,4.875203173360260003e-03
-7.214023975495489904e-02,3.203214672860090206e-01,1.744146710527567090e-01,-1.018375335517436447e-01,1.635328271272869227e-01,4.348101833843283637e-01,4.708843454711099108e-01,3.743164823917128348e-01,2.349734620346258240e-02,-3.952250248462015059e-02
2.516798499150538770e-01,1.241070014132867050e-01,-4.258049428338254172e-01,-1.567425648727220067e-01,4.072185307866048598e-01,4.052184602759500986e-01,-2.245800885282202286e-01,2.243901887733525946e-01,3.207784615399665862e-01,1.903737438498579251e-02
-2.408670795559497424e-01,2.699200401406037231e-01,-1.889881389883450169e-01,2.473688478142639091e-01,-3.895776713127269142e-01,5.892666276082908494e-02,3.287266807336731711e-01,2.890122944809408456e-01,-4.473235860660558505e-02,-3.618519535241504492e-01
4.139592687988206121e-01,9.407403410659213872e-02,3.902609723192201341e-01,1.701437004755781968e-01,3.921489417400137456e-01,-3.907129953924948218e-02,2.216619952098236868e-01,-3.614537403307517723e-03,-2.746705307230191129e-01,5.454258249287342875e-02
1.185564478364425911e-01,3.697493021238676403e-01,3.464326301927790897e-01,2.607544596308992157e-01,1.404103149984156640e-01,-1.627514797133723934e-01,-4.073052599880214175e-01,-1.321097790176627672e-02,-4.464184900669429523e-01,-2.941644874570926160e-01
2.076211903310925255e-01,4.480004884298221524e-01,-7.893209510910008386e-02,2.089108659875910379e-01,2.981686914900832930e-01,-8.752480511550825293e-02,-4.576316300586458219e-01,-5.083269306613090455e-02,3.006853726474738586e-01,4.713366779039130372e-01
-3.803714869598051052e-01,-4.411570303017043337e-01,4.323672431010742168e-01,-3.112912115089685461e-01,2.781005024270357673e-01,-2.411015953522666899e-01,1.894019103236942170e-01,-7.662101080307751055e-02,-2.960473548029903257e-01,3.435336970509800802e-01
-1.255001717349159551e-01,2.940520749427801006e-02,1.254939677143636911e-01,2.922254631164947769e-01,-1.693568955654587427e-01,4.306845148751213825e-01,-4.135828809629214509e-01,-1.351144498965968777e-01,-3.484985627255732243e-02,1.907573944136749522e-01
5.509325842452506700e-02,-3.935996113819879016e-01,1.520556525546971072e-01,3.987113834747279401e-02,-4.712608947465232179e-01,-1.907256843911849242e-01,-3.450356363343204391e-01,-2.888785699237220173e-01,1.899284982830981017e-01,7.286944577718845739e-02
3.340854060768801426e-01,3.687116577672487905e-01,4.270679845749712489e-01,-1.746060460785115592e-02,-4.880363286001406231e-01,-3.862028259903620420e-01,-4.275418930877726287e-01,-6.059828660889865493e-01,-1.166993719597479856e-01,-3.689326743248886875e-01
2.908749551343401407e-01,1.295087177526535460e-01,-1.035090327956536271e-01,-7.179564264660044659e-02,-1.912592957709044750e-01,-1.795469764415749958e-01,4.446445441282841776e-02,-3.085990847620933009e-01,-3.032676208705895604e-01,1.205382976121853467e-01
3.603436857897905354e-01,-1.342479107349918432e-01,5.341926776605495503e-02,4.872621004958387902e-01,4.444952589971868373e-01,1.543690516759528009e-01,-2.794641528085995419e-01,3.412038528367194457e-01,4.121359146610792390e-01,8.281747916376105967e-02
-2.481506811582215866e-01,-4.821816928848574602e-01,4.213714304909949027e-02,7.300742402468174408e-02,-2.988326313065910456e-01,-3.346555427962320806e-02,6.539130689675337615e-02,-1.445315670344357317e-01,3.168099556646861159e-01,-1.773347306683013824e-01
1.182447940629347827e-01,2.413431683293681684e-01,3.986851927147804231e-01,-1.451522990608741515e-01,5.478626661909238860e-02,-2.931706000869370166e-01,2.087427352505971945e-01,3.217023315330057032e-01,2.068084172878418281e-01,4.396826428124943065e-01
-1.321224104804789301e-01,-1.438624414553115738e-01,-1.346958708343059807e-01,1.425669642156590644e-01,-3.320906945566344803e-01,-3.625179409272856756e-01,5.671087130727062720e-01,1.651465918088104723e-01,3.523060529680940300e-01,2.029461779590769621e-01
3.884340915112658443e-01,2.002278367392316683e-01,3.421712697174453255e-01,3.845343171591871223e-01,6.638923231197514652e-02,-3.489370097271692062e-02,1.942425308072161932e-02,2.092642910026834557e-01,4.023551173075839427e-01,4.740250674503933559e-01
1.625658728737616465e-01,-4.429434261615217139e-01,-1.657706681056909104e-01,-1.083411110306552599e-01,-1.528186050948748646e-02,-2.386208994857383081e-01,-5.399006302099932340e-03,-5.344917328987443261e-02,5.511957503879151288e-01,-2.005957572349418017e-01
4.897498547512010303e-01,-3.849416623796850789e-01,-6.295180942163411397e-02,8.064541625789516111e-02,-4.073015831932948888e-02,3.240137076509724823e-01,4.855050084641288066e-01,5.724730678771394049e-02,5.129126538573508531e-01,3.006215654361657497e-01
-1.877080769065015697e-01,-5.057908481237760601e-01,7.040204846900651597e-03,-2.155713662285806964e-01,5.773433394513193262e-01,2.148757292654013273e-01,2.613544453604346729e-01,-4.487491347188065638e-01,2.174455164367123661e-01,7.928473075064787837e-03
3.141121885497316080e-01,-2.492891800297017679e-01,-9.060791291052540386e-02,-3.952335922393207523e-02,-1.041179433915175312e-01,1.631399740983151270e-01,-4.194272894130581242e-01,-9.231018268463885013e-02,5.792560623780940166e-01,-5.977754886966729631e-02
5.766610836874577206e-01,1.292261672702368913e-01,2.034504008191685698e-01,-6.110495785499603372e-01,3.525500742841430890e-01,2.522658440248150002e-01,1.104408554172512241e-01,-4.012471951064234821e-01,-1.590187717831181846e-01,1.922276908138381424e-01
5.976022941809975286e-01,2.964196872071803504e-02,4.751562673164325679e-01,1.506724196949518202e-01,3.470435960698601274e-01,-1.783705488190474586e-01,-2.176112997514856873e-01,-1.773455162720687928e-01,-1.587369283043612300e-01,5.282892073964157165e-02
5.582200216408860632e-02,-2.884322554157240370e-01,3.645207440273310340e-01,1.161125474285221726e-01,1.654846425107490138e-01,5.034341888441316026e-01,-2.773253365320981212e-01,-1.514700887262821483e-01,-5.221036100853956308e-01,7.074075503026471257e-01
2.975054862136163880e-01,-2.424600502657248136e-01,-1.597347144048713863e-01,7.457018057439453174e-02,-3.564834433996072471e-01,-2.604358718587580432e-02,5.450792135258288040e-02,2.105667553049006546e-01,-3.970643421372261339e-01,2.101202935315489850e-01
5.219960752281321836e-01,2.557352791823730986e-01,3.567553406869828914e-01,1.744857234076994390e-01,4.255284880223658694e-01,4.054084290229366394e-02,-2.534680272366137133e-01,-2.401618226639288395e-02,-1.385396048029318428e-01,7.248620616069609834e-01
-3.017216025892581754e-01,-2.871321274266131485e-01,-1.259570857127352839e-01,2.414157168569003656e-02,-4.852320684302475345e-02,-6.704766954976958127e-02,-3.664386550746964732e-01,2.575035166149710134e-02,-1.687219717441506839e-01,-9.279369644399694528e-02
5.384264149761291973e-01,-3.531642578159499557e-01,-2.925485966476974453e-01,3.726385397697181134e-01,2.965026697412352918e-01,2.491735899238120833e-01,8.506272766646564426e-03,-3.605427036820871289e-01,-2.691650708483664944e-01,1.031457635900774328e-01
5.375794535096727333e-01,-3.785609342409434475e-01,-3.150093292885164931e-01,2.175180741932645490e-01,-5.370082774888146337e-01,1.187438966404581915e-02,-5.351662357986604057e-01,-4.428633747848229052e-02,-7.283316569413801622e-02,-2.076868171345046810e-01
-1.975734350880188062e-01,6.578299131056281057e-02,-7.650927672556362413e-02,-4.351870300779974721e-01,2.586332097603434854e-01,5.000482934900654097e-01,1.607597196419982000e-01,5.370018846444662985e-02,6.964008057288180453e-02,3.597586056295927481e-02
2.250667379953323888e-01,-4.029046444775282176e-01,4.621188212799416939e-01,-5.149280972245854349e-01,-3.980694115070132488e-01,1.997495037785464167e-01,-3.225297258462230254e-01,2.492534451911286586e-01,1.503340906473154825e-01,-1.554905006966862124e-01
-1.498560693231092422e-01,5.878595883906372055e-02,2.675598978340311129e-01,-1.013949520226764406e-01,3.536142985112428749e-01,-1.076119210157731459e-01,-8.901334023346556268e-02,1.177018579831336648e-01,-1.221008113796197281e-01,2.464530005364499576e-03
3.993316919845007473e-01,1.212916783949918344e-02,-2.122768356501903431e-01,3.268296355253162422e-01,-4.458840986702032883e-01,-6.948887735599523774e-02,-4.797322294897781725e-01,4.823918842430023335e-01,4.641691770588432520e-01,2.937174195392202453e-02
3.203932904455815689e-01,-8.295163571951237602e-02,3.084645443225619843e-02,-2.888507301344379052e-01,2.544540270938309146e-01,-1.268257687820913138e-01,2.443904480002919433e-01,2.885090441347121781e-01,-3.119703730880595827e-01,-1.816190546719062548e-01
-8.523585763120110348e-02,-4.682170585492361203e-01,-7.837260369081208711e-02,-4.141449659038098918e-01,4.948871636433188059e-01,1.529375310842662032e-02,-1.748621642136380661e-01,-3.889384882441904723e-01,1.841416027903809705e-02,1.776312898381195438e-01
1.771320197264315555e-01,1.521298533623402782e-01,-4.980150972201787818e-01,-1.585934642938767111e-02,4.584376525188808144e-02,4.907010215458130209e-01,-3.737500360929009169e-01,-3.414923924020695223e-01,-1.934345760092769373e-01,2.907084831881479037e-01
4.528343992071913737e-01,-1.364369702707302345e-01,-1.376730403662498603e-01,1.763451883866032355e-01,-1.114429669630594144e-01,-1.961699467583770673e-01,-2.484104130554195822e-01,-2.401462812524115809e-01,-2.499530438840297519e-01,-1.194658276054598040e-01
-1.318576064374578638e-01,-3.898575301758115952e-01,3.759804248922017367e-01,4.877318511264911449e-01,-1.586329561692607221e-02,2.020453796419873216e-01,3.426750837384741066e-01,3.766438888873521185e-01,1.679780803041664161e-01,2.157451528608093083e-01
1.072010340364517589e-01,8.993839920605953275e-02,4.178756633424037803e-01,3.584682514168892054e-01,5.672964254441062448e-02,-2.482846864187203753e-02,8.565342871140893544e-02,-1.512218021090424303e-01,1.969295734714585355e-01,4.490858718290032803e-01
1.974139108774191076e-01,1.990010216523518394e-01,-3.082043149048225850e-01,3.739730971134295756e-01,-4.424076824671756003e-01,3.749282631977241542e-01,5.527483478097232616e-01,1.410526040281382676e-01,-2.751309979693421504e-01,2.210022495588227498e-01
-1.596947277216510808e-01,2.142644201210286425e-01,2.658673551439170724e-01,-4.327848756936890640e-01,4.704719800082545755e-01,3.031957569837047117e-01,4.133234984458021843e-01,-7.389947630332155404e-02,1.992874306220231428e-01,2.367909598969276386e-01
3.202460229827508442e-01,3.608936985312157647e-02,-1.299807386810477028e-01,6.504353800830776910e-02,3.950087081238328746e-01,3.250621627740795661e-01,7.375644316984000803e-02,3.560735763762112871e-01,3.672070116451585653e-01,-4.909335150164439304e-02
-1.326266643827154201e-01,-7.540707310844534106e-02,4.658523676634171440e-01,3.500761094089537839e-01,-5.401562423116501588e-01,-5.293579232328244899e-01,1.717385816939538123e-01,5.300898271122351790e-01,5.979370752422560331e-01,3.642023599333535366e-02
-4.042327137244607071e-02,-1.809655705817939941e-01,4.064718837034448362e-01,2.981176628350515889e-01,1.302538034682106938e-01,-6.231482955800795448e-02,4.823929866506073694e-01,2.712240405612512117e-01,5.358553677739228416e-01,-3.796101722585147609e-03
5.268888235032592737e-01,8.113658416487967706e-02,9.877181621818903468e-02,2.100860964948443599e-01,3.699261974000461056e-02,-4.160652870606609821e-01,3.995007151936424417e-01,3.278241312969967791e-01,2.352421752240688169e-01,-2.415474350638247003e-01
-5.479646215666067466e-01,-5.316399378457364877e-01,-6.710305013968467791e-02,4.281913158885324727e-02,-5.250338312404321250e-01,2.018303034916172911e-01,-1.020835734187983818e-01,2.512780219241798618e-01,1.408486485555549006e-01,-2.156298964564174470e-01
2.093026454135404613e-01,-3.675903874931269466e-01,3.416063619235974458e-01,-1.330151092997040353e-02,4.012719691264478583e-01,-2.179200922145536068e-01,2.849101114071705410e-01,4.003526818351454408e-01,5.352327636506243325e-01,3.976336549245268470e-01
1.907038372517560754e-01,-2.546432651644433554e-01,2.523290540557679429e-01,-3.541063796106164174e-01,5.132164921011544978e-01,1.801113971695817162e-01,-3.912940902387058717e-01,-5.708216954069040838e-01,3.414145007732614090e-01,-3.724622274949763168e-01
9.967649435825828852e-02,-1.087826736166631059e-01,-2.896384881281456880e-01,4.959112381524542063e-02,5.315618558329754384e-01,-3.576960664595936756e-01,2.402966904895791067e-01,-1.164910892486700766e-01,-2.519263336089002103e-01,2.145438419027855814e-01
3.358039771620080494e-01,-2.476661016636383938e-01,-8.350847013094474247e-02,3.346800328168054173e-01,5.255113335882086734e-01,3.529087557921419815e-01,2.840933295985285101e-01,-7.698422213153932603e-01,1.622538580556506446e-02,2.768485640493097422e-01
1.885377793427281679e-01,-2.177186734287218650e-01,7.677101578789416458e-02,2.674638099570688515e-02,2.889043423112210851e-01,6.356512045281912382e-01,9.184778917439034851e-02,-2.298547270067420600e-02,-2.381962112644717133e-01,7.243956194848215346e-02
-9.183344403939844303e-02,-1.346536130230405470e-01,1.486071366182776521e-01,3.155970837065975032e-01,-3.996535871726141775e-01,-2.952730046222786786e-01,3.132677952548344746e-02,-4.673927629585912791e-01,-5.758993028394566727e-01,6.573513626028330004e-01
6.403075032548516399e-01,-4.480070577319588687e-01,4.343495600439982729e-01,3.944368859799448623e-01,3.136891088876327463e-03,9.492096964388151148e-02,-1.169421982865832405e-01,9.997571801812188061e-03,-1.569737857570267792e-01,-3.511259857526514983e-02
-1.517167095509976971e-01,-5.311662350588189918e-01,-2.411338059778113663e-01,1.295430267316447781e-01,-2.121910624855329608e-01,7.404697499509109437e-02,-5.967852482676481163e-01,-3.311316118701276845e-02,-4.996788775811158989e-01,-1.690423521494726355e-01
5.970006464459198803e-01,-8.741285733612795539e-02,-2.567906484391530575e-01,-1.422011203239982313e-01,-1.878919623563990449e-01,2.909637490133760718e-01,-2.829679990326026684e-01,4.025890057727691818e-01,3.931960427443114692e-01,3.801577684562302828e-01
-3.831194422620288753e-01,3.580551331285152794e-01,1.989501231955989879e-01,2.586170845012732977e-01,-2.129984091303201710e-01,3.093522423387370934e-01,1.744443835420164124e-01,7.918082799814981504e-03,3.287231914410284617e-01,5.760136509721918152e-01
2.862852574732678290e-01,-3.500488035805735532e-01,4.293030640791796193e-01,5.788600901944505189e-02,1.398961355368276704e-01,1.005592788458158499e-01,-6.657761999290484622e-02,-2.971342087020801270e-01,-3.723488147486169741e-01,4.304754248171248632e-01
3.906933812525658078e-01,-3.629980741314500770e-02,-3.436585815675280986e-01,-3.474893853867000448e-01,3.290390627968882153e-01,6.108602461692123203e-02,-3.632928505725525059e-01,-2.506728175988782170e-01,-9.374974988012033106e-02,2.110436332751259580e-01
-2.365446917381594238e-01,-1.241090142698885873e-01,3.662175799577147006e-01,1.568441780952713471e-01,-2.352366328859678557e-01,-4.045637032140704248e-01,4.121160015563004597e-01,2.151654581847642633e-01,-3.425150135891799619e-01,2.411456887523893700e-01
-4.463034834843772058e-01,-4.082256060457097879e-01,3.941549331857150396e-01,-2.858625575197546453e-01,4.371196657083332715e-01,-2.291550689297204846e-01,-4.672048757856584467e-01,3.948300326623849776e-01,-7.815638271559925687e-02,-3.238530272699069457e-02
-4.654543768891868938e-01,-8.208690255698976312e-02,-3.335896916210865926e-01,1.508559236347291610e-01,2.947444892202571998e-01,1.489134516190260271e-01,1.751576832050567301e-01,-2.294635311737651395e-01,-1.746405183598544186e-01,-2.310549010130778097e-02
-4.730194994235012440e-01,-3.784156304573396690e-01,-1.948234800264089239e-01,3.930736824331520496e-01,-1.419991286818132747e-01,3.804420080792779713e-01,-1.906092796567294134e-01,3.806162400461001738e-01,-2.677850134913468128e-01,4.015462759657609793e-01
-5.971510963220934970e-02,1.032539796384636527e-01,3.151305632777695043e-01,4.451079739142677072e-01,1.498168018615597397e-01,1.687341567663770969e-01,-2.011970759906717976e-01,-3.574683654607698213e-01,-1.749448364024518976e-01,-2.488858145666042465e-01
-1.094096895107838641e-01,-1.842326471995796300e-01,1.911513025055404380e-02,-1.948170737309659895e-01,1.462472284481069473e-01,-1.266554254414130609e-01,8.983217765300653690e-02,4.448027065726180562e-01,1.041532730300018667e-01,-2.411241359336757373e-01
-1.515830390869625510e-01,-1.045419149713819190e-01,2.400144252621183305e-01,3.151955109203051220e-01,-3.094982381822562467e-01,3.087650380274932771e-01,3.178510426737686245e-01,1.207660812852686810e-01,4.619971367521771288e-01,-2.363544955361075173e-01
1.778709498616431461e-01,6.441032853738881681e-02,-1.173375224470412856e-02,-3.317811666015306193e-01,-2.799055676136744802e-02,-6.195146308827783471e-02,-2.987668367001087844e-01,-2.039015746889809855e-01,-4.634211452124778474e-02,-2.853784284962736575e-02
8.187603297848047856e-02,-4.339350626444655190e-01,4.787711142020494859e-01,1.362441795079523399e-01,3.410465221328765617e-01,-4.364404828006329673e-01,7.402032967550560560e-02,1.558377250060080654e-01,-2.355873967181874029e-01,3.733022962811511358e-01
-4.042162713232521631e-01,7.668538277815042936e-02,1.427345571008637459e-01,1.713526895579153275e-01,7.581872109568321694e-02,-2.998756534043731103e-01,3.396224402653396091e-01,-1.369856762675142337e-01,1.471452042685688910e-01,-3.976679797034293924e-03
-2.575168025607027511e-01,-8.246993187574934436e-02,1.755054671862294191e-01,2.382531238332825652e-01,-4.547592906907549359e-01,4.006838460225644466e-02,4.817381794397567196e-01,6.564873141551358371e-02,3.449836889905155690e-01,-5.681695725248476353e-03
-6.024158675059158863e-02,-4.354911114357780111e-01,-1.260886986528410303e-01,-1.302882272942547937e-01,-6.477863688712603984e-02,-2.742924843494078946e-01,3.191241939577304509e-01,-7.453747879422488454e-02,-9.184236050390628958e-02,-1.198135890965964651e-01
-1.632650640169165668e-01,4.171334253952824894e-02,4.870831280670664953e-01,-7.678327451995214936e-02,1.384210164686336952e-01,9.376986612587860648e-02,-2.964790685148239666e-02,5.340276270217519938e-01,4.651292460423395725e-01,1.466720387084886890e-01
-2.153072027088419049e-01,-1.866882736273168530e-01,4.189777486118582139e-01,-3.871704092212048809e-01,6.468889042163422642e-02,-2.112831880760900616e-01,1.694859351945110504e-01,1.558017534718625918e-01,1.199772658544162179e-01,1.464282465121303223e-01
-5.018874006080642491e-01,-3.853751133148960450e-01,-2.182564801360070694e-01,1.105628118523268588e-01,6.479556662020584216e-03,-2.831667072938823804e-01,5.479260735657445237e-03,9.671858458613961929e-02,3.407060184565993688e-01,-1.712177134454093697e-01
-9.247887169876409241e-02,3.708903346860143446e-01,5.237907948305426525e-02,8.588151236526476995e-02,-2.217401650348135023e-01,-6.488291445203740737e-02,2.622296678297180161e-01,4.382071957449113625e-02,-7.734933147470479664e-02,-3.368348009841988788e-01
5.465813033996668596e-02,4.999574419772915279e-01,-3.582660053676455791e-01,-4.488552591981437301e-02,1.396317806153296592e-01,1.255441564779278055e-02,-2.417577662849066389e-01,3.325317898144913298e-01,2.964431540899770678e-01,-2.102185902843573817e-01
-5.031130925708166002e-02,1.572132931518265830e-01,-5.201602233058857383e-01,-1.702048401324310345e-01,4.728188364979130087e-01,1.615862128283180876e-01,-2.067059764830903590e-01,-4.783093021950282631e-01,2.163021407526895812e-01,-2.097841042618925345e-01
4.632570918927892412e-01,2.242616706591299691e-01,1.389901793108686279e-01,2.280324888645083037e-01,3.771051879438663129e-02,7.698633461700776781e-02,1.973709952855062788e-01,-3.501336552448932604e-01,-5.405410951231499617e-01,-1.360341926382641897e-01
-2.142565643439232545e-02,-4.883047700187064799e-01,2.953368633644796182e-01,-2.719920493499490277e-01,-1.731248612144480059e-01,4.807849166327705648e-01,4.059558580109465797e-01,-5.263568645686251823e-01,-2.943858504576465918e-01,-1.891350579308990199e-01
2.654405541617622100e-01,-3.579912482010232794e-02,8.182858834534879888e-02,3.844647431932804449e-01,2.957698099234993272e-01,-1.686515101122734173e-01,-1.999895169866854616e-01,6.353997664901650522e-02,4.927637155505030370e-02,5.278250572259258755e-01
2.580601619856753293e-01,3.525901792738578844e-01,5.055251044372827129e-01,1.006623415333897376e-01,1.154390700251428370e-01,-3.815616692051810310e-01,-4.680335601554977965e-01,2.680653176701836560e-01,-5.237481396886521923e-01,5.077813669545061526e-01
3.688462953133551658e-01,3.478020625617508910e-01,-2.136944800675344147e-01,-5.030379189459561334e-02,-1.130922370901524671e-01,1.854404197976301238e-01,-2.126998441233314552e-01,1.023940698338439148e-01,-3.296969911302907175e-01,4.912456226344265597e-01
1.513695206058039144e-01,-2.704475162812641775e-01,3.743903706964085698e-01,1.262483582792449377e-01,-5.354825028050351765e-01,2.305799272845978840e-02,-4.538225071935813038e-01,5.532982594126750753e-02,4.110762252553811641e-02,4.208379269057591632e-01
-2.996034353554779539e-01,-5.830674829457797859e-02,-1.353115547798789953e-01,-2.967075848632267365e-01,4.265447409019418323e-01,-3.389933598953566163e-01,-1.057438707583303744e-01,4.383246231288421835e-01,-3.780228547585083865e-01,-2.000888728890325707e-01
3.186011995443028266e-01,-2.107634165254895220e-01,-6.780333359326828901e-02,4.863360063436354408e-01,2.115725047247063173e-01,-4.825763007635970880e-01,-3.205775065627315956e-01,1.527393934364245330e-02,4.860858911841012264e-01,1.314497002357711553e-01
2.818261358424840601e-01,2.264469263315605219e-01,-3.007672514942570929e-01,1.265957179472131100e-01,-1.301139879706461611e-01,-3.920372308299563402e-01,1.555600825011864974e-01,4.426557439305980890e-01,5.376930644563610029e-01,-3.462530541973069531e-01
2.786186104464193070e-02,-4.659152849455907575e-01,2.974620513021812851e-01,-5.090970698526581240e-01,1.862636529341525904e-01,4.514639607943221611e-01,-2.774409752301190135e-01,4.814843576488680443e-01,4.339871560651389348e-01,-2.274356892955240184e-01
-4.507321831086827379e-01,3.641995445909752549e-01,-3.831148296269995535e-01,-2.472161421841277962e-01,2.531880432703821904e-01,2.254373228709428134e-01,2.608641449444971672e-01,4.026626569966591102e-02,-4.153967997574456450e-01,3.411444168735710547e-01
-4.131622604754859873e-01,-1.520322191479669960e-01,6.913776726580132814e-02,1.352004949306952371e-02,-1.959610758202803560e-01,-3.223317585305759958e-01,1.783534981002830033e-01,-4.477341331256474155e-01,6.777163574597157292e-02,1.903781077514297149e-01
-2.302867502013286605e-02,-1.009387782217014418e-01,4.622119158887875723e-01,3.103159611793912531e-01,2.187484004811015847e-01,4.668772399853467481e-01,2.041130835849739034e-01,3.540405169912660965e-02,4.259281462147107566e-01,-2.019809823877504185e-01
-5.623745763627434335e-02,3.607929384687117436e-01,3.180057033033835689e-01,3.442535879622810047e-01,-8.655744539359856715e-02,-4.655074417489403760e-01,-2.289667566181743247e-02,-3.407641264114912860e-01,7.236028598804644663e-02,1.956549722531732149e-01
-3.251940183475445223e-01,2.723252031731899225e-01,-3.847792135094373345e-01,2.973530771596324396e-01,4.608158814407448123e-01,-3.189513187370762726e-01,-9.763601167140896486e-02,-1.350471883264716400e-01,-4.253897118773185548e-01,-1.716216895314637281e-01
3.878280955264823970e-01,-2.001478522357656720e-01,2.219720263149304318e-01,1.990889792555143312e-01,7.124941719154653796e-02,-8.806758430706319862e-02,-4.524966396409394465e-01,-4.012150162037611545e-01,-4.621941905196033096e-01,1.420768530502453109e-01
-1.957196905013014743e-01,1.034427437500369529e-01,-4.001394586861434233e-01,-8.490270184117215679e-02,-4.430771533723916744e-01,3.959214359421587281e-01,-2.474084879383500746e-01,-5.064225433495085360e-01,1.508824474747924860e-01,-1.294087226044440819e-01
1.445800760223213133e-01,-2.690888994607747442e-01,-4.528258257341766790e-01,3.354631437658588036e-03,1.968913405092002356e-01,-3.154201036024799620e-01,-3.961079031161889308e-01,2.031705362220875555e-01,3.827647092040620813e-01,-3.883832863978532446e-01
6.628849658763033559e-02,4.288256935970152228e-01,4.688546440663554082e-01,-2.126962402505548910e-01,-4.337515213159606198e-01,-4.506005274932605720e-01,-1.568690138433279924e-01,4.624600817524204821e-01,-2.841963984252914854e-01,-2.849066509320516416e-01
-1.204386093718618211e-01,2.633300091134044840e-01,4.591514488469566890e-01,-1.329116879158125375e-01,-4.023049247687802144e-01,1.029111473996703191e-01,6.374806762317956899e-02,-5.001587439813331981e-02,2.516338903096262403e-01,4.157939557365885053e-01
7.538255035010459071e-02,-2.948761265288431521e-01,-1.082635427261738059e-01,9.857633002577124992e-02,-3.082265790109519066e-01,1.007589718632687370e-01,-2.174163062565742308e-02,-7.244548892201975454e-02,2.481534141514093184e-01,-8.273235778665519180e-02
2.270259248329150326e-01,-7.070259790316676951e-02,-2.825273301024888717e-01,4.542025481106315987e-01,-6.601491268994701123e-02,2.537149246299059691e-01,1.738204018418584851e-01,3.453765915348496196e-01,-1.451873590797964249e-02,-5.452966702004530264e-01
-4.983526667347099037e-02,-2.881657604159637565e-01,2.778800345685718542e-01,1.188866269134818965e-01,-3.571167939716416440e-01,-5.647881938290042481e-01,6.098257549755188300e-01,-2.040694102253818587e-01,1.329426875043297485e-01,1.283462856473955027e-01
-5.047999788441004387e-01,5.419381254052475505e-01,3.913946993556320919e-01,-5.895151498121500300e-01,-2.908837292841864319e-01,2.642985829235301454e-01,1.569504694799600253e-01,3.217286677600413869e-01,1.305586482908794310e-01,-7.379909745889808720e-03
3.125348415060194129e-03,6.546179556844305969e-02,3.476284258553712786e-02,1.654922483446265025e-01,-2.519164948609804999e-01,-6.251500366428365540e-02,6.308463021762149570e-01,8.175572076364838736e-01,1.795643908817765866e-01,4.567321169421055815e-01
2.643730425845816287e-02,1.340270510807647746e-02,-3.774324733681036406e-03,6.930522653142395795e-02,-2.987244594827950794e-01,-1.224844008506093263e-01,-9.344170939095458595e-02,2.428208164321333518e-01,-2.596089970753087117e-01,1.917808653719167700e-02
3.286311232139147442e-01,8.227320173571899410e-05,-3.560935630999197410e-01,-6.325744206343836273e-01,3.212532636720825119e-01,1.454641945708727846e-01,-2.252737529163673647e-01,4.058629948941502863e-01,-3.394812401856918682e-01,-7.172120621237555449e-01
-1.718868843549881398e-01,5.923138104932784698e-01,-5.063692982407291127e-02,1.724542459449538434e-01,7.939847639027450832e-01,-1.558034910371791926e-01,1.061422209569283862e-02,-3.710637609859222807e-02,-2.914545699033826431e-01,-5.845569625128047564e-01
1.581708191823909260e-01,2.509566133937507493e-01,-1.372757668987831248e-01,2.891382957121424457e-01,2.170586772200433223e-01,-5.015308521300617661e-01,-2.163388187143897023e-01,-3.068757774183873410e-01,-4.584431507100484443e-02,-7.826178925874863745e-01
2.557402491266879130e-01,-2.924465059192055683e-01,4.448130519820877593e-01,8.436356028542249183e-03,-3.202789580337108144e-01,3.470265375830898225e-01,1.333763855351765594e-02,3.686176494385752234e-01,-5.184217594681423957e-01,3.663536975721820577e-02
-2.331637482238121395e-01,-5.888243981855374454e-01,8.705024659618416927e-02,2.527181559882576978e-01,2.471077561680758705e-01,3.326467855112972827e-01,1.843243257986907357e-01,-2.247727971105284717e-01,-1.528383420729005626e-01,4.554409464832433890e-02
-2.725647606452013746e-02,-4.133822605777447978e-01,3.087139096171894748e-01,1.456369127090291760e-01,-3.241814876697183267e-01,3.053276416207004740e-01,4.031547709986922357e-01,-4.514947205426900756e-01,-4.087279478458143989e-01,7.925279849462883719e-02
2.082175387363006946e-01,2.408842182865819082e-01,2.702586651878515767e-01,6.649811930396961612e-01,-3.934259220924369860e-01,-1.411790962389023428e-02,-1.778906598959112406e-01,-4.464283352944070637e-01,2.062558311390600141e-01,-2.412878456037708674e-01
6.235604423482697667e-02,-4.458875669094374272e-01,3.319393118936205256e-01,4.393838181690912226e-01,-5.068494783279807736e-01,8.041902475413739704e-02,-5.393304204169651062e-01,-4.726593628232116373e-01,2.686440070030641364e-02,-1.529925797690832590e-01
-2.341011719377246725e-01,-3.126484823169164984e-01,2.246831894437653354e-01,4.462824516614927184e-01,-3.072789926646161129e-01,1.543585554070682486e-01,-1.211195510819877141e-01,4.922444359513139522e-01,3.687669843351083776e-02,4.645317721453316451e-01
6.035305819548775555e-03,2.377004495244540716e-01,-3.909525106378353154e-02,1.368638563157988375e-01,8.296236975928744650e-02,-5.061233291767558429e-01,-5.669305533429934707e-01,2.459316066479475538e-01,4.330469978772455431e-01,6.381504123895112013e-01
7.784495878477153130e-02,1.109971312434451657e-01,-1.539940896539419013e-01,3.060009275381765370e-01,-1.723596157642835192e-01,4.919813302060341842e-01,8.001110473767392151e-02,1.061000759672471178e-01,-1.915939707327379560e-01,5.949133740201421050e-01
-4.662685650909603741e-01,4.237847099451031441e-01,4.493295062627571945e-01,3.821663691075168900e-01,-2.173780593145859252e-01,5.769353965123746875e-02,2.700194560443255898e-01,4.111366380399018028e-01,-1.477787419898406174e-01,1.830965396389308830e-01
-2.748327163367924597e-01,-1.363453813861269237e-01,-3.147041924241679167e-01,3.148152307210053680e-01,-1.264476917924454158e-01,-3.042158272445864495e-02,-2.860358170663538369e-01,8.676148445358546069e-02,3.594281153063298428e-01,3.975279815720270671e-01
4.447430960178573311e-01,1.407469427238156046e-01,-1.982769959407814919e-01,-3.671182809540651792e-01,-7.628299325386686536e-02,-2.296196346618542550e-01,4.579115414796264272e-02,2.725779317832401766e-02,-4.426295729349813968e-01,1.612069923453161857e-01
-4.267874664056663936e-01,-2.709199008619742402e-02,-1.896159825125324494e-01,2.773227776563487457e-02,-1.870697344514063998e-01,-4.075110981813633293e-01,4.469248328255903679e-01,-3.846706929490709831e-02,9.089186186567850545e-02,-3.815345573303988158e-02
-3.556990438824629286e-01,4.931808974069896989e-02,4.246235935436669107e-01,-4.708063412611507847e-01,-4.853912729793583014e-01,-4.333519824673739106e-03,1.306273020103347338e-01,3.455425982877957103e-01,-9.200543947088135610e-02,4.016942397552215049e-01
-2.939228288566035352e-01,1.296449577912006101e-01,1.701039857237301219e-03,-5.512419742707733161e-02,-1.408776934274824921e-01,-1.376557162290197034e-01,-2.847650492537118772e-01,-4.365886530965690238e-01,3.120568094805072912e-01,-1.803215211256937456e-01
-3.663280666252681228e-01,-1.411850710279205223e-01,-3.928815209520584717e-01,-2.651604129235593521e-01,-7.384469222910412800e-02,-2.612139292895975656e-02,3.025276270369218756e-01,2.547357387898221415e-01,3.578790283794106575e-01,3.426944089355456469e-01
-6.251538199818862385e-02,-3.691055501072020295e-01,1.150076719334201247e-01,3.092449228545085527e-01,2.122309290491657119e-01,6.329020386549201460e-02,1.183520240997557905e-02,-3.040727622608825342e-01,-1.626709452786355703e-01,-1.262255612150523475e-02
1.068781935591082144e-01,-2.175183402539397626e-01,-2.091552275366270475e-01,2.173473564953171122e-02,-2.415789465000896530e-01,-4.652732896570567211e-01,1.268907260444343543e-01,4.180754439475028311e-02,7.713597509486401493e-02,-4.703585130045814799e-01
-1.183801612751431420e-01,1.337845136526074619e-01,-3.825499583616107091e-01,3.456276675715336255e-01,-3.655494105701518892e-01,-2.508494332165222412e-02,1.250886356532107113e-01,-1.698029762897342032e-01,-1.785836511366752088e-01,3.366597771371154235e-01
-1.743627266510824544e-02,1.169665740056526071e-01,4.646144382756395297e-01,-4.373815006943621575e-01,1.060515445262858319e-01,-6.133539092259154835e-02,-2.345250088968565683e-01,3.527389072468510856e-01,6.239695005976978459e-01,2.203255996265232886e-01
1.589827322402949661e-01,-4.651892069785108774e-02,8.816774093302126580e-02,1.180766081746284640e-01,-4.880701218702399591e-01,8.496818150818437332e-03,-1.672962291872674978e-01,3.172231929305256437e-01,2.404551144110854757e-02,3.729323019516196380e-01
2.633754018300072525e-02,-8.023204739258925355e-02,6.668260232585048082e-03,-2.890330596714749123e-01,-5.112574406608487720e-01,5.163203125658269443e-02,5.601243072667075884e-01,5.310304450004728061e-01,-1.161117559302523999e-01,-3.013283067419938455e-01
-1.230010609987002984e-01,2.277423672522850828e-01,-1.846854956471950526e-01,6.155921705880249700e-02,1.455254278349632224e-01,-1.542299367326540049e-01,-2.828990214068161091e-01,6.620162772258378903e-01,1.116908124438036748e-01,-1.664866402716020655e-01
-2.000109046165665649e-01,-3.529903399374421658e-01,-2.549798238554495944e-01,-6.412973108011079670e-01,6.924333548632712575e-03,-2.729045782719606850e-01,2.409980279166179518e-01,1.120075166483190665e-01,1.746033862577959783e-01,-7.775287794183828594e-02
-1.859760541866352923e-01,5.249046554826591882e-01,-1.608237519781041125e-01,6.367922102077266944e-02,-3.076107044468327500e-01,9.011280480328653919e-02,4.545443497007820577e-01,9.544824110131250317e-01,-3.795910811601323487e-01,2.135751003484705757e-01
-4.262831109451949430e-01,5.127894834177211258e-01,-1.311461559386121467e-01,-6.082827640013743764e-01,-4.783902343693637871e-01,1.543150270203904884e-01,4.910743874602260250e-01,8.067475879290296470e-02,-1.436211002105903245e-01,-4.775676936910035475e-01
4.622800397833587982e-01,-2.693944893998365675e-01,-4.731554090735603513e-01,-1.903429966853414090e-01,4.537296825552795676e-01,-5.504693054906588667e-01,-1.021064662058570466e-02,6.287237476788784529e-02,3.191676726724245738e-01,-1.618780294802188158e-01
-3.266260267753479662e-01,5.990903860386183055e-01,3.233483762412212581e-01,1.583862285306819884e-01,1.666758205589060626e-01,-1.022157953379197320e-01,-3.139601218114330683e-01,4.636014499124727628e-01,1.124954445440153571e-02,-4.162338485593282122e-01
-3.158510063495187925e-01,-3.231175005321794136e-01,9.226417135785844326e-02,-1.167481162494019981e-01,5.610373322328904289e-01,-2.060467850332129147e-01,-2.002864521053983327e-01,2.920278555196402781e-01,1.338437753365924986e-02,-4.859565488690039126e-01
-2.538515418653178313e-01,-8.691078290101787729e-02,3.559368164609346685e-01,3.503667893081297002e-01,3.132847841408233358e-01,-1.496353342209068016e-01,-1.632608584649162531e-01,-2.287008411619746717e-01,9.492251551830786782e-02,-2.379486754052572706e-01
1.201257578689446937e-01,-2.133913854939526455e-01,5.628203006549811205e-01,5.466203330345394962e-01,-1.053299168727374197e-01,-4.410754509997853734e-02,4.097698598424690530e-01,4.072596584342634274e-01,1.828226322534520776e-01,-3.317124409442698818e-01
-1.405717794080183769e-01,-3.297525162700214452e-01,2.879723218690248207e-02,1.332402959043658686e-01,-1.541241975045455626e-01,-3.658966829022957667e-01,4.857437526383982518e-01,-1.643167662697788967e-01,7.018417479109892443e-02,2.853859986138551075e-01
1.746263460519994482e-01,-3.355711253873693289e-01,2.906170689202806079e-01,-8.468019048997822706e-02,-5.135182605415764545e-01,3.573553771826107513e-03,4.173804828667400102e-01,-2.154586972401928147e-01,2.923030150325902077e-01,2.543089314300222767e-02
2.422457631132844402e-01,3.576500860089151246e-01,-4.451537948305146764e-02,4.258351398641173624e-01,-3.528805307803981051e-01,-2.528201963811259612e-01,3.601799928750686053e-02,1.305123924318057071e-01,2.450984281696714229e-01,-2.514010844661491162e-01
-4.219839003652212650e-01,-4.290906690922660083e-01,1.090428462997088538e-01,-2.826939312472365184e-01,-2.289323376302475066e-01,-4.244040614505537046e-01,2.634667994722021955e-01,-1.132342098253537876e-01,4.201424047911609394e-01,4.936961628099945099e-01
-2.785092649951081967e-01,2.431456693854118778e-01,3.577596648771849686e-01,-2.913972809928022101e-01,-6.357153560597843256e-02,-3.872120242442780302e-01,-5.073042545022542482e-01,6.064921617644936092e-01,3.705630433069818097e-01,2.912892953609104163e-01
-1.819664651171589570e-02,-1.889790851677458361e-01,-4.290087142429971911e-01,2.194371609060662975e-01,-3.957535626739159262e-01,1.913371700024215083e-01,-2.004671509722052714e-01,4.453683173402109841e-01,-2.907893338942367789e-01,6.096985130993980151e-02
-1.515676648075162392e-01,-9.751524235364579518e-02,-3.300540639761598838e-01,4.285393889467176143e-01,3.890826805973707780e-01,-4.682712552231129699e-01,-4.665699327305637967e-01,-2.349218987552176285e-01,5.128693441638797479e-01,-3.499017689580061208e-01
-2.400230154233225222e-02,4.204145153278285307e-01,-4.293715931635459088e-02,1.081515925819458573e-01,-3.341655916573713081e-02,-4.527657477581804590e-01,-2.804686659495360668e-01,3.417652977402281245e-01,3.774538447996044765e-01,-4.536625601081011316e-01
1.940763680167951200e-01,-9.124299752587623075e-03,3.847980689379046360e-01,-1.887122920153608552e-01,-1.822842384030136931e-01,-3.171934809504568520e-01,-3.494989850679705579e-01,-2.025781829484792351e-01,1.800247062299950573e-01,-4.752560332380685870e-01
2.123606796363015081e-01,-2.513379731588119906e-02,3.485869950397031403e-01,3.491874956708401201e-01,-1.761389782709175678e-01,4.336514425648607673e-01,1.614084531477929033e-02,-3.497368095626661177e-01,7.758911602926991599e-03,-4.616213310127736391e-01
